
\data\
ngram 1=69
ngram 2=1263
ngram 3=8960

\1-grams:
-3.817465	"	-2.844841
-6.494159	'	-0.6552447
-3.647822	(	-3.673362
-3.636826	)	-2.804515
-5.414978	-	-1.494586
-2.597743	.	-4.65149
-6.494159	/	-0.6627577
-2.582043	:	-3.725468
-2.61696	</s>
-99	<s>	-3.954798
-1.027617	<u>	-5.132065
-2.550813	<ً>	-4.203794
-2.482927	<ٌ>	-4.078852
-2.3833	<ٍ>	-4.046966
-0.8125079	<َ>	-4.969425
-1.382285	<ُ>	-4.898838
-1.217614	<ِ>	-4.782064
-3.331893	<ّ>	-3.147442
-1.741757	<َّ>	-4.53231
-2.512748	<ُّ>	-3.924691
-2.399338	<ِّ>	-4.486679
-1.232449	<ْ>	-4.923132
-6.017037	[	-0.9317974
-6.494159	\	-0.6617074
-6.017037	]	-1.181994
-6.494159	`	-0.6577578
-1.009926	s	-5.006658
-3.017762	{	-3.265006
-3.018342	}	-3.628565
-2.408904	،	-3.941056
-3.824842	؛	-3.100908
-3.493725	؟	-3.814474
-2.722277	ء	-3.936313
-3.233372	آ	-3.21823
-1.902426	أ	-4.701875
-3.396901	ؤ	-3.688194
-2.31975	إ	-4.230812
-2.95433	ئ	-3.666235
-1.232891	ا	-4.907334
-1.728148	ب	-4.505919
-2.216275	ة	-4.592031
-1.941308	ت	-4.503227
-2.529051	ث	-4.465881
-2.276543	ج	-4.018293
-2.049942	ح	-4.550732
-2.443238	خ	-3.856643
-1.946852	د	-4.282751
-2.295199	ذ	-4.304368
-1.732502	ر	-4.559524
-2.670815	ز	-3.62797
-2.020978	س	-4.969159
-2.510532	ش	-4.089978
-2.355603	ص	-4.24433
-2.536743	ض	-3.704483
-2.581405	ط	-3.659836
-2.989009	ظ	-4.009386
-1.765716	ع	-4.529467
-2.686421	غ	-3.614029
-5.795189	ـ	-1.096625
-1.871541	ف	-4.724192
-1.921368	ق	-4.827972
-2.018894	ك	-4.575446
-1.250843	ل	-5.107324
-1.573092	م	-4.694834
-1.582421	ن	-4.778872
-1.676501	ه	-4.615407
-1.565958	و	-4.724873
-2.339339	ى	-4.865952
-1.521886	ي	-4.840151

\2-grams:
-2.034377	" "
-1.003531	" .	0.2499928
-1.739484	" ،	-0.4429826
-2.392697	" ؛
-2.392697	" ؟
-1.070478	" أ	-0.5656441
-1.231329	" إ	-1.06394
-1.278754	" ا	-0.3952225
-1.579784	" ب	-0.02280247
-1.517636	" ت	-0.7905281
-2.034377	" ث	-0.09633312
-2.034377	" ج	-0.02658165
-1.790637	" ح	-0.7819974
-2.499152	" خ
-2.091667	" د	-0.4423797
-2.499152	" ذ
-1.790637	" ر	-0.09779599
-2.499152	" ز
-2.091667	" س	-0.2548922
-2.499152	" ش
-2.034377	" ص	-0.0456121
-2.499152	" ض
-2.499152	" ط
-2.034377	" ظ	-0.03356716
-1.605206	" ع	0.1356699
-2.499152	" غ
-1.060259	" ف	-0.3040168
-1.547599	" ق	-0.5510918
-1.652334	" ك	-0.7243959
-1.295787	" ل	-1.279209
-1.175213	" م	-0.7633576
-2.034377	" ن	-0.4825453
-1.994757	" ه	-0.5188988
-0.7542077	" و	-1.478724
-1.547599	" ي	-0.9019336
-0.1064553	' ع
-2.66155	( آ
-1.350974	( أ	-0.4765316
-1.814732	( إ	-0.6659997
-1.023615	( ا	-0.5676045
-1.165928	( ب	-1.549385
-2.254065	( ت	-0.2382195
-2.66155	( ث
-2.66155	( ج
-1.767603	( ح	-0.02400538
-2.555094	( د	-0.4968593
-2.157154	( ر	-0.5367215
-2.254065	( ز	-0.4241063
-2.555094	( س	-0.5087698
-2.196775	( ص	-0.2348207
-2.555094	( ط	-0.3397744
-2.157154	( ع	-0.3803132
-2.66155	( غ
-0.3259248	( ف	-1.838207
-1.776943	( ق	-0.4198651
-1.625676	( ك	-0.4744901
-1.475913	( ل	-0.9208854
-1.458184	( م	-1.015723
-2.555094	( ن	-0.4435796
-2.196775	( ه	-0.5048707
-0.9810632	( و	-1.409303
-1.767603	( ي	-0.562106
-2.564074	) (	-0.5151809
-0.3235247	) .	-0.6499028
-1.373742	) :	-0.4160076
-2.205754	) {	-0.2187476
-2.670529	) آ
-1.402706	) أ	-0.4485029
-1.776583	) إ	0.00688529
-1.609831	) ا	-0.007509112
-1.660984	) ب	-0.7930547
-1.609831	) ت	-0.8651615
-1.503376	) ث	-1.041713
-2.564074	) ج	-0.3020268
-1.484893	) ح	-1.09046
-2.670529	) خ
-2.670529	) د
-2.205754	) ذ	-0.1398405
-2.166134	) ر	-0.166288
-2.564074	) س
-2.564074	) ش	-0.3431504
-2.564074	) ص
-2.670529	) ط
-2.670529	) ظ
-1.823711	) ع	-0.6184567
-2.670529	) غ
-1.751161	) ف	-0.4779513
-1.28532	) ق	-0.8424271
-2.086953	) ك	-0.1781258
-1.751161	) ل	-0.4365927
-1.962014	) م	-0.4870876
-2.263044	) ن	-0.4054559
-2.670529	) ه
-1.072712	) و	-1.333582
-1.503376	) ي	-1.213106
-0.5959228	- :
-1.060698	- أ
-1.060698	- إ
-1.060698	- ا
-1.060698	- ر
-0.9542425	- ص	-0.3210573
-1.060698	- ك
-1.060698	- و
-1.060698	- ي
-2.942504	. "	-0.1355015
-1.796376	. (	0.1412603
-2.817565	. .	0.2412241
-3.702172	. /
-0.01960573	. </s>
-2.273497	. {	-0.4558518
-1.735379	. }	-0.0289135
-2.808225	. ،	0.1049637
-0.1064553	/ \
-2.141423	: "	-0.1807367
-2.532064	: (	-0.5004405
-3.134124	: )	-0.2588693
-3.252926	: :
-1.089454	: {	-0.7088146
-3.7177	: ؛
-2.912275	: آ	2.219632
-1.110186	: أ	-1.483103
-1.055546	: إ	-2.444151
-1.041286	: ا	-1.589759
-1.840393	: ب	-1.422956
-1.82237	: ت	-1.48299
-2.148847	: ث	-1.400291
-2.344074	: ج	-1.105777
-1.82237	: ح	-0.9971782
-2.355973	: خ	-1.12423
-2.310215	: د	-1.025059
-2.465117	: ذ	-0.4929318
-1.82237	: ر	-1.501424
-2.611245	: ز	-0.9085976
-1.558167	: س	-1.930685
-2.435154	: ش	-1.012059
-2.009185	: ص	-1.415607
-2.958033	: ض	-0.7585564
-2.708155	: ط	-0.7290025
-2.912275	: ظ	-0.7873106
-1.76926	: ع	-1.380369
-2.355973	: غ	-1.123178
-1.287993	: ف	-1.671257
-1.340566	: ق	-1.617359
-1.454393	: ك	-1.726353
-1.00756	: ل	-2.630685
-1.213305	: م	-2.02177
-1.833094	: ن	-1.819893
-1.507442	: ه	-1.117273
-0.9787879	: و	-2.711411
-1.272789	: ي	-2.473374
-3.683142	<s> آ
-1.974627	<s> أ	-0.8454849
-2.359203	<s> إ	-1.105332
-1.787812	<s> ا	-0.8186605
-2.974627	<s> ب	-0.08757624
-2.798536	<s> ت	-0.9276537
-2.014394	<s> ث	-1.396135
-2.789196	<s> ج	-0.5840304
-2.598963	<s> ح	-0.917873
-3.275657	<s> خ	-0.2163049
-3.576687	<s> د	-0.4034141
-2.346238	<s> ذ	-0.7682295
-1.98009	<s> ر	-1.320806
-3.178747	<s> ز	-0.6408339
-2.555497	<s> س	-1.133835
-3.275657	<s> ش	-0.382116
-3.275657	<s> ص	-0.3600229
-3.683142	<s> ض
-3.218367	<s> ط	-0.2098989
-3.683142	<s> ظ
-2.234264	<s> ع	-1.230277
-0.9596865	<s> ف	-2.16222
-0.9586387	<s> ق	-1.96409
-2.153441	<s> ك	-1.165907
-2.346238	<s> ل	-1.412748
-2.333649	<s> م	-0.4271996
-2.798536	<s> ن	-0.9944286
-2.446353	<s> ه	-1.005022
-0.1699764	<s> و	-3.053328
-2.114289	<s> ي	-1.603746
-0.5947074	<u> s	0.1358371
-1.765926	<u> ء	0.1115894
-4.864483	<u> آ	2.736054
-4.466543	<u> أ	-0.9997887
-3.336209	<u> ؤ	-2.03637
-2.133903	<u> ئ	-1.612443
-2.127091	<u> ا	-1.405123
-1.52014	<u> ب	0.1206667
-2.630219	<u> ة	-0.2396114
-1.77352	<u> ت	-0.4812582
-1.989566	<u> ث	0.06229734
-2.202434	<u> ج	-0.7894261
-2.004594	<u> ح	-1.59464
-2.352266	<u> خ	-1.116889
-1.615162	<u> د	-0.6543067
-2.004894	<u> ذ	-0.4645629
-1.450429	<u> ر	-0.1939547
-2.238656	<u> ز	-0.483582
-1.640209	<u> س	0.0826385
-2.023906	<u> ش	-0.4591246
-2.04461	<u> ص	0.09484386
-2.321036	<u> ض	0.3345268
-2.219798	<u> ط	-0.2884188
-2.788936	<u> ظ	0.05957389
-1.933534	<u> ع	-0.8339779
-2.960038	<u> غ	0.532775
-4.767573	<u> ـ	0.1194342
-2.010329	<u> ف	-0.7341874
-2.121562	<u> ق	-0.9075747
-2.349935	<u> ك	-1.26023
-0.470798	<u> ل	-0.7527056
-1.573836	<u> م	0.2987075
-1.158833	<u> ن	-0.7000225
-1.602507	<u> ه	-0.7381883
-2.344655	<u> و	-0.6521665
-5.165513	<u> ى	0.7327691
-2.257833	<u> ي	-2.425005
-2.581668	<ً> "	-0.1282605
-3.165244	<ً> (	-0.5063412
-2.943396	<ً> )	-0.1182968
-3.748821	<ً> -
-1.377548	<ً> .	0.4632169
-1.836186	<ً> :	-0.1951215
-0.2115652	<ً> <u>	-3.604493
-0.820852	<ً> s	-0.706282
-1.327446	<ً> {	-0.1150777
-1.619113	<ً> }	0.001382947
-1.098298	<ً> ،	0.07549119
-2.545455	<ً> ؛	-0.2582461
-2.363612	<ً> ؟	0.3013581
-1.813062	<ً> ى	-0.1046083
-2.865358	<ٌ> "	-0.09975566
-1.428287	<ٌ> (	-0.01557434
-2.431702	<ٌ> )	0.2776472
-1.322177	<ٌ> .	0.3571731
-1.8383	<ٌ> :	-0.08208722
-0.09751315	<ٌ> s	1.53239
-2.564328	<ٌ> {	-0.3144903
-1.821154	<ٌ> }	0.1448752
-1.148758	<ٌ> ،	0.1196597
-2.580122	<ٌ> ؛	0.1017588
-2.409426	<ٌ> ؟	0.02133656
-2.922965	<ٌ> و	-0.6285734
-2.76847	<ٍ> "	-0.0547708
-3.207803	<ٍ> (	-0.1440571
-2.712953	<ٍ> )	-0.2260005
-1.517606	<ٍ> .	-0.5830302
-1.492844	<ٍ> :	-0.09647942
-0.08276889	<ٍ> s	0.979413
-1.727077	<ٍ> {	-0.2992778
-1.807697	<ٍ> }	-0.1516511
-1.211619	<ٍ> ،	-0.1887517
-2.832139	<ٍ> ؛	-0.4623661
-2.438795	<ٍ> ؟	-0.03492928
-2.235831	<ٍ> و	-1.188532
-3.85558	<َ> "	0.01166868
-4.477535	<َ> (	-0.1580755
-4.163141	<َ> )	-0.2967468
-5.48708	<َ> -
-2.784578	<َ> .	0.07825398
-2.183068	<َ> :	0.03915381
-5.48708	<َ> ]
-5.48708	<َ> `
-0.9658182	<َ> s	0.2918434
-2.787893	<َ> {	0.05989873
-3.047177	<َ> }	-0.1566166
-2.50239	<َ> ،	-0.1396035
-3.842805	<َ> ؛	-0.0427376
-3.456345	<َ> ؟	-0.4336165
-4.319927	<َ> ء	-1.286217
-3.517302	<َ> آ	1.093708
-1.851258	<َ> أ	0.6498227
-3.617197	<َ> ؤ	-2.228488
-2.107276	<َ> إ	-2.788795
-3.480258	<َ> ئ	-1.632649
-0.6509698	<َ> ا	-2.145928
-1.518225	<َ> ب	-0.2724316
-1.490735	<َ> ة	0.0702498
-1.761949	<َ> ت	-1.693179
-2.543036	<َ> ث	-0.9896132
-1.903359	<َ> ج	-0.8100491
-1.768159	<َ> ح	-0.8214054
-2.242322	<َ> خ	-0.2916164
-1.564052	<َ> د	-0.9882481
-1.903286	<َ> ذ	-1.856101
-1.419678	<َ> ر	-0.1672997
-2.386968	<َ> ز	-1.510099
-1.700289	<َ> س	-1.189397
-2.3428	<َ> ش	-0.4049745
-2.06602	<َ> ص	-1.229246
-2.201935	<َ> ض	0.5167251
-2.282673	<َ> ط	1.098234
-2.645026	<َ> ظ	-0.84194
-1.504696	<َ> ع	-0.351676
-2.339429	<َ> غ	-0.8015282
-1.907503	<َ> ف	0.4630635
-1.505013	<َ> ق	-0.3819265
-1.721231	<َ> ك	0.05837607
-1.137524	<َ> ل	-0.8061676
-1.472649	<َ> م	-0.2277143
-1.263105	<َ> ن	-1.299189
-1.520077	<َ> ه	-0.3392162
-1.598618	<َ> و	-0.9744184
-1.632902	<َ> ى	0.4987278
-1.338207	<َ> ي	-3.946366
-3.208791	<ُ> "	-0.1972369
-3.810851	<ُ> (	-0.1099877
-3.116245	<ُ> )	0.2702286
-4.917306	<ُ> -
-1.974843	<ُ> .	-0.1591299
-1.962046	<ُ> :	0.3845747
-4.917306	<ُ> [
-0.385969	<ُ> s	0.2815833
-2.666276	<ُ> {	-0.1251303
-2.479423	<ُ> }	-0.1423031
-1.864398	<ُ> ،	0.1587312
-3.260622	<ُ> ؛	-0.4105344
-2.777427	<ُ> ؟	-0.04446435
-3.810851	<ُ> ء	-1.246708
-2.164937	<ُ> ؤ	0.01755404
-2.80225	<ُ> ئ	-1.810023
-1.758734	<ُ> ب	0.2365899
-2.046674	<ُ> ت	-0.4842263
-2.652488	<ُ> ث	-0.7040757
-2.088628	<ُ> ج	-0.4315536
-1.835419	<ُ> ح	-1.175436
-2.007052	<ُ> خ	-0.6101744
-1.906406	<ُ> د	-0.6427463
-2.397551	<ُ> ذ	-1.01086
-1.523385	<ُ> ر	-0.4501178
-2.511997	<ُ> ز	-0.5275222
-1.660094	<ُ> س	-0.1946712
-2.418154	<ُ> ش	-1.049639
-2.091934	<ُ> ص	-1.313674
-2.39839	<ُ> ض	-0.8071853
-2.257575	<ُ> ط	-0.8165576
-3.236819	<ُ> ظ	-0.596459
-1.849192	<ُ> ع	-0.7647753
-2.519704	<ُ> غ	-0.5766966
-2.101581	<ُ> ف	-0.9248606
-1.838185	<ُ> ق	-0.246902
-1.815215	<ُ> ك	-0.5113187
-1.349577	<ُ> ل	-0.3251698
-1.240016	<ُ> م	-1.598623
-1.655059	<ُ> ن	-1.402595
-1.309997	<ُ> ه	-1.21197
-0.8198683	<ُ> و	-2.753851
-2.80225	<ُ> ي	-2.124668
-3.312761	<ِ> "	0.09186423
-3.613791	<ِ> (	-0.5098619
-2.768693	<ِ> )	-0.2816566
-4.498398	<ِ> -	0.006571367
-1.985847	<ِ> .	-0.4144018
-2.280475	<ِ> :	-0.365983
-5.081975	<ِ> ]
-0.5397782	<ِ> s	0.2702785
-2.909193	<ِ> {	-0.1220978
-2.425291	<ِ> }	-0.4637047
-1.648467	<ِ> ،	-0.1557961
-3.067034	<ِ> ؛	-0.462814
-2.946135	<ِ> ؟	-0.106275
-3.685484	<ِ> آ	1.658965
-1.98696	<ِ> أ	-1.970141
-2.678854	<ِ> إ	-2.387428
-2.562219	<ِ> ئ	0.714052
-1.705889	<ِ> ا	-2.272022
-1.69335	<ِ> ب	0.307765
-2.205773	<ِ> ت	-1.904589
-2.30481	<ِ> ث	-1.042329
-2.440225	<ِ> ج	-0.7022693
-2.092426	<ِ> ح	1.017526
-2.628189	<ِ> خ	-0.7286971
-1.784767	<ِ> د	-0.7484481
-2.022969	<ِ> ذ	-1.773015
-1.654231	<ِ> ر	0.2496634
-2.677759	<ِ> ز	-0.07414794
-1.958695	<ِ> س	-1.810054
-2.370214	<ِ> ش	-0.3186678
-2.541749	<ِ> ص	-0.6146135
-2.545767	<ِ> ض	-0.7861603
-2.620451	<ِ> ط	-1.721876
-2.882097	<ِ> ظ	-0.9074887
-1.796255	<ِ> ع	-0.6875808
-2.676666	<ِ> غ	0.1235983
-2.110712	<ِ> ف	-0.8796735
-2.053313	<ِ> ق	0.7092297
-1.634085	<ِ> ك	-0.9870164
-1.46137	<ِ> ل	0.09902167
-1.444232	<ِ> م	-0.2587674
-1.110741	<ِ> ن	-0.5779784
-1.283289	<ِ> ه	-1.732445
-2.33703	<ِ> و	-1.550014
-0.6091616	<ِ> ي	-3.641358
-2.86243	<ّ> (
-2.50411	<ّ> .	0.7531074
-2.16346	<ّ> :	-0.1924149
-2.385308	<ّ> <ً>	-0.838367
-0.3759991	<ّ> <ٌ>	-0.8986732
-0.3648089	<ّ> <ٍ>	-0.2941661
-0.9759389	<ّ> s	-0.2113506
-2.209217	<ّ> ،	0.3065967
-2.50411	<ّ> ؟
-2.86243	<ّ> ت	-0.5422119
-2.084278	<ّ> ك	-0.7747589
-2.16346	<ّ> ه	-0.08758184
-3.974281	<َّ> "	-0.1562151
-4.451403	<َّ> (
-4.557858	<َّ> )
-3.028157	<َّ> .	0.0544467
-3.372221	<َّ> :	-0.3306676
-0.8620675	<َّ> s	1.117046
-3.49716	<َّ> {	-0.3142899
-3.150373	<َّ> }	0.04836106
-2.723049	<َّ> ،	-0.0333128
-4.053463	<َّ> ؛	0.4809768
-3.752433	<َّ> ؟	0.198762
-4.557858	<َّ> ء
-3.673251	<َّ> آ	2.147082
-2.363266	<َّ> أ	0.4244289
-4.557858	<َّ> ؤ
-4.093083	<َّ> إ	-0.3906979
-3.548313	<َّ> ئ	-0.7023888
-0.8032379	<َّ> ا	-1.1704
-1.461953	<َّ> ب	-1.416005
-1.312311	<َّ> ة	-0.1188118
-1.874486	<َّ> ت	-1.952688
-2.096334	<َّ> ث	-1.360379
-1.825062	<َّ> ج	-1.230837
-1.665361	<َّ> ح	-1.495924
-2.354493	<َّ> خ	-1.590725
-1.673976	<َّ> د	-0.7218194
-1.804509	<َّ> ذ	-1.382869
-1.684618	<َّ> ر	-0.09024644
-2.715006	<َّ> ز	-0.9280356
-2.199764	<َّ> س	-1.375436
-2.843948	<َّ> ش	-1.427348
-2.424053	<َّ> ص	-0.01873922
-2.871619	<َّ> ض	-0.1389903
-2.727127	<َّ> ط	-1.339871
-2.612554	<َّ> ظ	-1.454744
-1.843412	<َّ> ع	-0.4638135
-2.699354	<َّ> غ	0.03949237
-1.821993	<َّ> ف	0.5396807
-1.967815	<َّ> ق	0.285311
-2.060467	<َّ> ك	-0.5972881
-1.483387	<َّ> ل	-0.757502
-1.115945	<َّ> م	-0.7447534
-1.887922	<َّ> ن	0.7411485
-0.6800724	<َّ> ه	-0.8951941
-1.751132	<َّ> و	-2.356766
-1.281434	<َّ> ى	-0.3004289
-1.673613	<َّ> ي	-2.796761
-3.322424	<ُّ> "
-3.787199	<ُّ> '
-3.282803	<ُّ> (	-0.3269888
-3.282803	<ُّ> )	-0.139532
-1.960584	<ُّ> .	-0.6660218
-1.529987	<ُّ> :	-0.06713212
-0.3283678	<ُّ> s	-0.2665696
-2.893252	<ُّ> {	-0.03214338
-2.680743	<ُّ> }	0.005509466
-1.95239	<ُّ> ،	0.03662425
-3.203622	<ُّ> ؛	-0.006434083
-2.981773	<ُّ> ؟	-0.1195029
-3.680743	<ُّ> ء	-0.4875834
-1.924868	<ُّ> ؤ	-1.390694
-1.55041	<ُّ> ب	-0.6030306
-2.70302	<ُّ> ت	-0.1383185
-3.078683	<ُّ> ث	-0.3447464
-2.189382	<ُّ> ج	0.3420746
-2.112542	<ُّ> ح	0.1830859
-2.225899	<ُّ> خ	-0.06553781
-1.940381	<ُّ> د	-0.7599478
-2.86783	<ُّ> ذ	-0.2302771
-1.643317	<ُّ> ر	0.8064184
-2.70302	<ُّ> ز	-0.1087534
-2.328561	<ُّ> س	0.01176798
-2.659554	<ُّ> ش	-0.1664051
-2.601562	<ُّ> ص	-0.805365
-2.835645	<ُّ> ض	-0.04800728
-2.062695	<ُّ> ط	-0.5572577
-3.203622	<ُّ> ظ	-0.2191191
-1.587322	<ُّ> ع	-0.3014762
-2.328561	<ُّ> غ	-0.6675161
-1.71226	<ُّ> ف	0.01172078
-1.956468	<ُّ> ق	-0.7680055
-1.653394	<ُّ> ك	-0.1653644
-1.450294	<ُّ> ل	-1.184057
-1.743727	<ُّ> م	0.1756594
-1.195732	<ُّ> ن	-0.6793659
-1.214617	<ُّ> ه	-0.5081942
-1.055431	<ُّ> و	-2.058431
-2.751324	<ُّ> ي	-1.219366
-3.006857	<ِّ> "	-0.219557
-3.493319	<ِّ> (
-2.919287	<ِّ> )	-0.2119771
-2.141136	<ِّ> .	-0.4038489
-1.931026	<ِّ> :	0.2353991
-0.5439286	<ِّ> s	2.047864
-2.551311	<ِّ> {	-0.186063
-2.794349	<ِّ> }	-0.06060916
-1.844959	<ِّ> ،	-0.2931997
-3.006857	<ِّ> ؛	0.4323677
-3.016197	<ِّ> ؟	0.2493869
-1.974805	<ِّ> ئ	-0.0588814
-1.378541	<ِّ> ب	-0.5569104
-2.012593	<ِّ> ت	-0.3829128
-1.766999	<ِّ> ث	-1.080376
-1.85985	<ِّ> ج	-0.4083636
-1.821221	<ِّ> ح	0.06714118
-2.26287	<ِّ> خ	-0.7147796
-1.305798	<ِّ> د	-1.272049
-2.773159	<ِّ> ذ	-0.8003556
-1.144527	<ِّ> ر	-0.5158222
-2.493319	<ِّ> ز	-0.08471709
-1.726163	<ِّ> س	-1.461707
-2.773159	<ِّ> ش	-0.4592422
-2.423281	<ِّ> ص	-1.150689
-2.414137	<ِّ> ض	-1.074635
-2.442166	<ِّ> ط	-0.9066445
-3.006857	<ِّ> ظ	-0.1354629
-1.533086	<ِّ> ع	-0.2910237
-2.715167	<ِّ> غ	-0.2085018
-1.678738	<ِّ> ف	-0.3052266
-1.715167	<ِّ> ق	0.2027901
-1.870069	<ِّ> ك	-0.2221583
-1.632981	<ِّ> ل	-1.246358
-1.369467	<ِّ> م	-0.06087685
-1.594319	<ِّ> ن	1.014547
-1.436414	<ِّ> ه	-0.7631998
-2.155859	<ِّ> و	-1.478724
-0.7453245	<ِّ> ي	-2.315462
-3.830349	<ْ> "	-0.1777762
-4.659652	<ْ> (	-0.1887224
-4.031263	<ْ> )	-0.3487457
-2.892497	<ْ> .	0.1603206
-2.626229	<ْ> :	0.01081431
-0.7226614	<ْ> s	0.4688306
-3.442168	<ْ> {	0.04508644
-2.949959	<ْ> }	-0.01830482
-2.592396	<ْ> ،	0.198643
-3.960682	<ْ> ؛	-0.4359895
-3.513524	<ْ> ؟	-0.06370288
-2.332805	<ْ> ء	-1.460647
-2.381471	<ْ> آ	0.3802114
-1.596413	<ْ> أ	-2.345622
-2.098551	<ْ> إ	-2.952097
-2.805346	<ْ> ئ	-1.389218
-3.208634	<ْ> ا	-0.4984357
-1.379928	<ْ> ب	-2.788708
-1.180149	<ْ> ت	-2.545675
-2.31723	<ْ> ث	-2.209432
-1.779411	<ْ> ج	-2.996147
-1.509818	<ْ> ح	-3.067586
-1.806258	<ْ> خ	-2.7888
-1.47489	<ْ> د	-3.426571
-2.509664	<ْ> ذ	-1.938137
-1.178281	<ْ> ر	-2.994009
-2.210174	<ْ> ز	-2.504293
-1.700969	<ْ> س	-2.657901
-2.479957	<ْ> ش	-2.111106
-2.219137	<ْ> ص	-2.623761
-1.815797	<ْ> ض	-2.615021
-2.179286	<ْ> ط	-2.613248
-2.465832	<ْ> ظ	-1.63497
-1.47185	<ْ> ع	-2.992631
-2.276735	<ْ> غ	-1.857897
-1.566143	<ْ> ف	-2.673563
-1.633732	<ْ> ق	-2.125646
-1.611502	<ْ> ك	-1.954424
-1.250861	<ْ> ل	-3.020492
-1.051581	<ْ> م	-2.980743
-1.160963	<ْ> ن	-3.822982
-1.235179	<ْ> ه	-2.652619
-1.75833	<ْ> و	-2.51814
-1.820803	<ْ> ي	-2.482214
-0.4074853	[ أ
-0.30103	[ ا	0.7081501
-0.1064553	\ </s>
-0.5043954	] .
-0.5043954	] ا
-0.5043954	] ف
-0.1064553	` ت
-5.289661	s <u>
-2.557379	s آ	0.3336546
-1.109396	s أ	-3.050764
-1.584853	s إ	-0.8387978
-0.7147772	s ا	-3.487665
-1.225359	s ب	-2.998779
-1.643628	s ت	-3.23016
-2.295307	s ث	-2.564002
-2.048551	s ج	-2.967219
-1.714121	s ح	-3.195044
-2.148377	s خ	-2.681581
-2.138666	s د	-2.856639
-2.008564	s ذ	-2.560561
-1.712354	s ر	-3.17995
-2.550243	s ز	-2.406806
-1.888409	s س	-3.431117
-2.069764	s ش	-3.056731
-1.893505	s ص	-3.180755
-2.674676	s ض	-2.068674
-2.382832	s ط	-2.650892
-2.771586	s ظ	-2.116013
-1.135347	s ع	-3.583179
-2.202975	s غ	-2.462618
-1.170179	s ف	-3.359891
-1.514494	s ق	-2.820036
-1.637899	s ك	-3.113348
-1.331275	s ل	-3.577326
-1.126415	s م	-3.597595
-1.997239	s ن	-3.22423
-1.899114	s ه	-2.499133
-1.009553	s و	-3.491183
-1.268043	s ي	-4.049134
-3.283414	{ .
-1.203831	{ :	-0.3612238
-3.283414	{ {
-2.818639	{ ،	0.2236108
-2.818639	{ آ	2.658965
-0.8335504	{ أ	-1.325752
-0.9490723	{ إ	-2.117018
-1.059688	{ ا	-1.138141
-2.000868	{ ب	-1.053967
-2.000868	{ ت	-0.818289
-2.135566	{ ث	-0.9268354
-2.222717	{ ج	-0.9942049
-2.063016	{ ح	-0.5930147
-2.046625	{ خ	-1.249456
-2.135566	{ د	-1.182742
-2.436596	{ ذ	-0.7815933
-2.000868	{ ر	-0.9444393
-2.875929	{ ز	-0.3077045
-1.94651	{ س	-0.8154068
-2.875929	{ ش	-0.3050267
-2.574899	{ ص	-0.2013292
-2.779019	{ ض	-0.2022539
-2.389468	{ ط	-0.1829763
-3.283414	{ ظ
-2.000868	{ ع	-0.934289
-2.699838	{ غ	-0.09978628
-1.409803	{ ف	-1.376194
-1.597175	{ ق	-0.8482136
-1.341268	{ ك	-1.573393
-1.006697	{ ل	-2.232742
-0.9936891	{ م	-1.807656
-1.714561	{ ن	-1.50796
-2.080049	{ ه	-0.5170027
-0.9647714	{ و	-2.030407
-1.465152	{ ي	-1.849929
-3.177681	} "
-2.819361	} (
-3.177681	} )	-0.2834511
-3.284136	} -
-0.5643676	} .	-0.5964826
-2.70056	} :	-0.097459
-3.284136	} [
-2.223438	} {	-0.4374192
-2.437318	} }	-0.4533866
-1.534228	} ،	-0.2120818
-2.876651	} ؛	0.2366039
-2.390189	} ؟	-0.2260498
-1.715283	} أ	-0.7348096
-1.381801	} إ	-1.687189
-1.609479	} ا	-0.6038167
-2.399529	} ب	-0.0970324
-2.779741	} ت	-0.5320365
-2.199957	} ث	-0.8888659
-2.819361	} ج	-0.3409925
-1.876651	} ح	-1.305304
-2.819361	} خ	0.02101657
-3.177681	} د	-0.4034141
-2.575621	} ذ	-0.492023
-0.8382293	} ر	-2.1078
-2.390189	} ز	-0.2283425
-2.364767	} س	-0.8379259
-3.177681	} ش	-0.3431504
-2.819361	} ص	-0.3600229
-3.284136	} ض
-3.177681	} ط	-0.3397744
-3.284136	} ظ
-2.399529	} ع	-0.6562452
-3.284136	} غ
-1.406829	} ف	-1.319737
-1.218639	} ق	-1.227471
-2.00159	} ك	-0.4718327
-2.156492	} ل	-1.203488
-1.627452	} م	-1.096102
-2.575621	} ن	-0.3706861
-2.524468	} ه	-0.5578643
-0.6147934	} و	-2.398159
-2.016313	} ي	-1.310016
-3.386784	، "	-0.2735545
-3.89118	، (
-2.997233	، .	0.9488711
-2.971811	، {	-0.5869679
-2.743332	، }	-0.4719475
-2.743332	، ،	-0.8504679
-3.89118	، ؛
-3.784724	، آ	2.697931
-1.474031	، أ	-1.293114
-1.988844	، إ	-1.687189
-1.985384	، ا	-0.8291261
-2.151256	، ب	-1.502125
-2.594393	، ت	-1.00068
-1.575209	، ث	-2.172047
-3.131512	، ج	-0.693175
-2.608633	، ح	-0.9044924
-3.307603	، خ	-0.2242453
-3.483694	، د	-0.3652903
-2.505971	، ذ	-1.128845
-2.517553	، ر	-1.248202
-2.997233	، ز	-0.2283425
-2.939626	، س	-0.7608365
-3.131512	، ش	-0.1609843
-3.131512	، ص	-0.09764156
-3.426404	، ض	-0.4063739
-3.784724	، ط
-3.784724	، ظ	-0.3090123
-2.529452	، ع	-1.275535
-3.131512	، غ	0.1552686
-0.8968257	، ف	-2.43312
-1.698364	، ق	-1.433655
-1.949034	، ك	-1.573392
-1.865646	، ل	-1.984167
-2.072917	، م	-1.338966
-2.705543	، ن	-1.278425
-2.49469	، ه	-0.5752871
-0.1599782	، و	-3.319414
-2.117271	، ي	-1.806023
-2.370143	؛ }
-2.370143	؛ أ	0.465524
-2.069113	؛ إ	-0.1117891
-2.476598	؛ ب
-2.476598	؛ ح
-1.370143	؛ ف	-1.060374
-2.476598	؛ ق
-0.06802847	؛ ل	-2.550096
-2.370143	؛ م	-0.320137
-1.152659	؛ و	-1.06572
-1.917088	؟ "	-0.3064547
-2.704579	؟ (	-0.5151809
-2.10252	؟ )	0.002664685
-2.704579	؟ .	0.792073
-2.811035	؟ :
-2.811035	؟ ]
-2.306639	؟ {	-0.09731364
-1.829518	؟ }	-0.2881831
-2.10252	؟ ،	0.2637109
-2.811035	؟ ؟
-1.543211	؟ أ	-0.4485029
-2.00561	؟ إ	-0.6282111
-1.964217	؟ ا	-0.02164197
-2.00561	؟ ب	-0.4855162
-2.704579	؟ ت
-2.227458	؟ ث	-0.1988125
-2.704579	؟ ج	-0.3020268
-2.704579	؟ ح
-2.811035	؟ خ
-2.403549	؟ د	-0.3652903
-2.34626	؟ ذ	0.1745703
-2.811035	؟ ر
-2.811035	؟ ز
-2.403549	؟ س	-0.3098661
-2.811035	؟ ص
-2.811035	؟ ط
-2.704579	؟ ظ	-0.3090123
-1.891666	؟ ع	-0.6910074
-0.4844714	؟ ف	-1.766636
-0.5100651	؟ ق	-1.541422
-1.926428	؟ ك	-0.7747589
-1.775161	؟ ل	-1.016724
-1.891666	؟ م	-0.9031707
-2.811035	؟ ن
-2.10252	؟ ه	-0.09812698
-0.8817578	؟ و	-1.661346
-1.726856	؟ ي	-1.034559
-3.57738	ء .
-3.169895	ء :	-0.1511165
-2.227887	ء <u>	-1.428885
-1.48192	ء <ً>	-1.411624
-1.146642	ء <ٌ>	-1.429101
-0.9837864	ء <ٍ>	-1.178132
-0.6464735	ء <َ>	-1.825796
-0.7969828	ء <ُ>	-1.764267
-0.3983073	ء <ِ>	-2.363361
-0.0002381653	آ <u>	-2.347547
-3.31299	أ <u>	-0.2070758
-3.512562	أ <ً>	-0.7070285
-3.387623	أ <ٌ>	0.08757728
-4.290713	أ <ٍ>
-0.04269103	أ <َ>	-3.43986
-1.339862	أ <ُ>	-0.8134918
-3.211532	أ <ِ>	-0.9313253
-3.637501	أ <َّ>	-0.2751058
-4.397169	أ <ُّ>
-1.339619	أ <ْ>	-1.734745
-1.985392	ؤ <ٌ>	-0.4495623
-2.904761	ؤ <ٍ>
-0.6295133	ؤ <َ>	-0.9899495
-0.6979347	ؤ <ُ>	-1.860435
-2.010814	ؤ <ِ>	-0.2565068
-2.798305	ؤ <ُّ>	-0.5610515
-0.2661882	ؤ <ْ>	-2.362172
-0.211977	إ <u>	-3.69234
-3.086062	إ <ٍ>	0.221213
-0.4141606	إ <ِ>	-2.500103
-3.345379	ئ .
-3.238924	ئ <u>	-0.4356768
-2.498561	ئ <ٌ>	0.1453168
-1.832384	ئ <ٍ>	-0.8724214
-0.7378646	ئ <َ>	-1.862133
-1.330439	ئ <ُ>	-1.142528
-0.1642902	ئ <ِ>	-1.539529
-1.178226	ئ <ْ>	-1.268742
-3.982519	ا "	-0.1205481
-4.483121	ا (	-0.2258711
-3.352787	ا )	-0.1558086
-2.639058	ا .	-0.6129937
-2.914919	ا :	-0.09218383
-0.0239021	ا <u>	-3.11178
-1.414379	ا <ً>	-2.598463
-2.494117	ا <َ>	-2.52278
-2.890204	ا <ُ>	-1.13655
-4.085181	ا <ِ>	-1.201408
-5.066698	ا [
-3.505398	ا {	-0.4217596
-2.895784	ا }	-0.1883628
-2.391454	ا ،	-0.1042747
-3.769911	ا ؛	-0.06069481
-3.270046	ا ؟	-0.1463541
-4.464989	ب )
-4.163959	ب .	0.8301967
-4.464989	ب :
-2.587042	ب <u>	-0.7817443
-1.954444	ب <ٌ>	0.3311768
-1.913539	ب <ٍ>	-0.3370841
-0.535544	ب <َ>	-2.353578
-1.012129	ب <ُ>	-1.883442
-0.4642509	ب <ِ>	0.3352928
-3.050015	ب <ّ>	0.4510638
-1.626769	ب <َّ>	-0.8721402
-2.008622	ب <ُّ>	-1.021884
-2.113772	ب <ِّ>	-0.8772432
-0.6992828	ب <ْ>	-3.648376
-3.987867	ب ،	0.21023
-3.618603	ة )
-3.16401	ة .	0.2090393
-3.499802	ة :	-0.07550692
-1.937509	ة <u>	-2.215005
-1.130586	ة <ً>	-2.140624
-1.05058	ة <ٌ>	-0.9886718
-1.046483	ة <ٍ>	-0.8636484
-0.7132868	ة <َ>	-2.57874
-0.8364148	ة <ُ>	-2.90965
-0.4047485	ة <ِ>	-3.191005
-4.083378	ة {
-2.955734	ة ،	-0.1491365
-4.083378	ة ؟
-4.251906	ت "	-0.4789618
-4.251906	ت )
-3.774785	ت .	0.8222563
-2.523552	ت :	-0.1724584
-1.328403	ت <u>	-2.415035
-3.853966	ت <ً>	-0.8120565
-2.385618	ت <ٌ>	-0.4498334
-2.12969	ت <ٍ>	-0.7430171
-0.3157943	ت <َ>	-1.932837
-0.8831542	ت <ُ>	-0.6448195
-0.8519726	ت <ِ>	-1.391474
-3.774785	ت <ّ>	-0.295794
-1.090538	ت <َّ>	-0.6450291
-2.456026	ت <ُّ>	-0.4616081
-1.754976	ت <ِّ>	-1.84059
-1.099617	ت <ْ>	-2.170543
-4.358361	ت {
-3.950876	ت }	-0.4637934
-3.075814	ت ،	-0.3254484
-4.358361	ت ؛
-3.464415	ت ؟	0.2067976
-3.770674	ث .
-1.875344	ث <u>	-1.923602
-3.770674	ث <ً>
-1.772124	ث <ٌ>	-0.830324
-1.864878	ث <ٍ>	0.35427
-0.4481849	ث <َ>	-1.773793
-0.7327609	ث <ُ>	-1.523854
-0.6812695	ث <ِ>	-1.90677
-3.770674	ث <ّ>
-1.174964	ث <َّ>	-1.365365
-2.232855	ث <ُّ>	-0.08238608
-1.939943	ث <ِّ>	-0.8836039
-0.9156432	ث <ْ>	-1.710283
-3.770674	ث {
-3.770674	ث }
-4.023094	ج .
-2.5842	ج <u>	-0.9796084
-4.023094	ج <ً>
-2.54557	ج <ٌ>	-0.4853885
-2.336854	ج <ٍ>	-0.3804293
-0.3450458	ج <َ>	-2.082175
-0.7032532	ج <ُ>	-1.391051
-0.7916451	ج <ِ>	-1.341686
-3.439517	ج <ّ>	0.2423419
-1.56157	ج <َّ>	-0.7584006
-2.348436	ج <ُّ>	-0.666841
-2.314578	ج <ِّ>	-0.2638001
-0.8506852	ج <ْ>	-1.931802
-3.916638	ج ،	-0.0518344
-4.249658	ح )
-4.143202	ح .	0.792073
-2.939082	ح <u>	-1.359598
-1.975885	ح <ٌ>	-0.5468583
-2.138881	ح <ٍ>	-0.6282359
-0.2946744	ح <َ>	-2.470357
-1.10359	ح <ُ>	-1.397179
-0.8302847	ح <ِ>	-2.046569
-3.48999	ح <ّ>	0.664728
-1.841088	ح <َّ>	-1.149582
-2.301217	ح <ُّ>	-0.9803805
-2.925718	ح <ِّ>	-0.2984806
-0.645927	ح <ْ>	-2.401587
-3.856423	خ .
-3.448938	خ <u>
-2.494696	خ <ٌ>	-0.4337343
-2.50693	خ <ٍ>	-0.08927727
-0.2935261	خ <َ>	-2.250758
-0.8810299	خ <ُ>	-1.474859
-0.8598266	خ <ِ>	-1.226221
-3.856423	خ <ّ>
-2.106515	خ <َّ>	-1.089044
-2.90487	خ <ُّ>	-0.1805743
-2.082515	خ <ِّ>	-1.111613
-0.7048408	خ <ْ>	-2.368664
-4.246289	د "
-3.343199	د (	-1.173422
-3.042169	د .	-0.1633465
-3.246289	د :	-0.1249471
-1.714172	د <u>	-1.689073
-3.848349	د <ً>	-0.8120565
-1.65914	د <ٌ>	-0.8823444
-1.359517	د <ٍ>	-0.9082454
-0.5119296	د <َ>	-2.462275
-0.8493928	د <ُ>	-1.608597
-0.6449355	د <ِ>	-2.322791
-2.913851	د <ّ>	0.2026224
-1.211661	د <َّ>	-1.562876
-1.585424	د <ُّ>	-0.7851708
-1.48549	د <ِّ>	-1.848649
-0.9394355	د <ْ>	-2.020809
-3.644229	د {	-0.05900398
-4.246289	د }
-3.132346	د ،	-0.4265921
-3.157622	ذ <u>	-0.4368539
-2.837286	ذ <ً>	-1.37348
-2.837286	ذ <ٌ>	-0.665162
-2.295924	ذ <ٍ>	-0.2320054
-0.1837384	ذ <َ>	-2.563166
-1.353916	ذ <ُ>	-1.269343
-0.7467677	ذ <ِ>	-2.133063
-3.539665	ذ <ّ>	-0.04222001
-1.630813	ذ <َّ>	-0.8667133
-2.142109	ذ <ُّ>	-0.7884984
-1.958465	ذ <ِّ>	-1.012711
-1.149021	ذ <ْ>	-2.096758
-4.567098	ر (
-4.460642	ر )	-0.2834511
-3.682491	ر .	0.2412241
-3.647729	ر :	-0.2165168
-2.256522	ر <u>	-1.429666
-4.062702	ر <ً>	-0.8120565
-1.80743	ر <ٌ>	-0.7780761
-1.564392	ر <ٍ>	-0.3727274
-0.383638	ر <َ>	-2.508111
-0.9187512	ر <ُ>	-1.780715
-0.6774178	ر <ِ>	-2.47513
-2.32234	ر <ّ>	-0.6247867
-1.289355	ر <َّ>	-1.093178
-1.7867	ر <ُّ>	-0.8001432
-1.625904	ر <ِّ>	-1.030135
-0.9565114	ر <ْ>	-2.109615
-4.567098	ر {
-3.72028	ر ،	0.03586626
-3.6289	ز "
-2.332113	ز <u>	-0.8691218
-2.142233	ز <ٌ>	-0.4945317
-2.23241	ز <ٍ>	0.07021761
-0.4734201	ز <َ>	-1.706535
-0.964937	ز <ُ>	-1.140933
-0.587189	ز <ِ>	-1.734173
-2.920384	ز <ّ>	0.269214
-0.9198417	ز <َّ>	-1.203443
-1.454258	ز <ُّ>	-0.9282515
-1.650288	ز <ِّ>	-0.6770168
-1.002616	ز <ْ>	-1.06535
-3.6289	ز ،
-4.278664	س .
-2.905037	س <u>	-0.5316113
-4.278664	س <ً>
-2.033906	س <ٌ>	-0.6549878
-1.667059	س <ٍ>	-0.3261908
-0.4082569	س <َ>	-2.065487
-0.9296673	س <ُ>	-1.545072
-0.9345394	س <ِ>	-1.747868
-3.813889	س <ّ>	-0.3649429
-1.209366	س <َّ>	-1.279459
-1.596444	س <ُّ>	-1.016951
-1.869013	س <ِّ>	-1.628433
-0.615183	س <ْ>	-2.192204
-4.278664	س ،
-4.278664	س ؟
-2.869728	ش <u>	-0.1286385
-3.789097	ش <ً>
-2.621943	ش <ٌ>	0.2003379
-2.02463	ش <ٍ>	-0.3333791
-0.4008129	ش <َ>	-1.654723
-1.139816	ش <ُ>	-1.025878
-1.039189	ش <ِ>	-0.9793633
-3.080581	ش <ّ>	-0.1918865
-0.7186176	ش <َّ>	-1.257016
-1.643227	ش <ُّ>	-1.992152
-1.590974	ش <ِّ>	-0.708495
-0.7327637	ش <ْ>	-1.979046
-3.439648	ص <u>	-0.02169925
-3.479269	ص <ً>	-0.5953289
-2.67622	ص <ٌ>	-0.2629086
-2.224805	ص <ٍ>	-0.8261741
-0.369315	ص <َ>	-2.860982
-1.159526	ص <ُ>	-1.633097
-0.9410622	ص <ِ>	-1.551386
-2.707255	ص <ّ>	-0.6003427
-0.8833459	ص <َّ>	-1.289176
-1.697709	ص <ُّ>	-0.736977
-1.604592	ص <ِّ>	-1.061119
-0.6936373	ص <ْ>	-2.358017
-2.495066	ض <u>	-0.8813851
-1.860554	ض <ٌ>	-0.3822882
-1.77562	ض <ٍ>	-0.4003488
-0.4403997	ض <َ>	-1.779677
-0.7963952	ض <ُ>	-1.384825
-0.5285193	ض <ِ>	-1.543365
-3.656434	ض <ّ>	-0.3176652
-1.382276	ض <َّ>	-1.187669
-2.24146	ض <ُّ>	-0.7499136
-2.276222	ض <ِّ>	-0.1125489
-1.02347	ض <ْ>	-2.246116
-2.634053	ط <u>	-0.3571201
-2.099893	ط <ٌ>	-0.5398389
-2.156932	ط <ٍ>	-0.3344824
-0.3957425	ط <َ>	-1.479392
-1.097229	ط <ُ>	-1.062183
-0.7853776	ط <ِ>	-1.507124
-3.009717	ط <ّ>	0.2289612
-0.8729959	ط <َّ>	-1.34007
-1.772927	ط <ُّ>	-0.4806249
-1.429933	ط <ِّ>	-1.060582
-0.8303801	ط <ْ>	-1.833013
-2.602874	ظ <u>	-0.8806966
-2.000813	ظ <ٌ>	-0.6328346
-1.654705	ظ <ٍ>	-0.2714996
-0.3536752	ظ <َ>	-1.662477
-0.7585517	ظ <ُ>	-1.494009
-0.8858275	ظ <ِ>	-1.016359
-2.417442	ظ <ّ>	0.06301248
-1.102843	ظ <َّ>	-1.287963
-1.862511	ظ <ُّ>	-0.6717191
-1.872495	ظ <ِّ>	-0.6710092
-0.9681444	ظ <ْ>	-2.116395
-3.311389	ظ ،
-4.533885	ع .
-2.830832	ع <u>	-2.014779
-4.1264	ع <ً>	-0.5182396
-2.337524	ع <ٌ>	-0.5217899
-2.226032	ع <ٍ>	0.03393137
-0.2059499	ع <َ>	-2.968692
-1.040485	ع <ُ>	-2.17273
-0.9391607	ع <ِ>	-1.906458
-2.819974	ع <َّ>	-1.200464
-3.950308	ع <ُّ>	-0.2931231
-3.649278	ع <ِّ>	-0.3311272
-0.8027863	ع <ْ>	-2.378331
-4.533885	ع ،
-3.613298	غ .
-2.76648	غ <u>	-0.185858
-3.029722	غ <ٌ>	0.1636547
-2.603753	غ <ٍ>	-0.1424454
-0.1998823	غ <َ>	-2.179996
-1.257645	غ <ُ>	-0.9156017
-0.7908398	غ <ِ>	-1.158636
-2.76648	غ <َّ>	-0.6521748
-3.613298	غ <ُّ>
-2.661745	غ <ِّ>	-1.209863
-0.8474023	غ <ْ>	-2.210899
-0.1760913	ـ <u>	-0.3975531
-0.5835766	ـ }
-4.428054	ف .
-2.736138	ف <u>	-0.5724575
-3.844477	ف <ً>	-0.52618
-2.06392	ف <ٌ>	-0.8584461
-2.24788	ف <ٍ>	-0.3138858
-0.3441035	ف <َ>	-0.7293699
-1.191747	ف <ُ>	-1.496127
-0.4297545	ف <ِ>	-2.331112
-3.343875	ف <ّ>	-0.2024923
-2.08607	ف <َّ>	-0.9649864
-2.678146	ف <ُّ>	-0.5387131
-2.355457	ف <ِّ>	-0.6942712
-1.099272	ف <ْ>	-2.237394
-3.923658	ف ،	0.1535729
-4.378251	ق (
-3.913476	ق )
-4.378251	ق .
-2.919613	ق <u>	-0.8001565
-4.271795	ق <ً>	-0.5563633
-2.178374	ق <ٌ>	-1.033599
-2.252679	ق <ٍ>	-0.3808035
-0.1980218	ق <َ>	-2.424039
-0.8984233	ق <ُ>	-1.503904
-0.8893278	ق <ِ>	-1.510277
-2.643406	ق <ّ>	-0.5278597
-2.036267	ق <َّ>	-0.7322013
-2.296363	ق <ُّ>	-0.8433568
-2.107442	ق <ِّ>	-0.9537904
-1.138416	ق <ْ>	-2.205817
-4.271795	ق ،
-3.815944	ك "	-0.2035167
-2.794052	ك .	-0.1213619
-3.776323	ك :	-0.1261433
-1.385388	ك <u>	-2.232173
-2.332278	ك <ٌ>	-0.2926867
-2.284962	ك <ٍ>	-0.3618237
-0.2532015	ك <َ>	0.1764319
-0.768405	ك <ُ>	-1.782331
-1.063337	ك <ِ>	-1.617098
-3.244844	ك <ّ>	0.006590068
-2.039131	ك <َّ>	-0.9428201
-2.540795	ك <ُّ>	-0.7894535
-2.284962	ك <ِّ>	-0.8946171
-0.9640787	ك <ْ>	-2.590383
-2.970143	ك }	-0.05647421
-2.437867	ك ،	0.1909273
-4.174263	ك ؛	0.2755696
-3.113565	ك ؟	-0.349036
-4.067235	ل (	-0.8127272
-4.583976	ل .	0.7531074
-3.863115	ل :	-0.1312256
-0.7711693	ل <u>	-2.245249
-4.544356	ل <ً>	-0.8120565
-2.091343	ل <ٌ>	-0.820837
-2.136116	ل <ٍ>	-0.3983488
-0.5150614	ل <َ>	-1.302676
-1.337584	ل <ُ>	-2.243272
-0.9311273	ل <ِ>	0.2510142
-3.230489	ل <ّ>	-0.01208878
-1.005154	ل <َّ>	-1.58914
-2.297857	ل <ُّ>	-1.327942
-2.106288	ل <ِّ>	-1.323905
-0.6308175	ل <ْ>	-2.876156
-5.048751	ل {
-5.048751	ل }
-4.243326	ل ،	0.2050008
-5.048751	ل ؟
-4.26178	م )	-0.008005977
-3.832608	م .	0.9488711
-4.26178	م :	-0.2525725
-2.617934	م <u>	-1.158019
-4.726555	م <ً>
-2.027923	م <ٌ>	-1.665243
-1.810877	م <ٍ>	-0.4725122
-0.3680844	م <َ>	-0.6708436
-0.8046879	م <ُ>	-0.5888782
-0.6884892	م <ِ>	-1.968444
-3.088621	م <ّ>	0.1476809
-1.344788	م <َّ>	-1.500743
-2.605159	م <ُّ>	-0.7808579
-2.183937	م <ِّ>	-1.206444
-0.8958647	م <ْ>	-2.557025
-4.726555	م {
-3.966887	م ،	0.03255624
-4.26178	م ؟	-0.1151869
-4.717185	ن (
-4.252409	ن .	0.7531074
-4.717185	ن :
-2.351853	ن <u>	-1.554207
-3.249002	ن <ً>	-1.665367
-2.157411	ن <ٌ>	-0.9922193
-2.194089	ن <ٍ>	-0.08798933
-0.6187506	ن <َ>	-1.631046
-1.082584	ن <ُ>	-1.659459
-0.8832288	ن <ِ>	-2.287894
-3.610729	ن <ّ>	-0.7113882
-0.8472639	ن <َّ>	-1.956451
-2.249947	ن <ُّ>	-0.876873
-1.894726	ن <ِّ>	-1.001896
-0.4358413	ن <ْ>	-3.109862
-4.133608	ن ،	0.21023
-4.717185	ن ؟
-3.703728	ه .	0.2090393
-3.817671	ه :	-0.2042493
-2.187243	ه <u>	-1.952617
-4.623096	ه <ً>
-2.914581	ه <ٌ>	-0.4974475
-2.85863	ه <ٍ>	0.07551074
-0.6978546	ه <َ>	-2.393762
-0.358339	ه <ُ>	-3.008749
-0.5087441	ه <ِ>	-3.125615
-2.909186	ه <َّ>	-1.093157
-3.562399	ه <ُّ>	-0.6672019
-3.046819	ه <ِّ>	-1.299652
-1.407569	ه <ْ>	-1.822191
-4.516641	ه {
-3.516641	ه ،	-0.3142312
-4.623096	ه ؟
-4.733642	و (
-4.326157	و .	0.8301967
-4.268867	و :
-0.6844842	و <u>	-1.429586
-3.605997	و <ً>	-1.335692
-3.849035	و <ٌ>	-0.4555662
-3.548005	و <ٍ>	-0.6372955
-0.181886	و <َ>	-1.565205
-1.848312	و <ُ>	-1.545018
-1.761195	و <ِ>	-1.06567
-3.481059	و <ّ>	-0.6313768
-2.03059	و <َّ>	-0.8668605
-3.047403	و <ُّ>	-0.311892
-2.485737	و <ِّ>	-0.5542337
-1.050442	و <ْ>	-1.943302
-4.150065	و {	-0.05153091
-3.814273	و ،	0.3391579
-3.251912	ى "	-0.1076202
-3.960427	ى (
-3.041059	ى )	-0.1656221
-3.853972	ى -	-0.5119419
-2.098097	ى .	0.142823
-1.789514	ى :	-0.367277
-0.02255002	ى <u>	-4.005066
-2.38415	ى {	-0.275203
-2.501789	ى }	-0.09938562
-1.81061	ى ،	0.09402323
-3.066481	ى ؛	0.4323677
-2.978911	ى ؟	0.1861986
-3.826172	ي "	-0.03363851
-4.194149	ي (	-0.2703317
-3.509902	ي )	-0.1228774
-2.9723	ي .	0.0492214
-2.820012	ي :	-0.2951857
-0.4040045	ي <u>	-2.612854
-3.76818	ي <ٌ>	-0.5805048
-3.796209	ي <ٍ>	-0.1144167
-0.6197124	ي <َ>	-1.765878
-1.100435	ي <ُ>	-2.249723
-2.42085	ي <ِ>	-0.6854072
-2.156722	ي <ّ>	-0.291116
-1.55833	ي <َّ>	-1.40597
-1.510202	ي <ُّ>	-1.229534
-1.514267	ي <ِّ>	-1.45191
-0.7451592	ي <ْ>	-3.009523
-4.194149	ي {
-3.224112	ي }	-0.5169625
-2.717028	ي ،	0.1586391
-3.883779	ي ؛	0.4343013
-3.557327	ي ؟	0.07528865

\3-grams:
-0.7919574	. " ا
-0.7919574	. " م
-0.7919574	. " و
-0.9927008	: " أ
-0.770852	: " إ
-1.293731	: " ا
-1.143373	: " ت
-1.608567	: " ع
-1.293731	: " ك
-0.9927008	: " ل
-1.322801	: " م
-1.608567	: " ه
-1.14212	: " و
-1.608567	: " ي
-0.8846066	<ً> " .
-1.199443	<ً> " أ
-0.9136764	<ً> " ف
-1.199443	<ً> " ق
-1.199443	<ً> " ك
-0.7342489	<ً> " و
-0.983843	<ٌ> " ،
-0.983843	<ٌ> " أ
-0.983843	<ٌ> " ف
-0.983843	<ٌ> " ق
-0.983843	<ٌ> " و
-1.180138	<ٍ> " .
-0.8943712	<ٍ> " أ
-0.8653014	<ٍ> " إ
-0.8943712	<ٍ> " ف
-1.180138	<ٍ> " و
-1.180138	<ٍ> " ي
-1.047924	<َ> " .
-1.047924	<َ> " أ
-1.348954	<َ> " إ
-1.348954	<َ> " ت
-1.66379	<َ> " ح
-1.66379	<َ> " ر
-1.198596	<َ> " ف
-1.66379	<َ> " ك
-1.378023	<َ> " ل
-1.198596	<َ> " م
-0.7846821	<َ> " و
-1.198596	<َ> " ي
-0.90309	<ُ> " .
-1.124939	<ُ> " أ
-1.425969	<ُ> " إ
-1.124939	<ُ> " ا
-1.425969	<ُ> " ب
-1.740805	<ُ> " ر
-1	<ُ> " ف
-1.274358	<ُ> " ل
-0.90309	<ُ> " م
-0.7569619	<ُ> " و
-0.7085153	<ِ> " .
-1.336309	<ِ> " ،
-1.515736	<ِ> " أ
-1.515736	<ِ> " إ
-1.335056	<ِ> " ا
-1.486667	<ِ> " ب
-1.801503	<ِ> " ت
-1.801503	<ِ> " ح
-0.9223952	<ِ> " ف
-1.336309	<ِ> " ق
-1.801503	<ِ> " ك
-1.486667	<ِ> " ل
-1.486667	<ِ> " م
-0.9223952	<ِ> " و
-1.515736	<ِ> " ي
-0.6158662	<َّ> " أ
-0.6158662	<َّ> " و
-0.3679768	<ِّ> " ا
-0.9833123	<ْ> " .
-1.269079	<ْ> " ق
-1.269079	<ْ> " م
-0.4313638	<ْ> " و
-0.2509185	، " و
-0.3679768	؟ " ف
-0.6828129	؟ " و
-1.116469	ا " .
-0.8307021	ا " أ
-1.116469	ا " ت
-1.116469	ا " ر
-1.116469	ا " م
-0.8307021	ا " و
-0.1387449	ت " و
-0.3148362	ك " و
-0.7408049	ى " .
-0.7408049	ى " أ
-0.983843	ي " ف
-0.6690068	ي " و
-0.1387449	) ( و
-1.938085	. ( أ
-0.7024305	. ( ا
-1.938085	. ( ب
-1.938085	. ( ح
-1.938085	. ( ر
-1.938085	. ( ز
-1.938085	. ( س
-0.9542425	. ( ف
-1.938085	. ( ق
-1.652319	. ( ك
-0.8699216	. ( ل
-1.623249	. ( م
-1.938085	. ( ن
-0.4983106	. ( و
-0.3802112	: ( أ
-0.60206	: ( ب
-1.217926	: ( ك
-0.6158662	<ً> ( ب
-0.30103	<ً> ( و
-1.954467	<ٌ> ( أ
-1.95572	<ٌ> ( إ
-1.240776	<ٌ> ( ا
-2.420914	<ٌ> ( ب
-2.135147	<ٌ> ( ح
-2.420914	<ٌ> ( د
-2.420914	<ٌ> ( ص
-2.420914	<ٌ> ( ع
-0.1017561	<ٌ> ( ف
-2.420914	<ٌ> ( ق
-1.95572	<ٌ> ( ك
-2.420914	<ٌ> ( ل
-1.504017	<ٌ> ( م
-2.420914	<ٌ> ( ه
-2.106077	<ٌ> ( و
-1.95572	<ٌ> ( ي
-0.7408049	<ٍ> ( أ
-0.7408049	<ٍ> ( ب
-1.041835	<َ> ( إ
-1.041835	<َ> ( ب
-1.041835	<َ> ( م
-0.7269987	<َ> ( و
-0.8529785	<ُ> ( ا
-1.138745	<ُ> ( ف
-0.8239087	<ُ> ( ق
-0.8239087	<ُ> ( ك
-0.8239087	<ُ> ( م
-0.8529785	<ُ> ( و
-0.7596679	<ِ> ( أ
-1.185637	<ِ> ( إ
-1.035279	<ِ> ( ا
-0.6627578	<ِ> ( ب
-1.500473	<ِ> ( ق
-1.500473	<ِ> ( ل
-0.7085153	<ِ> ( و
-0.2509185	<ُّ> ( ب
-0.4397749	<ْ> ( ق
-0.1387449	؟ ( و
-0.3300998	ا ( و
-0.02802872	د ( ب
-0.69897	ل ( ا
-0.1346986	ل ( ف
-0.30103	ي ( ب
-0.6158662	: ) أ
-0.6158662	: ) ا
-0.2218488	<ً> ) .
-1.131732	<ٌ> ) .
-0.9523047	<ٌ> ) :
-1.417498	<ٌ> ) أ
-1.417498	<ٌ> ) إ
-1.417498	<ٌ> ) ب
-0.9510515	<ٌ> ) ح
-1.102662	<ٌ> ) ف
-1.102662	<ٌ> ) ق
-1.417498	<ٌ> ) و
-1.417498	<ٌ> ) ي
-0.1674911	<ٍ> ) .
-1.235655	<ٍ> ) و
-0.288065	<َ> ) .
-1.041393	<َ> ) ا
-1.356229	<َ> ) ث
-1.041393	<َ> ) ق
-1.041393	<َ> ) و
-0.5806618	<ُ> ) .
-1.217484	<ُ> ) :
-1.83335	<ُ> ) {
-1.041393	<ُ> ) أ
-1.83335	<ُ> ) ا
-1.547584	<ُ> ) ب
-1.368156	<ُ> ) ت
-1.518514	<ُ> ) ث
-1.547584	<ُ> ) ح
-1.83335	<ُ> ) ر
-1.83335	<ُ> ) ع
-1.83335	<ُ> ) ف
-1.368156	<ُ> ) ق
-1.217484	<ُ> ) ل
-1.83335	<ُ> ) م
-1.092545	<ُ> ) و
-1.217484	<ُ> ) ي
-2.345571	<ِ> ) (
-0.2111907	<ِ> ) .
-2.059804	<ِ> ) :
-1.880377	<ِ> ) أ
-2.030735	<ِ> ) ب
-2.059804	<ِ> ) ت
-1.331765	<ِ> ) ث
-1.879124	<ِ> ) ح
-2.345571	<ِ> ) ر
-1.880377	<ِ> ) ع
-1.729705	<ِ> ) ف
-1.165433	<ِ> ) ق
-2.345571	<ِ> ) ك
-2.345571	<ِ> ) ل
-2.345571	<ِ> ) ن
-1.016494	<ِ> ) و
-1.729705	<ِ> ) ي
-0.5366849	<ُّ> ) ب
-0.2218488	<ِّ> ) .
-1.013806	<ِّ> ) ث
-0.1165056	<ْ> ) .
-0.1387449	} ) .
-0.7408049	؟ ) .
-0.4259687	؟ ) و
-0.3770061	ا ) .
-1.130334	ا ) :
-1.460433	ا ) أ
-1.005395	ا ) ا
-1.460433	ا ) ت
-1.7462	ا ) م
-1.005395	ا ) و
-1.460433	ا ) ي
-0.1387449	ر ) .
-0.3148362	م ) .
-0.3357921	ى ) .
-0.9516582	ى ) ح
-0.9516582	ى ) ي
-0.9852768	ي ) .
-0.5081555	ي ) :
-0.8349191	ي ) أ
-1.300113	ي ) إ
-1.300113	ي ) ت
-1.300113	ي ) ل
-0.6158662	<ِ> - :
-0.1387449	ى - ص
-1.061464	" . "
-0.07741223	" . </s>
-2.093528	) . (
-0.006285124	) . </s>
-0.03476211	. . </s>
-1.937116	<ً> . (
-0.0305537	<ً> . </s>
-1.787697	<ً> . {
-1.565848	<ً> . }
-2.060577	<ٌ> . (
-0.01353052	<ٌ> . </s>
-2.212188	<ٌ> . {
-2.241257	<ٌ> . }
-1.514105	<ٍ> . (
-0.02157724	<ٍ> . </s>
-1.815135	<ٍ> . }
-1.783134	<َ> . (
-0.02201574	<َ> . </s>
-2.449026	<َ> . {
-1.618323	<َ> . }
-1.836007	<ُ> . (
-0.01613464	<ُ> . </s>
-2.688986	<ُ> . {
-1.77531	<ُ> . }
-2.974752	<ُ> . ،
-1.7344	<ِ> . (
-2.842651	<ِ> . .
-0.02423535	<ِ> . </s>
-2.144574	<ِ> . {
-1.583132	<ِ> . }
-0.1249387	<ّ> . </s>
-0.02530587	<َّ> . </s>
-1.561991	<َّ> . }
-0.00415596	<ُّ> . </s>
-1.477121	<ِّ> . (
-0.01974406	<ِّ> . </s>
-2.206931	<ْ> . (
-0.01703334	<ْ> . </s>
-1.741737	<ْ> . }
-1.914343	} . (
-0.01016879	} . </s>
-2.285611	} . {
-0.2163659	، . </s>
-0.1387449	؟ . </s>
-1.845098	ا . (
-0.02665219	ا . </s>
-1.367977	ا . }
-0.1540085	ب . </s>
-0.03218468	ة . </s>
-0.1506723	ت . </s>
-0.1387449	ح . </s>
-0.01336396	د . </s>
-0.03476211	ر . </s>
-1.518956	ك . .
-0.02802872	ك . </s>
-0.1249387	ل . </s>
-0.2163659	م . </s>
-0.1249387	ن . </s>
-0.03218468	ه . </s>
-0.1540085	و . </s>
-1.89462	ى . (
-0.0234811	ى . </s>
-1.579784	ى . }
-1.837715	ي . (
-0.01772877	ي . </s>
-1.837715	ي . }
-0.4913617	) : أ
-1.329077	) : إ
-1.04331	) : ا
-1.329077	) : ظ
-1.01424	) : ق
-1.04331	) : ل
-1.01424	) : ي
-1.944925	<ً> : "
-0.876761	<ً> : {
-1.152967	<ً> : أ
-0.90309	<ً> : إ
-0.90309	<ً> : ا
-1.944925	<ً> : ت
-1.944925	<ً> : ث
-1.944925	<ً> : د
-1.630089	<ً> : س
-1.944925	<ً> : ش
-1.944925	<ً> : ع
-1.630089	<ً> : ق
-1.630089	<ً> : ك
-0.90309	<ً> : ل
-1.20412	<ً> : م
-1.659158	<ً> : ه
-1.152967	<ً> : و
-1.479731	<ً> : ي
-1.725135	<ٌ> : (
-2.010901	<ٌ> : {
-1.027058	<ٌ> : أ
-1.270096	<ٌ> : إ
-0.9179137	<ٌ> : ا
-2.010901	<ٌ> : ر
-1.544454	<ٌ> : س
-2.010901	<ٌ> : ش
-1.696065	<ٌ> : ع
-1.173186	<ٌ> : ف
-1.173186	<ٌ> : ق
-1.270096	<ٌ> : ك
-1.094005	<ٌ> : ل
-1.131794	<ٌ> : م
-2.010901	<ٌ> : ه
-0.8721563	<ٌ> : و
-1.270096	<ٌ> : ي
-1.839897	<ٍ> : (
-1.663806	<ٍ> : {
-1.220108	<ٍ> : أ
-0.9648356	<ٍ> : إ
-0.9947988	<ٍ> : ا
-1.989316	<ٍ> : ب
-1.989316	<ٍ> : ت
-2.169997	<ٍ> : ث
-2.140927	<ٍ> : ج
-2.140927	<ٍ> : ح
-2.455763	<ٍ> : د
-1.576655	<ٍ> : ر
-1.387599	<ٍ> : س
-1.990569	<ٍ> : ص
-1.989316	<ٍ> : ع
-1.387599	<ٍ> : ف
-1.387599	<ٍ> : ق
-1.295829	<ٍ> : ك
-1.015988	<ٍ> : ل
-1.026983	<ٍ> : م
-1.504105	<ٍ> : ه
-0.8698601	<ٍ> : و
-1.47192	<ٍ> : ي
-2.051428	<َ> : "
-2.720435	<َ> : (
-1.054541	<َ> : {
-3.021465	<َ> : آ
-1.170207	<َ> : أ
-1.052982	<َ> : إ
-1.090346	<َ> : ا
-1.826488	<َ> : ب
-1.845374	<َ> : ت
-2.197556	<َ> : ث
-2.498586	<َ> : ج
-1.679042	<َ> : ح
-2.352458	<َ> : خ
-2.352458	<َ> : د
-2.419405	<َ> : ذ
-1.942284	<َ> : ر
-2.869854	<َ> : ز
-1.672511	<َ> : س
-2.352458	<َ> : ش
-2.243314	<َ> : ص
-3.336301	<َ> : ض
-2.544344	<َ> : ط
-3.050535	<َ> : ظ
-1.885802	<َ> : ع
-2.243314	<َ> : غ
-1.231414	<َ> : ف
-1.258037	<َ> : ق
-1.408681	<َ> : ك
-0.9233984	<َ> : ل
-1.297189	<َ> : م
-1.791016	<َ> : ن
-1.441681	<َ> : ه
-1.02583	<َ> : و
-1.281102	<َ> : ي
-2.108442	<ُ> : "
-2.98755	<ُ> : (
-1.304737	<ُ> : {
-2.522356	<ُ> : آ
-1.056413	<ُ> : أ
-1.019501	<ُ> : إ
-0.9884667	<ُ> : ا
-1.807412	<ُ> : ب
-1.618356	<ُ> : ت
-2.108442	<ُ> : ث
-2.371683	<ُ> : ج
-1.848805	<ُ> : ح
-2.035891	<ُ> : خ
-2.195592	<ُ> : د
-2.371683	<ُ> : ذ
-1.618356	<ُ> : ر
-2.521103	<ُ> : ز
-1.450865	<ُ> : س
-2.371683	<ُ> : ش
-2.246745	<ُ> : ص
-2.701783	<ُ> : ض
-2.701783	<ُ> : ط
-1.644685	<ُ> : ع
-2.701783	<ُ> : غ
-1.343655	<ُ> : ف
-1.506382	<ُ> : ق
-1.605767	<ُ> : ك
-1.013114	<ُ> : ل
-1.096756	<ُ> : م
-1.751895	<ُ> : ن
-1.593532	<ُ> : ه
-1.104512	<ُ> : و
-1.230757	<ُ> : ي
-1.996074	<ِ> : "
-2.548022	<ِ> : (
-1.225222	<ِ> : {
-1.087589	<ِ> : أ
-1.032286	<ِ> : إ
-0.9316157	<ِ> : ا
-2.092984	<ِ> : ب
-1.916892	<ِ> : ت
-2.217922	<ِ> : ث
-2.367342	<ِ> : ج
-2.092984	<ِ> : ح
-2.833789	<ِ> : ذ
-1.71732	<ِ> : ر
-1.71732	<ِ> : س
-1.518952	<ِ> : ص
-1.791954	<ِ> : ع
-1.305878	<ِ> : ف
-1.372824	<ِ> : ق
-1.533676	<ِ> : ك
-1.163565	<ِ> : ل
-1.240199	<ِ> : م
-2.217922	<ِ> : ن
-1.439771	<ِ> : ه
-0.8347057	<ِ> : و
-1.196733	<ِ> : ي
-0.8377149	<ّ> : ه
-0.5228788	<ّ> : و
-0.4771213	<َّ> : {
-1.217926	<َّ> : أ
-0.90309	<َّ> : ا
-0.7527323	<َّ> : ل
-2.289501	<ُّ> : {
-1.410394	<ُّ> : أ
-1.221338	<ُّ> : إ
-1.196514	<ُّ> : ا
-1.974665	<ُّ> : ب
-2.289501	<ُّ> : ث
-2.289501	<ُّ> : ج
-1.673635	<ُّ> : ح
-1.974665	<ُّ> : د
-2.003735	<ُّ> : ر
-0.9746652	<ُّ> : س
-2.289501	<ُّ> : ش
-1.548696	<ُّ> : ص
-1.824308	<ُّ> : ع
-1.497544	<ُّ> : غ
-1.410394	<ُّ> : ف
-1.036813	<ُّ> : ق
-1.275695	<ُّ> : ك
-1.036813	<ُّ> : ل
-1.221338	<ُّ> : م
-1.497544	<ُّ> : ه
-0.818318	<ُّ> : و
-1.823054	<ُّ> : ي
-1.716301	<ِّ> : {
-1.535621	<ِّ> : أ
-1.536874	<ِّ> : إ
-0.9882616	<ِّ> : ا
-1.687232	<ِّ> : ب
-2.002068	<ِّ> : ث
-1.687232	<ِّ> : ر
-2.002068	<ِّ> : س
-1.536874	<ِّ> : ص
-1.535621	<ِّ> : ع
-1.535621	<ِّ> : ف
-1.261263	<ِّ> : ق
-1.535621	<ِّ> : ك
-1.21011	<ِّ> : ل
-1.386202	<ِّ> : م
-1.386202	<ِّ> : ه
-0.5845693	<ِّ> : و
-1.536874	<ِّ> : ي
-2.473199	<ْ> : "
-1.158363	<ْ> : {
-0.9542425	<ْ> : أ
-1.067282	<ْ> : إ
-0.9542425	<ْ> : ا
-1.594091	<ْ> : ب
-2.006752	<ْ> : ت
-2.158362	<ْ> : ث
-2.158362	<ْ> : ج
-2.008005	<ْ> : ح
-2.473199	<ْ> : خ
-2.158362	<ْ> : ذ
-2.187432	<ْ> : ر
-2.473199	<ْ> : ز
-1.594091	<ْ> : س
-2.158362	<ْ> : ش
-2.158362	<ْ> : ط
-1.635484	<ْ> : ع
-2.473199	<ْ> : غ
-1.431364	<ْ> : ف
-1.273756	<ْ> : ق
-1.635484	<ْ> : ك
-1.173086	<ْ> : ل
-1.173086	<ْ> : م
-2.187432	<ْ> : ن
-1.405035	<ْ> : ه
-1.012234	<ْ> : و
-1.22051	<ْ> : ي
-0.7690079	{ : أ
-0.8117598	{ : إ
-1.232765	{ : ا
-2.111873	{ : ب
-1.826106	{ : ج
-2.111873	{ : ح
-1.826106	{ : خ
-1.826106	{ : د
-1.797037	{ : ر
-1.797037	{ : س
-1.797037	{ : ص
-1.797037	{ : ع
-1.826106	{ : ف
-1.826106	{ : ق
-1.098067	{ : ك
-1.043709	{ : ل
-0.8427941	{ : م
-1.496007	{ : ن
-1.645426	{ : و
-1.646679	{ : ي
-0.6158662	} : ف
-0.4397749	ء : ل
-1.869232	ا : )
-1.267172	ا : {
-1.00393	ا : أ
-1.09108	ا : إ
-1.115904	ا : ا
-1.718874	ا : ب
-1.898301	ا : ت
-2.184068	ا : ث
-1.718874	ا : ح
-2.184068	ا : ر
-1.267172	ا : س
-1.718874	ا : ع
-1.443263	ا : ف
-1.718874	ا : ق
-1.898301	ا : ك
-0.9661418	ا : ل
-1.568202	ا : م
-1.170262	ا : ن
-1.898301	ا : ه
-0.899195	ا : و
-1.067599	ا : ي
-0.6158662	ة : ل
-1.075141	ت : أ
-1.400652	ت : إ
-1.581332	ت : ا
-1.867099	ت : ب
-1.867099	ت : ت
-0.7506302	ت : ف
-1.581332	ت : ق
-1.400652	ت : ك
-0.9154404	ت : ل
-1.075141	ت : م
-1.401905	ت : ن
-1.581332	ت : ه
-1.401905	ت : و
-0.9154404	ت : ي
-0.8239087	د : ح
-1.138745	د : س
-1.138745	د : م
-1.138745	د : ي
-0.9516582	ر : أ
-0.6368221	ر : إ
-0.9516582	ر : ت
-0.9516582	ر : و
-0.5366849	ك : ف
-0.90309	ل : ا
-1.217926	ل : ب
-1.217926	ل : ق
-1.217926	ل : ل
-1.217926	ل : م
-0.90309	ل : ه
-1.217926	ل : ي
-0.3148362	م : أ
-0.8377149	ه : "
-0.5228788	ه : و
-0.1453799	ى : {
-1.736756	ى : أ
-1.736756	ى : إ
-1.587337	ى : ا
-1.917436	ى : ت
-1.917436	ى : ع
-1.888367	ى : ف
-2.203203	ى : ق
-2.203203	ى : ك
-1.917436	ى : ل
-1.736756	ى : م
-1.286307	ى : و
-1.888367	ى : ي
-1.990003	ي : )
-1.704237	ي : {
-1.073107	ي : أ
-1.00616	ي : إ
-0.9761971	ي : ا
-1.990003	ي : ب
-1.990003	ي : ت
-1.990003	ي : ر
-1.990003	ي : ظ
-0.9218394	ي : ف
-1.990003	ي : ق
-1.704237	ي : ك
-1.038345	ي : ل
-1.374137	ي : م
-1.675167	ي : ه
-0.6751671	ي : و
-1.249198	ي : ي
-8.052183e-005	<ً> <u> s
-0.01223446	ء <u> s
-1.880575	آ <u> ب
-2.357697	آ <u> ة
-1.669722	آ <u> ت
-1.468395	آ <u> ث
-1.798389	آ <u> ج
-2.812735	آ <u> ح
-0.4452089	آ <u> خ
-0.9324071	آ <u> د
-1.899059	آ <u> ذ
-2.306544	آ <u> ر
-2.114659	آ <u> س
-3.098502	آ <u> ص
-1.880575	آ <u> ف
-1.544783	آ <u> ك
-1.475457	آ <u> ل
-1.247949	آ <u> م
-0.793919	آ <u> ن
-1.755637	آ <u> ه
-2.783665	آ <u> و
-1.022741	آ <u> ي
-0.6512747	أ <u> s
-1.116469	أ <u> ط
-0.6512747	أ <u> ن
-1.116469	أ <u> ه
-1.515448	إ <u> ب
-2.816478	إ <u> ت
-2.255036	إ <u> ث
-2.156426	إ <u> ج
-2.099283	إ <u> ح
-2.023087	إ <u> خ
-2.500208	إ <u> د
-0.6999177	إ <u> ذ
-2.500208	إ <u> ر
-2.418538	إ <u> ز
-1.436267	إ <u> س
-2.600878	إ <u> ش
-2.394404	إ <u> ص
-2.600878	إ <u> ض
-2.786515	إ <u> ط
-2.661576	إ <u> ظ
-2.382823	إ <u> ع
-3.800321	إ <u> غ
-2.707334	إ <u> ف
-2.500208	إ <u> ق
-2.564666	إ <u> ك
-0.3952268	إ <u> ل
-1.890724	إ <u> م
-0.6291588	إ <u> ن
-2.921213	إ <u> ه
-1.819591	إ <u> ي
-0.1387449	ئ <u> s
-0.7514102	ا <u> s
-1.568149	ا <u> ء
-3.107039	ا <u> ؤ
-1.925407	ا <u> ئ
-1.402063	ا <u> ب
-2.41065	ا <u> ة
-1.89673	ا <u> ت
-2.501774	ا <u> ث
-2.073615	ا <u> ج
-1.975159	ا <u> ح
-2.616197	ا <u> خ
-1.736588	ا <u> د
-2.766081	ا <u> ذ
-1.556132	ا <u> ر
-2.48226	ا <u> ز
-1.747696	ا <u> س
-2.582234	ا <u> ش
-2.458498	ا <u> ص
-2.309489	ا <u> ض
-2.486094	ا <u> ط
-3.328888	ا <u> ظ
-1.929022	ا <u> ع
-2.832539	ا <u> غ
-1.959077	ا <u> ف
-2.149946	ا <u> ق
-2.32303	ا <u> ك
-0.3277205	ا <u> ل
-1.517048	ا <u> م
-1.332765	ا <u> ن
-1.684948	ا <u> ه
-2.130842	ا <u> و
-2.135626	ا <u> ي
-0.1703768	ب <u> s
-1.551498	ب <u> ا
-1.701856	ب <u> د
-2.016692	ب <u> ق
-1.551498	ب <u> ك
-2.016692	ب <u> ل
-1.275887	ب <u> ن
-0.9485281	ب <u> ه
-1.701856	ب <u> و
-0.001978566	ة <u> s
-0.06496587	ت <u> s
-2.747412	ت <u> ك
-2.747412	ت <u> م
-1.969261	ت <u> ن
-0.9127792	ت <u> ه
-0.6784483	ث <u> s
-0.10665	ث <u> ن
-0.1863104	ج <u> s
-1.185417	ج <u> ا
-0.8553172	ج <u> ه
-1.156347	ج <u> و
-0.10721	ح <u> s
-1.028029	ح <u> ه
-1.028029	ح <u> ي
-0.03380656	د <u> s
-2.204415	د <u> ر
-1.878905	د <u> ن
-1.435207	د <u> ه
-2.205668	د <u> ي
-0.1383027	ذ <u> s
-0.1727115	ر <u> s
-1.391207	ر <u> ا
-2.028029	ر <u> ش
-2.342865	ر <u> ف
-2.028029	ر <u> ق
-2.342865	ر <u> ك
-2.028029	ر <u> م
-1.877671	ر <u> ن
-0.8330521	ر <u> ه
-1.359022	ر <u> و
-1.60206	ر <u> ي
-0.1691424	ز <u> s
-1.04331	ز <u> ر
-0.8638828	ز <u> ي
-0.2671717	س <u> s
-1.09108	س <u> ف
-1.405917	س <u> م
-1.405917	س <u> ن
-1.09108	س <u> ه
-1.405917	س <u> و
-0.6368221	ش <u> s
-0.9516582	ش <u> ا
-0.9516582	ش <u> ك
-0.5366849	ص <u> s
-0.1199753	ض <u> s
-0.8336659	ض <u> ه
-0.3245111	ط <u> s
-1.116469	ط <u> ب
-1.116469	ط <u> ر
-1.116469	ط <u> ك
-0.4259687	ظ <u> s
-0.2756111	ظ <u> ه
-0.1122973	ع <u> s
-1.735342	ع <u> ك
-0.6935071	ع <u> ه
-0.4126606	غ <u> s
-0.8791076	غ <u> ا
-0.1540085	ـ <u> s
-0.146128	ف <u> s
-1.724206	ف <u> ح
-1.438439	ف <u> ر
-1.724206	ف <u> ل
-0.9834008	ف <u> ه
-1.724206	ف <u> ي
-0.08501079	ق <u> s
-1.490927	ق <u> ج
-1.490927	ق <u> ه
-0.002833906	ك <u> s
-2.641854	ك <u> ه
-2.166805	ل <u> s
-3.472157	ل <u> أ
-3.844678	ل <u> ا
-3.843424	ل <u> ب
-1.111374	ل <u> ت
-1.677668	ل <u> ث
-1.218334	ل <u> د
-1.869012	ل <u> ذ
-1.061548	ل <u> ر
-1.701304	ل <u> ز
-1.065616	ل <u> س
-1.129537	ل <u> ش
-1.218334	ل <u> ص
-1.990714	ل <u> ض
-1.457216	ل <u> ط
-2.02345	ل <u> ظ
-3.995035	ل <u> ـ
-3.995035	ل <u> ف
-4.309871	ل <u> ق
-3.694005	ل <u> ك
-0.5334867	ل <u> ل
-3.843424	ل <u> م
-0.8504611	ل <u> ن
-2.48093	ل <u> ه
-4.024105	ل <u> ي
-0.09637018	م <u> s
-1.675717	م <u> ا
-1.855145	م <u> ر
-2.140911	م <u> ن
-0.9414682	م <u> ه
-0.2335708	ن <u> s
-0.5470694	ن <u> ا
-1.605664	ن <u> ج
-1.781755	ن <u> د
-2.397622	ن <u> ز
-2.111855	ن <u> ك
-2.082785	ن <u> م
-1.383815	ن <u> ه
-1.931175	ن <u> ي
-0.06458005	ه <u> s
-2.468143	ه <u> ـ
-0.906152	ه <u> م
-2.468143	ه <u> ن
-0.9403203	و <u> s
-1.923586	و <u> ء
-3.795681	و <u> آ
-3.766611	و <u> ئ
-0.935168	و <u> ا
-1.349971	و <u> ب
-4.081447	و <u> ة
-1.915353	و <u> ت
-2.98846	و <u> ث
-1.923586	و <u> ج
-2.018423	و <u> ح
-2.562491	و <u> خ
-1.380409	و <u> د
-1.768061	و <u> ذ
-1.159872	و <u> ر
-1.682631	و <u> ز
-1.541302	و <u> س
-2.675531	و <u> ش
-2.266009	و <u> ص
-2.725219	و <u> ض
-2.357242	و <u> ط
-2.942702	و <u> ظ
-1.375088	و <u> ع
-2.752371	و <u> غ
-1.679066	و <u> ف
-1.878244	و <u> ق
-2.126461	و <u> ك
-0.7527912	و <u> ل
-1.447852	و <u> م
-0.8018802	و <u> ن
-1.57909	و <u> ه
-4.081447	و <u> ي
-3.201227e-005	ى <u> s
-0.3201016	ي <u> s
-2.419076	ي <u> ء
-2.581524	ي <u> ئ
-3.790144	ي <u> ا
-1.615503	ي <u> ب
-4.406011	ي <u> ة
-2.320322	ي <u> ت
-1.337591	ي <u> ث
-2.782966	ي <u> ج
-1.654482	ي <u> ح
-2.599813	ي <u> خ
-1.50609	ي <u> د
-2.924843	ي <u> ذ
-1.331506	ي <u> ر
-2.454352	ي <u> ز
-2.250232	ي <u> س
-2.84402	ي <u> ش
-2.519078	ي <u> ص
-2.284994	ي <u> ض
-2.735787	ي <u> ط
-2.699064	ي <u> ظ
-1.789421	ي <u> ع
-3.076934	ي <u> غ
-1.835098	ي <u> ف
-1.71036	ي <u> ق
-2.172096	ي <u> ك
-1.213036	ي <u> ل
-1.354512	ي <u> م
-1.131656	ي <u> ن
-1.129121	ي <u> ه
-3.337847	ي <u> و
-0.06694679	<ّ> <ً> ى
-1.511883	ء <ً> .
-0.09970291	ء <ً> s
-1.661303	ء <ً> }
-0.9283068	ء <ً> ،
-2.127749	ء <ً> ؛
-0.07918125	أ <ً> s
-2.56814	ا <ً> "
-3.398842	ا <ً> (
-3.219415	ا <ً> )
-1.366887	ا <ً> .
-1.760534	ا <ً> :
-0.1150631	ا <ً> <u>
-1.230943	ا <ً> {
-1.621584	ا <ً> }
-1.104168	ا <ً> ،
-2.56814	ا <ً> ؛
-2.369772	ا <ً> ؟
-2.699316	ة <ً> "
-2.985082	ة <ً> (
-2.699316	ة <ً> )
-1.376515	ة <ً> .
-2.369216	ة <ً> :
-0.08328367	ة <ً> s
-1.591065	ة <ً> }
-1.057462	ة <ً> ،
-2.699316	ة <ً> ؛
-2.518635	ة <ً> ؟
-0.0714911	ت <ً> ى
-0.0714911	د <ً> ى
-0.01848341	ذ <ً> ى
-0.0714911	ر <ً> ى
-0.1249387	ص <ً> ى
-0.1540085	ع <ً> ى
-0.1506723	ف <ً> ى
-0.1387449	ق <ً> ى
-0.0714911	ل <ً> ى
-0.009340026	ن <ً> ى
-0.02020339	و <ً> ى
-2.159981	<ّ> <ٌ> )
-1.611369	<ّ> <ٌ> .
-2.158728	<ّ> <ٌ> :
-0.05587171	<ّ> <ٌ> s
-1.746068	<ّ> <ٌ> }
-1.268947	<ّ> <ٌ> ،
-2.310339	<ّ> <ٌ> ؟
-1.512397	ء <ٌ> .
-0.08103325	ء <ٌ> s
-1.584948	ء <ٌ> }
-0.9828877	ء <ٌ> ،
-2.149219	ء <ٌ> ؟
-0.1249387	أ <ٌ> s
-1.041835	أ <ٌ> ،
-0.03218468	ؤ <ٌ> s
-0.2632414	ئ <ٌ> s
-0.5642715	ئ <ٌ> ،
-2.363523	ب <ٌ> (
-2.64929	ب <ٌ> )
-1.178107	ب <ٌ> .
-1.732394	ب <ٌ> :
-0.0914157	ب <ٌ> s
-2.182843	ب <ٌ> }
-1.158363	ب <ٌ> ،
-2.363523	ب <ٌ> ؛
-2.184096	ب <ٌ> ؟
-2.779321	ة <ٌ> "
-2.449221	ة <ٌ> )
-1.335278	ة <ٌ> .
-2.148191	ة <ٌ> :
-0.09128635	ة <ٌ> s
-3.065087	ة <ٌ> {
-1.555275	ة <ٌ> }
-1.025975	ة <ٌ> ،
-2.779321	ة <ٌ> ؛
-2.59864	ة <ٌ> ؟
-1.125925	ت <ٌ> .
-2.005032	ت <ٌ> :
-0.08453196	ت <ٌ> s
-1.167317	ت <ٌ> ،
-0.03476211	ث <ٌ> s
-1.238882	ث <ٌ> ،
-0.04884857	ج <ٌ> s
-1.194977	ج <ٌ> ،
-0.9498334	ح <ٌ> .
-1.690196	ح <ٌ> :
-0.1161648	ح <ٌ> s
-2.020296	ح <ٌ> }
-1.167317	ح <ٌ> ،
-1.991226	ح <ٌ> ؛
-1.394017	خ <ٌ> .
-0.05115252	خ <ٌ> s
-1.394017	خ <ٌ> ،
-2.440128	د <ٌ> )
-1.225422	د <ٌ> .
-1.933937	د <ٌ> :
-0.06081022	د <ٌ> s
-2.725894	د <ٌ> {
-2.260701	د <ٌ> }
-1.425781	د <ٌ> ،
-2.725894	د <ٌ> ؛
-2.411058	د <ٌ> ؟
-0.01930515	ذ <ٌ> s
-2.791957	ر <ٌ> )
-1.341459	ر <ٌ> .
-1.723794	ر <ٌ> :
-0.09630725	ر <ٌ> s
-2.326764	ر <ٌ> {
-1.875061	ر <ٌ> }
-1.019744	ر <ٌ> ،
-2.326764	ر <ٌ> ؛
-2.477121	ر <ٌ> ؟
-2.325511	ر <ٌ> و
-0.1014576	ز <ٌ> s
-0.7781513	ز <ٌ> ،
-2.277048	س <ٌ> "
-1.536243	س <ٌ> .
-0.07011683	س <ٌ> s
-1.811854	س <ٌ> {
-2.277048	س <ٌ> }
-1.09691	س <ٌ> ،
-0.2155998	ش <ٌ> s
-0.7329957	ش <ٌ> ،
-1.300113	ص <ٌ> .
-0.1199753	ص <ٌ> s
-0.8349191	ص <ٌ> ،
-1.934625	ض <ٌ> .
-0.89279	ض <ٌ> :
-0.1146388	ض <ٌ> s
-1.648859	ض <ٌ> }
-1.318759	ض <ٌ> ،
-1.650628	ط <ٌ> .
-0.1053432	ط <ٌ> s
-0.7715207	ط <ٌ> ،
-0.05611594	ظ <ٌ> s
-1.041393	ظ <ٌ> ،
-1.311754	ع <ٌ> .
-1.942884	ع <ٌ> :
-0.08558374	ع <ٌ> s
-1.029207	ع <ٌ> ،
-2.22865	ع <ٌ> ؟
-0.1506723	غ <ٌ> s
-1.127345	ف <ٌ> .
-0.08595212	ف <ٌ> s
-2.081587	ف <ٌ> {
-1.067347	ف <ٌ> ،
-1.353059	ق <ٌ> .
-0.06201322	ق <ٌ> s
-2.232167	ق <ٌ> }
-1.115698	ق <ٌ> ،
-1.514283	ك <ٌ> .
-1.101622	ك <ٌ> :
-0.1218255	ك <ٌ> s
-1.364864	ك <ٌ> }
-1.188772	ك <ٌ> ،
-0.5767946	ل <ٌ> (
-2.19774	ل <ٌ> )
-1.704824	ل <ٌ> .
-1.518514	ل <ٌ> :
-0.1919876	ل <ٌ> s
-2.989697	ل <ٌ> }
-1.479885	ل <ٌ> ،
-2.416085	م <ٌ> "
-1.160813	م <ٌ> .
-2.265728	م <ٌ> :
-0.09317739	م <ٌ> s
-2.115056	م <ٌ> {
-1.531479	م <ٌ> }
-1.160813	م <ٌ> ،
-2.115056	م <ٌ> ؟
-2.126869	ن <ٌ> )
-1.141564	ن <ٌ> .
-0.08040634	ن <ٌ> s
-1.675167	ن <ٌ> }
-1.262987	ن <ٌ> ،
-2.277227	ن <ٌ> ؛
-2.592063	ن <ٌ> ؟
-0.9488475	ه <ٌ> .
-0.1037494	ه <ٌ> s
-1.425969	ه <ٌ> ،
-1.425969	ه <ٌ> ؟
-0.07918125	و <ٌ> s
-0.9168962	و <ٌ> ،
-0.05799195	ي <ٌ> s
-1.041835	ي <ٌ> ،
-2.636366	<ّ> <ٍ> )
-1.719469	<ّ> <ٍ> .
-1.436923	<ّ> <ٍ> :
-0.08432089	<ّ> <ٍ> s
-1.652523	<ّ> <ٍ> {
-1.652523	<ّ> <ٍ> }
-1.175401	<ّ> <ٍ> ،
-2.636366	<ّ> <ٍ> ؟
-1.64204	ء <ٍ> .
-0.05900358	ء <ٍ> s
-1.584048	ء <ٍ> }
-1.144716	ء <ٍ> ،
-2.625883	ء <ٍ> ؟
-0.2176191	إ <ٍ> s
-0.6828129	إ <ٍ> ،
-0.9294189	ئ <ٍ> :
-0.07410172	ئ <ٍ> s
-1.545285	ئ <ٍ> ،
-1.490752	ب <ٍ> .
-1.375359	ب <ٍ> :
-0.07505317	ب <ٍ> s
-1.898237	ب <ٍ> {
-1.898237	ب <ٍ> }
-1.284278	ب <ٍ> ،
-2.603991	ة <ٍ> "
-2.190077	ة <ٍ> )
-1.350656	ة <ٍ> .
-2.190077	ة <ٍ> :
-0.1040408	ة <ٍ> s
-1.83353	ة <ٍ> {
-1.598001	ة <ٍ> }
-0.9884315	ة <ٍ> ،
-2.603991	ة <ٍ> ؛
-2.152288	ة <ٍ> ؟
-2.260961	ت <ٍ> "
-1.520156	ت <ٍ> .
-1.645095	ت <ٍ> :
-0.08678614	ت <ٍ> s
-1.469003	ت <ٍ> }
-1.080823	ت <ٍ> ،
-1.471638	ث <ٍ> .
-1.652319	ث <ٍ> :
-0.09177037	ث <ٍ> s
-1.471638	ث <ٍ> }
-1.623249	ث <ٍ> ،
-1.718529	ج <ٍ> .
-0.06790023	ج <ٍ> s
-1.718529	ج <ٍ> }
-1.102662	ج <ٍ> ،
-1.402261	ح <ٍ> .
-1.5272	ح <ٍ> :
-0.07490245	ح <ٍ> s
-1.82823	ح <ٍ> }
-1.22617	ح <ٍ> ،
-2.143066	ح <ٍ> ؛
-0.08167005	خ <ٍ> s
-1.096017	خ <ٍ> ،
-3.025517	د <ٍ> (
-1.725405	د <ٍ> .
-1.424375	د <ٍ> :
-0.05811275	د <ٍ> s
-1.682653	د <ٍ> {
-2.108621	د <ٍ> }
-1.431928	د <ٍ> ،
-3.025517	د <ٍ> ؟
-1.275611	ذ <ٍ> .
-0.09691001	ذ <ٍ> s
-1.455039	ذ <ٍ> {
-1.124939	ذ <ٍ> ،
-2.749229	ر <ٍ> "
-1.640978	ر <ٍ> .
-1.384367	ر <ٍ> :
-0.09587721	ر <ٍ> s
-1.765917	ر <ٍ> {
-1.782307	ر <ٍ> }
-1.316467	ر <ٍ> ،
-3.034996	ر <ٍ> ؟
-1.322219	ر <ٍ> و
-1.113943	ز <ٍ> .
-0.1439066	ز <ٍ> s
-0.9623325	ز <ٍ> ،
-2.643895	س <ٍ> "
-1.630089	س <ٍ> .
-1.287666	س <ٍ> :
-0.0986098	س <ٍ> s
-1.050305	س <ٍ> {
-2.643895	س <ٍ> }
-1.550907	س <ٍ> ،
-1.796756	ش <ٍ> .
-1.48192	ش <ٍ> :
-0.0399633	ش <ٍ> s
-1.796756	ش <ٍ> ،
-1.436693	ص <ٍ> .
-0.06871581	ص <ٍ> s
-1.010724	ص <ٍ> ،
-1.278754	ض <ٍ> .
-0.1062966	ض <ٍ> s
-1.704722	ض <ٍ> }
-0.9265711	ض <ٍ> ،
-0.05690485	ط <ٍ> s
-1.59359	ط <ٍ> }
-1.278754	ط <ٍ> ،
-0.2491984	ظ <ٍ> s
-0.436285	ظ <ٍ> {
-1.688973	ظ <ٍ> ،
-1.724276	ع <ٍ> .
-1.423246	ع <ٍ> :
-0.09080742	ع <ٍ> s
-1.724276	ع <ٍ> {
-2.054376	ع <ٍ> }
-1.071063	ع <ٍ> ،
-2.340142	ع <ٍ> ؛
-0.05799195	غ <ٍ> s
-1.22862	ف <ٍ> .
-1.596597	ف <ٍ> :
-0.09828654	ف <ٍ> s
-2.212463	ف <ٍ> {
-1.013021	ف <ٍ> ،
-1.365904	ق <ٍ> .
-2.157861	ق <ٍ> :
-0.06487378	ق <ٍ> s
-2.157861	ق <ٍ> }
-1.206203	ق <ٍ> ،
-2.157861	ق <ٍ> ؟
-1.287242	ك <ٍ> .
-0.08652798	ك <ٍ> s
-1.41218	ك <ٍ> {
-1.74228	ك <ٍ> }
-1.287242	ك <ٍ> ،
-2.659158	ل <ٍ> )
-1.527426	ل <ٍ> .
-1.268361	ل <ٍ> :
-0.07904555	ل <ٍ> s
-2.479731	ل <ٍ> {
-1.931119	ل <ٍ> }
-1.226396	ل <ٍ> ،
-2.630089	ل <ٍ> ؟
-2.947968	م <ٍ> "
-1.55395	م <ٍ> .
-1.332102	م <ٍ> :
-0.07004629	م <ٍ> s
-1.748525	م <ٍ> {
-1.879804	م <ٍ> }
-1.447495	م <ٍ> ،
-2.482774	م <ٍ> ؟
-1.337459	ن <ٍ> .
-1.603727	ن <ٍ> :
-0.09235805	ن <ٍ> s
-2.240549	ن <ٍ> {
-2.090192	ن <ٍ> }
-1.036429	ن <ٍ> ،
-2.269619	ن <ٍ> ؟
-1.48192	ه <ٍ> .
-1.796756	ه <ٍ> :
-0.0782278	ه <ٍ> s
-1.51099	ه <ٍ> }
-1.48192	ه <ٍ> ،
-1.796756	ه <ٍ> ؟
-0.01772877	و <ٍ> s
-0.06214791	ي <ٍ> s
-2.64836	ء <َ> (
-1.763753	ء <َ> .
-2.64836	ء <َ> :
-0.2186077	ء <َ> s
-2.67743	ء <َ> {
-1.783059	ء <َ> }
-1.435285	ء <َ> ،
-2.67743	ء <َ> ؟
-1.727541	ء <َ> ا
-2.34733	ء <َ> ب
-0.9079973	ء <َ> ة
-1.34733	ء <َ> ت
-1.33309	ء <َ> ك
-2.64836	ء <َ> ل
-2.498002	ء <َ> م
-1.74527	ء <َ> ن
-1.319301	ء <َ> ه
-2.67743	ء <َ> ي
-4.071931	أ <َ> .
-4.071931	أ <َ> :
-2.248022	أ <َ> s
-4.071931	أ <َ> {
-3.770901	أ <َ> ،
-3.50766	أ <َ> أ
-2.800864	أ <َ> ئ
-0.891614	أ <َ> ب
-2.1193	أ <َ> ة
-1.944826	أ <َ> ت
-2.216614	أ <َ> ث
-1.761592	أ <َ> ج
-1.058813	أ <َ> ح
-1.499059	أ <َ> خ
-1.829721	أ <َ> د
-2.156355	أ <َ> ذ
-1.527863	أ <َ> ر
-2.645962	أ <َ> ز
-1.693533	أ <َ> س
-1.874191	أ <َ> ش
-1.495974	أ <َ> ص
-2.462692	أ <َ> ض
-2.046625	أ <َ> ط
-2.409173	أ <َ> ظ
-1.476435	أ <َ> ع
-2.469871	أ <َ> غ
-1.928916	أ <َ> ف
-1.827242	أ <َ> ق
-1.572702	أ <َ> ك
-1.457034	أ <َ> ل
-1.257462	أ <َ> م
-0.6245663	أ <َ> ن
-1.632598	أ <َ> ه
-1.126134	أ <َ> و
-2.418719	أ <َ> ى
-1.327638	أ <َ> ي
-2.307537	ؤ <َ> s
-0.3299429	ؤ <َ> ا
-1.992701	ؤ <َ> ة
-1.293731	ؤ <َ> ث
-1.842343	ؤ <َ> ج
-1.239373	ؤ <َ> خ
-0.7885808	ؤ <َ> د
-2.02177	ؤ <َ> ذ
-1.84109	ؤ <َ> س
-2.02177	ؤ <َ> ك
-1.566732	ؤ <َ> ل
-1.21455	ؤ <َ> م
-2.02177	ؤ <َ> ن
-2.307537	ؤ <َ> و
-1.191068	ؤ <َ> ي
-1.120848	ئ <َ> s
-2.639804	ئ <َ> ،
-0.3051596	ئ <َ> ا
-0.5256274	ئ <َ> ة
-1.310728	ئ <َ> ت
-1.222306	ئ <َ> ل
-2.17461	ئ <َ> ه
-2.17461	ئ <َ> ي
-0.002232881	ا <َ> ل
-2.604871	ا <َ> ي
-4.068189	ب <َ> "
-2.725324	ب <َ> .
-3.189082	ب <َ> :
-1.012464	ب <َ> s
-3.753353	ب <َ> {
-2.908255	ب <َ> }
-2.4746	ب <َ> ،
-3.753353	ب <َ> ؛
-3.602996	ب <َ> ؟
-1.825641	ب <َ> أ
-0.6724863	ب <َ> ا
-2.034575	ب <َ> ب
-1.096297	ب <َ> ة
-1.70803	ب <َ> ت
-2.768076	ب <َ> ث
-3.753353	ب <َ> ج
-2.026355	ب <َ> ح
-2.367151	ب <َ> خ
-1.676591	ب <َ> د
-2.522904	ب <َ> ذ
-1.115197	ب <َ> ر
-2.650691	ب <َ> ز
-2.084347	ب <َ> س
-2.332847	ب <َ> ش
-2.015631	ب <َ> ص
-3.000026	ب <َ> ض
-1.914504	ب <َ> ط
-0.9556242	ب <َ> ع
-1.602086	ب <َ> غ
-1.525467	ب <َ> ق
-1.671766	ب <َ> ك
-1.203125	ب <َ> ل
-1.732164	ب <َ> ن
-1.535869	ب <َ> ه
-2.075138	ب <َ> و
-2.607225	ب <َ> ى
-1.017754	ب <َ> ي
-3.087545	ة <َ> "
-1.610424	ة <َ> .
-1.635247	ة <َ> :
-0.05694509	ة <َ> s
-1.591538	ة <َ> {
-2.020598	ة <َ> }
-1.460862	ة <َ> ،
-2.935934	ة <َ> ؛
-2.935934	ة <َ> ؟
-4.074856	ت <َ> )
-2.981869	ت <َ> .
-3.334051	ت <َ> :
-1.239318	ت <َ> s
-3.15796	ت <َ> }
-2.657358	ت <َ> ،
-2.958388	ت <َ> ؟
-4.074856	ت <َ> آ
-1.606714	ت <َ> أ
-1.074278	ت <َ> ا
-1.448266	ت <َ> ب
-2.657358	ت <َ> ة
-1.919078	ت <َ> ت
-2.521138	ت <َ> ث
-1.556806	ت <َ> ج
-1.255776	ت <َ> ح
-1.832308	ت <َ> خ
-1.530424	ت <َ> د
-2.36791	ت <َ> ذ
-1.206542	ت <َ> ر
-1.912859	ت <َ> ز
-1.651681	ت <َ> س
-1.849752	ت <َ> ش
-1.699322	ت <َ> ص
-1.804172	ت <َ> ض
-1.989168	ت <َ> ط
-2.512866	ت <َ> ظ
-1.065415	ت <َ> ع
-1.786892	ت <َ> غ
-1.521138	ت <َ> ف
-1.174184	ت <َ> ق
-1.416283	ت <َ> ك
-1.523651	ت <َ> ل
-1.355757	ت <َ> م
-1.462624	ت <َ> ن
-1.239755	ت <َ> ه
-1.3484	ت <َ> و
-1.888837	ت <َ> ى
-1.666598	ت <َ> ي
-2.312944	ث <َ> .
-0.8876542	ث <َ> s
-2.888332	ث <َ> {
-3.354779	ث <َ> }
-2.340973	ث <َ> ،
-3.039943	ث <َ> ؟
-0.8172262	ث <َ> ا
-1.753636	ث <َ> ب
-1.017377	ث <َ> ة
-1.99855	ث <َ> ت
-2.889585	ث <َ> ث
-3.039943	ث <َ> د
-0.9271142	ث <َ> ر
-2.102091	ث <َ> ع
-1.844966	ث <َ> ق
-2.370936	ث <َ> ك
-0.8876542	ث <َ> ل
-1.326732	ث <َ> م
-0.7281888	ث <َ> ن
-1.809494	ث <َ> ه
-1.370936	ث <َ> و
-2.475671	ث <َ> ى
-2.102091	ث <َ> ي
-2.969532	ج <َ> .
-1.399866	ج <َ> s
-3.245143	ج <َ> }
-2.668502	ج <َ> ،
-3.24389	ج <َ> أ
-0.5805879	ج <َ> ا
-1.419304	ج <َ> ب
-1.337328	ج <َ> ة
-1.855589	ج <َ> ت
-3.395501	ج <َ> ث
-2.696531	ج <َ> ج
-2.457649	ج <َ> ح
-1.556652	ج <َ> د
-2.793441	ج <َ> ذ
-1.299751	ج <َ> ر
-1.637094	ج <َ> ز
-2.10177	ج <َ> س
-2.83123	ج <َ> ش
-3.094471	ج <َ> ص
-1.110695	ج <َ> ع
-2.13226	ج <َ> ف
-3.094471	ج <َ> ك
-1.098105	ج <َ> ل
-1.067122	ج <َ> م
-1.44287	ج <َ> ن
-1.197761	ج <َ> ه
-1.049801	ج <َ> و
-2.441259	ج <َ> ى
-1.488807	ج <َ> ي
-3.672436	ح <َ> .
-1.569774	ح <َ> s
-2.870804	ح <َ> ،
-0.6912222	ح <َ> ا
-1.40137	ح <َ> ب
-1.497311	ح <َ> ة
-1.33398	ح <َ> ت
-2.769346	ح <َ> ث
-2.000339	ح <َ> ج
-3.987273	ح <َ> ح
-0.6925848	ح <َ> د
-2.336644	ح <َ> ذ
-1.165481	ح <َ> ر
-2.317049	ح <َ> ز
-1.170009	ح <َ> س
-2.60549	ح <َ> ش
-2.128368	ح <َ> ص
-2.205075	ح <َ> ض
-2.894285	ح <َ> ط
-2.441988	ح <َ> ظ
-1.891879	ح <َ> ف
-1.396741	ح <َ> ق
-1.817119	ح <َ> ك
-1.534661	ح <َ> ل
-1.098405	ح <َ> م
-1.552961	ح <َ> ن
-2.140958	ح <َ> ه
-2.032286	ح <َ> و
-2.558493	ح <َ> ى
-1.353678	ح <َ> ي
-1.859845	خ <َ> s
-3.129993	خ <َ> ،
-0.6021359	خ <َ> ا
-1.11205	خ <َ> ب
-2.456442	خ <َ> ة
-2.085374	خ <َ> ت
-2.716079	خ <َ> ج
-2.124003	خ <َ> د
-1.264711	خ <َ> ذ
-0.9822257	خ <َ> ر
-2.502199	خ <َ> ز
-2.456442	خ <َ> س
-1.96508	خ <َ> ش
-1.808082	خ <َ> ص
-2.478718	خ <َ> ض
-1.261928	خ <َ> ط
-2.435253	خ <َ> ع
-1.63362	خ <َ> ف
-0.7693591	خ <َ> ل
-1.423018	خ <َ> م
-2.252322	خ <َ> ن
-2.979321	خ <َ> ه
-1.437326	خ <َ> و
-2.757472	خ <َ> ى
-0.9700115	خ <َ> ي
-3.558269	د <َ> "
-3.873105	د <َ> )
-2.588232	د <َ> .
-2.503911	د <َ> :
-0.5692638	د <َ> s
-3.03539	د <َ> {
-2.889262	د <َ> }
-2.172067	د <َ> ،
-3.873105	د <َ> ؛
-3.558269	د <َ> ؟
-3.257238	د <َ> ء
-2.086	د <َ> أ
-3.257238	د <َ> ؤ
-3.873105	د <َ> إ
-3.558269	د <َ> ئ
-0.6215872	د <َ> ا
-1.777711	د <َ> ب
-1.00479	د <َ> ة
-1.749832	د <َ> ت
-2.137763	د <َ> ث
-3.257238	د <َ> ج
-2.257238	د <َ> ح
-1.689037	د <َ> خ
-2.160328	د <َ> د
-1.655178	د <َ> ر
-2.604026	د <َ> س
-1.492564	د <َ> ع
-3.03539	د <َ> غ
-1.997963	د <َ> ف
-1.825875	د <َ> ق
-2.071602	د <َ> ك
-1.552516	د <َ> ل
-1.347861	د <َ> م
-1.596057	د <َ> ن
-1.241599	د <َ> ه
-1.92818	د <َ> و
-1.918118	د <َ> ى
-1.671778	د <َ> ي
-3.852991	ذ <َ> .
-1.725241	ذ <َ> s
-3.852991	ذ <َ> ،
-0.2605454	ذ <َ> ا
-2.237125	ذ <َ> ب
-2.392027	ذ <َ> ة
-2.583912	ذ <َ> ت
-2.973883	ذ <َ> ج
-3.852991	ذ <َ> خ
-1.77723	ذ <َ> ر
-3.852991	ذ <َ> ع
-2.811156	ذ <َ> ف
-3.538155	ذ <َ> ق
-0.9101065	ذ <َ> ك
-0.6561997	ذ <َ> ل
-2.299273	ذ <َ> م
-1.792559	ذ <َ> ن
-1.731975	ذ <َ> ه
-2.447074	ذ <َ> و
-2.267088	ذ <َ> ى
-2.157943	ذ <َ> ي
-3.929983	ر <َ> "
-4.215749	ر <َ> )
-2.599883	ر <َ> .
-2.846555	ر <َ> :
-0.8076081	ر <َ> s
-2.886673	ر <َ> {
-2.809833	ر <َ> }
-2.317337	ر <َ> ،
-4.215749	ر <َ> ؛
-4.215749	ر <َ> ؟
-3.173914	ر <َ> ء
-2.744566	ر <َ> آ
-1.384157	ر <َ> أ
-3.378034	ر <َ> ؤ
-3.929983	ر <َ> ئ
-0.7312387	ر <َ> ا
-1.553908	ر <َ> ب
-1.023734	ر <َ> ة
-1.811008	ر <َ> ت
-2.85952	ر <َ> ث
-1.307258	ر <َ> ج
-1.707788	ر <َ> ح
-2.679064	ر <َ> خ
-1.73656	ر <َ> د
-3.929983	ر <َ> ذ
-2.332711	ر <َ> ر
-2.900913	ر <َ> ز
-1.302853	ر <َ> س
-3.077004	ر <َ> ش
-2.915636	ر <َ> ص
-1.392608	ر <َ> ض
-2.264091	ر <َ> ط
-3.750556	ر <َ> ظ
-2.132522	ر <َ> ع
-2.545525	ر <َ> غ
-1.767374	ر <َ> ف
-1.983583	ر <َ> ق
-1.633741	ر <َ> ك
-1.885274	ر <َ> م
-2.171208	ر <َ> ن
-1.213087	ر <َ> ه
-1.102032	ر <َ> و
-1.606447	ر <َ> ى
-1.625986	ر <َ> ي
-2.902003	ز <َ> .
-1.137866	ز <َ> s
-2.350054	ز <َ> ،
-2.902003	ز <َ> أ
-0.4891175	ز <َ> ا
-2.236111	ز <َ> ب
-1.405571	ز <َ> ة
-1.902896	ز <َ> ت
-1.858692	ز <َ> ج
-1.935081	ز <َ> ح
-2.203926	ز <َ> خ
-1.726805	ز <َ> ر
-1.354419	ز <َ> ع
-3.187769	ز <َ> غ
-2.395812	ز <َ> ف
-2.119605	ز <َ> ق
-1.480822	ز <َ> ك
-1.119605	ز <َ> ل
-0.960888	ز <َ> م
-1.557662	ز <َ> ن
-1.687296	ز <َ> ه
-1.162533	ز <َ> و
-2.203926	ز <َ> ى
-1.057798	ز <َ> ي
-2.918854	س <َ> .
-3.902697	س <َ> :
-0.921967	س <َ> s
-3.61693	س <َ> }
-2.49678	س <َ> ،
-3.902697	س <َ> ؛
-3.587861	س <َ> ؟
-1.542538	س <َ> أ
-3.437503	س <َ> ئ
-0.8015825	س <َ> ا
-1.199286	س <َ> ب
-1.809709	س <َ> ة
-1.852794	س <َ> ت
-2.520914	س <َ> ج
-2.357412	س <َ> ح
-2.008077	س <َ> خ
-1.751115	س <َ> د
-1.829453	س <َ> ر
-3.902697	س <َ> س
-2.301554	س <َ> ط
-1.436593	س <َ> ع
-2.096499	س <َ> ف
-2.125463	س <َ> ق
-1.824433	س <َ> ك
-0.6324936	س <َ> ل
-1.182457	س <َ> م
-1.09047	س <َ> ن
-1.624073	س <َ> ه
-1.88029	س <َ> و
-1.6071	س <َ> ى
-1.502689	س <َ> ي
-3.420573	ش <َ> .
-1.901617	ش <َ> s
-3.134807	ش <َ> }
-3.134807	ش <َ> ،
-1.959609	ش <َ> أ
-0.7285524	ش <َ> ا
-1.609731	ش <َ> ب
-1.162903	ش <َ> ة
-1.959609	ش <َ> ت
-1.892662	ش <َ> ج
-2.184918	ش <َ> ح
-2.327586	ش <َ> خ
-1.159613	ش <َ> د
-0.7666172	ش <َ> ر
-2.804707	ش <َ> ط
-3.105737	ش <َ> ظ
-1.790467	ش <َ> ع
-2.503677	ش <َ> غ
-1.83467	ش <َ> ف
-1.901617	ش <َ> ق
-1.507311	ش <َ> ك
-3.420573	ش <َ> ل
-1.485948	ش <َ> م
-2.304105	ش <َ> ن
-1.398167	ش <َ> ه
-1.929646	ش <َ> و
-1.892662	ش <َ> ى
-0.6290988	ش <َ> ي
-1.819914	ص <َ> s
-3.292182	ص <َ> ،
-0.6300542	ص <َ> ا
-1.453333	ص <َ> ب
-1.969963	ص <َ> ة
-2.727911	ص <َ> ت
-1.100918	ص <َ> ح
-2.991152	ص <َ> خ
-1.270993	ص <َ> د
-1.295087	ص <َ> ر
-2.623175	ص <َ> ص
-2.33794	ص <َ> ع
-2.061733	ص <َ> غ
-1.679398	ص <َ> ف
-2.727911	ص <َ> ق
-0.3780154	ص <َ> ل
-2.213001	ص <َ> م
-1.936795	ص <َ> ن
-2.690122	ص <َ> ه
-1.720085	ص <َ> و
-2.088062	ص <َ> ى
-1.877209	ص <َ> ي
-3.069012	ض <َ> .
-1.100423	ض <َ> s
-2.437883	ض <َ> ،
-3.354779	ض <َ> أ
-0.4481363	ض <َ> ا
-1.389959	ض <َ> ب
-1.430704	ض <َ> ة
-2.136853	ض <َ> ت
-2.216034	ض <َ> ج
-1.99855	ض <َ> ح
-3.069012	ض <َ> خ
-3.354779	ض <َ> د
-0.9742385	ض <َ> ر
-2.889585	ض <َ> ض
-0.8609657	ض <َ> ع
-3.039943	ض <َ> غ
-3.039943	ض <َ> ف
-2.370936	ض <َ> ك
-1.188684	ض <َ> ل
-1.349747	ض <َ> م
-2.889585	ض <َ> ن
-1.93728	ض <َ> ه
-2.312944	ض <َ> و
-1.343878	ض <َ> ى
-1.504227	ض <َ> ي
-3.039943	ط <َ> .
-1.227029	ط <َ> s
-2.562821	ط <َ> ،
-1.69752	ط <َ> أ
-3.354779	ط <َ> ؤ
-2.888332	ط <َ> إ
-3.354779	ط <َ> ئ
-0.4548581	ط <َ> ا
-1.172672	ط <َ> ب
-1.671966	ط <َ> ة
-1.925999	ط <َ> ت
-2.261791	ط <َ> ج
-3.354779	ط <َ> ح
-2.613974	ط <َ> خ
-1.031343	ط <َ> ر
-1.915004	ط <َ> س
-2.119124	ط <َ> ش
-0.9193687	ط <َ> ع
-1.99855	ط <َ> ف
-2.517064	ط <َ> ق
-2.889585	ط <َ> ك
-1.014637	ط <َ> ل
-2.039943	ط <َ> م
-2.194844	ط <َ> ن
-1.753636	ط <َ> ه
-1.724672	ط <َ> و
-1.90428	ط <َ> ى
-1.358701	ط <َ> ي
-1.30719	ظ <َ> s
-2.675167	ظ <َ> ،
-0.4455706	ظ <َ> ا
-2.704237	ظ <َ> ب
-1.228009	ظ <َ> ة
-2.374137	ظ <َ> ت
-0.6694148	ظ <َ> ر
-2.073107	ظ <َ> ف
-1.436285	ظ <َ> ل
-1.10307	ظ <َ> م
-1.031714	ظ <َ> ن
-1.095384	ظ <َ> ه
-2.523556	ظ <َ> و
-2.524809	ظ <َ> ى
-2.675167	ظ <َ> ي
-3.292061	ع <َ> .
-4.045388	ع <َ> :
-1.238982	ع <َ> s
-3.481117	ع <َ> }
-2.966207	ع <َ> ،
-0.8847196	ع <َ> ا
-1.144657	ع <َ> ب
-1.468663	ع <َ> ة
-2.060112	ع <َ> ت
-2.505476	ع <َ> ث
-2.168401	ع <َ> ج
-1.71295	ع <َ> د
-2.343533	ع <َ> ذ
-1.924814	ع <َ> ر
-1.790116	ع <َ> ز
-2.262438	ع <َ> س
-2.388971	ع <َ> ش
-2.41192	ع <َ> ص
-3.124569	ع <َ> ض
-2.274536	ع <َ> ط
-2.422139	ع <َ> ظ
-2.332178	ع <َ> ف
-1.764355	ع <َ> ق
-2.588011	ع <َ> ك
-0.5273132	ع <َ> ل
-1.517758	ع <َ> م
-0.6612738	ع <َ> ن
-1.896169	ع <َ> ه
-2.018719	ع <َ> و
-2.636019	ع <َ> ى
-1.801524	ع <َ> ي
-3.445706	غ <َ> :
-1.461863	غ <َ> s
-3.13087	غ <َ> ،
-1.024792	غ <َ> ا
-2.285772	غ <َ> ب
-1.547293	غ <َ> ة
-2.265568	غ <َ> ت
-2.566598	غ <َ> ث
-1.756732	غ <َ> د
-2.265568	غ <َ> ذ
-1.065165	غ <َ> ر
-2.016926	غ <َ> ز
-1.875597	غ <َ> س
-2.607991	غ <َ> ش
-2.063923	غ <َ> ص
-1.42047	غ <َ> ض
-2.210051	غ <َ> ط
-1.762893	غ <َ> ف
-2.607991	غ <َ> ك
-1.285772	غ <َ> ل
-1.521631	غ <َ> م
-1.578607	غ <َ> ن
-2.22778	غ <َ> ه
-1.964538	غ <َ> و
-2.4319	غ <َ> ى
-0.3082657	غ <َ> ي
-3.651046	ف <َ> .
-4.11624	ف <َ> :
-1.343018	ف <َ> s
-4.11624	ف <َ> {
-3.199344	ف <َ> }
-2.816127	ف <َ> ،
-3.651046	ف <َ> ؟
-3.199344	ف <َ> آ
-1.298522	ف <َ> أ
-1.051152	ف <َ> إ
-0.9505534	ف <َ> ا
-2.296254	ف <َ> ب
-1.603664	ف <َ> ة
-1.435292	ف <َ> ت
-2.936102	ف <َ> ث
-1.977495	ف <َ> ج
-1.986269	ف <َ> ح
-2.241098	ف <َ> خ
-2.210339	ف <َ> د
-2.141804	ف <َ> ذ
-1.212572	ف <َ> ر
-2.665741	ف <َ> ز
-1.761329	ف <َ> س
-2.500374	ف <َ> ش
-1.414608	ف <َ> ص
-1.705653	ف <َ> ض
-2.554249	ف <َ> ط
-2.154673	ف <َ> ظ
-1.241099	ف <َ> ع
-2.597284	ف <َ> غ
-2.269925	ف <َ> ف
-0.8622174	ف <َ> ق
-1.722222	ف <َ> ك
-1.098399	ف <َ> ل
-1.603664	ف <َ> م
-2.035487	ف <َ> ن
-1.42059	ف <َ> ه
-1.836045	ف <َ> و
-2.261492	ف <َ> ى
-1.331582	ف <َ> ي
-3.09605	ق <َ> .
-4.212518	ق <َ> :
-1.402138	ق <َ> s
-4.212518	ق <َ> }
-2.772743	ق <َ> ،
-4.212518	ق <َ> ؛
-3.926752	ق <َ> ؟
-3.897682	ق <َ> أ
-0.2376075	ق <َ> ا
-1.570664	ق <َ> ب
-1.716792	ق <َ> ة
-1.767348	ق <َ> ت
-3.926752	ق <َ> ح
-0.9611683	ق <َ> د
-2.818501	ق <َ> ذ
-1.760962	ق <َ> ر
-3.26086	ق <َ> ز
-2.772743	ق <َ> س
-3.420561	ق <َ> ش
-2.060936	ق <َ> ص
-2.222515	ق <َ> ض
-1.752589	ق <َ> ط
-3.052584	ق <َ> ظ
-2.091502	ق <َ> ع
-2.667233	ق <َ> ف
-3.052584	ق <َ> ك
-1.443854	ق <َ> ل
-2.271	ق <َ> م
-2.523545	ق <َ> ن
-1.980352	ق <َ> ه
-1.166362	ق <َ> و
-2.073773	ق <َ> ى
-2.060936	ق <َ> ي
-3.267849	ك <َ> "
-3.59336	ك <َ> )
-1.984046	ك <َ> .
-3.267849	ك <َ> :
-0.6828903	ك <َ> s
-3.443941	ك <َ> {
-2.549994	ك <َ> }
-1.744971	ك <َ> ،
-2.744971	ك <َ> ؛
-2.642308	ك <َ> ؟
-3.744971	ك <َ> آ
-1.979054	ك <َ> أ
-3.222092	ك <َ> إ
-4.059807	ك <َ> ئ
-0.6369697	ك <َ> ا
-1.759694	ك <َ> ب
-1.991643	ك <َ> ة
-1.729331	ك <َ> ت
-1.549994	ك <َ> ث
-3.77404	ك <َ> ج
-2.73073	ك <َ> ح
-3.267849	ك <َ> خ
-2.458664	ك <َ> د
-1.272214	ك <َ> ذ
-0.871069	ك <َ> ر
-3.443941	ك <َ> ز
-1.895756	ك <َ> س
-2.497816	ك <َ> ش
-3.443941	ك <َ> ص
-3.443941	ك <َ> ض
-3.77404	ك <َ> ط
-3.594613	ك <َ> ظ
-2.125182	ك <َ> ع
-2.991643	ك <َ> غ
-1.79234	ك <َ> ف
-2.523122	ك <َ> ق
-3.142911	ك <َ> ك
-0.9656147	ك <َ> ل
-1.329441	ك <َ> م
-2.009904	ك <َ> ن
-2.258304	ك <َ> ه
-2.248964	ك <َ> و
-2.319002	ك <َ> ى
-1.746421	ك <َ> ي
-3.406045	ل <َ> "
-3.950113	ل <َ> (
-4.565979	ل <َ> )
-3.003989	ل <َ> .
-1.285315	ل <َ> :
-0.6555368	ل <َ> s
-2.224474	ل <َ> {
-3.449511	ل <َ> }
-2.698881	ل <َ> ،
-4.099533	ل <َ> ؛
-3.728265	ل <َ> ؟
-4.251143	ل <َ> آ
-2.575976	ل <َ> أ
-4.280213	ل <َ> إ
-3.075052	ل <َ> ئ
-0.6380064	ل <َ> ا
-2.066452	ل <َ> ب
-1.672504	ل <َ> ة
-1.986325	ل <َ> ت
-3.094796	ل <َ> ج
-2.288932	ل <َ> ح
-3.686872	ل <َ> خ
-2.412294	ل <َ> د
-3.029294	ل <َ> ذ
-3.582136	ل <َ> ر
-3.160063	ل <َ> ز
-2.391805	ل <َ> س
-4.280213	ل <َ> ش
-3.614321	ل <َ> ص
-4.100786	ل <َ> ض
-2.558003	ل <َ> ط
-3.427234	ل <َ> ظ
-2.134978	ل <َ> ع
-2.505548	ل <َ> غ
-2.008105	ل <َ> ف
-2.043419	ل <َ> ق
-1.789745	ل <َ> ك
-2.957412	ل <َ> ل
-1.190194	ل <َ> م
-2.357197	ل <َ> ن
-1.235504	ل <َ> ه
-1.922764	ل <َ> و
-0.9199859	ل <َ> ى
-0.9296829	ل <َ> ي
-3.774894	م <َ> "
-2.760653	م <َ> .
-2.566273	م <َ> :
-0.9435575	م <َ> s
-2.102796	م <َ> {
-2.950985	م <َ> }
-2.540208	م <َ> ،
-4.39076	م <َ> ؛
-3.348925	م <َ> ؟
-3.598803	م <َ> آ
-2.297773	م <َ> أ
-4.39076	م <َ> إ
-3.322596	م <َ> ئ
-0.4938227	م <َ> ا
-2.899833	م <َ> ب
-1.450269	م <َ> ة
-2.001595	م <َ> ت
-2.47026	م <َ> ث
-1.995538	م <َ> ج
-2.001595	م <َ> ح
-2.432471	م <َ> خ
-1.264349	م <َ> د
-2.128164	م <َ> ذ
-1.153891	م <َ> ر
-2.909592	م <َ> ز
-1.522041	م <َ> س
-1.94774	م <َ> ش
-2.348925	م <َ> ص
-2.351648	م <َ> ض
-2.459624	م <َ> ط
-2.701787	م <َ> ظ
-1.111822	م <َ> ع
-2.579917	م <َ> غ
-2.473864	م <َ> ف
-2.054735	م <َ> ق
-1.912564	م <َ> ك
-1.56005	م <َ> ل
-2.660951	م <َ> م
-0.9943366	م <َ> ن
-1.738798	م <َ> ه
-1.766294	م <َ> و
-2.909592	م <َ> ى
-2.113713	م <َ> ي
-3.179065	ن <َ> "
-3.251616	ن <َ> )
-2.203104	ن <َ> .
-2.417948	ن <َ> :
-0.4503995	ن <َ> s
-3.293009	ن <َ> {
-2.185799	ن <َ> }
-1.929397	ن <َ> ،
-3.844957	ن <َ> ؛
-2.895069	ن <َ> ؟
-4.130723	ن <َ> آ
-2.787859	ن <َ> أ
-2.970789	ن <َ> ئ
-0.6090617	ن <َ> ا
-1.886469	ن <َ> ب
-1.416214	ن <َ> ة
-1.643674	ن <َ> ت
-3.146881	ن <َ> ث
-2.343619	ن <َ> ج
-1.65452	ن <َ> ح
-3.06256	ن <َ> خ
-2.185799	ن <َ> د
-3.088889	ن <َ> ذ
-2.724807	ن <َ> ر
-2.259585	ن <َ> ز
-1.745234	ن <َ> س
-2.736706	ن <َ> ش
-1.876368	ن <َ> ص
-2.76153	ن <َ> ض
-3.088889	ن <َ> ط
-1.916432	ن <َ> ظ
-1.499917	ن <َ> ع
-3.251616	ن <َ> غ
-1.342644	ن <َ> ف
-1.80587	ن <َ> ق
-2.072901	ن <َ> ك
-3.213828	ن <َ> ل
-2.36873	ن <َ> م
-2.293009	ن <َ> ن
-1.367181	ن <َ> ه
-2.032937	ن <َ> و
-1.55901	ن <َ> ى
-2.060013	ن <َ> ي
-3.957531	ه <َ> "
-3.491084	ه <َ> .
-1.283492	ه <َ> s
-3.642695	ه <َ> }
-2.657418	ه <َ> ،
-3.957531	ه <َ> ؟
-2.151334	ه <َ> ؤ
-0.3466154	ه <َ> ا
-1.479335	ه <َ> ب
-1.55991	ه <َ> ة
-2.387423	ه <َ> ت
-2.268558	ه <َ> ج
-1.832015	ه <َ> د
-0.6753033	ه <َ> ذ
-1.572042	ه <َ> ر
-3.040635	ه <َ> ز
-3.040635	ه <َ> ش
-2.170427	ه <َ> ض
-3.341665	ه <َ> ف
-1.923917	ه <َ> ق
-2.287308	ه <َ> ك
-1.512362	ه <َ> ل
-1.720143	ه <َ> م
-1.992712	ه <َ> ن
-2.055359	ه <َ> ه
-1.832015	ه <َ> و
-1.428735	ه <َ> ى
-1.758089	ه <َ> ي
-4.584045	و <َ> .
-3.968179	و <َ> :
-1.430151	و <َ> s
-4.269209	و <َ> {
-4.269209	و <َ> }
-3.74633	و <َ> ،
-3.792088	و <َ> ؟
-2.888998	و <َ> آ
-1.362336	و <َ> أ
-1.436913	و <َ> إ
-0.6483795	و <َ> ا
-1.946301	و <َ> ب
-2.267764	و <َ> ة
-1.719389	و <َ> ت
-2.603316	و <َ> ث
-1.58168	و <َ> ج
-1.908742	و <َ> ح
-2.341497	و <َ> خ
-2.077014	و <َ> د
-1.883008	و <َ> ذ
-1.487933	و <َ> ر
-2.398026	و <َ> ز
-1.310327	و <َ> س
-2.388396	و <َ> ش
-2.12933	و <َ> ص
-2.369754	و <َ> ض
-2.486259	و <َ> ط
-2.55881	و <َ> ظ
-1.502301	و <َ> ع
-1.883008	و <َ> غ
-1.626415	و <َ> ف
-0.9973677	و <َ> ق
-1.60866	و <َ> ك
-1.082818	و <َ> ل
-1.413488	و <َ> م
-1.921554	و <َ> ن
-1.437126	و <َ> ه
-2.33979	و <َ> و
-1.691335	و <َ> ى
-1.236188	و <َ> ي
-3.176497	ي <َ> .
-4.190302	ي <َ> :
-1.076586	ي <َ> s
-3.449498	ي <َ> {
-3.725109	ي <َ> }
-3.030368	ي <َ> ،
-3.352588	ي <َ> ؟
-1.549131	ي <َ> أ
-3.875466	ي <َ> ؤ
-3.875466	ي <َ> ئ
-0.8297524	ي <َ> ا
-1.835392	ي <َ> ب
-1.061441	ي <َ> ة
-1.225159	ي <َ> ت
-2.772804	ي <َ> ث
-1.383172	ي <َ> ج
-1.428826	ي <َ> ح
-1.855658	ي <َ> خ
-1.434557	ي <َ> د
-2.173611	ي <َ> ذ
-1.580266	ي <َ> ر
-1.888695	ي <َ> ز
-1.42368	ي <َ> س
-1.902339	ي <َ> ش
-1.89019	ي <َ> ص
-1.871145	ي <َ> ض
-2.238644	ي <َ> ط
-2.50749	ي <َ> ظ
-1.384572	ي <َ> ع
-2.162256	ي <َ> غ
-1.922835	ي <َ> ف
-1.169033	ي <َ> ق
-1.292646	ي <َ> ك
-1.881296	ي <َ> ل
-1.684202	ي <َ> م
-1.284402	ي <َ> ن
-1.951187	ي <َ> ه
-1.603625	ي <َ> و
-2.030368	ي <َ> ى
-2.454961	ي <َ> ي
-2.196821	ء <ُ> .
-1.469822	ء <ُ> :
-0.0839924	ء <ُ> s
-2.812687	ء <ُ> {
-1.861029	ء <ُ> }
-1.293731	ء <ُ> ،
-2.812687	ء <ُ> ؛
-2.812687	ء <ُ> ه
-1.219097	ء <ُ> و
-1.07579	أ <ُ> s
-2.80383	أ <ُ> }
-2.77476	أ <ُ> ،
-2.80383	أ <ُ> ؤ
-1.452541	أ <ُ> ب
-1.579784	أ <ُ> ت
-2.624403	أ <ُ> ث
-1.579784	أ <ُ> ج
-1.226576	أ <ُ> ح
-0.9990284	أ <ُ> خ
-1.804723	أ <ُ> د
-1.552911	أ <ُ> ذ
-1.432338	أ <ُ> ر
-2.623149	أ <ُ> ز
-1.348791	أ <ُ> س
-2.021433	أ <ُ> ش
-1.432338	أ <ُ> ص
-2.77476	أ <ُ> ض
-2.105753	أ <ُ> ط
-3.089596	أ <ُ> ظ
-1.466552	أ <ُ> ع
-2.297639	أ <ُ> غ
-2.047761	أ <ُ> ف
-2.137938	أ <ُ> ق
-1.618413	أ <ُ> ك
-1.820518	أ <ُ> ل
-0.609417	أ <ُ> م
-1.278754	أ <ُ> ن
-2.047761	أ <ُ> ه
-1.154971	أ <ُ> و
-1.255273	ؤ <ُ> ب
-1.146128	ؤ <ُ> ك
-0.4146288	ؤ <ُ> ل
-1.773922	ؤ <ُ> م
-1.924279	ؤ <ُ> ن
-0.3483221	ؤ <ُ> ه
-0.3174204	ئ <ُ> s
-1.761464	ئ <ُ> ،
-1.168122	ئ <ُ> ك
-0.9307614	ئ <ُ> ه
-0.5374172	ئ <ُ> و
-1.092314	ا <ُ> ب
-1.742336	ا <ُ> ت
-1.923016	ا <ُ> ج
-1.371068	ا <ُ> ح
-1.416825	ا <ُ> خ
-1.070038	ا <ُ> د
-1.329675	ا <ُ> ذ
-1.743589	ا <ُ> ر
-0.646792	ا <ُ> س
-1.166948	ا <ُ> ش
-2.208783	ا <ُ> ص
-1.743589	ا <ُ> ض
-1.467978	ا <ُ> ط
-1.893947	ا <ُ> ع
-1.893947	ا <ُ> غ
-1.742336	ا <ُ> ف
-1.592917	ا <ُ> ق
-0.9908566	ا <ُ> ك
-2.208783	ا <ُ> م
-1.115795	ا <ُ> ن
-2.235375	ب <ُ> .
-2.52344	ب <ُ> :
-0.4370806	ب <ُ> s
-2.850799	ب <ُ> }
-2.072648	ب <ُ> ،
-2.975738	ب <ُ> ؛
-2.753889	ب <ُ> ؟
-2.197587	ب <ُ> ت
-2.498617	ب <ُ> ث
-2.850799	ب <ُ> ج
-2.799647	ب <ُ> ح
-1.171826	ب <ُ> خ
-1.908791	ب <ُ> د
-1.82961	ب <ُ> ر
-3.12641	ب <ُ> ز
-2.411467	ب <ُ> س
-3.125157	ب <ُ> ش
-3.305838	ب <ُ> ص
-2.43167	ب <ُ> ط
-2.120421	ب <ُ> ع
-2.248739	ب <ُ> غ
-2.52344	ب <ُ> ق
-1.908791	ب <ُ> ك
-2.22241	ب <ُ> ل
-1.539045	ب <ُ> ن
-1.21231	ب <ُ> ه
-0.4423474	ب <ُ> و
-2.037886	ب <ُ> ي
-3.279253	ة <ُ> "
-3.279253	ة <ُ> (
-2.211089	ة <ُ> )
-1.760297	ة <ُ> .
-1.910059	ة <ُ> :
-0.04169133	ة <ُ> s
-2.538448	ة <ُ> {
-2.186265	ة <ُ> }
-1.420349	ة <ُ> ،
-2.814059	ة <ُ> ؛
-2.29541	ة <ُ> ؟
-2.555838	ت <ُ> .
-1.661181	ت <ُ> :
-0.507516	ت <ُ> s
-3.19266	ت <ُ> {
-2.669782	ت <ُ> }
-2.391028	ت <ُ> ،
-3.19266	ت <ُ> ؟
-1.953778	ت <ُ> ؤ
-1.201434	ت <ُ> ب
-2.391028	ت <ُ> ت
-2.766692	ت <ُ> ث
-1.906354	ت <ُ> ج
-1.57636	ت <ُ> ح
-1.98854	ت <ُ> خ
-2.10158	ت <ُ> د
-2.254808	ت <ُ> ذ
-1.529903	ت <ُ> ر
-2.368752	ت <ُ> ز
-1.678555	ت <ُ> س
-2.067722	ت <ُ> ش
-1.913907	ت <ُ> ص
-2.254808	ت <ُ> ض
-2.164632	ت <ُ> ط
-3.041049	ت <ُ> ظ
-1.533061	ت <ُ> ع
-2.327359	ت <ُ> غ
-2.067722	ت <ُ> ف
-1.692058	ت <ُ> ق
-1.40971	ت <ُ> ك
-1.616703	ت <ُ> ل
-1.2119	ت <ُ> م
-1.701299	ت <ُ> ن
-0.8160834	ت <ُ> ه
-1.189775	ت <ُ> و
-2.191095	ث <ُ> )
-2.603756	ث <ُ> .
-2.755367	ث <ُ> :
-0.5017056	ث <ُ> s
-1.977215	ث <ُ> {
-2.755367	ث <ُ> }
-2.755367	ث <ُ> ،
-2.784436	ث <ُ> ؟
-2.454337	ث <ُ> ب
-1.393639	ث <ُ> ر
-2.755367	ث <ُ> ف
-2.603756	ث <ُ> ك
-1.817515	ث <ُ> ل
-0.3035802	ث <ُ> م
-2.232488	ث <ُ> ن
-1.375155	ث <ُ> ه
-1.340393	ث <ُ> و
-3.037294	ج <ُ> .
-3.066363	ج <ُ> :
-0.9880756	ج <ُ> s
-3.037294	ج <ُ> }
-2.885683	ج <ُ> ،
-3.066363	ج <ُ> ؟
-1.639354	ج <ُ> ب
-3.037294	ج <ُ> ج
-2.435234	ج <ُ> ح
-2.083051	ج <ُ> د
-2.235661	ج <ُ> ذ
-1.480991	ج <ُ> ر
-1.532144	ج <ُ> ز
-3.066363	ج <ُ> س
-2.560172	ج <ُ> ش
-1.970347	ج <ُ> ع
-2.886936	ج <ُ> ف
-0.3560524	ج <ُ> ل
-1.344153	ج <ُ> م
-1.715074	ج <ُ> ن
-1.560172	ج <ُ> ه
-0.6273605	ج <ُ> و
-3.066363	ج <ُ> ي
-2.71191	ح <ُ> .
-2.863521	ح <ُ> :
-0.5772144	ح <ُ> s
-2.713163	ح <ُ> }
-2.136522	ح <ُ> ،
-3.178357	ح <ُ> ؟
-1.421564	ح <ُ> ب
-2.713163	ح <ُ> ث
-1.448548	ح <ُ> ج
-1.707174	ح <ُ> د
-1.668545	ح <ُ> ذ
-1.327805	ح <ُ> ر
-1.78434	ح <ُ> ز
-0.9789146	ح <ُ> س
-2.863521	ح <ُ> ش
-1.541302	ح <ُ> ص
-1.893484	ح <ُ> ض
-2.3864	ح <ُ> ط
-2.863521	ح <ُ> ظ
-2.018423	ح <ُ> ف
-1.69719	ح <ُ> ق
-0.9884599	ح <ُ> ك
-1.362919	ح <ُ> ل
-1.080571	ح <ُ> م
-2.437552	ح <ُ> ن
-1.257857	ح <ُ> ه
-1.17629	ح <ُ> و
-2.713163	ح <ُ> ي
-3.007683	خ <ُ> :
-0.6112596	خ <ُ> s
-3.007683	خ <ُ> ،
-1.19684	خ <ُ> ب
-3.007683	خ <ُ> ت
-3.007683	خ <ُ> ث
-2.128576	خ <ُ> د
-1.0086	خ <ُ> ذ
-1.132542	خ <ُ> ر
-2.056025	خ <ُ> ز
-2.721917	خ <ُ> س
-1.70757	خ <ُ> ش
-1.384638	خ <ُ> ص
-2.128576	خ <ُ> ض
-1.738604	خ <ُ> ط
-1.827546	خ <ُ> ف
-0.6580848	خ <ُ> ل
-2.266878	خ <ُ> م
-2.02384	خ <ُ> ن
-1.993877	خ <ُ> ه
-0.8799335	خ <ُ> و
-1.789757	خ <ُ> ي
-1.934498	د <ُ> .
-1.957564	د <ُ> :
-0.2215296	د <ُ> s
-3.535641	د <ُ> {
-2.794837	د <ُ> }
-1.834604	د <ُ> ،
-3.220805	د <ُ> ؛
-3.220805	د <ُ> ؟
-2.396896	د <ُ> ب
-2.583983	د <ُ> ث
-3.220805	د <ُ> ج
-2.743684	د <ُ> ح
-1.800299	د <ُ> خ
-2.442654	د <ُ> د
-2.206565	د <ُ> ر
-3.069194	د <ُ> س
-1.898586	د <ُ> ع
-2.656534	د <ُ> ف
-2.206565	د <ُ> ق
-1.587337	د <ُ> ك
-1.516083	د <ُ> ل
-2.355504	د <ُ> م
-1.840594	د <ُ> ن
-0.9980887	د <ُ> ه
-0.9027418	د <ُ> و
-3.220805	د <ُ> ي
-0.4577082	ذ <ُ> s
-2.397047	ذ <ُ> ؤ
-1.845098	ذ <ُ> ب
-2.367977	ذ <ُ> خ
-2.066947	ذ <ُ> ر
-0.92602	ذ <ُ> ك
-1.201645	ذ <ُ> ل
-2.217619	ذ <ُ> م
-0.9586073	ذ <ُ> ن
-1.30103	ذ <ُ> ه
-0.5802802	ذ <ُ> و
-3.215442	ر <ُ> "
-3.3658	ر <ُ> )
-2.102558	ر <ُ> .
-1.555119	ر <ُ> :
-0.3640662	ر <ُ> s
-2.888679	ر <ُ> {
-2.500499	ر <ُ> }
-1.805495	ر <ُ> ،
-3.39487	ر <ُ> ؛
-2.612472	ر <ُ> ؟
-2.541891	ر <ُ> ء
-2.16168	ر <ُ> ؤ
-2.801528	ر <ُ> ئ
-1.604875	ر <ُ> ب
-3.39487	ر <ُ> ت
-1.675604	ر <ُ> ج
-3.680636	ر <ُ> ح
-2.66683	ر <ُ> خ
-1.756561	ر <ُ> د
-3.3658	ر <ُ> ر
-2.728978	ر <ُ> ز
-2.801528	ر <ُ> س
-2.888679	ر <ُ> ش
-2.638801	ر <ُ> ض
-2.152725	ر <ُ> ط
-3.39487	ر <ُ> ع
-3.39487	ر <ُ> غ
-2.696793	ر <ُ> ف
-1.945294	ر <ُ> ق
-1.652589	ر <ُ> ك
-1.508467	ر <ُ> م
-2.311442	ر <ُ> ن
-0.9140134	ر <ُ> ه
-0.6565299	ر <ُ> و
-2.696252	ز <ُ> )
-1.744594	ز <ُ> .
-0.2500112	ز <ُ> s
-1.682446	ز <ُ> ،
-2.381416	ز <ُ> ؛
-1.682446	ز <ُ> ب
-2.696252	ز <ُ> ج
-1.087685	ز <ُ> ر
-2.696252	ز <ُ> ف
-1.858537	ز <ُ> ق
-2.229805	ز <ُ> ك
-1.955447	ز <ُ> ل
-2.410486	ز <ُ> ن
-1.095109	ز <ُ> ه
-0.8054587	ز <ُ> و
-2.76542	س <ُ> )
-2.502179	س <ُ> .
-2.339452	س <ُ> :
-0.7469971	س <ُ> s
-2.242541	س <ُ> ،
-2.76542	س <ُ> ؟
-1.900119	س <ُ> ؤ
-1.258014	س <ُ> ئ
-1.364594	س <ُ> ب
-2.543571	س <ُ> ت
-2.914839	س <ُ> ج
-2.543571	س <ُ> ح
-2.543571	س <ُ> خ
-2.025058	س <ُ> د
-1.711063	س <ُ> ر
-2.640481	س <ُ> ط
-3.06645	س <ُ> ع
-1.168823	س <ُ> ف
-2.081173	س <ُ> ق
-1.744231	س <ُ> ك
-1.225508	س <ُ> ل
-1.853375	س <ُ> م
-1.439768	س <ُ> ن
-1.570444	س <ُ> ه
-0.38041	س <ُ> و
-2.640481	س <ُ> ي
-2.216377	ش <ُ> :
-0.9865229	ش <ُ> s
-2.395804	ش <ُ> ،
-2.68157	ش <ُ> ؟
-2.395804	ش <ُ> ؤ
-1.463644	ش <ُ> ب
-2.366734	ش <ُ> ج
-1.889613	ش <ُ> ح
-1.412492	ش <ُ> د
-0.6343404	ش <ُ> ر
-0.8707276	ش <ُ> ع
-1.565102	ش <ُ> غ
-2.215123	ش <ُ> ف
-1.482128	ش <ُ> ق
-1.044515	ش <ُ> ك
-1.802463	ش <ُ> م
-1.264072	ش <ُ> ه
-0.7831576	ش <ُ> و
-1.764674	ش <ُ> ي
-2.501972	ص <ُ> .
-0.9620596	ص <ُ> s
-2.200942	ص <ُ> ،
-1.617365	ص <ُ> ب
-1.473943	ص <ُ> ح
-1.447614	ص <ُ> د
-1.531935	ص <ُ> ر
-2.351614	ص <ُ> ع
-1.72382	ص <ُ> ف
-2.200942	ص <ُ> ق
-2.501972	ص <ُ> ك
-1.065279	ص <ُ> ل
-2.351614	ص <ُ> م
-1.531935	ص <ُ> ن
-1.656874	ص <ُ> ه
-0.2355831	ص <ُ> و
-2.998783	ض <ُ> .
-0.4433979	ض <ُ> s
-2.206826	ض <ُ> ،
-2.683947	ض <ُ> ؟
-2.713017	ض <ُ> ب
-2.161068	ض <ُ> د
-0.8710338	ض <ُ> ر
-2.713017	ض <ُ> ض
-1.488971	ض <ُ> ع
-2.683947	ض <ُ> غ
-2.683947	ض <ُ> ف
-2.206826	ض <ُ> ك
-2.532336	ض <ُ> ل
-1.882315	ض <ُ> م
-0.5722367	ض <ُ> ه
-0.8206243	ض <ُ> و
-2.998783	ض <ُ> ي
-2.338456	ط <ُ> .
-1.774185	ط <ُ> :
-0.5145478	ط <ُ> s
-2.338456	ط <ُ> }
-1.912488	ط <ُ> ،
-1.284099	ط <ُ> ب
-2.653293	ط <ُ> خ
-1.059703	ط <ُ> ر
-2.367526	ط <ُ> ع
-2.653293	ط <ُ> غ
-1.736397	ط <ُ> ف
-1.134336	ط <ُ> ل
-2.653293	ط <ُ> م
-2.367526	ط <ُ> ن
-1.213518	ط <ُ> ه
-0.479118	ط <ُ> و
-2.338456	ط <ُ> ي
-1.969261	ظ <ُ> :
-0.5684348	ظ <ُ> s
-0.718028	ظ <ُ> ر
-0.9412318	ظ <ُ> ل
-1.468658	ظ <ُ> م
-0.7606401	ظ <ُ> ن
-0.8900793	ظ <ُ> ه
-1.156347	ظ <ُ> و
-2.733732	ع <ُ> )
-2.574031	ع <ُ> .
-3.060496	ع <ُ> :
-0.4827703	ع <ُ> s
-2.909823	ع <ُ> }
-2.119773	ع <ُ> ،
-2.909823	ع <ُ> ؟
-1.465258	ع <ُ> ب
-2.326247	ع <ُ> ت
-1.728933	ع <ُ> ث
-2.143907	ع <ُ> ج
-1.710251	ع <ُ> د
-1.79588	ع <ُ> ذ
-1.440001	ع <ُ> ر
-2.273001	ع <ُ> ز
-2.307763	ع <ُ> س
-2.909823	ع <ُ> ش
-2.409221	ع <ُ> ص
-2.457526	ع <ُ> ض
-2.511883	ع <ُ> ط
-2.784885	ع <ُ> ظ
-2.169461	ع <ُ> ف
-1.435122	ع <ُ> ق
-2.085915	ع <ُ> ك
-1.196613	ع <ُ> ل
-0.8484966	ع <ُ> م
-1.902645	ع <ُ> ن
-1.263093	ع <ُ> ه
-0.8088787	ع <ُ> و
-1.807161	ع <ُ> ي
-0.6057457	غ <ُ> s
-2.102177	غ <ُ> }
-1.922749	غ <ُ> ب
-2.387943	غ <ُ> ث
-1.647138	غ <ُ> د
-0.9067757	غ <ُ> ر
-1.271475	غ <ُ> س
-1.772077	غ <ُ> ص
-1.550228	غ <ُ> ض
-1.188501	غ <ُ> ف
-0.834225	غ <ُ> ل
-2.073107	غ <ُ> م
-1.118865	غ <ُ> ن
-1.4041	غ <ُ> ه
-0.9167599	غ <ُ> و
-2.102177	غ <ُ> ي
-2.284753	ف <ُ> .
-2.803402	ف <ُ> :
-0.5097149	ف <ُ> s
-3.268596	ف <ُ> }
-2.015908	ف <ُ> ،
-2.95376	ف <ُ> ؟
-2.200432	ف <ُ> ؤ
-1.968483	ف <ُ> ت
-2.3517	ف <ُ> ث
-2.25479	ف <ُ> ج
-2.25479	ف <ُ> ح
-2.65273	ف <ُ> خ
-2.803402	ف <ُ> د
-2.802149	ف <ُ> ذ
-1.486398	ف <ُ> ر
-2.95376	ف <ُ> ز
-1.55582	ف <ُ> س
-2.95376	ف <ُ> ش
-1.323671	ف <ُ> ص
-1.467093	ف <ُ> ض
-2.803402	ف <ُ> ع
-1.573548	ف <ُ> ق
-2.476639	ف <ُ> ك
-1.205572	ف <ُ> ل
-1.467093	ف <ُ> ن
-1.14758	ف <ُ> ه
-0.5404599	ف <ُ> و
-2.720159	ق <ُ> .
-2.395648	ق <ُ> :
-0.7834222	ق <ُ> s
-3.046923	ق <ُ> }
-2.331979	ق <ُ> ،
-3.22635	ق <ُ> ؟
-1.760588	ق <ُ> ب
-2.276462	ق <ُ> ت
-3.512117	ق <ُ> ث
-1.734883	ق <ُ> د
-1.00976	ق <ُ> ر
-2.331979	ق <ُ> س
-2.674402	ق <ُ> ش
-1.896251	ق <ُ> ص
-2.243038	ق <ُ> ض
-1.720159	ق <ُ> ط
-2.470282	ق <ُ> ع
-3.22635	ق <ُ> ف
-2.633009	ق <ُ> ك
-0.704055	ق <ُ> ل
-1.90355	ق <ُ> م
-2.720159	ق <ُ> ن
-1.553828	ق <ُ> ه
-0.4074649	ق <ُ> و
-3.544603	ك <ُ> )
-3.229767	ك <ُ> .
-3.258837	ك <ُ> :
-1.171594	ك <ُ> s
-3.544603	ك <ُ> }
-2.627707	ك <ُ> ،
-1.966526	ك <ُ> ب
-1.479002	ك <ُ> ت
-3.078156	ك <ُ> ث
-2.665496	ك <ُ> ح
-1.238541	ك <ُ> ر
-2.56076	ك <ُ> س
-3.229767	ك <ُ> ش
-3.544603	ك <ُ> ض
-1.603085	ك <ُ> ف
-0.6230276	ك <ُ> ل
-0.7021372	ك <ُ> م
-0.8769417	ك <ُ> ن
-1.793074	ك <ُ> ه
-0.6824027	ك <ُ> و
-3.278263	ل <ُ> "
-2.791799	ل <ُ> (
-3.45769	ل <ُ> )
-2.215546	ل <ُ> .
-1.218213	ل <ُ> :
-0.2556288	ل <ُ> s
-2.292958	ل <ُ> {
-2.675293	ل <ُ> }
-1.991928	ل <ُ> ،
-3.743457	ل <ُ> ؛
-2.474378	ل <ُ> ؟
-2.650469	ل <ُ> ؤ
-1.62928	ل <ُ> ب
-2.583523	ل <ُ> ث
-3.278263	ل <ُ> ج
-2.030681	ل <ُ> ح
-3.743457	ل <ُ> د
-2.864349	ل <ُ> ز
-3.45769	ل <ُ> ص
-2.443344	ل <ُ> ط
-3.428621	ل <ُ> ظ
-2.507802	ل <ُ> ع
-2.099562	ل <ُ> غ
-2.905742	ل <ُ> ف
-1.795152	ل <ُ> ق
-2.054484	ل <ُ> ك
-2.650469	ل <ُ> م
-2.507802	ل <ُ> ن
-1.014205	ل <ُ> ه
-0.7674392	ل <ُ> و
-3.48771	م <ُ> "
-3.488963	م <ُ> )
-1.813246	م <ُ> .
-2.536658	م <ُ> :
-0.687174	م <ُ> s
-2.213352	م <ُ> {
-2.584963	م <ُ> }
-2.24138	م <ُ> ،
-3.488963	م <ُ> ؛
-2.885993	م <ُ> ؟
-1.557733	م <ُ> ؤ
-1.636435	م <ُ> ب
-1.328273	م <ُ> ت
-2.368254	م <ُ> ث
-1.715041	م <ُ> ج
-1.1503	م <ُ> ح
-1.716768	م <ُ> خ
-1.99259	م <ُ> د
-2.654044	م <ُ> ذ
-1.289719	م <ُ> ر
-2.202628	م <ُ> ز
-0.9778233	م <ُ> س
-1.982903	م <ُ> ش
-1.758507	م <ُ> ص
-2.083018	م <ُ> ض
-1.754714	م <ُ> ط
-2.754714	م <ُ> ظ
-1.265795	م <ُ> ع
-2.009232	م <ُ> غ
-1.915045	م <ُ> ف
-1.741693	م <ُ> ق
-1.906927	م <ُ> ك
-1.904254	م <ُ> ل
-2.392166	م <ُ> م
-1.401274	م <ُ> ن
-1.205284	م <ُ> ه
-1.037985	م <ُ> و
-3.66839	م <ُ> ي
-3.381124	ن <ُ> "
-2.414202	ن <ُ> .
-2.337813	ن <ُ> :
-0.112004	ن <ُ> s
-3.352054	ن <ُ> {
-2.448964	ن <ُ> }
-2.096781	ن <ُ> ،
-3.66689	ن <ُ> ؛
-2.874933	ن <ُ> ؟
-2.310661	ن <ُ> ب
-2.787782	ن <ُ> ج
-2.749994	ن <ُ> ح
-2.874933	ن <ُ> خ
-3.352054	ن <ُ> د
-3.66689	ن <ُ> ذ
-3.201696	ن <ُ> ر
-2.486753	ن <ُ> ز
-1.865387	ن <ُ> س
-2.926085	ن <ُ> ش
-2.227115	ن <ُ> ص
-3.201696	ن <ُ> ض
-2.715232	ن <ُ> ط
-3.66689	ن <ُ> ظ
-2.272873	ن <ُ> ع
-2.337813	ن <ُ> ف
-2.138979	ن <ُ> ق
-2.185722	ن <ُ> ك
-2.874933	ن <ُ> م
-2.749994	ن <ُ> ن
-1.410874	ن <ُ> ه
-0.9998713	ن <ُ> و
-2.778091	ه <ُ> "
-4.297047	ه <ُ> (
-2.954182	ه <ُ> )
-1.562255	ه <ُ> .
-1.930416	ه <ُ> :
-0.1616592	ه <ُ> s
-2.421906	ه <ُ> {
-2.088264	ه <ُ> }
-1.47842	ه <ُ> ،
-2.915264	ه <ُ> ؛
-2.584271	ه <ُ> ؟
-2.825864	ه <ُ> ب
-4.297047	ه <ُ> ت
-3.50509	ه <ُ> ج
-2.982211	ه <ُ> د
-3.982211	ه <ُ> ذ
-1.873871	ه <ُ> ر
-3.982211	ه <ُ> ز
-3.50509	ه <ُ> ش
-4.011281	ه <ُ> ك
-3.417939	ه <ُ> ل
-0.9603328	ه <ُ> م
-2.139186	ه <ُ> ن
-2.681181	ه <ُ> ه
-1.078037	ه <ُ> و
-1.176814	و <ُ> s
-2.917619	و <ُ> ،
-2.176815	و <ُ> ت
-2.452425	و <ُ> ث
-0.8757845	و <ُ> ج
-0.2967158	و <ُ> د
-2.301753	و <ُ> ر
-2.631853	و <ُ> ز
-1.477844	و <ُ> س
-2.602783	و <ُ> ش
-2.176815	و <ُ> ص
-1.216582	و <ُ> ض
-2.452425	و <ُ> ع
-1.664931	و <ُ> ف
-1.316476	و <ُ> ق
-2.079905	و <ُ> ك
-1.48884	و <ُ> ل
-2.301753	و <ُ> ن
-1.446436	و <ُ> ه
-1.849456	و <ُ> و
-2.058951	ي <ُ> s
-1.354669	ي <ُ> ؤ
-1.429385	ي <ُ> ب
-1.654381	ي <ُ> ت
-2.2808	ي <ُ> ث
-1.555894	ي <ُ> ج
-1.150879	ي <ُ> ح
-1.424707	ي <ُ> خ
-1.684344	ي <ُ> د
-1.87623	ي <ُ> ذ
-1.331535	ي <ُ> ر
-2.123677	ي <ُ> ز
-1.053639	ي <ُ> س
-1.602352	ي <ُ> ش
-1.393298	ي <ُ> ص
-1.917622	ي <ُ> ض
-1.643978	ي <ُ> ط
-2.440501	ي <ُ> ظ
-1.144323	ي <ُ> ع
-1.854831	ي <ُ> غ
-1.588563	ي <ُ> ف
-0.9698618	ي <ُ> ق
-1.145138	ي <ُ> ك
-1.778443	ي <ُ> ل
-1.623891	ي <ُ> م
-1.373554	ي <ُ> ن
-1.942446	ي <ُ> ه
-1.089392	ي <ُ> و
-2.744915	ء <ِ> "
-3.211362	ء <ِ> (
-2.22752	ء <ِ> )
-1.47602	ء <ِ> .
-1.581256	ء <ِ> :
-0.08472787	ء <ِ> s
-2.746169	ء <ِ> {
-1.942284	ء <ِ> }
-1.057677	ء <ِ> ،
-2.419405	ء <ِ> ؛
-2.744915	ء <ِ> ؟
-0.03778856	أ <ِ> s
-0.2176191	ؤ <ِ> s
-2.80618	إ <ِ> s
-3.598137	إ <ِ> ،
-1.764787	إ <ِ> ب
-2.529974	إ <ِ> ت
-2.169358	إ <ِ> ث
-1.868328	إ <ِ> ج
-1.934348	إ <ِ> ح
-1.726999	إ <ِ> خ
-2.147639	إ <ِ> د
-0.9159453	إ <ِ> ذ
-2.036147	إ <ِ> ر
-2.362483	إ <ِ> ز
-0.9772338	إ <ِ> س
-2.362483	إ <ِ> ش
-2.036147	إ <ِ> ص
-2.50515	إ <ِ> ض
-2.380211	إ <ِ> ط
-2.857332	إ <ِ> ظ
-2.028029	إ <ِ> ع
-2.614295	إ <ِ> غ
-2.241909	إ <ِ> ف
-1.90309	إ <ِ> ق
-2.004548	إ <ِ> ك
-1.427984	إ <ِ> ل
-1.221346	إ <ِ> م
-0.3157533	إ <ِ> ن
-2.71903	إ <ِ> ه
-3.598137	إ <ِ> و
-1.459392	إ <ِ> ي
-1.995452	ئ <ِ> s
-3.213378	ئ <ِ> ،
-1.311206	ئ <ِ> ب
-2.597512	ئ <ِ> ت
-1.977724	ئ <ِ> ج
-1.549589	ئ <ِ> ح
-1.202477	ئ <ِ> د
-1.884302	ئ <ِ> ذ
-1.152947	ئ <ِ> ر
-1.619789	ئ <ِ> ز
-2.171544	ئ <ِ> س
-1.059693	ئ <ِ> ش
-2.927612	ئ <ِ> ص
-2.053444	ئ <ِ> ض
-2.013936	ئ <ِ> ط
-2.927612	ئ <ِ> ظ
-1.569484	ئ <ِ> ع
-2.334271	ئ <ِ> غ
-1.668093	ئ <ِ> ف
-2.09691	ئ <ِ> ق
-1.367063	ئ <ِ> ك
-0.7008024	ئ <ِ> ل
-1.049328	ئ <ِ> م
-1.64327	ئ <ِ> ن
-1.199572	ئ <ِ> ه
-0.8732365	ئ <ِ> ي
-0.02802872	ا <ِ> ت
-3.674289	ب <ِ> "
-3.674289	ب <ِ> (
-2.94004	ب <ِ> )
-2.387954	ب <ِ> .
-2.648555	ب <ِ> :
-0.8945467	ب <ِ> s
-4.139482	ب <ِ> {
-2.870404	ب <ِ> }
-1.981621	ب <ِ> ،
-3.523616	ب <ِ> ؛
-3.347525	ب <ِ> ؟
-2.979548	ب <ِ> آ
-1.641851	ب <ِ> أ
-1.78194	ب <ِ> إ
-2.733566	ب <ِ> ئ
-0.8542995	ب <ِ> ا
-2.280578	ب <ِ> ب
-1.938156	ب <ِ> ت
-2.63901	ب <ِ> ث
-2.409673	ب <ِ> ج
-1.816046	ب <ِ> ح
-1.973388	ب <ِ> خ
-1.820325	ب <ِ> د
-1.880164	ب <ِ> ذ
-1.541345	ب <ِ> ر
-2.710703	ب <ِ> ز
-1.678518	ب <ِ> س
-1.902094	ب <ِ> ش
-2.393283	ب <ِ> ص
-2.297446	ب <ِ> ض
-2.15564	ب <ِ> ط
-2.824646	ب <ِ> ظ
-1.767742	ب <ِ> ع
-2.122791	ب <ِ> غ
-2.131506	ب <ِ> ف
-1.793912	ب <ِ> ق
-1.770289	ب <ِ> ك
-1.730059	ب <ِ> ل
-1.415841	ب <ِ> م
-1.66729	ب <ِ> ن
-0.8923418	ب <ِ> ه
-2.415277	ب <ِ> و
-0.6282859	ب <ِ> ي
-3.095053	ة <ِ> "
-3.425153	ة <ِ> (
-2.249955	ة <ِ> )
-1.400448	ة <ِ> .
-1.759261	ة <ِ> :
-0.08624005	ة <ِ> s
-2.530782	ة <ِ> {
-1.831812	ة <ِ> }
-1.050383	ة <ِ> ،
-2.396083	ة <ِ> ؛
-2.305003	ة <ِ> ؟
-2.746721	ت <ِ> )
-2.057511	ت <ِ> .
-2.524872	ت <ِ> :
-0.6975027	ت <ِ> s
-3.252912	ت <ِ> {
-2.496843	ت <ِ> }
-1.751573	ت <ِ> ،
-3.538678	ت <ِ> ؛
-3.252912	ت <ِ> ؟
-2.088179	ت <ِ> ئ
-1.557948	ت <ِ> ب
-3.072231	ت <ِ> ت
-2.378744	ت <ِ> ث
-2.195813	ت <ِ> ج
-1.554835	ت <ِ> ح
-2.269599	ت <ِ> خ
-1.688126	ت <ِ> د
-2.621782	ت <ِ> ذ
-1.607541	ت <ِ> ر
-2.58702	ت <ِ> ز
-1.83764	ت <ِ> س
-2.303023	ت <ِ> ش
-1.952775	ت <ِ> ص
-2.621782	ت <ِ> ض
-2.554835	ت <ِ> ط
-2.65957	ت <ِ> ظ
-1.590374	ت <ِ> ع
-2.067495	ت <ِ> غ
-1.787149	ت <ِ> ف
-1.705328	ت <ِ> ق
-1.590374	ت <ِ> ك
-1.346855	ت <ِ> ل
-1.393467	ت <ِ> م
-1.530702	ت <ِ> ن
-0.6983652	ت <ِ> ه
-0.7395421	ت <ِ> ي
-2.835928	ث <ِ> )
-1.941557	ث <ِ> .
-2.137851	ث <ِ> :
-0.2623766	ث <ِ> s
-2.028707	ث <ِ> {
-2.806858	ث <ِ> }
-1.836821	ث <ِ> ،
-2.6565	ث <ِ> ؛
-1.364901	ث <ِ> ر
-1.113718	ث <ِ> ق
-2.329737	ث <ِ> ل
-1.869006	ث <ِ> م
-3.121694	ث <ِ> ن
-1.576409	ث <ِ> ه
-0.6240631	ث <ِ> ي
-3.263738	ج <ِ> )
-2.797291	ج <ِ> .
-2.977972	ج <ِ> :
-0.9978882	ج <ِ> s
-2.948902	ج <ِ> {
-2.124993	ج <ِ> ،
-1.701747	ج <ِ> ئ
-0.6724399	ج <ِ> ب
-2.798544	ج <ِ> ح
-0.6294487	ج <ِ> د
-2.471781	ج <ِ> ذ
-1.404834	ج <ِ> ر
-1.934661	ج <ِ> ز
-1.68566	ج <ِ> س
-2.977972	ج <ِ> ص
-1.448299	ج <ِ> ع
-2.522933	ج <ِ> ف
-2.948902	ج <ِ> ك
-1.443752	ج <ِ> ل
-1.48154	ج <ِ> م
-1.439251	ج <ِ> ن
-1.17805	ج <ِ> ه
-2.346842	ج <ِ> و
-0.9088271	ج <ِ> ي
-3.165896	ح <ِ> )
-2.383499	ح <ِ> .
-2.500004	ح <ِ> :
-0.7412087	ح <ِ> s
-2.659705	ح <ِ> {
-2.835796	ح <ِ> }
-2.001164	ح <ِ> ،
-3.136826	ح <ِ> ؛
-0.7750984	ح <ِ> ب
-1.659705	ح <ِ> ج
-1.108798	ح <ِ> د
-2.835796	ح <ِ> ذ
-1.727457	ح <ِ> ر
-2.659705	ح <ِ> ز
-1.85052	ح <ِ> س
-2.082469	ح <ِ> ش
-2.659705	ح <ِ> ص
-2.710857	ح <ِ> ظ
-1.527588	ح <ِ> ف
-1.794404	ح <ِ> ق
-1.440761	ح <ِ> ك
-1.275491	ح <ِ> ل
-1.018451	ح <ِ> م
-2.06988	ح <ِ> ن
-1.727457	ح <ِ> ه
-0.6558616	ح <ِ> ي
-2.74312	خ <ِ> .
-2.71405	خ <ِ> :
-1.070598	خ <ِ> s
-3.028886	خ <ِ> {
-2.288081	خ <ِ> ،
-2.71405	خ <ِ> ؟
-2.077228	خ <ِ> ب
-2.74312	خ <ِ> ت
-1.868952	خ <ِ> د
-1.153745	خ <ِ> ذ
-0.650842	خ <ِ> ر
-3.028886	خ <ِ> س
-1.634869	خ <ِ> ص
-2.191171	خ <ِ> ض
-1.81096	خ <ِ> ط
-1.647103	خ <ِ> ف
-0.6023397	خ <ِ> ل
-2.562439	خ <ِ> م
-1.744013	خ <ِ> ن
-1.420319	خ <ِ> ه
-2.562439	خ <ِ> و
-0.701213	خ <ِ> ي
-3.740099	د <ِ> "
-2.860991	د <ِ> )
-2.027323	د <ِ> .
-2.580164	د <ِ> :
-0.4024218	د <ِ> s
-3.454332	د <ِ> {
-2.671935	د <ِ> }
-1.826837	د <ِ> ،
-3.124233	د <ِ> ؛
-3.425262	د <ِ> ؟
-2.346081	د <ِ> ئ
-3.124233	د <ِ> ب
-2.033152	د <ِ> ث
-2.902384	د <ِ> ح
-2.948141	د <ِ> د
-1.511449	د <ِ> ر
-2.601354	د <ِ> س
-2.2896	د <ِ> ع
-2.823202	د <ِ> ف
-2.057286	د <ِ> ق
-2.124233	د <ِ> ك
-1.738031	د <ِ> ل
-1.682276	د <ِ> م
-2.425262	د <ِ> ن
-1.20168	د <ِ> ه
-3.425262	د <ِ> و
-0.4061461	د <ِ> ي
-3.289962	ذ <ِ> .
-1.493205	ذ <ِ> s
-2.410854	ذ <ِ> ئ
-1.119808	ذ <ِ> ب
-1.762051	ذ <ِ> ر
-2.173493	ذ <ِ> ف
-2.373065	ذ <ِ> ق
-1.242732	ذ <ِ> ك
-2.020883	ذ <ِ> ل
-2.054307	ذ <ِ> م
-1.469975	ذ <ِ> ن
-0.7515429	ذ <ِ> ه
-0.2429997	ذ <ِ> ي
-3.130012	ر <ِ> "
-2.540186	ر <ِ> )
-1.922886	ر <ِ> .
-2.271341	ر <ِ> :
-0.4910792	ر <ِ> s
-2.722527	ر <ِ> {
-2.197764	ر <ِ> }
-1.527952	ر <ِ> ،
-3.084255	ر <ِ> ؛
-2.741832	ر <ِ> ؟
-2.139772	ر <ِ> ئ
-1.618872	ر <ِ> ب
-1.851258	ر <ِ> ث
-1.817083	ر <ِ> ج
-2.313402	ر <ِ> ح
-1.664299	ر <ِ> د
-3.456776	ر <ِ> ر
-2.412157	ر <ِ> ز
-2.25818	ر <ِ> س
-3.130012	ر <ِ> ش
-3.456776	ر <ِ> ص
-1.803221	ر <ِ> ض
-2.908163	ر <ِ> ط
-2.159975	ر <ِ> ع
-2.970311	ر <ِ> غ
-1.514881	ر <ِ> ف
-1.95715	ر <ِ> ق
-1.778903	ر <ِ> ك
-1.990833	ر <ِ> م
-2.516053	ر <ِ> ن
-0.9908327	ر <ِ> ه
-1.281481	ر <ِ> و
-0.5741118	ر <ِ> ي
-2.194893	ز <ِ> .
-2.458134	ز <ِ> :
-0.8400859	ز <ِ> s
-3.074	ز <ِ> }
-1.856074	ز <ِ> ،
-2.236285	ز <ِ> ئ
-2.458134	ز <ِ> ب
-1.838345	ز <ِ> ج
-2.194893	ز <ِ> ح
-1.744924	ز <ِ> د
-2.236285	ز <ِ> ر
-1.634225	ز <ِ> ع
-2.788234	ز <ِ> ف
-2.157104	ز <ِ> ق
-0.856074	ز <ِ> ل
-1.206902	ز <ِ> م
-1.789127	ز <ِ> ن
-1.935255	ز <ِ> ه
-0.289342	ز <ِ> ي
-2.424756	س <ِ> )
-1.885487	س <ِ> .
-2.334579	س <ِ> :
-0.475366	س <ِ> s
-3.376414	س <ِ> {
-2.007221	س <ِ> }
-1.474241	س <ِ> ،
-3.090648	س <ِ> ؛
-2.584457	س <ِ> ؟
-1.624886	س <ِ> ب
-1.806306	س <ِ> ت
-2.635609	س <ِ> ج
-2.30825	س <ِ> ح
-2.362608	س <ِ> خ
-1.60928	س <ِ> د
-1.441789	س <ِ> ر
-2.283427	س <ِ> ط
-2.107336	س <ِ> ع
-2.424756	س <ِ> ف
-1.866601	س <ِ> ق
-1.513394	س <ِ> ك
-1.630214	س <ِ> ل
-1.414848	س <ِ> م
-1.455914	س <ِ> ن
-0.9860312	س <ِ> ه
-1.732519	س <ِ> و
-0.6905103	س <ِ> ي
-2.782197	ش <ِ> .
-0.7952636	ش <ِ> s
-1.944483	ش <ِ> ،
-1.30103	ش <ِ> ئ
-1.582755	ش <ِ> ب
-2.782197	ش <ِ> ت
-1.020203	ش <ِ> د
-1.057992	ش <ِ> ر
-2.166332	ش <ِ> س
-2.315751	ش <ِ> ط
-1.364699	ش <ِ> ع
-1.08116	ش <ِ> ف
-1.364699	ش <ِ> ق
-1.740363	ش <ِ> ك
-1.272385	ش <ِ> م
-2.315751	ش <ِ> ن
-1.29127	ش <ِ> ه
-2.467361	ش <ِ> و
-0.6181468	ش <ِ> ي
-2.243314	ص <ِ> .
-2.118375	ص <ِ> :
-0.9595101	ص <ِ> s
-1.942284	ص <ِ> ،
-1.498586	ص <ِ> ب
-2.294466	ص <ِ> ت
-0.8671424	ص <ِ> ح
-1.263058	ص <ِ> د
-1.289071	ص <ِ> ر
-1.835828	ص <ِ> غ
-1.243314	ص <ِ> ف
-2.720435	ص <ِ> ق
-1.001657	ص <ِ> ل
-1.365047	ص <ِ> م
-1.967107	ص <ِ> ن
-1.875337	ص <ِ> ه
-0.4651625	ص <ِ> ي
-2.951823	ض <ِ> )
-2.282816	ض <ِ> .
-2.980893	ض <ِ> :
-0.6768959	ض <ِ> s
-2.650793	ض <ِ> }
-1.826884	ض <ِ> ،
-3.266659	ض <ِ> ؛
-1.729974	ض <ِ> ب
-2.198495	ض <ِ> ج
-1.860743	ض <ِ> ح
-2.086522	ض <ِ> د
-1.565621	ض <ِ> ر
-1.098531	ض <ِ> ع
-2.800212	ض <ِ> غ
-3.266659	ض <ِ> ف
-2.650793	ض <ِ> ك
-1.775732	ض <ِ> ل
-2.086522	ض <ِ> م
-2.801465	ض <ِ> ن
-1.428944	ض <ِ> ه
-0.2678759	ض <ِ> ي
-2.349277	ط <ِ> .
-0.7869847	ط <ِ> s
-1.826399	ط <ِ> ،
-1.571126	ط <ِ> ئ
-0.792975	ط <ِ> ب
-2.679377	ط <ِ> ح
-2.965144	ط <ِ> خ
-1.379241	ط <ِ> ر
-1.765701	ط <ِ> س
-2.650307	ط <ِ> ش
-2.965144	ط <ِ> ط
-1.301354	ط <ِ> ع
-2.048248	ط <ِ> ف
-1.712455	ط <ِ> ق
-1.07435	ط <ِ> ل
-1.826399	ط <ِ> م
-1.203149	ط <ِ> ن
-1.583361	ط <ِ> ه
-0.5319325	ط <ِ> ي
-2.172085	ظ <ِ> .
-0.4411591	ظ <ِ> s
-2.143015	ظ <ِ> {
-1.578743	ظ <ِ> ،
-1.992657	ظ <ِ> ب
-1.101622	ظ <ِ> ر
-1.297917	ظ <ِ> ل
-1.991404	ظ <ِ> م
-1.222196	ظ <ِ> ه
-0.4411591	ظ <ِ> ي
-3.627013	ع <ِ> )
-2.232996	ع <ِ> .
-2.747906	ع <ِ> :
-0.7735199	ع <ِ> s
-3.341247	ع <ِ> {
-2.835056	ع <ِ> }
-1.865019	ع <ِ> ،
-3.341247	ع <ِ> ؛
-3.312177	ع <ِ> ؟
-1.34839	ع <ِ> ب
-2.534026	ع <ِ> ت
-2.326901	ع <ِ> ث
-2.643171	ع <ِ> ج
-1.353136	ع <ِ> د
-2.886209	ع <ِ> ذ
-1.536446	ع <ِ> ر
-1.963224	ع <ِ> ز
-3.341247	ع <ِ> س
-1.784977	ع <ِ> ش
-2.427571	ع <ِ> ص
-2.747906	ع <ِ> ط
-2.081728	ع <ِ> ظ
-2.326901	ع <ِ> ف
-2.374325	ع <ِ> ق
-2.209515	ع <ِ> ك
-0.8568249	ع <ِ> ل
-1.610322	ع <ِ> م
-0.8025269	ع <ِ> ن
-1.529227	ع <ِ> ه
-2.643171	ع <ِ> و
-0.5731327	ع <ِ> ي
-2.568982	غ <ِ> .
-1.062791	غ <ِ> s
-2.854748	غ <ِ> }
-2.113943	غ <ِ> ،
-1.58567	غ <ِ> ب
-2.854748	غ <ِ> د
-1.012712	غ <ِ> ذ
-2.017033	غ <ِ> ر
-1.694814	غ <ِ> ش
-1.694814	غ <ِ> ض
-2.389555	غ <ِ> ط
-2.854748	غ <ِ> ف
-1.309463	غ <ِ> ل
-2.388301	غ <ِ> م
-1.20412	غ <ِ> ن
-1.937852	غ <ِ> ه
-0.2331298	غ <ِ> ي
-3.565395	ف <ِ> )
-2.715753	ف <ِ> .
-3.192874	ف <ِ> :
-1.285463	ف <ِ> s
-3.565395	ف <ِ> }
-2.379961	ف <ِ> ،
-3.715753	ف <ِ> ؛
-4.030589	ف <ِ> ؟
-2.601809	ف <ِ> ئ
-2.155447	ف <ِ> ت
-3.564142	ف <ِ> ح
-3.565395	ف <ِ> خ
-2.812663	ف <ِ> د
-3.715753	ف <ِ> ذ
-1.585419	ف <ِ> ر
-3.715753	ف <ِ> ز
-2.831146	ف <ِ> س
-3.414723	ف <ِ> ص
-2.306383	ف <ِ> ض
-2.962425	ف <ِ> ط
-2.192874	ف <ِ> ظ
-1.362927	ف <ِ> ع
-1.805484	ف <ِ> ق
-2.601809	ف <ِ> ك
-2.539661	ف <ِ> ل
-2.511633	ف <ِ> ن
-2.110089	ف <ِ> ه
-0.09013163	ف <ِ> ي
-2.569554	ق <ِ> )
-2.164983	ق <ِ> .
-2.780407	ق <ِ> :
-0.7326459	ق <ِ> s
-3.521212	ق <ِ> {
-2.507406	ق <ِ> }
-1.857422	ق <ِ> ،
-2.729255	ق <ِ> ؟
-1.556393	ق <ِ> ب
-2.303286	ق <ِ> ت
-2.780407	ق <ِ> ث
-1.826165	ق <ِ> د
-1.373867	ق <ِ> ر
-2.382467	ق <ِ> س
-2.428225	ق <ِ> ش
-1.820174	ق <ِ> ص
-2.729255	ق <ِ> ض
-1.920069	ق <ِ> ط
-3.056018	ق <ِ> ظ
-2.139429	ق <ِ> ع
-2.178347	ق <ِ> ف
-3.521212	ق <ِ> ق
-2.428225	ق <ِ> ك
-1.280377	ق <ِ> ل
-2.361278	ق <ِ> م
-2.236339	ق <ِ> ن
-1.510311	ق <ِ> ه
-3.054765	ق <ِ> و
-0.2668568	ق <ِ> ي
-3.249671	ك <ِ> )
-2.265828	ك <ِ> .
-2.265828	ك <ِ> :
-0.7361779	ك <ِ> s
-2.963905	ك <ِ> }
-1.996983	ك <ِ> ،
-1.996983	ك <ِ> ئ
-1.268941	ك <ِ> ب
-0.6951185	ك <ِ> ت
-2.963905	ك <ِ> ح
-2.457714	ك <ِ> د
-1.102326	ك <ِ> ر
-1.799172	ك <ِ> س
-1.695953	ك <ِ> ف
-1.281623	ك <ِ> ل
-1.472437	ك <ِ> م
-0.7866438	ك <ِ> ن
-1.452915	ك <ِ> ه
-0.9178016	ك <ِ> ي
-3.864147	ل <ِ> "
-4.149913	ل <ِ> (
-2.989979	ل <ِ> )
-2.316563	ل <ِ> .
-2.865041	ل <ِ> :
-0.7280936	ل <ِ> s
-3.534047	ل <ِ> {
-2.865041	ل <ِ> }
-1.903959	ل <ِ> ،
-3.270806	ل <ِ> ؛
-3.198255	ل <ِ> ؟
-3.056926	ل <ِ> آ
-1.139012	ل <ِ> أ
-2.499285	ل <ِ> إ
-2.596195	ل <ِ> ئ
-1.38278	ل <ِ> ا
-1.718912	ل <ِ> ب
-2.233017	ل <ِ> ت
-2.303598	ل <ِ> ث
-2.47969	ل <ِ> ج
-1.596195	ل <ِ> ح
-2.78072	ل <ِ> خ
-1.960016	ل <ِ> د
-2.175478	ل <ِ> ذ
-2.357956	ل <ِ> ر
-2.931987	ل <ِ> ز
-1.647557	ل <ِ> س
-2.688949	ل <ِ> ش
-2.334475	ل <ِ> ص
-3.011168	ل <ِ> ض
-2.372679	ل <ِ> ط
-2.897225	ل <ِ> ظ
-1.969776	ل <ِ> ع
-2.211828	ل <ِ> غ
-1.909078	ل <ِ> ف
-1.893897	ل <ِ> ق
-0.8594923	ل <ِ> ك
-1.070901	ل <ِ> ل
-1.006417	ل <ِ> م
-2.156862	ل <ِ> ن
-1.225127	ل <ِ> ه
-2.67873	ل <ِ> و
-0.9273077	ل <ِ> ي
-3.605161	م <ِ> "
-3.755519	م <ِ> (
-2.664439	م <ِ> )
-2.215607	م <ِ> .
-2.641576	م <ِ> :
-0.7391824	م <ِ> s
-4.070355	م <ِ> {
-2.599172	م <ِ> }
-1.806129	م <ِ> ،
-3.603908	م <ِ> ؛
-3.603908	م <ِ> ؟
-3.454489	م <ِ> ئ
-2.393791	م <ِ> ا
-2.755519	م <ِ> ت
-1.590176	م <ِ> ث
-3.329551	م <ِ> ج
-2.569883	م <ِ> ح
-3.232641	م <ِ> خ
-2.139219	م <ِ> د
-1.618799	م <ِ> ذ
-1.958483	م <ِ> ر
-2.476766	م <ِ> ز
-2.298142	م <ِ> س
-3.153459	م <ِ> ش
-2.714126	م <ِ> ص
-2.551399	م <ِ> ض
-3.605161	م <ِ> ط
-1.412439	م <ِ> ع
-3.232641	م <ِ> غ
-2.492278	م <ِ> ق
-2.560543	م <ِ> ك
-1.626259	م <ِ> ل
-1.807759	م <ِ> م
-0.2882564	م <ِ> ن
-1.63058	م <ِ> ه
-1.138169	م <ِ> ي
-3.074288	ن <ِ> "
-2.987138	ن <ِ> (
-2.686108	ن <ِ> )
-1.846687	ن <ِ> .
-1.843839	ن <ِ> :
-0.237753	ن <ِ> s
-2.566133	ن <ِ> {
-2.109452	ن <ِ> }
-1.498331	ن <ِ> ،
-2.798082	ن <ِ> ؛
-3.074288	ن <ِ> ؟
-2.484462	ن <ِ> ئ
-2.099112	ن <ِ> ب
-3.866246	ن <ِ> ت
-3.250379	ن <ِ> ث
-2.987138	ن <ِ> ح
-2.798082	ن <ِ> د
-3.401052	ن <ِ> ز
-2.14204	ن <ِ> س
-2.265103	ن <ِ> ص
-3.866246	ن <ِ> ط
-3.551409	ن <ِ> ظ
-1.688087	ن <ِ> ع
-2.852439	ن <ِ> ف
-3.250379	ن <ِ> ق
-2.257679	ن <ِ> ك
-3.401052	ن <ِ> ل
-2.949349	ن <ِ> م
-2.537169	ن <ِ> ن
-1.325239	ن <ِ> ه
-0.6266133	ن <ِ> ي
-2.717862	ه <ِ> "
-3.194984	ه <ِ> (
-2.568564	ه <ِ> )
-3.860876	ه <ِ> -
-1.527172	ه <ِ> .
-1.816167	ه <ِ> :
-0.1594308	ه <ِ> s
-2.354685	ه <ِ> {
-2.032465	ه <ِ> }
-1.257389	ه <ِ> ،
-2.696143	ه <ِ> ؛
-2.439695	ه <ِ> ؟
-2.326656	ه <ِ> ب
-2.601357	ه <ِ> ج
-1.997173	ه <ِ> د
-1.536605	ه <ِ> ر
-4.146642	ه <ِ> ز
-2.576533	ه <ِ> ش
-3.308927	ه <ِ> ض
-3.530776	ه <ِ> ق
-3.229746	ه <ِ> ك
-2.091443	ه <ِ> ل
-1.144574	ه <ِ> م
-2.194984	ه <ِ> ن
-2.433866	ه <ِ> ه
-1.377978	ه <ِ> ي
-2.71897	و <ِ> .
-0.9548342	و <ِ> s
-2.212779	و <ِ> ،
-3.004737	و <ِ> ب
-2.212779	و <ِ> ت
-2.539543	و <ِ> ج
-2.53829	و <ِ> د
-1.67566	و <ِ> ر
-1.936573	و <ِ> ز
-1.936573	و <ِ> س
-2.539543	و <ِ> ص
-2.167022	و <ِ> ع
-2.38887	و <ِ> ف
-2.689901	و <ِ> ك
-1.513809	و <ِ> ل
-2.53829	و <ِ> م
-2.38887	و <ِ> ن
-1.141716	و <ِ> ه
-0.1614123	و <ِ> ي
-1.773299	ي <ِ> .
-2.103399	ي <ِ> :
-0.4408603	ي <ِ> s
-1.64836	ي <ِ> ،
-1.923971	ي <ِ> ب
-1.074329	ي <ِ> خ
-2.389165	ي <ِ> د
-2.389165	ي <ِ> س
-2.074329	ي <ِ> ع
-2.389165	ي <ِ> ك
-2.103399	ي <ِ> ل
-2.074329	ي <ِ> ن
-0.9716664	ي <ِ> ه
-0.502232	ي <ِ> ي
-0.1478016	ب <ّ> <ٌ>
-1.087271	ب <ّ> <ٍ>
-1.267952	ب <ّ> s
-1.238882	ب <ّ> ك
-0.1506723	ت <ّ> <ٌ>
-0.6158662	ج <ّ> <ٌ>
-0.30103	ج <ّ> <ٍ>
-0.506191	ح <ّ> <ٌ>
-0.4771213	ح <ّ> <ٍ>
-0.7919574	ح <ّ> s
-0.4030195	د <ّ> <ٌ>
-0.3781959	د <ّ> <ٍ>
-1.00599	د <ّ> s
-1.471183	د <ّ> ك
-0.3148362	ذ <ّ> <ٍ>
-0.2038042	ر <ّ> <ٌ>
-0.4755449	ر <ّ> <ٍ>
-1.661181	ر <ّ> s
-1.991281	ر <ّ> ك
-0.4259687	ز <ّ> <ٌ>
-0.4550385	ز <ّ> <ٍ>
-0.1249387	س <ّ> <ٌ>
-0.2756111	ش <ّ> <ٌ>
-0.4259687	ش <ّ> <ٍ>
-0.2852357	ص <ّ> <ٌ>
-0.3521825	ص <ّ> <ٍ>
-0.1387449	ض <ّ> <ٍ>
-0.4259687	ط <ّ> <ٌ>
-0.4259687	ط <ّ> <ٍ>
-0.3970466	ظ <ّ> <ٌ>
-0.3679768	ظ <ّ> <ٍ>
-0.6512747	ف <ّ> <ٌ>
-0.1648103	ف <ّ> <ٍ>
-0.2666611	ق <ّ> <ٌ>
-0.39794	ق <ّ> <ٍ>
-1.767134	ق <ّ> ه
-1.068164	ك <ّ> <ٌ>
-0.1165056	ك <ّ> <ٍ>
-1.850552	ل <ّ> <ً>
-0.5978639	ل <ّ> <ٌ>
-0.2569624	ل <ّ> <ٍ>
-0.8667092	ل <ّ> s
-1.850552	ل <ّ> ه
-0.3553877	م <ّ> <ٌ>
-0.6283889	م <ّ> <ٍ>
-0.5772364	م <ّ> s
-0.5228788	ن <ّ> <ٌ>
-0.2218488	ن <ّ> <ٍ>
-1.138745	ن <ّ> ه
-0.31627	و <ّ> <ٌ>
-0.31627	و <ّ> <ٍ>
-2.653293	ي <ّ> .
-1.815578	ي <ّ> :
-0.4871981	ي <ّ> <ٌ>
-0.3131506	ي <ّ> <ٍ>
-0.828806	ي <ّ> s
-2.186846	ي <ّ> ،
-2.653293	ي <ّ> ت
-2.338456	ي <ّ> ه
