
\data\
ngram 1=69
ngram 2=1263

\1-grams:
-3.817465	"	-2.844841
-6.494159	'	-0.6552447
-3.647822	(	-3.673362
-3.636826	)	-2.804515
-5.414978	-	-1.494586
-2.597743	.	-4.65149
-6.494159	/	-0.6627577
-2.582043	:	-3.725468
-2.61696	</s>
-99	<s>	-3.954798
-1.027617	<u>	-5.132065
-2.550813	<ً>	-4.203794
-2.482927	<ٌ>	-4.078852
-2.3833	<ٍ>	-4.046966
-0.8125079	<َ>	-4.969425
-1.382285	<ُ>	-4.898838
-1.217614	<ِ>	-4.782064
-3.331893	<ّ>	-3.147442
-1.741757	<َّ>	-4.53231
-2.512748	<ُّ>	-3.924691
-2.399338	<ِّ>	-4.486679
-1.232449	<ْ>	-4.923132
-6.017037	[	-0.9317974
-6.494159	\	-0.6617074
-6.017037	]	-1.181994
-6.494159	`	-0.6577578
-1.009926	s	-5.006658
-3.017762	{	-3.265006
-3.018342	}	-3.628565
-2.408904	،	-3.941056
-3.824842	؛	-3.100908
-3.493725	؟	-3.814474
-2.722277	ء	-3.936313
-3.233372	آ	-3.21823
-1.902426	أ	-4.701875
-3.396901	ؤ	-3.688194
-2.31975	إ	-4.230812
-2.95433	ئ	-3.666235
-1.232891	ا	-4.907334
-1.728148	ب	-4.505919
-2.216275	ة	-4.592031
-1.941308	ت	-4.503227
-2.529051	ث	-4.465881
-2.276543	ج	-4.018293
-2.049942	ح	-4.550732
-2.443238	خ	-3.856643
-1.946852	د	-4.282751
-2.295199	ذ	-4.304368
-1.732502	ر	-4.559524
-2.670815	ز	-3.62797
-2.020978	س	-4.969159
-2.510532	ش	-4.089978
-2.355603	ص	-4.24433
-2.536743	ض	-3.704483
-2.581405	ط	-3.659836
-2.989009	ظ	-4.009386
-1.765716	ع	-4.529467
-2.686421	غ	-3.614029
-5.795189	ـ	-1.096625
-1.871541	ف	-4.724192
-1.921368	ق	-4.827972
-2.018894	ك	-4.575446
-1.250843	ل	-5.107324
-1.573092	م	-4.694834
-1.582421	ن	-4.778872
-1.676501	ه	-4.615407
-1.565958	و	-4.724873
-2.339339	ى	-4.865952
-1.521886	ي	-4.840151

\2-grams:
-2.034377	" "
-1.003531	" .
-1.739484	" ،
-2.392697	" ؛
-2.392697	" ؟
-1.070478	" أ
-1.231329	" إ
-1.278754	" ا
-1.579784	" ب
-1.517636	" ت
-2.034377	" ث
-2.034377	" ج
-1.790637	" ح
-2.499152	" خ
-2.091667	" د
-2.499152	" ذ
-1.790637	" ر
-2.499152	" ز
-2.091667	" س
-2.499152	" ش
-2.034377	" ص
-2.499152	" ض
-2.499152	" ط
-2.034377	" ظ
-1.605206	" ع
-2.499152	" غ
-1.060259	" ف
-1.547599	" ق
-1.652334	" ك
-1.295787	" ل
-1.175213	" م
-2.034377	" ن
-1.994757	" ه
-0.7542077	" و
-1.547599	" ي
-0.1064553	' ع
-2.66155	( آ
-1.350974	( أ
-1.814732	( إ
-1.023615	( ا
-1.165928	( ب
-2.254065	( ت
-2.66155	( ث
-2.66155	( ج
-1.767603	( ح
-2.555094	( د
-2.157154	( ر
-2.254065	( ز
-2.555094	( س
-2.196775	( ص
-2.555094	( ط
-2.157154	( ع
-2.66155	( غ
-0.3259248	( ف
-1.776943	( ق
-1.625676	( ك
-1.475913	( ل
-1.458184	( م
-2.555094	( ن
-2.196775	( ه
-0.9810632	( و
-1.767603	( ي
-2.564074	) (
-0.3235247	) .
-1.373742	) :
-2.205754	) {
-2.670529	) آ
-1.402706	) أ
-1.776583	) إ
-1.609831	) ا
-1.660984	) ب
-1.609831	) ت
-1.503376	) ث
-2.564074	) ج
-1.484893	) ح
-2.670529	) خ
-2.670529	) د
-2.205754	) ذ
-2.166134	) ر
-2.564074	) س
-2.564074	) ش
-2.564074	) ص
-2.670529	) ط
-2.670529	) ظ
-1.823711	) ع
-2.670529	) غ
-1.751161	) ف
-1.28532	) ق
-2.086953	) ك
-1.751161	) ل
-1.962014	) م
-2.263044	) ن
-2.670529	) ه
-1.072712	) و
-1.503376	) ي
-0.5959228	- :
-1.060698	- أ
-1.060698	- إ
-1.060698	- ا
-1.060698	- ر
-0.9542425	- ص
-1.060698	- ك
-1.060698	- و
-1.060698	- ي
-2.942504	. "
-1.796376	. (
-2.817565	. .
-3.702172	. /
-0.01960573	. </s>
-2.273497	. {
-1.735379	. }
-2.808225	. ،
-0.1064553	/ \
-2.141423	: "
-2.532064	: (
-3.134124	: )
-3.252926	: :
-1.089454	: {
-3.7177	: ؛
-2.912275	: آ
-1.110186	: أ
-1.055546	: إ
-1.041286	: ا
-1.840393	: ب
-1.82237	: ت
-2.148847	: ث
-2.344074	: ج
-1.82237	: ح
-2.355973	: خ
-2.310215	: د
-2.465117	: ذ
-1.82237	: ر
-2.611245	: ز
-1.558167	: س
-2.435154	: ش
-2.009185	: ص
-2.958033	: ض
-2.708155	: ط
-2.912275	: ظ
-1.76926	: ع
-2.355973	: غ
-1.287993	: ف
-1.340566	: ق
-1.454393	: ك
-1.00756	: ل
-1.213305	: م
-1.833094	: ن
-1.507442	: ه
-0.9787879	: و
-1.272789	: ي
-3.683142	<s> آ
-1.974627	<s> أ
-2.359203	<s> إ
-1.787812	<s> ا
-2.974627	<s> ب
-2.798536	<s> ت
-2.014394	<s> ث
-2.789196	<s> ج
-2.598963	<s> ح
-3.275657	<s> خ
-3.576687	<s> د
-2.346238	<s> ذ
-1.98009	<s> ر
-3.178747	<s> ز
-2.555497	<s> س
-3.275657	<s> ش
-3.275657	<s> ص
-3.683142	<s> ض
-3.218367	<s> ط
-3.683142	<s> ظ
-2.234264	<s> ع
-0.9596865	<s> ف
-0.9586387	<s> ق
-2.153441	<s> ك
-2.346238	<s> ل
-2.333649	<s> م
-2.798536	<s> ن
-2.446353	<s> ه
-0.1699764	<s> و
-2.114289	<s> ي
-0.5947074	<u> s
-1.765926	<u> ء
-4.864483	<u> آ
-4.466543	<u> أ
-3.336209	<u> ؤ
-2.133903	<u> ئ
-2.127091	<u> ا
-1.52014	<u> ب
-2.630219	<u> ة
-1.77352	<u> ت
-1.989566	<u> ث
-2.202434	<u> ج
-2.004594	<u> ح
-2.352266	<u> خ
-1.615162	<u> د
-2.004894	<u> ذ
-1.450429	<u> ر
-2.238656	<u> ز
-1.640209	<u> س
-2.023906	<u> ش
-2.04461	<u> ص
-2.321036	<u> ض
-2.219798	<u> ط
-2.788936	<u> ظ
-1.933534	<u> ع
-2.960038	<u> غ
-4.767573	<u> ـ
-2.010329	<u> ف
-2.121562	<u> ق
-2.349935	<u> ك
-0.470798	<u> ل
-1.573836	<u> م
-1.158833	<u> ن
-1.602507	<u> ه
-2.344655	<u> و
-5.165513	<u> ى
-2.257833	<u> ي
-2.581668	<ً> "
-3.165244	<ً> (
-2.943396	<ً> )
-3.748821	<ً> -
-1.377548	<ً> .
-1.836186	<ً> :
-0.2115652	<ً> <u>
-0.820852	<ً> s
-1.327446	<ً> {
-1.619113	<ً> }
-1.098298	<ً> ،
-2.545455	<ً> ؛
-2.363612	<ً> ؟
-1.813062	<ً> ى
-2.865358	<ٌ> "
-1.428287	<ٌ> (
-2.431702	<ٌ> )
-1.322177	<ٌ> .
-1.8383	<ٌ> :
-0.09751315	<ٌ> s
-2.564328	<ٌ> {
-1.821154	<ٌ> }
-1.148758	<ٌ> ،
-2.580122	<ٌ> ؛
-2.409426	<ٌ> ؟
-2.922965	<ٌ> و
-2.76847	<ٍ> "
-3.207803	<ٍ> (
-2.712953	<ٍ> )
-1.517606	<ٍ> .
-1.492844	<ٍ> :
-0.08276889	<ٍ> s
-1.727077	<ٍ> {
-1.807697	<ٍ> }
-1.211619	<ٍ> ،
-2.832139	<ٍ> ؛
-2.438795	<ٍ> ؟
-2.235831	<ٍ> و
-3.85558	<َ> "
-4.477535	<َ> (
-4.163141	<َ> )
-5.48708	<َ> -
-2.784578	<َ> .
-2.183068	<َ> :
-5.48708	<َ> ]
-5.48708	<َ> `
-0.9658182	<َ> s
-2.787893	<َ> {
-3.047177	<َ> }
-2.50239	<َ> ،
-3.842805	<َ> ؛
-3.456345	<َ> ؟
-4.319927	<َ> ء
-3.517302	<َ> آ
-1.851258	<َ> أ
-3.617197	<َ> ؤ
-2.107276	<َ> إ
-3.480258	<َ> ئ
-0.6509698	<َ> ا
-1.518225	<َ> ب
-1.490735	<َ> ة
-1.761949	<َ> ت
-2.543036	<َ> ث
-1.903359	<َ> ج
-1.768159	<َ> ح
-2.242322	<َ> خ
-1.564052	<َ> د
-1.903286	<َ> ذ
-1.419678	<َ> ر
-2.386968	<َ> ز
-1.700289	<َ> س
-2.3428	<َ> ش
-2.06602	<َ> ص
-2.201935	<َ> ض
-2.282673	<َ> ط
-2.645026	<َ> ظ
-1.504696	<َ> ع
-2.339429	<َ> غ
-1.907503	<َ> ف
-1.505013	<َ> ق
-1.721231	<َ> ك
-1.137524	<َ> ل
-1.472649	<َ> م
-1.263105	<َ> ن
-1.520077	<َ> ه
-1.598618	<َ> و
-1.632902	<َ> ى
-1.338207	<َ> ي
-3.208791	<ُ> "
-3.810851	<ُ> (
-3.116245	<ُ> )
-4.917306	<ُ> -
-1.974843	<ُ> .
-1.962046	<ُ> :
-4.917306	<ُ> [
-0.385969	<ُ> s
-2.666276	<ُ> {
-2.479423	<ُ> }
-1.864398	<ُ> ،
-3.260622	<ُ> ؛
-2.777427	<ُ> ؟
-3.810851	<ُ> ء
-2.164937	<ُ> ؤ
-2.80225	<ُ> ئ
-1.758734	<ُ> ب
-2.046674	<ُ> ت
-2.652488	<ُ> ث
-2.088628	<ُ> ج
-1.835419	<ُ> ح
-2.007052	<ُ> خ
-1.906406	<ُ> د
-2.397551	<ُ> ذ
-1.523385	<ُ> ر
-2.511997	<ُ> ز
-1.660094	<ُ> س
-2.418154	<ُ> ش
-2.091934	<ُ> ص
-2.39839	<ُ> ض
-2.257575	<ُ> ط
-3.236819	<ُ> ظ
-1.849192	<ُ> ع
-2.519704	<ُ> غ
-2.101581	<ُ> ف
-1.838185	<ُ> ق
-1.815215	<ُ> ك
-1.349577	<ُ> ل
-1.240016	<ُ> م
-1.655059	<ُ> ن
-1.309997	<ُ> ه
-0.8198683	<ُ> و
-2.80225	<ُ> ي
-3.312761	<ِ> "
-3.613791	<ِ> (
-2.768693	<ِ> )
-4.498398	<ِ> -
-1.985847	<ِ> .
-2.280475	<ِ> :
-5.081975	<ِ> ]
-0.5397782	<ِ> s
-2.909193	<ِ> {
-2.425291	<ِ> }
-1.648467	<ِ> ،
-3.067034	<ِ> ؛
-2.946135	<ِ> ؟
-3.685484	<ِ> آ
-1.98696	<ِ> أ
-2.678854	<ِ> إ
-2.562219	<ِ> ئ
-1.705889	<ِ> ا
-1.69335	<ِ> ب
-2.205773	<ِ> ت
-2.30481	<ِ> ث
-2.440225	<ِ> ج
-2.092426	<ِ> ح
-2.628189	<ِ> خ
-1.784767	<ِ> د
-2.022969	<ِ> ذ
-1.654231	<ِ> ر
-2.677759	<ِ> ز
-1.958695	<ِ> س
-2.370214	<ِ> ش
-2.541749	<ِ> ص
-2.545767	<ِ> ض
-2.620451	<ِ> ط
-2.882097	<ِ> ظ
-1.796255	<ِ> ع
-2.676666	<ِ> غ
-2.110712	<ِ> ف
-2.053313	<ِ> ق
-1.634085	<ِ> ك
-1.46137	<ِ> ل
-1.444232	<ِ> م
-1.110741	<ِ> ن
-1.283289	<ِ> ه
-2.33703	<ِ> و
-0.6091616	<ِ> ي
-2.86243	<ّ> (
-2.50411	<ّ> .
-2.16346	<ّ> :
-2.385308	<ّ> <ً>
-0.3759991	<ّ> <ٌ>
-0.3648089	<ّ> <ٍ>
-0.9759389	<ّ> s
-2.209217	<ّ> ،
-2.50411	<ّ> ؟
-2.86243	<ّ> ت
-2.084278	<ّ> ك
-2.16346	<ّ> ه
-3.974281	<َّ> "
-4.451403	<َّ> (
-4.557858	<َّ> )
-3.028157	<َّ> .
-3.372221	<َّ> :
-0.8620675	<َّ> s
-3.49716	<َّ> {
-3.150373	<َّ> }
-2.723049	<َّ> ،
-4.053463	<َّ> ؛
-3.752433	<َّ> ؟
-4.557858	<َّ> ء
-3.673251	<َّ> آ
-2.363266	<َّ> أ
-4.557858	<َّ> ؤ
-4.093083	<َّ> إ
-3.548313	<َّ> ئ
-0.8032379	<َّ> ا
-1.461953	<َّ> ب
-1.312311	<َّ> ة
-1.874486	<َّ> ت
-2.096334	<َّ> ث
-1.825062	<َّ> ج
-1.665361	<َّ> ح
-2.354493	<َّ> خ
-1.673976	<َّ> د
-1.804509	<َّ> ذ
-1.684618	<َّ> ر
-2.715006	<َّ> ز
-2.199764	<َّ> س
-2.843948	<َّ> ش
-2.424053	<َّ> ص
-2.871619	<َّ> ض
-2.727127	<َّ> ط
-2.612554	<َّ> ظ
-1.843412	<َّ> ع
-2.699354	<َّ> غ
-1.821993	<َّ> ف
-1.967815	<َّ> ق
-2.060467	<َّ> ك
-1.483387	<َّ> ل
-1.115945	<َّ> م
-1.887922	<َّ> ن
-0.6800724	<َّ> ه
-1.751132	<َّ> و
-1.281434	<َّ> ى
-1.673613	<َّ> ي
-3.322424	<ُّ> "
-3.787199	<ُّ> '
-3.282803	<ُّ> (
-3.282803	<ُّ> )
-1.960584	<ُّ> .
-1.529987	<ُّ> :
-0.3283678	<ُّ> s
-2.893252	<ُّ> {
-2.680743	<ُّ> }
-1.95239	<ُّ> ،
-3.203622	<ُّ> ؛
-2.981773	<ُّ> ؟
-3.680743	<ُّ> ء
-1.924868	<ُّ> ؤ
-1.55041	<ُّ> ب
-2.70302	<ُّ> ت
-3.078683	<ُّ> ث
-2.189382	<ُّ> ج
-2.112542	<ُّ> ح
-2.225899	<ُّ> خ
-1.940381	<ُّ> د
-2.86783	<ُّ> ذ
-1.643317	<ُّ> ر
-2.70302	<ُّ> ز
-2.328561	<ُّ> س
-2.659554	<ُّ> ش
-2.601562	<ُّ> ص
-2.835645	<ُّ> ض
-2.062695	<ُّ> ط
-3.203622	<ُّ> ظ
-1.587322	<ُّ> ع
-2.328561	<ُّ> غ
-1.71226	<ُّ> ف
-1.956468	<ُّ> ق
-1.653394	<ُّ> ك
-1.450294	<ُّ> ل
-1.743727	<ُّ> م
-1.195732	<ُّ> ن
-1.214617	<ُّ> ه
-1.055431	<ُّ> و
-2.751324	<ُّ> ي
-3.006857	<ِّ> "
-3.493319	<ِّ> (
-2.919287	<ِّ> )
-2.141136	<ِّ> .
-1.931026	<ِّ> :
-0.5439286	<ِّ> s
-2.551311	<ِّ> {
-2.794349	<ِّ> }
-1.844959	<ِّ> ،
-3.006857	<ِّ> ؛
-3.016197	<ِّ> ؟
-1.974805	<ِّ> ئ
-1.378541	<ِّ> ب
-2.012593	<ِّ> ت
-1.766999	<ِّ> ث
-1.85985	<ِّ> ج
-1.821221	<ِّ> ح
-2.26287	<ِّ> خ
-1.305798	<ِّ> د
-2.773159	<ِّ> ذ
-1.144527	<ِّ> ر
-2.493319	<ِّ> ز
-1.726163	<ِّ> س
-2.773159	<ِّ> ش
-2.423281	<ِّ> ص
-2.414137	<ِّ> ض
-2.442166	<ِّ> ط
-3.006857	<ِّ> ظ
-1.533086	<ِّ> ع
-2.715167	<ِّ> غ
-1.678738	<ِّ> ف
-1.715167	<ِّ> ق
-1.870069	<ِّ> ك
-1.632981	<ِّ> ل
-1.369467	<ِّ> م
-1.594319	<ِّ> ن
-1.436414	<ِّ> ه
-2.155859	<ِّ> و
-0.7453245	<ِّ> ي
-3.830349	<ْ> "
-4.659652	<ْ> (
-4.031263	<ْ> )
-2.892497	<ْ> .
-2.626229	<ْ> :
-0.7226614	<ْ> s
-3.442168	<ْ> {
-2.949959	<ْ> }
-2.592396	<ْ> ،
-3.960682	<ْ> ؛
-3.513524	<ْ> ؟
-2.332805	<ْ> ء
-2.381471	<ْ> آ
-1.596413	<ْ> أ
-2.098551	<ْ> إ
-2.805346	<ْ> ئ
-3.208634	<ْ> ا
-1.379928	<ْ> ب
-1.180149	<ْ> ت
-2.31723	<ْ> ث
-1.779411	<ْ> ج
-1.509818	<ْ> ح
-1.806258	<ْ> خ
-1.47489	<ْ> د
-2.509664	<ْ> ذ
-1.178281	<ْ> ر
-2.210174	<ْ> ز
-1.700969	<ْ> س
-2.479957	<ْ> ش
-2.219137	<ْ> ص
-1.815797	<ْ> ض
-2.179286	<ْ> ط
-2.465832	<ْ> ظ
-1.47185	<ْ> ع
-2.276735	<ْ> غ
-1.566143	<ْ> ف
-1.633732	<ْ> ق
-1.611502	<ْ> ك
-1.250861	<ْ> ل
-1.051581	<ْ> م
-1.160963	<ْ> ن
-1.235179	<ْ> ه
-1.75833	<ْ> و
-1.820803	<ْ> ي
-0.4074853	[ أ
-0.30103	[ ا
-0.1064553	\ </s>
-0.5043954	] .
-0.5043954	] ا
-0.5043954	] ف
-0.1064553	` ت
-5.289661	s <u>
-2.557379	s آ
-1.109396	s أ
-1.584853	s إ
-0.7147772	s ا
-1.225359	s ب
-1.643628	s ت
-2.295307	s ث
-2.048551	s ج
-1.714121	s ح
-2.148377	s خ
-2.138666	s د
-2.008564	s ذ
-1.712354	s ر
-2.550243	s ز
-1.888409	s س
-2.069764	s ش
-1.893505	s ص
-2.674676	s ض
-2.382832	s ط
-2.771586	s ظ
-1.135347	s ع
-2.202975	s غ
-1.170179	s ف
-1.514494	s ق
-1.637899	s ك
-1.331275	s ل
-1.126415	s م
-1.997239	s ن
-1.899114	s ه
-1.009553	s و
-1.268043	s ي
-3.283414	{ .
-1.203831	{ :
-3.283414	{ {
-2.818639	{ ،
-2.818639	{ آ
-0.8335504	{ أ
-0.9490723	{ إ
-1.059688	{ ا
-2.000868	{ ب
-2.000868	{ ت
-2.135566	{ ث
-2.222717	{ ج
-2.063016	{ ح
-2.046625	{ خ
-2.135566	{ د
-2.436596	{ ذ
-2.000868	{ ر
-2.875929	{ ز
-1.94651	{ س
-2.875929	{ ش
-2.574899	{ ص
-2.779019	{ ض
-2.389468	{ ط
-3.283414	{ ظ
-2.000868	{ ع
-2.699838	{ غ
-1.409803	{ ف
-1.597175	{ ق
-1.341268	{ ك
-1.006697	{ ل
-0.9936891	{ م
-1.714561	{ ن
-2.080049	{ ه
-0.9647714	{ و
-1.465152	{ ي
-3.177681	} "
-2.819361	} (
-3.177681	} )
-3.284136	} -
-0.5643676	} .
-2.70056	} :
-3.284136	} [
-2.223438	} {
-2.437318	} }
-1.534228	} ،
-2.876651	} ؛
-2.390189	} ؟
-1.715283	} أ
-1.381801	} إ
-1.609479	} ا
-2.399529	} ب
-2.779741	} ت
-2.199957	} ث
-2.819361	} ج
-1.876651	} ح
-2.819361	} خ
-3.177681	} د
-2.575621	} ذ
-0.8382293	} ر
-2.390189	} ز
-2.364767	} س
-3.177681	} ش
-2.819361	} ص
-3.284136	} ض
-3.177681	} ط
-3.284136	} ظ
-2.399529	} ع
-3.284136	} غ
-1.406829	} ف
-1.218639	} ق
-2.00159	} ك
-2.156492	} ل
-1.627452	} م
-2.575621	} ن
-2.524468	} ه
-0.6147934	} و
-2.016313	} ي
-3.386784	، "
-3.89118	، (
-2.997233	، .
-2.971811	، {
-2.743332	، }
-2.743332	، ،
-3.89118	، ؛
-3.784724	، آ
-1.474031	، أ
-1.988844	، إ
-1.985384	، ا
-2.151256	، ب
-2.594393	، ت
-1.575209	، ث
-3.131512	، ج
-2.608633	، ح
-3.307603	، خ
-3.483694	، د
-2.505971	، ذ
-2.517553	، ر
-2.997233	، ز
-2.939626	، س
-3.131512	، ش
-3.131512	، ص
-3.426404	، ض
-3.784724	، ط
-3.784724	، ظ
-2.529452	، ع
-3.131512	، غ
-0.8968257	، ف
-1.698364	، ق
-1.949034	، ك
-1.865646	، ل
-2.072917	، م
-2.705543	، ن
-2.49469	، ه
-0.1599782	، و
-2.117271	، ي
-2.370143	؛ }
-2.370143	؛ أ
-2.069113	؛ إ
-2.476598	؛ ب
-2.476598	؛ ح
-1.370143	؛ ف
-2.476598	؛ ق
-0.06802847	؛ ل
-2.370143	؛ م
-1.152659	؛ و
-1.917088	؟ "
-2.704579	؟ (
-2.10252	؟ )
-2.704579	؟ .
-2.811035	؟ :
-2.811035	؟ ]
-2.306639	؟ {
-1.829518	؟ }
-2.10252	؟ ،
-2.811035	؟ ؟
-1.543211	؟ أ
-2.00561	؟ إ
-1.964217	؟ ا
-2.00561	؟ ب
-2.704579	؟ ت
-2.227458	؟ ث
-2.704579	؟ ج
-2.704579	؟ ح
-2.811035	؟ خ
-2.403549	؟ د
-2.34626	؟ ذ
-2.811035	؟ ر
-2.811035	؟ ز
-2.403549	؟ س
-2.811035	؟ ص
-2.811035	؟ ط
-2.704579	؟ ظ
-1.891666	؟ ع
-0.4844714	؟ ف
-0.5100651	؟ ق
-1.926428	؟ ك
-1.775161	؟ ل
-1.891666	؟ م
-2.811035	؟ ن
-2.10252	؟ ه
-0.8817578	؟ و
-1.726856	؟ ي
-3.57738	ء .
-3.169895	ء :
-2.227887	ء <u>
-1.48192	ء <ً>
-1.146642	ء <ٌ>
-0.9837864	ء <ٍ>
-0.6464735	ء <َ>
-0.7969828	ء <ُ>
-0.3983073	ء <ِ>
-0.0002381653	آ <u>
-3.31299	أ <u>
-3.512562	أ <ً>
-3.387623	أ <ٌ>
-4.290713	أ <ٍ>
-0.04269103	أ <َ>
-1.339862	أ <ُ>
-3.211532	أ <ِ>
-3.637501	أ <َّ>
-4.397169	أ <ُّ>
-1.339619	أ <ْ>
-1.985392	ؤ <ٌ>
-2.904761	ؤ <ٍ>
-0.6295133	ؤ <َ>
-0.6979347	ؤ <ُ>
-2.010814	ؤ <ِ>
-2.798305	ؤ <ُّ>
-0.2661882	ؤ <ْ>
-0.211977	إ <u>
-3.086062	إ <ٍ>
-0.4141606	إ <ِ>
-3.345379	ئ .
-3.238924	ئ <u>
-2.498561	ئ <ٌ>
-1.832384	ئ <ٍ>
-0.7378646	ئ <َ>
-1.330439	ئ <ُ>
-0.1642902	ئ <ِ>
-1.178226	ئ <ْ>
-3.982519	ا "
-4.483121	ا (
-3.352787	ا )
-2.639058	ا .
-2.914919	ا :
-0.0239021	ا <u>
-1.414379	ا <ً>
-2.494117	ا <َ>
-2.890204	ا <ُ>
-4.085181	ا <ِ>
-5.066698	ا [
-3.505398	ا {
-2.895784	ا }
-2.391454	ا ،
-3.769911	ا ؛
-3.270046	ا ؟
-4.464989	ب )
-4.163959	ب .
-4.464989	ب :
-2.587042	ب <u>
-1.954444	ب <ٌ>
-1.913539	ب <ٍ>
-0.535544	ب <َ>
-1.012129	ب <ُ>
-0.4642509	ب <ِ>
-3.050015	ب <ّ>
-1.626769	ب <َّ>
-2.008622	ب <ُّ>
-2.113772	ب <ِّ>
-0.6992828	ب <ْ>
-3.987867	ب ،
-3.618603	ة )
-3.16401	ة .
-3.499802	ة :
-1.937509	ة <u>
-1.130586	ة <ً>
-1.05058	ة <ٌ>
-1.046483	ة <ٍ>
-0.7132868	ة <َ>
-0.8364148	ة <ُ>
-0.4047485	ة <ِ>
-4.083378	ة {
-2.955734	ة ،
-4.083378	ة ؟
-4.251906	ت "
-4.251906	ت )
-3.774785	ت .
-2.523552	ت :
-1.328403	ت <u>
-3.853966	ت <ً>
-2.385618	ت <ٌ>
-2.12969	ت <ٍ>
-0.3157943	ت <َ>
-0.8831542	ت <ُ>
-0.8519726	ت <ِ>
-3.774785	ت <ّ>
-1.090538	ت <َّ>
-2.456026	ت <ُّ>
-1.754976	ت <ِّ>
-1.099617	ت <ْ>
-4.358361	ت {
-3.950876	ت }
-3.075814	ت ،
-4.358361	ت ؛
-3.464415	ت ؟
-3.770674	ث .
-1.875344	ث <u>
-3.770674	ث <ً>
-1.772124	ث <ٌ>
-1.864878	ث <ٍ>
-0.4481849	ث <َ>
-0.7327609	ث <ُ>
-0.6812695	ث <ِ>
-3.770674	ث <ّ>
-1.174964	ث <َّ>
-2.232855	ث <ُّ>
-1.939943	ث <ِّ>
-0.9156432	ث <ْ>
-3.770674	ث {
-3.770674	ث }
-4.023094	ج .
-2.5842	ج <u>
-4.023094	ج <ً>
-2.54557	ج <ٌ>
-2.336854	ج <ٍ>
-0.3450458	ج <َ>
-0.7032532	ج <ُ>
-0.7916451	ج <ِ>
-3.439517	ج <ّ>
-1.56157	ج <َّ>
-2.348436	ج <ُّ>
-2.314578	ج <ِّ>
-0.8506852	ج <ْ>
-3.916638	ج ،
-4.249658	ح )
-4.143202	ح .
-2.939082	ح <u>
-1.975885	ح <ٌ>
-2.138881	ح <ٍ>
-0.2946744	ح <َ>
-1.10359	ح <ُ>
-0.8302847	ح <ِ>
-3.48999	ح <ّ>
-1.841088	ح <َّ>
-2.301217	ح <ُّ>
-2.925718	ح <ِّ>
-0.645927	ح <ْ>
-3.856423	خ .
-3.448938	خ <u>
-2.494696	خ <ٌ>
-2.50693	خ <ٍ>
-0.2935261	خ <َ>
-0.8810299	خ <ُ>
-0.8598266	خ <ِ>
-3.856423	خ <ّ>
-2.106515	خ <َّ>
-2.90487	خ <ُّ>
-2.082515	خ <ِّ>
-0.7048408	خ <ْ>
-4.246289	د "
-3.343199	د (
-3.042169	د .
-3.246289	د :
-1.714172	د <u>
-3.848349	د <ً>
-1.65914	د <ٌ>
-1.359517	د <ٍ>
-0.5119296	د <َ>
-0.8493928	د <ُ>
-0.6449355	د <ِ>
-2.913851	د <ّ>
-1.211661	د <َّ>
-1.585424	د <ُّ>
-1.48549	د <ِّ>
-0.9394355	د <ْ>
-3.644229	د {
-4.246289	د }
-3.132346	د ،
-3.157622	ذ <u>
-2.837286	ذ <ً>
-2.837286	ذ <ٌ>
-2.295924	ذ <ٍ>
-0.1837384	ذ <َ>
-1.353916	ذ <ُ>
-0.7467677	ذ <ِ>
-3.539665	ذ <ّ>
-1.630813	ذ <َّ>
-2.142109	ذ <ُّ>
-1.958465	ذ <ِّ>
-1.149021	ذ <ْ>
-4.567098	ر (
-4.460642	ر )
-3.682491	ر .
-3.647729	ر :
-2.256522	ر <u>
-4.062702	ر <ً>
-1.80743	ر <ٌ>
-1.564392	ر <ٍ>
-0.383638	ر <َ>
-0.9187512	ر <ُ>
-0.6774178	ر <ِ>
-2.32234	ر <ّ>
-1.289355	ر <َّ>
-1.7867	ر <ُّ>
-1.625904	ر <ِّ>
-0.9565114	ر <ْ>
-4.567098	ر {
-3.72028	ر ،
-3.6289	ز "
-2.332113	ز <u>
-2.142233	ز <ٌ>
-2.23241	ز <ٍ>
-0.4734201	ز <َ>
-0.964937	ز <ُ>
-0.587189	ز <ِ>
-2.920384	ز <ّ>
-0.9198417	ز <َّ>
-1.454258	ز <ُّ>
-1.650288	ز <ِّ>
-1.002616	ز <ْ>
-3.6289	ز ،
-4.278664	س .
-2.905037	س <u>
-4.278664	س <ً>
-2.033906	س <ٌ>
-1.667059	س <ٍ>
-0.4082569	س <َ>
-0.9296673	س <ُ>
-0.9345394	س <ِ>
-3.813889	س <ّ>
-1.209366	س <َّ>
-1.596444	س <ُّ>
-1.869013	س <ِّ>
-0.615183	س <ْ>
-4.278664	س ،
-4.278664	س ؟
-2.869728	ش <u>
-3.789097	ش <ً>
-2.621943	ش <ٌ>
-2.02463	ش <ٍ>
-0.4008129	ش <َ>
-1.139816	ش <ُ>
-1.039189	ش <ِ>
-3.080581	ش <ّ>
-0.7186176	ش <َّ>
-1.643227	ش <ُّ>
-1.590974	ش <ِّ>
-0.7327637	ش <ْ>
-3.439648	ص <u>
-3.479269	ص <ً>
-2.67622	ص <ٌ>
-2.224805	ص <ٍ>
-0.369315	ص <َ>
-1.159526	ص <ُ>
-0.9410622	ص <ِ>
-2.707255	ص <ّ>
-0.8833459	ص <َّ>
-1.697709	ص <ُّ>
-1.604592	ص <ِّ>
-0.6936373	ص <ْ>
-2.495066	ض <u>
-1.860554	ض <ٌ>
-1.77562	ض <ٍ>
-0.4403997	ض <َ>
-0.7963952	ض <ُ>
-0.5285193	ض <ِ>
-3.656434	ض <ّ>
-1.382276	ض <َّ>
-2.24146	ض <ُّ>
-2.276222	ض <ِّ>
-1.02347	ض <ْ>
-2.634053	ط <u>
-2.099893	ط <ٌ>
-2.156932	ط <ٍ>
-0.3957425	ط <َ>
-1.097229	ط <ُ>
-0.7853776	ط <ِ>
-3.009717	ط <ّ>
-0.8729959	ط <َّ>
-1.772927	ط <ُّ>
-1.429933	ط <ِّ>
-0.8303801	ط <ْ>
-2.602874	ظ <u>
-2.000813	ظ <ٌ>
-1.654705	ظ <ٍ>
-0.3536752	ظ <َ>
-0.7585517	ظ <ُ>
-0.8858275	ظ <ِ>
-2.417442	ظ <ّ>
-1.102843	ظ <َّ>
-1.862511	ظ <ُّ>
-1.872495	ظ <ِّ>
-0.9681444	ظ <ْ>
-3.311389	ظ ،
-4.533885	ع .
-2.830832	ع <u>
-4.1264	ع <ً>
-2.337524	ع <ٌ>
-2.226032	ع <ٍ>
-0.2059499	ع <َ>
-1.040485	ع <ُ>
-0.9391607	ع <ِ>
-2.819974	ع <َّ>
-3.950308	ع <ُّ>
-3.649278	ع <ِّ>
-0.8027863	ع <ْ>
-4.533885	ع ،
-3.613298	غ .
-2.76648	غ <u>
-3.029722	غ <ٌ>
-2.603753	غ <ٍ>
-0.1998823	غ <َ>
-1.257645	غ <ُ>
-0.7908398	غ <ِ>
-2.76648	غ <َّ>
-3.613298	غ <ُّ>
-2.661745	غ <ِّ>
-0.8474023	غ <ْ>
-0.1760913	ـ <u>
-0.5835766	ـ }
-4.428054	ف .
-2.736138	ف <u>
-3.844477	ف <ً>
-2.06392	ف <ٌ>
-2.24788	ف <ٍ>
-0.3441035	ف <َ>
-1.191747	ف <ُ>
-0.4297545	ف <ِ>
-3.343875	ف <ّ>
-2.08607	ف <َّ>
-2.678146	ف <ُّ>
-2.355457	ف <ِّ>
-1.099272	ف <ْ>
-3.923658	ف ،
-4.378251	ق (
-3.913476	ق )
-4.378251	ق .
-2.919613	ق <u>
-4.271795	ق <ً>
-2.178374	ق <ٌ>
-2.252679	ق <ٍ>
-0.1980218	ق <َ>
-0.8984233	ق <ُ>
-0.8893278	ق <ِ>
-2.643406	ق <ّ>
-2.036267	ق <َّ>
-2.296363	ق <ُّ>
-2.107442	ق <ِّ>
-1.138416	ق <ْ>
-4.271795	ق ،
-3.815944	ك "
-2.794052	ك .
-3.776323	ك :
-1.385388	ك <u>
-2.332278	ك <ٌ>
-2.284962	ك <ٍ>
-0.2532015	ك <َ>
-0.768405	ك <ُ>
-1.063337	ك <ِ>
-3.244844	ك <ّ>
-2.039131	ك <َّ>
-2.540795	ك <ُّ>
-2.284962	ك <ِّ>
-0.9640787	ك <ْ>
-2.970143	ك }
-2.437867	ك ،
-4.174263	ك ؛
-3.113565	ك ؟
-4.067235	ل (
-4.583976	ل .
-3.863115	ل :
-0.7711693	ل <u>
-4.544356	ل <ً>
-2.091343	ل <ٌ>
-2.136116	ل <ٍ>
-0.5150614	ل <َ>
-1.337584	ل <ُ>
-0.9311273	ل <ِ>
-3.230489	ل <ّ>
-1.005154	ل <َّ>
-2.297857	ل <ُّ>
-2.106288	ل <ِّ>
-0.6308175	ل <ْ>
-5.048751	ل {
-5.048751	ل }
-4.243326	ل ،
-5.048751	ل ؟
-4.26178	م )
-3.832608	م .
-4.26178	م :
-2.617934	م <u>
-4.726555	م <ً>
-2.027923	م <ٌ>
-1.810877	م <ٍ>
-0.3680844	م <َ>
-0.8046879	م <ُ>
-0.6884892	م <ِ>
-3.088621	م <ّ>
-1.344788	م <َّ>
-2.605159	م <ُّ>
-2.183937	م <ِّ>
-0.8958647	م <ْ>
-4.726555	م {
-3.966887	م ،
-4.26178	م ؟
-4.717185	ن (
-4.252409	ن .
-4.717185	ن :
-2.351853	ن <u>
-3.249002	ن <ً>
-2.157411	ن <ٌ>
-2.194089	ن <ٍ>
-0.6187506	ن <َ>
-1.082584	ن <ُ>
-0.8832288	ن <ِ>
-3.610729	ن <ّ>
-0.8472639	ن <َّ>
-2.249947	ن <ُّ>
-1.894726	ن <ِّ>
-0.4358413	ن <ْ>
-4.133608	ن ،
-4.717185	ن ؟
-3.703728	ه .
-3.817671	ه :
-2.187243	ه <u>
-4.623096	ه <ً>
-2.914581	ه <ٌ>
-2.85863	ه <ٍ>
-0.6978546	ه <َ>
-0.358339	ه <ُ>
-0.5087441	ه <ِ>
-2.909186	ه <َّ>
-3.562399	ه <ُّ>
-3.046819	ه <ِّ>
-1.407569	ه <ْ>
-4.516641	ه {
-3.516641	ه ،
-4.623096	ه ؟
-4.733642	و (
-4.326157	و .
-4.268867	و :
-0.6844842	و <u>
-3.605997	و <ً>
-3.849035	و <ٌ>
-3.548005	و <ٍ>
-0.181886	و <َ>
-1.848312	و <ُ>
-1.761195	و <ِ>
-3.481059	و <ّ>
-2.03059	و <َّ>
-3.047403	و <ُّ>
-2.485737	و <ِّ>
-1.050442	و <ْ>
-4.150065	و {
-3.814273	و ،
-3.251912	ى "
-3.960427	ى (
-3.041059	ى )
-3.853972	ى -
-2.098097	ى .
-1.789514	ى :
-0.02255002	ى <u>
-2.38415	ى {
-2.501789	ى }
-1.81061	ى ،
-3.066481	ى ؛
-2.978911	ى ؟
-3.826172	ي "
-4.194149	ي (
-3.509902	ي )
-2.9723	ي .
-2.820012	ي :
-0.4040045	ي <u>
-3.76818	ي <ٌ>
-3.796209	ي <ٍ>
-0.6197124	ي <َ>
-1.100435	ي <ُ>
-2.42085	ي <ِ>
-2.156722	ي <ّ>
-1.55833	ي <َّ>
-1.510202	ي <ُّ>
-1.514267	ي <ِّ>
-0.7451592	ي <ْ>
-4.194149	ي {
-3.224112	ي }
-2.717028	ي ،
-3.883779	ي ؛
-3.557327	ي ؟

\end\
