
\data\
ngram 1=69
ngram 2=1263
ngram 3=8960
ngram 4=35982
ngram 5=87030

\1-grams:
-3.817465	"	-2.844841
-6.494159	'	-0.6552447
-3.647822	(	-3.673362
-3.636826	)	-2.804515
-5.414978	-	-1.494586
-2.597743	.	-4.65149
-6.494159	/	-0.6627577
-2.582043	:	-3.725468
-2.61696	</s>
-99	<s>	-3.954798
-1.027617	<u>	-5.132065
-2.550813	<ً>	-4.203794
-2.482927	<ٌ>	-4.078852
-2.3833	<ٍ>	-4.046966
-0.8125079	<َ>	-4.969425
-1.382285	<ُ>	-4.898838
-1.217614	<ِ>	-4.782064
-3.331893	<ّ>	-3.147442
-1.741757	<َّ>	-4.53231
-2.512748	<ُّ>	-3.924691
-2.399338	<ِّ>	-4.486679
-1.232449	<ْ>	-4.923132
-6.017037	[	-0.9317974
-6.494159	\	-0.6617074
-6.017037	]	-1.181994
-6.494159	`	-0.6577578
-1.009926	s	-5.006658
-3.017762	{	-3.265006
-3.018342	}	-3.628565
-2.408904	،	-3.941056
-3.824842	؛	-3.100908
-3.493725	؟	-3.814474
-2.722277	ء	-3.936313
-3.233372	آ	-3.21823
-1.902426	أ	-4.701875
-3.396901	ؤ	-3.688194
-2.31975	إ	-4.230812
-2.95433	ئ	-3.666235
-1.232891	ا	-4.907334
-1.728148	ب	-4.505919
-2.216275	ة	-4.592031
-1.941308	ت	-4.503227
-2.529051	ث	-4.465881
-2.276543	ج	-4.018293
-2.049942	ح	-4.550732
-2.443238	خ	-3.856643
-1.946852	د	-4.282751
-2.295199	ذ	-4.304368
-1.732502	ر	-4.559524
-2.670815	ز	-3.62797
-2.020978	س	-4.969159
-2.510532	ش	-4.089978
-2.355603	ص	-4.24433
-2.536743	ض	-3.704483
-2.581405	ط	-3.659836
-2.989009	ظ	-4.009386
-1.765716	ع	-4.529467
-2.686421	غ	-3.614029
-5.795189	ـ	-1.096625
-1.871541	ف	-4.724192
-1.921368	ق	-4.827972
-2.018894	ك	-4.575446
-1.250843	ل	-5.107324
-1.573092	م	-4.694834
-1.582421	ن	-4.778872
-1.676501	ه	-4.615407
-1.565958	و	-4.724873
-2.339339	ى	-4.865952
-1.521886	ي	-4.840151

\2-grams:
-2.034377	" "
-1.003531	" .	0.2499928
-1.739484	" ،	-0.4429826
-2.392697	" ؛
-2.392697	" ؟
-1.070478	" أ	-0.5656441
-1.231329	" إ	-1.06394
-1.278754	" ا	-0.3952225
-1.579784	" ب	-0.02280247
-1.517636	" ت	-0.7905281
-2.034377	" ث	-0.09633312
-2.034377	" ج	-0.02658165
-1.790637	" ح	-0.7819974
-2.499152	" خ
-2.091667	" د	-0.4423797
-2.499152	" ذ
-1.790637	" ر	-0.09779599
-2.499152	" ز
-2.091667	" س	-0.2548922
-2.499152	" ش
-2.034377	" ص	-0.0456121
-2.499152	" ض
-2.499152	" ط
-2.034377	" ظ	-0.03356716
-1.605206	" ع	0.1356699
-2.499152	" غ
-1.060259	" ف	-0.3040168
-1.547599	" ق	-0.5510918
-1.652334	" ك	-0.7243959
-1.295787	" ل	-1.279209
-1.175213	" م	-0.7633576
-2.034377	" ن	-0.4825453
-1.994757	" ه	-0.5188988
-0.7542077	" و	-1.478724
-1.547599	" ي	-0.9019336
-0.1064553	' ع
-2.66155	( آ
-1.350974	( أ	-0.4765316
-1.814732	( إ	-0.6659997
-1.023615	( ا	-0.5676045
-1.165928	( ب	-1.549385
-2.254065	( ت	-0.2382195
-2.66155	( ث
-2.66155	( ج
-1.767603	( ح	-0.02400538
-2.555094	( د	-0.4968593
-2.157154	( ر	-0.5367215
-2.254065	( ز	-0.4241063
-2.555094	( س	-0.5087698
-2.196775	( ص	-0.2348207
-2.555094	( ط	-0.3397744
-2.157154	( ع	-0.3803132
-2.66155	( غ
-0.3259248	( ف	-1.838207
-1.776943	( ق	-0.4198651
-1.625676	( ك	-0.4744901
-1.475913	( ل	-0.9208854
-1.458184	( م	-1.015723
-2.555094	( ن	-0.4435796
-2.196775	( ه	-0.5048707
-0.9810632	( و	-1.409303
-1.767603	( ي	-0.562106
-2.564074	) (	-0.5151809
-0.3235247	) .	-0.6499028
-1.373742	) :	-0.4160076
-2.205754	) {	-0.2187476
-2.670529	) آ
-1.402706	) أ	-0.4485029
-1.776583	) إ	0.00688529
-1.609831	) ا	-0.007509112
-1.660984	) ب	-0.7930547
-1.609831	) ت	-0.8651615
-1.503376	) ث	-1.041713
-2.564074	) ج	-0.3020268
-1.484893	) ح	-1.09046
-2.670529	) خ
-2.670529	) د
-2.205754	) ذ	-0.1398405
-2.166134	) ر	-0.166288
-2.564074	) س
-2.564074	) ش	-0.3431504
-2.564074	) ص
-2.670529	) ط
-2.670529	) ظ
-1.823711	) ع	-0.6184567
-2.670529	) غ
-1.751161	) ف	-0.4779513
-1.28532	) ق	-0.8424271
-2.086953	) ك	-0.1781258
-1.751161	) ل	-0.4365927
-1.962014	) م	-0.4870876
-2.263044	) ن	-0.4054559
-2.670529	) ه
-1.072712	) و	-1.333582
-1.503376	) ي	-1.213106
-0.5959228	- :
-1.060698	- أ
-1.060698	- إ
-1.060698	- ا
-1.060698	- ر
-0.9542425	- ص	-0.3210573
-1.060698	- ك
-1.060698	- و
-1.060698	- ي
-2.942504	. "	-0.1355015
-1.796376	. (	0.1412603
-2.817565	. .	0.2412241
-3.702172	. /
-0.01960573	. </s>
-2.273497	. {	-0.4558518
-1.735379	. }	-0.0289135
-2.808225	. ،	0.1049637
-0.1064553	/ \
-2.141423	: "	-0.1807367
-2.532064	: (	-0.5004405
-3.134124	: )	-0.2588693
-3.252926	: :
-1.089454	: {	-0.7088146
-3.7177	: ؛
-2.912275	: آ	2.219632
-1.110186	: أ	-1.483103
-1.055546	: إ	-2.444151
-1.041286	: ا	-1.589759
-1.840393	: ب	-1.422956
-1.82237	: ت	-1.48299
-2.148847	: ث	-1.400291
-2.344074	: ج	-1.105777
-1.82237	: ح	-0.9971782
-2.355973	: خ	-1.12423
-2.310215	: د	-1.025059
-2.465117	: ذ	-0.4929318
-1.82237	: ر	-1.501424
-2.611245	: ز	-0.9085976
-1.558167	: س	-1.930685
-2.435154	: ش	-1.012059
-2.009185	: ص	-1.415607
-2.958033	: ض	-0.7585564
-2.708155	: ط	-0.7290025
-2.912275	: ظ	-0.7873106
-1.76926	: ع	-1.380369
-2.355973	: غ	-1.123178
-1.287993	: ف	-1.671257
-1.340566	: ق	-1.617359
-1.454393	: ك	-1.726353
-1.00756	: ل	-2.630685
-1.213305	: م	-2.02177
-1.833094	: ن	-1.819893
-1.507442	: ه	-1.117273
-0.9787879	: و	-2.711411
-1.272789	: ي	-2.473374
-3.683142	<s> آ
-1.974627	<s> أ	-0.8454849
-2.359203	<s> إ	-1.105332
-1.787812	<s> ا	-0.8186605
-2.974627	<s> ب	-0.08757624
-2.798536	<s> ت	-0.9276537
-2.014394	<s> ث	-1.396135
-2.789196	<s> ج	-0.5840304
-2.598963	<s> ح	-0.917873
-3.275657	<s> خ	-0.2163049
-3.576687	<s> د	-0.4034141
-2.346238	<s> ذ	-0.7682295
-1.98009	<s> ر	-1.320806
-3.178747	<s> ز	-0.6408339
-2.555497	<s> س	-1.133835
-3.275657	<s> ش	-0.382116
-3.275657	<s> ص	-0.3600229
-3.683142	<s> ض
-3.218367	<s> ط	-0.2098989
-3.683142	<s> ظ
-2.234264	<s> ع	-1.230277
-0.9596865	<s> ف	-2.16222
-0.9586387	<s> ق	-1.96409
-2.153441	<s> ك	-1.165907
-2.346238	<s> ل	-1.412748
-2.333649	<s> م	-0.4271996
-2.798536	<s> ن	-0.9944286
-2.446353	<s> ه	-1.005022
-0.1699764	<s> و	-3.053328
-2.114289	<s> ي	-1.603746
-0.5947074	<u> s	0.1358371
-1.765926	<u> ء	0.1115894
-4.864483	<u> آ	2.736054
-4.466543	<u> أ	-0.9997887
-3.336209	<u> ؤ	-2.03637
-2.133903	<u> ئ	-1.612443
-2.127091	<u> ا	-1.405123
-1.52014	<u> ب	0.1206667
-2.630219	<u> ة	-0.2396114
-1.77352	<u> ت	-0.4812582
-1.989566	<u> ث	0.06229734
-2.202434	<u> ج	-0.7894261
-2.004594	<u> ح	-1.59464
-2.352266	<u> خ	-1.116889
-1.615162	<u> د	-0.6543067
-2.004894	<u> ذ	-0.4645629
-1.450429	<u> ر	-0.1939547
-2.238656	<u> ز	-0.483582
-1.640209	<u> س	0.0826385
-2.023906	<u> ش	-0.4591246
-2.04461	<u> ص	0.09484386
-2.321036	<u> ض	0.3345268
-2.219798	<u> ط	-0.2884188
-2.788936	<u> ظ	0.05957389
-1.933534	<u> ع	-0.8339779
-2.960038	<u> غ	0.532775
-4.767573	<u> ـ	0.1194342
-2.010329	<u> ف	-0.7341874
-2.121562	<u> ق	-0.9075747
-2.349935	<u> ك	-1.26023
-0.470798	<u> ل	-0.7527056
-1.573836	<u> م	0.2987075
-1.158833	<u> ن	-0.7000225
-1.602507	<u> ه	-0.7381883
-2.344655	<u> و	-0.6521665
-5.165513	<u> ى	0.7327691
-2.257833	<u> ي	-2.425005
-2.581668	<ً> "	-0.1282605
-3.165244	<ً> (	-0.5063412
-2.943396	<ً> )	-0.1182968
-3.748821	<ً> -
-1.377548	<ً> .	0.4632169
-1.836186	<ً> :	-0.1951215
-0.2115652	<ً> <u>	-3.604493
-0.820852	<ً> s	-0.706282
-1.327446	<ً> {	-0.1150777
-1.619113	<ً> }	0.001382947
-1.098298	<ً> ،	0.07549119
-2.545455	<ً> ؛	-0.2582461
-2.363612	<ً> ؟	0.3013581
-1.813062	<ً> ى	-0.1046083
-2.865358	<ٌ> "	-0.09975566
-1.428287	<ٌ> (	-0.01557434
-2.431702	<ٌ> )	0.2776472
-1.322177	<ٌ> .	0.3571731
-1.8383	<ٌ> :	-0.08208722
-0.09751315	<ٌ> s	1.53239
-2.564328	<ٌ> {	-0.3144903
-1.821154	<ٌ> }	0.1448752
-1.148758	<ٌ> ،	0.1196597
-2.580122	<ٌ> ؛	0.1017588
-2.409426	<ٌ> ؟	0.02133656
-2.922965	<ٌ> و	-0.6285734
-2.76847	<ٍ> "	-0.0547708
-3.207803	<ٍ> (	-0.1440571
-2.712953	<ٍ> )	-0.2260005
-1.517606	<ٍ> .	-0.5830302
-1.492844	<ٍ> :	-0.09647942
-0.08276889	<ٍ> s	0.979413
-1.727077	<ٍ> {	-0.2992778
-1.807697	<ٍ> }	-0.1516511
-1.211619	<ٍ> ،	-0.1887517
-2.832139	<ٍ> ؛	-0.4623661
-2.438795	<ٍ> ؟	-0.03492928
-2.235831	<ٍ> و	-1.188532
-3.85558	<َ> "	0.01166868
-4.477535	<َ> (	-0.1580755
-4.163141	<َ> )	-0.2967468
-5.48708	<َ> -
-2.784578	<َ> .	0.07825398
-2.183068	<َ> :	0.03915381
-5.48708	<َ> ]
-5.48708	<َ> `
-0.9658182	<َ> s	0.2918434
-2.787893	<َ> {	0.05989873
-3.047177	<َ> }	-0.1566166
-2.50239	<َ> ،	-0.1396035
-3.842805	<َ> ؛	-0.0427376
-3.456345	<َ> ؟	-0.4336165
-4.319927	<َ> ء	-1.286217
-3.517302	<َ> آ	1.093708
-1.851258	<َ> أ	0.6498227
-3.617197	<َ> ؤ	-2.228488
-2.107276	<َ> إ	-2.788795
-3.480258	<َ> ئ	-1.632649
-0.6509698	<َ> ا	-2.145928
-1.518225	<َ> ب	-0.2724316
-1.490735	<َ> ة	0.0702498
-1.761949	<َ> ت	-1.693179
-2.543036	<َ> ث	-0.9896132
-1.903359	<َ> ج	-0.8100491
-1.768159	<َ> ح	-0.8214054
-2.242322	<َ> خ	-0.2916164
-1.564052	<َ> د	-0.9882481
-1.903286	<َ> ذ	-1.856101
-1.419678	<َ> ر	-0.1672997
-2.386968	<َ> ز	-1.510099
-1.700289	<َ> س	-1.189397
-2.3428	<َ> ش	-0.4049745
-2.06602	<َ> ص	-1.229246
-2.201935	<َ> ض	0.5167251
-2.282673	<َ> ط	1.098234
-2.645026	<َ> ظ	-0.84194
-1.504696	<َ> ع	-0.351676
-2.339429	<َ> غ	-0.8015282
-1.907503	<َ> ف	0.4630635
-1.505013	<َ> ق	-0.3819265
-1.721231	<َ> ك	0.05837607
-1.137524	<َ> ل	-0.8061676
-1.472649	<َ> م	-0.2277143
-1.263105	<َ> ن	-1.299189
-1.520077	<َ> ه	-0.3392162
-1.598618	<َ> و	-0.9744184
-1.632902	<َ> ى	0.4987278
-1.338207	<َ> ي	-3.946366
-3.208791	<ُ> "	-0.1972369
-3.810851	<ُ> (	-0.1099877
-3.116245	<ُ> )	0.2702286
-4.917306	<ُ> -
-1.974843	<ُ> .	-0.1591299
-1.962046	<ُ> :	0.3845747
-4.917306	<ُ> [
-0.385969	<ُ> s	0.2815833
-2.666276	<ُ> {	-0.1251303
-2.479423	<ُ> }	-0.1423031
-1.864398	<ُ> ،	0.1587312
-3.260622	<ُ> ؛	-0.4105344
-2.777427	<ُ> ؟	-0.04446435
-3.810851	<ُ> ء	-1.246708
-2.164937	<ُ> ؤ	0.01755404
-2.80225	<ُ> ئ	-1.810023
-1.758734	<ُ> ب	0.2365899
-2.046674	<ُ> ت	-0.4842263
-2.652488	<ُ> ث	-0.7040757
-2.088628	<ُ> ج	-0.4315536
-1.835419	<ُ> ح	-1.175436
-2.007052	<ُ> خ	-0.6101744
-1.906406	<ُ> د	-0.6427463
-2.397551	<ُ> ذ	-1.01086
-1.523385	<ُ> ر	-0.4501178
-2.511997	<ُ> ز	-0.5275222
-1.660094	<ُ> س	-0.1946712
-2.418154	<ُ> ش	-1.049639
-2.091934	<ُ> ص	-1.313674
-2.39839	<ُ> ض	-0.8071853
-2.257575	<ُ> ط	-0.8165576
-3.236819	<ُ> ظ	-0.596459
-1.849192	<ُ> ع	-0.7647753
-2.519704	<ُ> غ	-0.5766966
-2.101581	<ُ> ف	-0.9248606
-1.838185	<ُ> ق	-0.246902
-1.815215	<ُ> ك	-0.5113187
-1.349577	<ُ> ل	-0.3251698
-1.240016	<ُ> م	-1.598623
-1.655059	<ُ> ن	-1.402595
-1.309997	<ُ> ه	-1.21197
-0.8198683	<ُ> و	-2.753851
-2.80225	<ُ> ي	-2.124668
-3.312761	<ِ> "	0.09186423
-3.613791	<ِ> (	-0.5098619
-2.768693	<ِ> )	-0.2816566
-4.498398	<ِ> -	0.006571367
-1.985847	<ِ> .	-0.4144018
-2.280475	<ِ> :	-0.365983
-5.081975	<ِ> ]
-0.5397782	<ِ> s	0.2702785
-2.909193	<ِ> {	-0.1220978
-2.425291	<ِ> }	-0.4637047
-1.648467	<ِ> ،	-0.1557961
-3.067034	<ِ> ؛	-0.462814
-2.946135	<ِ> ؟	-0.106275
-3.685484	<ِ> آ	1.658965
-1.98696	<ِ> أ	-1.970141
-2.678854	<ِ> إ	-2.387428
-2.562219	<ِ> ئ	0.714052
-1.705889	<ِ> ا	-2.272022
-1.69335	<ِ> ب	0.307765
-2.205773	<ِ> ت	-1.904589
-2.30481	<ِ> ث	-1.042329
-2.440225	<ِ> ج	-0.7022693
-2.092426	<ِ> ح	1.017526
-2.628189	<ِ> خ	-0.7286971
-1.784767	<ِ> د	-0.7484481
-2.022969	<ِ> ذ	-1.773015
-1.654231	<ِ> ر	0.2496634
-2.677759	<ِ> ز	-0.07414794
-1.958695	<ِ> س	-1.810054
-2.370214	<ِ> ش	-0.3186678
-2.541749	<ِ> ص	-0.6146135
-2.545767	<ِ> ض	-0.7861603
-2.620451	<ِ> ط	-1.721876
-2.882097	<ِ> ظ	-0.9074887
-1.796255	<ِ> ع	-0.6875808
-2.676666	<ِ> غ	0.1235983
-2.110712	<ِ> ف	-0.8796735
-2.053313	<ِ> ق	0.7092297
-1.634085	<ِ> ك	-0.9870164
-1.46137	<ِ> ل	0.09902167
-1.444232	<ِ> م	-0.2587674
-1.110741	<ِ> ن	-0.5779784
-1.283289	<ِ> ه	-1.732445
-2.33703	<ِ> و	-1.550014
-0.6091616	<ِ> ي	-3.641358
-2.86243	<ّ> (
-2.50411	<ّ> .	0.7531074
-2.16346	<ّ> :	-0.1924149
-2.385308	<ّ> <ً>	-0.838367
-0.3759991	<ّ> <ٌ>	-0.8986732
-0.3648089	<ّ> <ٍ>	-0.2941661
-0.9759389	<ّ> s	-0.2113506
-2.209217	<ّ> ،	0.3065967
-2.50411	<ّ> ؟
-2.86243	<ّ> ت	-0.5422119
-2.084278	<ّ> ك	-0.7747589
-2.16346	<ّ> ه	-0.08758184
-3.974281	<َّ> "	-0.1562151
-4.451403	<َّ> (
-4.557858	<َّ> )
-3.028157	<َّ> .	0.0544467
-3.372221	<َّ> :	-0.3306676
-0.8620675	<َّ> s	1.117046
-3.49716	<َّ> {	-0.3142899
-3.150373	<َّ> }	0.04836106
-2.723049	<َّ> ،	-0.0333128
-4.053463	<َّ> ؛	0.4809768
-3.752433	<َّ> ؟	0.198762
-4.557858	<َّ> ء
-3.673251	<َّ> آ	2.147082
-2.363266	<َّ> أ	0.4244289
-4.557858	<َّ> ؤ
-4.093083	<َّ> إ	-0.3906979
-3.548313	<َّ> ئ	-0.7023888
-0.8032379	<َّ> ا	-1.1704
-1.461953	<َّ> ب	-1.416005
-1.312311	<َّ> ة	-0.1188118
-1.874486	<َّ> ت	-1.952688
-2.096334	<َّ> ث	-1.360379
-1.825062	<َّ> ج	-1.230837
-1.665361	<َّ> ح	-1.495924
-2.354493	<َّ> خ	-1.590725
-1.673976	<َّ> د	-0.7218194
-1.804509	<َّ> ذ	-1.382869
-1.684618	<َّ> ر	-0.09024644
-2.715006	<َّ> ز	-0.9280356
-2.199764	<َّ> س	-1.375436
-2.843948	<َّ> ش	-1.427348
-2.424053	<َّ> ص	-0.01873922
-2.871619	<َّ> ض	-0.1389903
-2.727127	<َّ> ط	-1.339871
-2.612554	<َّ> ظ	-1.454744
-1.843412	<َّ> ع	-0.4638135
-2.699354	<َّ> غ	0.03949237
-1.821993	<َّ> ف	0.5396807
-1.967815	<َّ> ق	0.285311
-2.060467	<َّ> ك	-0.5972881
-1.483387	<َّ> ل	-0.757502
-1.115945	<َّ> م	-0.7447534
-1.887922	<َّ> ن	0.7411485
-0.6800724	<َّ> ه	-0.8951941
-1.751132	<َّ> و	-2.356766
-1.281434	<َّ> ى	-0.3004289
-1.673613	<َّ> ي	-2.796761
-3.322424	<ُّ> "
-3.787199	<ُّ> '
-3.282803	<ُّ> (	-0.3269888
-3.282803	<ُّ> )	-0.139532
-1.960584	<ُّ> .	-0.6660218
-1.529987	<ُّ> :	-0.06713212
-0.3283678	<ُّ> s	-0.2665696
-2.893252	<ُّ> {	-0.03214338
-2.680743	<ُّ> }	0.005509466
-1.95239	<ُّ> ،	0.03662425
-3.203622	<ُّ> ؛	-0.006434083
-2.981773	<ُّ> ؟	-0.1195029
-3.680743	<ُّ> ء	-0.4875834
-1.924868	<ُّ> ؤ	-1.390694
-1.55041	<ُّ> ب	-0.6030306
-2.70302	<ُّ> ت	-0.1383185
-3.078683	<ُّ> ث	-0.3447464
-2.189382	<ُّ> ج	0.3420746
-2.112542	<ُّ> ح	0.1830859
-2.225899	<ُّ> خ	-0.06553781
-1.940381	<ُّ> د	-0.7599478
-2.86783	<ُّ> ذ	-0.2302771
-1.643317	<ُّ> ر	0.8064184
-2.70302	<ُّ> ز	-0.1087534
-2.328561	<ُّ> س	0.01176798
-2.659554	<ُّ> ش	-0.1664051
-2.601562	<ُّ> ص	-0.805365
-2.835645	<ُّ> ض	-0.04800728
-2.062695	<ُّ> ط	-0.5572577
-3.203622	<ُّ> ظ	-0.2191191
-1.587322	<ُّ> ع	-0.3014762
-2.328561	<ُّ> غ	-0.6675161
-1.71226	<ُّ> ف	0.01172078
-1.956468	<ُّ> ق	-0.7680055
-1.653394	<ُّ> ك	-0.1653644
-1.450294	<ُّ> ل	-1.184057
-1.743727	<ُّ> م	0.1756594
-1.195732	<ُّ> ن	-0.6793659
-1.214617	<ُّ> ه	-0.5081942
-1.055431	<ُّ> و	-2.058431
-2.751324	<ُّ> ي	-1.219366
-3.006857	<ِّ> "	-0.219557
-3.493319	<ِّ> (
-2.919287	<ِّ> )	-0.2119771
-2.141136	<ِّ> .	-0.4038489
-1.931026	<ِّ> :	0.2353991
-0.5439286	<ِّ> s	2.047864
-2.551311	<ِّ> {	-0.186063
-2.794349	<ِّ> }	-0.06060916
-1.844959	<ِّ> ،	-0.2931997
-3.006857	<ِّ> ؛	0.4323677
-3.016197	<ِّ> ؟	0.2493869
-1.974805	<ِّ> ئ	-0.0588814
-1.378541	<ِّ> ب	-0.5569104
-2.012593	<ِّ> ت	-0.3829128
-1.766999	<ِّ> ث	-1.080376
-1.85985	<ِّ> ج	-0.4083636
-1.821221	<ِّ> ح	0.06714118
-2.26287	<ِّ> خ	-0.7147796
-1.305798	<ِّ> د	-1.272049
-2.773159	<ِّ> ذ	-0.8003556
-1.144527	<ِّ> ر	-0.5158222
-2.493319	<ِّ> ز	-0.08471709
-1.726163	<ِّ> س	-1.461707
-2.773159	<ِّ> ش	-0.4592422
-2.423281	<ِّ> ص	-1.150689
-2.414137	<ِّ> ض	-1.074635
-2.442166	<ِّ> ط	-0.9066445
-3.006857	<ِّ> ظ	-0.1354629
-1.533086	<ِّ> ع	-0.2910237
-2.715167	<ِّ> غ	-0.2085018
-1.678738	<ِّ> ف	-0.3052266
-1.715167	<ِّ> ق	0.2027901
-1.870069	<ِّ> ك	-0.2221583
-1.632981	<ِّ> ل	-1.246358
-1.369467	<ِّ> م	-0.06087685
-1.594319	<ِّ> ن	1.014547
-1.436414	<ِّ> ه	-0.7631998
-2.155859	<ِّ> و	-1.478724
-0.7453245	<ِّ> ي	-2.315462
-3.830349	<ْ> "	-0.1777762
-4.659652	<ْ> (	-0.1887224
-4.031263	<ْ> )	-0.3487457
-2.892497	<ْ> .	0.1603206
-2.626229	<ْ> :	0.01081431
-0.7226614	<ْ> s	0.4688306
-3.442168	<ْ> {	0.04508644
-2.949959	<ْ> }	-0.01830482
-2.592396	<ْ> ،	0.198643
-3.960682	<ْ> ؛	-0.4359895
-3.513524	<ْ> ؟	-0.06370288
-2.332805	<ْ> ء	-1.460647
-2.381471	<ْ> آ	0.3802114
-1.596413	<ْ> أ	-2.345622
-2.098551	<ْ> إ	-2.952097
-2.805346	<ْ> ئ	-1.389218
-3.208634	<ْ> ا	-0.4984357
-1.379928	<ْ> ب	-2.788708
-1.180149	<ْ> ت	-2.545675
-2.31723	<ْ> ث	-2.209432
-1.779411	<ْ> ج	-2.996147
-1.509818	<ْ> ح	-3.067586
-1.806258	<ْ> خ	-2.7888
-1.47489	<ْ> د	-3.426571
-2.509664	<ْ> ذ	-1.938137
-1.178281	<ْ> ر	-2.994009
-2.210174	<ْ> ز	-2.504293
-1.700969	<ْ> س	-2.657901
-2.479957	<ْ> ش	-2.111106
-2.219137	<ْ> ص	-2.623761
-1.815797	<ْ> ض	-2.615021
-2.179286	<ْ> ط	-2.613248
-2.465832	<ْ> ظ	-1.63497
-1.47185	<ْ> ع	-2.992631
-2.276735	<ْ> غ	-1.857897
-1.566143	<ْ> ف	-2.673563
-1.633732	<ْ> ق	-2.125646
-1.611502	<ْ> ك	-1.954424
-1.250861	<ْ> ل	-3.020492
-1.051581	<ْ> م	-2.980743
-1.160963	<ْ> ن	-3.822982
-1.235179	<ْ> ه	-2.652619
-1.75833	<ْ> و	-2.51814
-1.820803	<ْ> ي	-2.482214
-0.4074853	[ أ
-0.30103	[ ا	0.7081501
-0.1064553	\ </s>
-0.5043954	] .
-0.5043954	] ا
-0.5043954	] ف
-0.1064553	` ت
-5.289661	s <u>
-2.557379	s آ	0.3336546
-1.109396	s أ	-3.050764
-1.584853	s إ	-0.8387978
-0.7147772	s ا	-3.487665
-1.225359	s ب	-2.998779
-1.643628	s ت	-3.23016
-2.295307	s ث	-2.564002
-2.048551	s ج	-2.967219
-1.714121	s ح	-3.195044
-2.148377	s خ	-2.681581
-2.138666	s د	-2.856639
-2.008564	s ذ	-2.560561
-1.712354	s ر	-3.17995
-2.550243	s ز	-2.406806
-1.888409	s س	-3.431117
-2.069764	s ش	-3.056731
-1.893505	s ص	-3.180755
-2.674676	s ض	-2.068674
-2.382832	s ط	-2.650892
-2.771586	s ظ	-2.116013
-1.135347	s ع	-3.583179
-2.202975	s غ	-2.462618
-1.170179	s ف	-3.359891
-1.514494	s ق	-2.820036
-1.637899	s ك	-3.113348
-1.331275	s ل	-3.577326
-1.126415	s م	-3.597595
-1.997239	s ن	-3.22423
-1.899114	s ه	-2.499133
-1.009553	s و	-3.491183
-1.268043	s ي	-4.049134
-3.283414	{ .
-1.203831	{ :	-0.3612238
-3.283414	{ {
-2.818639	{ ،	0.2236108
-2.818639	{ آ	2.658965
-0.8335504	{ أ	-1.325752
-0.9490723	{ إ	-2.117018
-1.059688	{ ا	-1.138141
-2.000868	{ ب	-1.053967
-2.000868	{ ت	-0.818289
-2.135566	{ ث	-0.9268354
-2.222717	{ ج	-0.9942049
-2.063016	{ ح	-0.5930147
-2.046625	{ خ	-1.249456
-2.135566	{ د	-1.182742
-2.436596	{ ذ	-0.7815933
-2.000868	{ ر	-0.9444393
-2.875929	{ ز	-0.3077045
-1.94651	{ س	-0.8154068
-2.875929	{ ش	-0.3050267
-2.574899	{ ص	-0.2013292
-2.779019	{ ض	-0.2022539
-2.389468	{ ط	-0.1829763
-3.283414	{ ظ
-2.000868	{ ع	-0.934289
-2.699838	{ غ	-0.09978628
-1.409803	{ ف	-1.376194
-1.597175	{ ق	-0.8482136
-1.341268	{ ك	-1.573393
-1.006697	{ ل	-2.232742
-0.9936891	{ م	-1.807656
-1.714561	{ ن	-1.50796
-2.080049	{ ه	-0.5170027
-0.9647714	{ و	-2.030407
-1.465152	{ ي	-1.849929
-3.177681	} "
-2.819361	} (
-3.177681	} )	-0.2834511
-3.284136	} -
-0.5643676	} .	-0.5964826
-2.70056	} :	-0.097459
-3.284136	} [
-2.223438	} {	-0.4374192
-2.437318	} }	-0.4533866
-1.534228	} ،	-0.2120818
-2.876651	} ؛	0.2366039
-2.390189	} ؟	-0.2260498
-1.715283	} أ	-0.7348096
-1.381801	} إ	-1.687189
-1.609479	} ا	-0.6038167
-2.399529	} ب	-0.0970324
-2.779741	} ت	-0.5320365
-2.199957	} ث	-0.8888659
-2.819361	} ج	-0.3409925
-1.876651	} ح	-1.305304
-2.819361	} خ	0.02101657
-3.177681	} د	-0.4034141
-2.575621	} ذ	-0.492023
-0.8382293	} ر	-2.1078
-2.390189	} ز	-0.2283425
-2.364767	} س	-0.8379259
-3.177681	} ش	-0.3431504
-2.819361	} ص	-0.3600229
-3.284136	} ض
-3.177681	} ط	-0.3397744
-3.284136	} ظ
-2.399529	} ع	-0.6562452
-3.284136	} غ
-1.406829	} ف	-1.319737
-1.218639	} ق	-1.227471
-2.00159	} ك	-0.4718327
-2.156492	} ل	-1.203488
-1.627452	} م	-1.096102
-2.575621	} ن	-0.3706861
-2.524468	} ه	-0.5578643
-0.6147934	} و	-2.398159
-2.016313	} ي	-1.310016
-3.386784	، "	-0.2735545
-3.89118	، (
-2.997233	، .	0.9488711
-2.971811	، {	-0.5869679
-2.743332	، }	-0.4719475
-2.743332	، ،	-0.8504679
-3.89118	، ؛
-3.784724	، آ	2.697931
-1.474031	، أ	-1.293114
-1.988844	، إ	-1.687189
-1.985384	، ا	-0.8291261
-2.151256	، ب	-1.502125
-2.594393	، ت	-1.00068
-1.575209	، ث	-2.172047
-3.131512	، ج	-0.693175
-2.608633	، ح	-0.9044924
-3.307603	، خ	-0.2242453
-3.483694	، د	-0.3652903
-2.505971	، ذ	-1.128845
-2.517553	، ر	-1.248202
-2.997233	، ز	-0.2283425
-2.939626	، س	-0.7608365
-3.131512	، ش	-0.1609843
-3.131512	، ص	-0.09764156
-3.426404	، ض	-0.4063739
-3.784724	، ط
-3.784724	، ظ	-0.3090123
-2.529452	، ع	-1.275535
-3.131512	، غ	0.1552686
-0.8968257	، ف	-2.43312
-1.698364	، ق	-1.433655
-1.949034	، ك	-1.573392
-1.865646	، ل	-1.984167
-2.072917	، م	-1.338966
-2.705543	، ن	-1.278425
-2.49469	، ه	-0.5752871
-0.1599782	، و	-3.319414
-2.117271	، ي	-1.806023
-2.370143	؛ }
-2.370143	؛ أ	0.465524
-2.069113	؛ إ	-0.1117891
-2.476598	؛ ب
-2.476598	؛ ح
-1.370143	؛ ف	-1.060374
-2.476598	؛ ق
-0.06802847	؛ ل	-2.550096
-2.370143	؛ م	-0.320137
-1.152659	؛ و	-1.06572
-1.917088	؟ "	-0.3064547
-2.704579	؟ (	-0.5151809
-2.10252	؟ )	0.002664685
-2.704579	؟ .	0.792073
-2.811035	؟ :
-2.811035	؟ ]
-2.306639	؟ {	-0.09731364
-1.829518	؟ }	-0.2881831
-2.10252	؟ ،	0.2637109
-2.811035	؟ ؟
-1.543211	؟ أ	-0.4485029
-2.00561	؟ إ	-0.6282111
-1.964217	؟ ا	-0.02164197
-2.00561	؟ ب	-0.4855162
-2.704579	؟ ت
-2.227458	؟ ث	-0.1988125
-2.704579	؟ ج	-0.3020268
-2.704579	؟ ح
-2.811035	؟ خ
-2.403549	؟ د	-0.3652903
-2.34626	؟ ذ	0.1745703
-2.811035	؟ ر
-2.811035	؟ ز
-2.403549	؟ س	-0.3098661
-2.811035	؟ ص
-2.811035	؟ ط
-2.704579	؟ ظ	-0.3090123
-1.891666	؟ ع	-0.6910074
-0.4844714	؟ ف	-1.766636
-0.5100651	؟ ق	-1.541422
-1.926428	؟ ك	-0.7747589
-1.775161	؟ ل	-1.016724
-1.891666	؟ م	-0.9031707
-2.811035	؟ ن
-2.10252	؟ ه	-0.09812698
-0.8817578	؟ و	-1.661346
-1.726856	؟ ي	-1.034559
-3.57738	ء .
-3.169895	ء :	-0.1511165
-2.227887	ء <u>	-1.428885
-1.48192	ء <ً>	-1.411624
-1.146642	ء <ٌ>	-1.429101
-0.9837864	ء <ٍ>	-1.178132
-0.6464735	ء <َ>	-1.825796
-0.7969828	ء <ُ>	-1.764267
-0.3983073	ء <ِ>	-2.363361
-0.0002381653	آ <u>	-2.347547
-3.31299	أ <u>	-0.2070758
-3.512562	أ <ً>	-0.7070285
-3.387623	أ <ٌ>	0.08757728
-4.290713	أ <ٍ>
-0.04269103	أ <َ>	-3.43986
-1.339862	أ <ُ>	-0.8134918
-3.211532	أ <ِ>	-0.9313253
-3.637501	أ <َّ>	-0.2751058
-4.397169	أ <ُّ>
-1.339619	أ <ْ>	-1.734745
-1.985392	ؤ <ٌ>	-0.4495623
-2.904761	ؤ <ٍ>
-0.6295133	ؤ <َ>	-0.9899495
-0.6979347	ؤ <ُ>	-1.860435
-2.010814	ؤ <ِ>	-0.2565068
-2.798305	ؤ <ُّ>	-0.5610515
-0.2661882	ؤ <ْ>	-2.362172
-0.211977	إ <u>	-3.69234
-3.086062	إ <ٍ>	0.221213
-0.4141606	إ <ِ>	-2.500103
-3.345379	ئ .
-3.238924	ئ <u>	-0.4356768
-2.498561	ئ <ٌ>	0.1453168
-1.832384	ئ <ٍ>	-0.8724214
-0.7378646	ئ <َ>	-1.862133
-1.330439	ئ <ُ>	-1.142528
-0.1642902	ئ <ِ>	-1.539529
-1.178226	ئ <ْ>	-1.268742
-3.982519	ا "	-0.1205481
-4.483121	ا (	-0.2258711
-3.352787	ا )	-0.1558086
-2.639058	ا .	-0.6129937
-2.914919	ا :	-0.09218383
-0.0239021	ا <u>	-3.11178
-1.414379	ا <ً>	-2.598463
-2.494117	ا <َ>	-2.52278
-2.890204	ا <ُ>	-1.13655
-4.085181	ا <ِ>	-1.201408
-5.066698	ا [
-3.505398	ا {	-0.4217596
-2.895784	ا }	-0.1883628
-2.391454	ا ،	-0.1042747
-3.769911	ا ؛	-0.06069481
-3.270046	ا ؟	-0.1463541
-4.464989	ب )
-4.163959	ب .	0.8301967
-4.464989	ب :
-2.587042	ب <u>	-0.7817443
-1.954444	ب <ٌ>	0.3311768
-1.913539	ب <ٍ>	-0.3370841
-0.535544	ب <َ>	-2.353578
-1.012129	ب <ُ>	-1.883442
-0.4642509	ب <ِ>	0.3352928
-3.050015	ب <ّ>	0.4510638
-1.626769	ب <َّ>	-0.8721402
-2.008622	ب <ُّ>	-1.021884
-2.113772	ب <ِّ>	-0.8772432
-0.6992828	ب <ْ>	-3.648376
-3.987867	ب ،	0.21023
-3.618603	ة )
-3.16401	ة .	0.2090393
-3.499802	ة :	-0.07550692
-1.937509	ة <u>	-2.215005
-1.130586	ة <ً>	-2.140624
-1.05058	ة <ٌ>	-0.9886718
-1.046483	ة <ٍ>	-0.8636484
-0.7132868	ة <َ>	-2.57874
-0.8364148	ة <ُ>	-2.90965
-0.4047485	ة <ِ>	-3.191005
-4.083378	ة {
-2.955734	ة ،	-0.1491365
-4.083378	ة ؟
-4.251906	ت "	-0.4789618
-4.251906	ت )
-3.774785	ت .	0.8222563
-2.523552	ت :	-0.1724584
-1.328403	ت <u>	-2.415035
-3.853966	ت <ً>	-0.8120565
-2.385618	ت <ٌ>	-0.4498334
-2.12969	ت <ٍ>	-0.7430171
-0.3157943	ت <َ>	-1.932837
-0.8831542	ت <ُ>	-0.6448195
-0.8519726	ت <ِ>	-1.391474
-3.774785	ت <ّ>	-0.295794
-1.090538	ت <َّ>	-0.6450291
-2.456026	ت <ُّ>	-0.4616081
-1.754976	ت <ِّ>	-1.84059
-1.099617	ت <ْ>	-2.170543
-4.358361	ت {
-3.950876	ت }	-0.4637934
-3.075814	ت ،	-0.3254484
-4.358361	ت ؛
-3.464415	ت ؟	0.2067976
-3.770674	ث .
-1.875344	ث <u>	-1.923602
-3.770674	ث <ً>
-1.772124	ث <ٌ>	-0.830324
-1.864878	ث <ٍ>	0.35427
-0.4481849	ث <َ>	-1.773793
-0.7327609	ث <ُ>	-1.523854
-0.6812695	ث <ِ>	-1.90677
-3.770674	ث <ّ>
-1.174964	ث <َّ>	-1.365365
-2.232855	ث <ُّ>	-0.08238608
-1.939943	ث <ِّ>	-0.8836039
-0.9156432	ث <ْ>	-1.710283
-3.770674	ث {
-3.770674	ث }
-4.023094	ج .
-2.5842	ج <u>	-0.9796084
-4.023094	ج <ً>
-2.54557	ج <ٌ>	-0.4853885
-2.336854	ج <ٍ>	-0.3804293
-0.3450458	ج <َ>	-2.082175
-0.7032532	ج <ُ>	-1.391051
-0.7916451	ج <ِ>	-1.341686
-3.439517	ج <ّ>	0.2423419
-1.56157	ج <َّ>	-0.7584006
-2.348436	ج <ُّ>	-0.666841
-2.314578	ج <ِّ>	-0.2638001
-0.8506852	ج <ْ>	-1.931802
-3.916638	ج ،	-0.0518344
-4.249658	ح )
-4.143202	ح .	0.792073
-2.939082	ح <u>	-1.359598
-1.975885	ح <ٌ>	-0.5468583
-2.138881	ح <ٍ>	-0.6282359
-0.2946744	ح <َ>	-2.470357
-1.10359	ح <ُ>	-1.397179
-0.8302847	ح <ِ>	-2.046569
-3.48999	ح <ّ>	0.664728
-1.841088	ح <َّ>	-1.149582
-2.301217	ح <ُّ>	-0.9803805
-2.925718	ح <ِّ>	-0.2984806
-0.645927	ح <ْ>	-2.401587
-3.856423	خ .
-3.448938	خ <u>
-2.494696	خ <ٌ>	-0.4337343
-2.50693	خ <ٍ>	-0.08927727
-0.2935261	خ <َ>	-2.250758
-0.8810299	خ <ُ>	-1.474859
-0.8598266	خ <ِ>	-1.226221
-3.856423	خ <ّ>
-2.106515	خ <َّ>	-1.089044
-2.90487	خ <ُّ>	-0.1805743
-2.082515	خ <ِّ>	-1.111613
-0.7048408	خ <ْ>	-2.368664
-4.246289	د "
-3.343199	د (	-1.173422
-3.042169	د .	-0.1633465
-3.246289	د :	-0.1249471
-1.714172	د <u>	-1.689073
-3.848349	د <ً>	-0.8120565
-1.65914	د <ٌ>	-0.8823444
-1.359517	د <ٍ>	-0.9082454
-0.5119296	د <َ>	-2.462275
-0.8493928	د <ُ>	-1.608597
-0.6449355	د <ِ>	-2.322791
-2.913851	د <ّ>	0.2026224
-1.211661	د <َّ>	-1.562876
-1.585424	د <ُّ>	-0.7851708
-1.48549	د <ِّ>	-1.848649
-0.9394355	د <ْ>	-2.020809
-3.644229	د {	-0.05900398
-4.246289	د }
-3.132346	د ،	-0.4265921
-3.157622	ذ <u>	-0.4368539
-2.837286	ذ <ً>	-1.37348
-2.837286	ذ <ٌ>	-0.665162
-2.295924	ذ <ٍ>	-0.2320054
-0.1837384	ذ <َ>	-2.563166
-1.353916	ذ <ُ>	-1.269343
-0.7467677	ذ <ِ>	-2.133063
-3.539665	ذ <ّ>	-0.04222001
-1.630813	ذ <َّ>	-0.8667133
-2.142109	ذ <ُّ>	-0.7884984
-1.958465	ذ <ِّ>	-1.012711
-1.149021	ذ <ْ>	-2.096758
-4.567098	ر (
-4.460642	ر )	-0.2834511
-3.682491	ر .	0.2412241
-3.647729	ر :	-0.2165168
-2.256522	ر <u>	-1.429666
-4.062702	ر <ً>	-0.8120565
-1.80743	ر <ٌ>	-0.7780761
-1.564392	ر <ٍ>	-0.3727274
-0.383638	ر <َ>	-2.508111
-0.9187512	ر <ُ>	-1.780715
-0.6774178	ر <ِ>	-2.47513
-2.32234	ر <ّ>	-0.6247867
-1.289355	ر <َّ>	-1.093178
-1.7867	ر <ُّ>	-0.8001432
-1.625904	ر <ِّ>	-1.030135
-0.9565114	ر <ْ>	-2.109615
-4.567098	ر {
-3.72028	ر ،	0.03586626
-3.6289	ز "
-2.332113	ز <u>	-0.8691218
-2.142233	ز <ٌ>	-0.4945317
-2.23241	ز <ٍ>	0.07021761
-0.4734201	ز <َ>	-1.706535
-0.964937	ز <ُ>	-1.140933
-0.587189	ز <ِ>	-1.734173
-2.920384	ز <ّ>	0.269214
-0.9198417	ز <َّ>	-1.203443
-1.454258	ز <ُّ>	-0.9282515
-1.650288	ز <ِّ>	-0.6770168
-1.002616	ز <ْ>	-1.06535
-3.6289	ز ،
-4.278664	س .
-2.905037	س <u>	-0.5316113
-4.278664	س <ً>
-2.033906	س <ٌ>	-0.6549878
-1.667059	س <ٍ>	-0.3261908
-0.4082569	س <َ>	-2.065487
-0.9296673	س <ُ>	-1.545072
-0.9345394	س <ِ>	-1.747868
-3.813889	س <ّ>	-0.3649429
-1.209366	س <َّ>	-1.279459
-1.596444	س <ُّ>	-1.016951
-1.869013	س <ِّ>	-1.628433
-0.615183	س <ْ>	-2.192204
-4.278664	س ،
-4.278664	س ؟
-2.869728	ش <u>	-0.1286385
-3.789097	ش <ً>
-2.621943	ش <ٌ>	0.2003379
-2.02463	ش <ٍ>	-0.3333791
-0.4008129	ش <َ>	-1.654723
-1.139816	ش <ُ>	-1.025878
-1.039189	ش <ِ>	-0.9793633
-3.080581	ش <ّ>	-0.1918865
-0.7186176	ش <َّ>	-1.257016
-1.643227	ش <ُّ>	-1.992152
-1.590974	ش <ِّ>	-0.708495
-0.7327637	ش <ْ>	-1.979046
-3.439648	ص <u>	-0.02169925
-3.479269	ص <ً>	-0.5953289
-2.67622	ص <ٌ>	-0.2629086
-2.224805	ص <ٍ>	-0.8261741
-0.369315	ص <َ>	-2.860982
-1.159526	ص <ُ>	-1.633097
-0.9410622	ص <ِ>	-1.551386
-2.707255	ص <ّ>	-0.6003427
-0.8833459	ص <َّ>	-1.289176
-1.697709	ص <ُّ>	-0.736977
-1.604592	ص <ِّ>	-1.061119
-0.6936373	ص <ْ>	-2.358017
-2.495066	ض <u>	-0.8813851
-1.860554	ض <ٌ>	-0.3822882
-1.77562	ض <ٍ>	-0.4003488
-0.4403997	ض <َ>	-1.779677
-0.7963952	ض <ُ>	-1.384825
-0.5285193	ض <ِ>	-1.543365
-3.656434	ض <ّ>	-0.3176652
-1.382276	ض <َّ>	-1.187669
-2.24146	ض <ُّ>	-0.7499136
-2.276222	ض <ِّ>	-0.1125489
-1.02347	ض <ْ>	-2.246116
-2.634053	ط <u>	-0.3571201
-2.099893	ط <ٌ>	-0.5398389
-2.156932	ط <ٍ>	-0.3344824
-0.3957425	ط <َ>	-1.479392
-1.097229	ط <ُ>	-1.062183
-0.7853776	ط <ِ>	-1.507124
-3.009717	ط <ّ>	0.2289612
-0.8729959	ط <َّ>	-1.34007
-1.772927	ط <ُّ>	-0.4806249
-1.429933	ط <ِّ>	-1.060582
-0.8303801	ط <ْ>	-1.833013
-2.602874	ظ <u>	-0.8806966
-2.000813	ظ <ٌ>	-0.6328346
-1.654705	ظ <ٍ>	-0.2714996
-0.3536752	ظ <َ>	-1.662477
-0.7585517	ظ <ُ>	-1.494009
-0.8858275	ظ <ِ>	-1.016359
-2.417442	ظ <ّ>	0.06301248
-1.102843	ظ <َّ>	-1.287963
-1.862511	ظ <ُّ>	-0.6717191
-1.872495	ظ <ِّ>	-0.6710092
-0.9681444	ظ <ْ>	-2.116395
-3.311389	ظ ،
-4.533885	ع .
-2.830832	ع <u>	-2.014779
-4.1264	ع <ً>	-0.5182396
-2.337524	ع <ٌ>	-0.5217899
-2.226032	ع <ٍ>	0.03393137
-0.2059499	ع <َ>	-2.968692
-1.040485	ع <ُ>	-2.17273
-0.9391607	ع <ِ>	-1.906458
-2.819974	ع <َّ>	-1.200464
-3.950308	ع <ُّ>	-0.2931231
-3.649278	ع <ِّ>	-0.3311272
-0.8027863	ع <ْ>	-2.378331
-4.533885	ع ،
-3.613298	غ .
-2.76648	غ <u>	-0.185858
-3.029722	غ <ٌ>	0.1636547
-2.603753	غ <ٍ>	-0.1424454
-0.1998823	غ <َ>	-2.179996
-1.257645	غ <ُ>	-0.9156017
-0.7908398	غ <ِ>	-1.158636
-2.76648	غ <َّ>	-0.6521748
-3.613298	غ <ُّ>
-2.661745	غ <ِّ>	-1.209863
-0.8474023	غ <ْ>	-2.210899
-0.1760913	ـ <u>	-0.3975531
-0.5835766	ـ }
-4.428054	ف .
-2.736138	ف <u>	-0.5724575
-3.844477	ف <ً>	-0.52618
-2.06392	ف <ٌ>	-0.8584461
-2.24788	ف <ٍ>	-0.3138858
-0.3441035	ف <َ>	-0.7293699
-1.191747	ف <ُ>	-1.496127
-0.4297545	ف <ِ>	-2.331112
-3.343875	ف <ّ>	-0.2024923
-2.08607	ف <َّ>	-0.9649864
-2.678146	ف <ُّ>	-0.5387131
-2.355457	ف <ِّ>	-0.6942712
-1.099272	ف <ْ>	-2.237394
-3.923658	ف ،	0.1535729
-4.378251	ق (
-3.913476	ق )
-4.378251	ق .
-2.919613	ق <u>	-0.8001565
-4.271795	ق <ً>	-0.5563633
-2.178374	ق <ٌ>	-1.033599
-2.252679	ق <ٍ>	-0.3808035
-0.1980218	ق <َ>	-2.424039
-0.8984233	ق <ُ>	-1.503904
-0.8893278	ق <ِ>	-1.510277
-2.643406	ق <ّ>	-0.5278597
-2.036267	ق <َّ>	-0.7322013
-2.296363	ق <ُّ>	-0.8433568
-2.107442	ق <ِّ>	-0.9537904
-1.138416	ق <ْ>	-2.205817
-4.271795	ق ،
-3.815944	ك "	-0.2035167
-2.794052	ك .	-0.1213619
-3.776323	ك :	-0.1261433
-1.385388	ك <u>	-2.232173
-2.332278	ك <ٌ>	-0.2926867
-2.284962	ك <ٍ>	-0.3618237
-0.2532015	ك <َ>	0.1764319
-0.768405	ك <ُ>	-1.782331
-1.063337	ك <ِ>	-1.617098
-3.244844	ك <ّ>	0.006590068
-2.039131	ك <َّ>	-0.9428201
-2.540795	ك <ُّ>	-0.7894535
-2.284962	ك <ِّ>	-0.8946171
-0.9640787	ك <ْ>	-2.590383
-2.970143	ك }	-0.05647421
-2.437867	ك ،	0.1909273
-4.174263	ك ؛	0.2755696
-3.113565	ك ؟	-0.349036
-4.067235	ل (	-0.8127272
-4.583976	ل .	0.7531074
-3.863115	ل :	-0.1312256
-0.7711693	ل <u>	-2.245249
-4.544356	ل <ً>	-0.8120565
-2.091343	ل <ٌ>	-0.820837
-2.136116	ل <ٍ>	-0.3983488
-0.5150614	ل <َ>	-1.302676
-1.337584	ل <ُ>	-2.243272
-0.9311273	ل <ِ>	0.2510142
-3.230489	ل <ّ>	-0.01208878
-1.005154	ل <َّ>	-1.58914
-2.297857	ل <ُّ>	-1.327942
-2.106288	ل <ِّ>	-1.323905
-0.6308175	ل <ْ>	-2.876156
-5.048751	ل {
-5.048751	ل }
-4.243326	ل ،	0.2050008
-5.048751	ل ؟
-4.26178	م )	-0.008005977
-3.832608	م .	0.9488711
-4.26178	م :	-0.2525725
-2.617934	م <u>	-1.158019
-4.726555	م <ً>
-2.027923	م <ٌ>	-1.665243
-1.810877	م <ٍ>	-0.4725122
-0.3680844	م <َ>	-0.6708436
-0.8046879	م <ُ>	-0.5888782
-0.6884892	م <ِ>	-1.968444
-3.088621	م <ّ>	0.1476809
-1.344788	م <َّ>	-1.500743
-2.605159	م <ُّ>	-0.7808579
-2.183937	م <ِّ>	-1.206444
-0.8958647	م <ْ>	-2.557025
-4.726555	م {
-3.966887	م ،	0.03255624
-4.26178	م ؟	-0.1151869
-4.717185	ن (
-4.252409	ن .	0.7531074
-4.717185	ن :
-2.351853	ن <u>	-1.554207
-3.249002	ن <ً>	-1.665367
-2.157411	ن <ٌ>	-0.9922193
-2.194089	ن <ٍ>	-0.08798933
-0.6187506	ن <َ>	-1.631046
-1.082584	ن <ُ>	-1.659459
-0.8832288	ن <ِ>	-2.287894
-3.610729	ن <ّ>	-0.7113882
-0.8472639	ن <َّ>	-1.956451
-2.249947	ن <ُّ>	-0.876873
-1.894726	ن <ِّ>	-1.001896
-0.4358413	ن <ْ>	-3.109862
-4.133608	ن ،	0.21023
-4.717185	ن ؟
-3.703728	ه .	0.2090393
-3.817671	ه :	-0.2042493
-2.187243	ه <u>	-1.952617
-4.623096	ه <ً>
-2.914581	ه <ٌ>	-0.4974475
-2.85863	ه <ٍ>	0.07551074
-0.6978546	ه <َ>	-2.393762
-0.358339	ه <ُ>	-3.008749
-0.5087441	ه <ِ>	-3.125615
-2.909186	ه <َّ>	-1.093157
-3.562399	ه <ُّ>	-0.6672019
-3.046819	ه <ِّ>	-1.299652
-1.407569	ه <ْ>	-1.822191
-4.516641	ه {
-3.516641	ه ،	-0.3142312
-4.623096	ه ؟
-4.733642	و (
-4.326157	و .	0.8301967
-4.268867	و :
-0.6844842	و <u>	-1.429586
-3.605997	و <ً>	-1.335692
-3.849035	و <ٌ>	-0.4555662
-3.548005	و <ٍ>	-0.6372955
-0.181886	و <َ>	-1.565205
-1.848312	و <ُ>	-1.545018
-1.761195	و <ِ>	-1.06567
-3.481059	و <ّ>	-0.6313768
-2.03059	و <َّ>	-0.8668605
-3.047403	و <ُّ>	-0.311892
-2.485737	و <ِّ>	-0.5542337
-1.050442	و <ْ>	-1.943302
-4.150065	و {	-0.05153091
-3.814273	و ،	0.3391579
-3.251912	ى "	-0.1076202
-3.960427	ى (
-3.041059	ى )	-0.1656221
-3.853972	ى -	-0.5119419
-2.098097	ى .	0.142823
-1.789514	ى :	-0.367277
-0.02255002	ى <u>	-4.005066
-2.38415	ى {	-0.275203
-2.501789	ى }	-0.09938562
-1.81061	ى ،	0.09402323
-3.066481	ى ؛	0.4323677
-2.978911	ى ؟	0.1861986
-3.826172	ي "	-0.03363851
-4.194149	ي (	-0.2703317
-3.509902	ي )	-0.1228774
-2.9723	ي .	0.0492214
-2.820012	ي :	-0.2951857
-0.4040045	ي <u>	-2.612854
-3.76818	ي <ٌ>	-0.5805048
-3.796209	ي <ٍ>	-0.1144167
-0.6197124	ي <َ>	-1.765878
-1.100435	ي <ُ>	-2.249723
-2.42085	ي <ِ>	-0.6854072
-2.156722	ي <ّ>	-0.291116
-1.55833	ي <َّ>	-1.40597
-1.510202	ي <ُّ>	-1.229534
-1.514267	ي <ِّ>	-1.45191
-0.7451592	ي <ْ>	-3.009523
-4.194149	ي {
-3.224112	ي }	-0.5169625
-2.717028	ي ،	0.1586391
-3.883779	ي ؛	0.4343013
-3.557327	ي ؟	0.07528865

\3-grams:
-0.7919574	. " ا	0.5068067
-0.7919574	. " م
-0.7919574	. " و	1.337346
-0.9927008	: " أ	0.69239
-0.770852	: " إ	0.4357285
-1.293731	: " ا	0.1335325
-1.143373	: " ت	0.412578
-1.608567	: " ع	-0.3846912
-1.293731	: " ك	0.09877038
-0.9927008	: " ل	-0.2921172
-1.322801	: " م	-0.3629431
-1.608567	: " ه
-1.14212	: " و	1.26606
-1.608567	: " ي	-0.06306857
-0.8846066	<ً> " .	-0.1933047
-1.199443	<ً> " أ	0.7150826
-0.9136764	<ً> " ف	-0.1198939
-1.199443	<ً> " ق
-1.199443	<ً> " ك	0.4720446
-0.7342489	<ً> " و	0.8552036
-0.983843	<ٌ> " ،	0.3471059
-0.983843	<ٌ> " أ	0.7150826
-0.983843	<ٌ> " ف
-0.983843	<ٌ> " ق	-0.03310531
-0.983843	<ٌ> " و	1.337346
-1.180138	<ٍ> " .	-0.567701
-0.8943712	<ٍ> " أ	0.4719469
-0.8653014	<ٍ> " إ	0.4967104
-0.8943712	<ٍ> " ف	-0.1198939
-1.180138	<ٍ> " و	1.337346
-1.180138	<ٍ> " ي	-0.06306857
-1.047924	<َ> " .	-0.2039811
-1.047924	<َ> " أ	0.3311321
-1.348954	<َ> " إ	0.4967104
-1.348954	<َ> " ت	0.05630633
-1.66379	<َ> " ح	-0.005076587
-1.66379	<َ> " ر
-1.198596	<َ> " ف	-0.3589006
-1.66379	<َ> " ك	0.4720446
-1.378023	<َ> " ل	0.9106212
-1.198596	<َ> " م	-0.06521711
-0.7846821	<َ> " و	0.8653015
-1.198596	<َ> " ي	0.2774968
-0.90309	<ُ> " .	0.5881416
-1.124939	<ُ> " أ	0.3311321
-1.425969	<ُ> " إ	0.4967104
-1.124939	<ُ> " ا	0.1228561
-1.425969	<ُ> " ب	-0.1306136
-1.740805	<ُ> " ر	-0.2776886
-1	<ُ> " ف	0.2196034
-1.274358	<ُ> " ل	0.6275194
-0.90309	<ُ> " م	-0.3896527
-0.7569619	<ُ> " و	0.7683914
-0.7085153	<ِ> " .	-0.4681664
-1.336309	<ِ> " ،	-0.1350365
-1.515736	<ِ> " أ	0.4719469
-1.515736	<ِ> " إ	0.6268489
-1.335056	<ِ> " ا	0.476329
-1.486667	<ِ> " ب	-0.1306136
-1.801503	<ِ> " ت	-0.2481146
-1.801503	<ِ> " ح	-0.005076587
-0.9223952	<ِ> " ف	0.4627392
-1.336309	<ِ> " ق	-0.5152478
-1.801503	<ِ> " ك	0.4720446
-1.486667	<ِ> " ل	0.3962544
-1.486667	<ِ> " م	-0.5410781
-0.9223952	<ِ> " و	0.8653015
-1.515736	<ِ> " ي	0.4619022
-0.6158662	<َّ> " أ	0.7150826
-0.6158662	<َّ> " و	1.337346
-0.3679768	<ِّ> " ا	0.1335325
-0.9833123	<ْ> " .	0.5094175
-1.269079	<ْ> " ق
-1.269079	<ْ> " م
-0.4313638	<ْ> " و	0.90309
-0.2509185	، " و	1.09421
-0.3679768	؟ " ف	-0.2500324
-0.6828129	؟ " و	1.337346
-1.116469	ا " .	0.1799695
-0.8307021	ا " أ	0.4719469
-1.116469	ا " ت	-0.4030166
-1.116469	ا " ر	-0.2776886
-1.116469	ا " م
-0.8307021	ا " و	1.09421
-0.1387449	ت " و	1.337346
-0.3148362	ك " و	1.337346
-0.7408049	ى " .	0.1799695
-0.7408049	ى " أ	0.7150826
-0.983843	ي " ف
-0.6690068	ي " و	0.9640719
-0.1387449	) ( و	1.267925
-1.938085	. ( أ	0.8980134
-0.7024305	. ( ا	0.4238757
-1.938085	. ( ب	1.091833
-1.938085	. ( ح
-1.938085	. ( ر
-1.938085	. ( ز	-0.005076587
-1.938085	. ( س	-0.04404223
-0.9542425	. ( ف	0.7769347
-1.938085	. ( ق
-1.652319	. ( ك	0.4338403
-0.8699216	. ( ل	-0.1512678
-1.623249	. ( م	0.4931644
-1.938085	. ( ن	-0.04404223
-0.4983106	. ( و	0.2622775
-0.3802112	: ( أ	0.4637573
-0.60206	: ( ب	0.7078829
-1.217926	: ( ك	0.1461911
-0.6158662	<ً> ( ب	1.091833
-0.30103	<ً> ( و	0.8946505
-1.954467	<ٌ> ( أ	0.8267271
-1.95572	<ٌ> ( إ	-0.01009786
-1.240776	<ٌ> ( ا	0.4771212
-2.420914	<ٌ> ( ب	1.091833
-2.135147	<ٌ> ( ح	-0.2610716
-2.420914	<ٌ> ( د	-0.04404223
-2.420914	<ٌ> ( ص	-0.3194874
-2.420914	<ٌ> ( ع	-0.2091966
-0.1017561	<ٌ> ( ف	-1.021038
-2.420914	<ٌ> ( ق	-0.1300153
-1.95572	<ٌ> ( ك	-0.3359514
-2.420914	<ٌ> ( ل	0.4720446
-1.504017	<ٌ> ( م	0.01265216
-2.420914	<ٌ> ( ه	-0.005076587
-2.106077	<ٌ> ( و	1.572346
-1.95572	<ٌ> ( ي	-0.0623309
-0.7408049	<ٍ> ( أ	0.8980134
-0.7408049	<ٍ> ( ب	1.091833
-1.041835	<َ> ( إ	0.4720446
-1.041835	<َ> ( ب	1.091833
-1.041835	<َ> ( م
-0.7269987	<َ> ( و	0.8946505
-0.8529785	<ُ> ( ا	0.9885767
-1.138745	<ُ> ( ف
-0.8239087	<ُ> ( ق	0.1744056
-0.8239087	<ُ> ( ك	-0.2270831
-0.8239087	<ُ> ( م	-0.1845308
-0.8529785	<ُ> ( و	1.024789
-0.7596679	<ِ> ( أ	0.5509074
-1.185637	<ِ> ( إ	0.09877038
-1.035279	<ِ> ( ا	0.74957
-0.6627578	<ِ> ( ب	0.6575774
-1.500473	<ِ> ( ق
-1.500473	<ِ> ( ل	0.4720446
-0.7085153	<ِ> ( و	0.8750613
-0.2509185	<ُّ> ( ب	0.8486977
-0.4397749	<ْ> ( ق
-0.1387449	؟ ( و	1.267925
-0.3300998	ا ( و	1.024789
-0.02802872	د ( ب	0.49485
-0.69897	ل ( ا	0.8584383
-0.1346986	ل ( ف	0.1722649
-0.30103	ي ( ب	0.7185593
-0.6158662	: ) أ	0.8699846
-0.6158662	: ) ا	0.671617
-0.2218488	<ً> ) .	0.8515221
-1.131732	<ٌ> ) .	0.9923369
-0.9523047	<ٌ> ) :	-0.2904327
-1.417498	<ٌ> ) أ	0.8699846
-1.417498	<ٌ> ) إ	-0.2008404
-1.417498	<ٌ> ) ب	-0.4180804
-0.9510515	<ٌ> ) ح	0.7195172
-1.102662	<ٌ> ) ف	0.1122577
-1.102662	<ٌ> ) ق	0.2983428
-1.417498	<ٌ> ) و	1.192204
-1.417498	<ٌ> ) ي	-0.3061066
-0.1674911	<ٍ> ) .	0.5873368
-1.235655	<ٍ> ) و	1.192204
-0.288065	<َ> ) .	0.6121603
-1.041393	<َ> ) ا	0.2983428
-1.356229	<َ> ) ث
-1.041393	<َ> ) ق	0.2983428
-1.041393	<َ> ) و	0.8189298
-0.5806618	<ُ> ) .	0.4112456
-1.217484	<ُ> ) :	-0.3029703
-1.83335	<ُ> ) {	-0.3194874
-1.041393	<ُ> ) أ	0.4771212
-1.83335	<ُ> ) ا	0.671617
-1.547584	<ُ> ) ب	0.6233125
-1.368156	<ُ> ) ت	-0.07089424
-1.518514	<ُ> ) ث	-0.001685649
-1.547584	<ُ> ) ح	0.5476677
-1.83335	<ُ> ) ر
-1.83335	<ُ> ) ع	0.4342561
-1.83335	<ُ> ) ف
-1.368156	<ُ> ) ق	0.7742038
-1.217484	<ُ> ) ل	-0.3052693
-1.83335	<ُ> ) م	-0.4030166
-1.092545	<ُ> ) و	0.8450981
-1.217484	<ُ> ) ي	0.3998002
-2.345571	<ِ> ) (	-0.04404223
-0.2111907	<ِ> ) .	-0.4024754
-2.059804	<ِ> ) :
-1.880377	<ِ> ) أ	0.3878422
-2.030735	<ِ> ) ب	-0.1136594
-2.059804	<ِ> ) ت	-0.3187068
-1.331765	<ِ> ) ث	0.3707951
-1.879124	<ِ> ) ح	0.7195172
-2.345571	<ِ> ) ر
-1.880377	<ِ> ) ع	-0.04788637
-1.729705	<ِ> ) ف	0.4804443
-1.165433	<ِ> ) ق	-0.06366909
-2.345571	<ِ> ) ك	-0.07422554
-2.345571	<ِ> ) ل	-0.4350345
-2.345571	<ِ> ) ن	-0.08216596
-1.016494	<ِ> ) و	0.2941906
-1.729705	<ِ> ) ي	0.3998002
-0.5366849	<ُّ> ) ب	-0.2217857
-0.2218488	<ِّ> ) .	0.8426093
-1.013806	<ِّ> ) ث
-0.1165056	<ْ> ) .	0.6964812
-0.1387449	} ) .	1.235473
-0.7408049	؟ ) .
-0.4259687	؟ ) و	0.8189298
-0.3770061	ا ) .	0.3111304
-1.130334	ا ) :	-0.2848563
-1.460433	ا ) أ	0.6268489
-1.005395	ا ) ا	0.3245111
-1.460433	ا ) ت	-0.4166168
-1.7462	ا ) م
-1.005395	ا ) و	0.8450981
-1.460433	ا ) ي	0.7730746
-0.1387449	ر ) .	1.235473
-0.3148362	م ) .	1.235473
-0.3357921	ى ) .	0.8515221
-0.9516582	ى ) ح	0.7908034
-0.9516582	ى ) ي
-0.9852768	ي ) .	0.8621985
-0.5081555	ي ) :	-0.1455565
-0.8349191	ي ) أ	0.3878422
-1.300113	ي ) إ	-0.2008404
-1.300113	ي ) ت	-0.173481
-1.300113	ي ) ل
-0.6158662	<ِ> - :
-0.1387449	ى - ص	-0.04404223
-1.061464	" . "	-0.02872251
-0.07741223	" . </s>
-2.093528	) . (	-0.1090814
-0.006285124	) . </s>
-0.03476211	. . </s>
-1.937116	<ً> . (	-0.08165541
-0.0305537	<ً> . </s>
-1.787697	<ً> . {
-1.565848	<ً> . }	-0.09240487
-2.060577	<ٌ> . (	-0.08165541
-0.01353052	<ٌ> . </s>
-2.212188	<ٌ> . {	-0.5876105
-2.241257	<ٌ> . }	-0.04808393
-1.514105	<ٍ> . (	-0.1621154
-0.02157724	<ٍ> . </s>
-1.815135	<ٍ> . }
-1.783134	<َ> . (	0.07500371
-0.02201574	<َ> . </s>
-2.449026	<َ> . {	0.1876698
-1.618323	<َ> . }	-0.01937187
-1.836007	<ُ> . (	0.1413236
-0.01613464	<ُ> . </s>
-2.688986	<ُ> . {	-0.457472
-1.77531	<ُ> . }	-0.03712958
-2.974752	<ُ> . ،	-0.2008404
-1.7344	<ِ> . (	-0.07710415
-2.842651	<ِ> . .	0.263671
-0.02423535	<ِ> . </s>
-2.144574	<ِ> . {	0.1844561
-1.583132	<ِ> . }	-0.0174337
-0.1249387	<ّ> . </s>
-0.02530587	<َّ> . </s>
-1.561991	<َّ> . }
-0.00415596	<ُّ> . </s>
-1.477121	<ِّ> . (	-0.2066665
-0.01974406	<ِّ> . </s>
-2.206931	<ْ> . (
-0.01703334	<ْ> . </s>
-1.741737	<ْ> . }	-0.03168207
-1.914343	} . (	0.06196529
-0.01016879	} . </s>
-2.285611	} . {	-0.2856225
-0.2163659	، . </s>
-0.1387449	؟ . </s>
-1.845098	ا . (	-0.2032492
-0.02665219	ا . </s>
-1.367977	ا . }	-0.1738542
-0.1540085	ب . </s>
-0.03218468	ة . </s>
-0.1506723	ت . </s>
-0.1387449	ح . </s>
-0.01336396	د . </s>
-0.03476211	ر . </s>
-1.518956	ك . .	0.5068067
-0.02802872	ك . </s>
-0.1249387	ل . </s>
-0.2163659	م . </s>
-0.1249387	ن . </s>
-0.03218468	ه . </s>
-0.1540085	و . </s>
-1.89462	ى . (
-0.0234811	ى . </s>
-1.579784	ى . }
-1.837715	ي . (
-0.01772877	ي . </s>
-1.837715	ي . }
-0.4913617	) : أ	0.1703165
-1.329077	) : إ	2.250196
-1.04331	) : ا	0.377848
-1.329077	) : ظ	0.4342561
-1.01424	) : ق	-0.3369582
-1.04331	) : ل	-0.02056324
-1.01424	) : ي	0.2549804
-1.944925	<ً> : "
-0.876761	<ً> : {	-0.2913364
-1.152967	<ً> : أ	0.2574666
-0.90309	<ً> : إ	1.626884
-0.90309	<ً> : ا	1.164164
-1.944925	<ً> : ت	0.05492133
-1.944925	<ً> : ث
-1.944925	<ً> : د	-0.5584607
-1.630089	<ً> : س	0.4851085
-1.944925	<ً> : ش	0.3928634
-1.944925	<ً> : ع	0.06187016
-1.630089	<ً> : ق	0.340737
-1.630089	<ً> : ك	-0.1634694
-0.90309	<ً> : ل	-0.3744109
-1.20412	<ً> : م	-0.1838237
-1.659158	<ً> : ه	-0.02145946
-1.152967	<ً> : و	1.678215
-1.479731	<ً> : ي	1.848937
-1.725135	<ٌ> : (
-2.010901	<ٌ> : {
-1.027058	<ٌ> : أ	0.06558108
-1.270096	<ٌ> : إ	1.90309
-0.9179137	<ٌ> : ا	-0.02715218
-2.010901	<ٌ> : ر
-1.544454	<ٌ> : س	0.8637276
-2.010901	<ٌ> : ش	0.3928634
-1.696065	<ٌ> : ع	0.3662911
-1.173186	<ٌ> : ف	-0.3191702
-1.173186	<ٌ> : ق	-0.3565474
-1.270096	<ٌ> : ك	0.812137
-1.094005	<ٌ> : ل	0.7207266
-1.131794	<ٌ> : م	0.4795012
-2.010901	<ٌ> : ه
-0.8721563	<ٌ> : و	1.310238
-1.270096	<ٌ> : ي	1.781392
-1.839897	<ٍ> : (	-0.395746
-1.663806	<ٍ> : {	-0.1435949
-1.220108	<ٍ> : أ	1.098726
-0.9648356	<ٍ> : إ	1.194575
-0.9947988	<ٍ> : ا	0.9422182
-1.989316	<ٍ> : ب	-0.2490561
-1.989316	<ٍ> : ت	0.9598883
-2.169997	<ٍ> : ث	0.4573215
-2.140927	<ٍ> : ج	-0.1111791
-2.140927	<ٍ> : ح
-2.455763	<ٍ> : د
-1.576655	<ٍ> : ر	0.05034333
-1.387599	<ٍ> : س	0.2174106
-1.990569	<ٍ> : ص	0.3366897
-1.989316	<ٍ> : ع	0.03139246
-1.387599	<ٍ> : ف	0.6072962
-1.387599	<ٍ> : ق	-0.3786572
-1.295829	<ٍ> : ك	0.7017883
-1.015988	<ٍ> : ل	0.875543
-1.026983	<ٍ> : م	-0.3200561
-1.504105	<ٍ> : ه	0.2365536
-0.8698601	<ٍ> : و	0.8765824
-1.47192	<ٍ> : ي	1.246139
-2.051428	<َ> : "	-0.1092927
-2.720435	<َ> : (	-0.0005611479
-1.054541	<َ> : {	0.09251285
-3.021465	<َ> : آ	0.06098187
-1.170207	<َ> : أ	0.4723582
-1.052982	<َ> : إ	0.4101744
-1.090346	<َ> : ا	0.4616401
-1.826488	<َ> : ب	-0.2022759
-1.845374	<َ> : ت	0.134102
-2.197556	<َ> : ث	-0.2365721
-2.498586	<َ> : ج	-0.03893483
-1.679042	<َ> : ح	-0.6542375
-2.352458	<َ> : خ	0.1738616
-2.352458	<َ> : د	-0.02118927
-2.419405	<َ> : ذ	-0.2340832
-1.942284	<َ> : ر	-0.3710474
-2.869854	<َ> : ز	0.3996749
-1.672511	<َ> : س	-0.07210898
-2.352458	<َ> : ش	-0.1461281
-2.243314	<َ> : ص	0.632751
-3.336301	<َ> : ض	0.3471059
-2.544344	<َ> : ط	-0.2272438
-3.050535	<َ> : ظ	0.1911203
-1.885802	<َ> : ع	0.5773464
-2.243314	<َ> : غ	0.3010299
-1.231414	<َ> : ف	-0.145148
-1.258037	<َ> : ق	0.3298318
-1.408681	<َ> : ك	-0.232572
-0.9233984	<َ> : ل	-0.2719908
-1.297189	<َ> : م	0.4957168
-1.791016	<َ> : ن	0.1729559
-1.441681	<َ> : ه	0.1367011
-1.02583	<َ> : و	0.158241
-1.281102	<َ> : ي	0.4203713
-2.108442	<ُ> : "	-0.1481429
-2.98755	<ُ> : (
-1.304737	<ُ> : {	0.03741568
-2.522356	<ُ> : آ	-0.04788637
-1.056413	<ُ> : أ	0.7058623
-1.019501	<ُ> : إ	0.7237935
-0.9884667	<ُ> : ا	0.7072215
-1.807412	<ُ> : ب	0.1273996
-1.618356	<ُ> : ت	-0.2883298
-2.108442	<ُ> : ث	-0.2830412
-2.371683	<ُ> : ج	0.5001104
-1.848805	<ُ> : ح	0.1356626
-2.035891	<ُ> : خ	-0.04903114
-2.195592	<ُ> : د	-0.1760913
-2.371683	<ُ> : ذ	-0.1459892
-1.618356	<ُ> : ر	-0.4304264
-2.521103	<ُ> : ز	-0.007673681
-1.450865	<ُ> : س	-0.1579401
-2.371683	<ُ> : ش	0.008912802
-2.246745	<ُ> : ص	0.4717262
-2.701783	<ُ> : ض	0.4707255
-2.701783	<ُ> : ط	0.2434818
-1.644685	<ُ> : ع	0.4988719
-2.701783	<ُ> : غ	0.7060301
-1.343655	<ُ> : ف	0.7739934
-1.506382	<ُ> : ق	0.7164799
-1.605767	<ُ> : ك	0.3010298
-1.013114	<ُ> : ل	0.1633182
-1.096756	<ُ> : م	0.6429307
-1.751895	<ُ> : ن	0.54274
-1.593532	<ُ> : ه	0.9210531
-1.104512	<ُ> : و	0.5871344
-1.230757	<ُ> : ي	0.7161995
-1.996074	<ِ> : "	-0.03838352
-2.548022	<ِ> : (	0.02895264
-1.225222	<ِ> : {	-0.2538999
-1.087589	<ِ> : أ	0.3909981
-1.032286	<ِ> : إ	0.8888495
-0.9316157	<ِ> : ا	0.5589039
-2.092984	<ِ> : ب	0.840544
-1.916892	<ِ> : ت	-0.4518854
-2.217922	<ِ> : ث	-0.16598
-2.367342	<ِ> : ج	0.1908088
-2.092984	<ِ> : ح	0.18142
-2.833789	<ِ> : ذ
-1.71732	<ِ> : ر	0.3870137
-1.71732	<ِ> : س	0.2269999
-1.518952	<ِ> : ص	-0.06539297
-1.791954	<ِ> : ع	-0.2340832
-1.305878	<ِ> : ف	-0.01912606
-1.372824	<ِ> : ق	1.037713
-1.533676	<ِ> : ك	0.5432564
-1.163565	<ِ> : ل	0.4643484
-1.240199	<ِ> : م	0.9315169
-2.217922	<ِ> : ن	0.4349105
-1.439771	<ِ> : ه	-0.3802114
-0.8347057	<ِ> : و	0.4681044
-1.196733	<ِ> : ي	0.8342996
-0.8377149	<ّ> : ه	-0.1450791
-0.5228788	<ّ> : و	1.652046
-0.4771213	<َّ> : {	-0.1281641
-1.217926	<َّ> : أ	0.6045725
-0.90309	<َّ> : ا	0.2477095
-0.7527323	<َّ> : ل	-0.2595699
-2.289501	<ُّ> : {
-1.410394	<ُّ> : أ	0.1325279
-1.221338	<ُّ> : إ	1.60206
-1.196514	<ُّ> : ا	-0.02715218
-1.974665	<ُّ> : ب	-0.6074988
-2.289501	<ُّ> : ث
-2.289501	<ُّ> : ج	0.2620951
-1.673635	<ُّ> : ح	0.1445754
-1.974665	<ُّ> : د	-0.1565021
-2.003735	<ُّ> : ر	-0.01212317
-0.9746652	<ُّ> : س	-0.6892971
-2.289501	<ُّ> : ش
-1.548696	<ُّ> : ص	0.4717262
-1.824308	<ُّ> : ع	0.4003435
-1.497544	<ُّ> : غ	0.5563024
-1.410394	<ُّ> : ف	0.638078
-1.036813	<ُّ> : ق	0.8517896
-1.275695	<ُّ> : ك	0.8887252
-1.036813	<ُّ> : ل	-0.5852643
-1.221338	<ُّ> : م	1.464311
-1.497544	<ُّ> : ه	0.4576125
-0.818318	<ُّ> : و	0.9890046
-1.823054	<ُّ> : ي	1.739124
-1.716301	<ِّ> : {
-1.535621	<ِّ> : أ	0.5740948
-1.536874	<ِّ> : إ	1.768053
-0.9882616	<ِّ> : ا	0.02400029
-1.687232	<ِّ> : ب	0.07019639
-2.002068	<ِّ> : ث
-1.687232	<ِّ> : ر	0.5354335
-2.002068	<ِّ> : س	0.1806875
-1.536874	<ِّ> : ص	0.3366897
-1.535621	<ِّ> : ع	-0.009416103
-1.535621	<ِّ> : ف	0.7697151
-1.261263	<ِّ> : ق	0.1326776
-1.535621	<ِّ> : ك	-0.09729993
-1.21011	<ِّ> : ل	-0.1702909
-1.386202	<ِّ> : م	-0.2206684
-1.386202	<ِّ> : ه	-0.1677717
-0.5845693	<ِّ> : و	1.041393
-1.536874	<ِّ> : ي	1.848937
-2.473199	<ْ> : "
-1.158363	<ْ> : {	-0.2003129
-0.9542425	<ْ> : أ	-0.4695321
-1.067282	<ْ> : إ	1.277549
-0.9542425	<ْ> : ا	0.6870437
-1.594091	<ْ> : ب	0.4368302
-2.006752	<ْ> : ت	0.5900066
-2.158362	<ْ> : ث	-0.4722553
-2.158362	<ْ> : ج	-0.1111791
-2.008005	<ْ> : ح	0.0463835
-2.473199	<ْ> : خ	-0.03893489
-2.158362	<ْ> : ذ	0.5423824
-2.187432	<ْ> : ر	0.3546322
-2.473199	<ْ> : ز
-1.594091	<ْ> : س	0.04746139
-2.158362	<ْ> : ش	0.01958919
-2.158362	<ْ> : ط	0.4242831
-1.635484	<ْ> : ع	-0.1142211
-2.473199	<ْ> : غ	0.9491658
-1.431364	<ْ> : ف	0.2187377
-1.273756	<ْ> : ق	-0.452042
-1.635484	<ْ> : ك	-0.4596856
-1.173086	<ْ> : ل	1.015205
-1.173086	<ْ> : م	1.232362
-2.187432	<ْ> : ن	-0.04624057
-1.405035	<ْ> : ه	1.468795
-1.012234	<ْ> : و	0.9989887
-1.22051	<ْ> : ي	1.209115
-0.7690079	{ : أ	0.7943325
-0.8117598	{ : إ	1.380211
-1.232765	{ : ا	0.1489391
-2.111873	{ : ب	-0.2342246
-1.826106	{ : ج	0.01895934
-2.111873	{ : ح	0.5285259
-1.826106	{ : خ	-0.2820706
-1.826106	{ : د	-0.02636361
-1.797037	{ : ر	-0.1422616
-1.797037	{ : س	-0.1925867
-1.797037	{ : ص	0.445558
-1.797037	{ : ع	0.3662911
-1.826106	{ : ف	-0.1694426
-1.826106	{ : ق	-0.2068197
-1.098067	{ : ك	0.2909318
-1.043709	{ : ل	0.766642
-0.8427941	{ : م	-0.6767392
-1.496007	{ : ن	0.1742026
-1.645426	{ : و	1.954034
-1.646679	{ : ي	0.05314624
-0.6158662	} : ف	0.07369316
-0.4397749	ء : ل
-1.869232	ا : )
-1.267172	ا : {	-0.02203058
-1.00393	ا : أ	-0.1500187
-1.09108	ا : إ	1.578579
-1.115904	ا : ا	-0.002328634
-1.718874	ا : ب	-0.1316378
-1.898301	ا : ت	0.1785409
-2.184068	ا : ث	-0.09898108
-1.718874	ا : ح	0.0463835
-2.184068	ا : ر
-1.267172	ا : س	0.009672821
-1.718874	ا : ع	0.4003435
-1.443263	ا : ف	1.041792
-1.718874	ا : ق	-0.4458264
-1.898301	ا : ك	0.05679739
-0.9661418	ا : ل	1.089661
-1.568202	ا : م	0.1405896
-1.170262	ا : ن	-0.4000883
-1.898301	ا : ه	-0.02145946
-0.899195	ا : و	1.170059
-1.067599	ا : ي	1.113513
-0.6158662	ة : ل	0.2225725
-1.075141	ت : أ	2.141232
-1.400652	ت : إ	2.17891
-1.581332	ت : ا	0.377848
-1.867099	ت : ب	-0.2342246
-1.867099	ت : ت	0.05492133
-0.7506302	ت : ف	-0.5979239
-1.581332	ت : ق	0.1599357
-1.400652	ت : ك	-0.1381085
-0.9154404	ت : ل	0.9410416
-1.075141	ت : م	-0.1838237
-1.401905	ت : ن	-0.2852473
-1.581332	ت : ه	-0.3882148
-1.401905	ت : و	1.543178
-0.9154404	ت : ي	-0.588432
-0.8239087	د : ح	0.1552517
-1.138745	د : س	0.1806875
-1.138745	د : م	0.1632822
-1.138745	د : ي
-0.9516582	ر : أ
-0.6368221	ر : إ	1.876922
-0.9516582	ر : ت	0.05492133
-0.9516582	ر : و	2.025321
-0.5366849	ك : ف	0.07369316
-0.90309	ل : ا	0.2477095
-1.217926	ل : ب	-0.2342246
-1.217926	ل : ق	0.03631604
-1.217926	ل : ل	0.2225725
-1.217926	ل : م	0.1632822
-0.90309	ل : ه	-0.1609933
-1.217926	ل : ي	-0.04944056
-0.3148362	م : أ	0.6045725
-0.8377149	ه : "
-0.5228788	ه : و	1.652046
-0.1453799	ى : {	-0.2691482
-1.736756	ى : أ	0.5740948
-1.736756	ى : إ	2.17891
-1.587337	ى : ا	0.2370331
-1.917436	ى : ت	-0.1882144
-1.917436	ى : ع	0.1854898
-1.888367	ى : ف	-0.2995811
-2.203203	ى : ق	0.03631604
-2.203203	ى : ك	-0.06682223
-1.917436	ى : ل	-0.02056324
-1.736756	ى : م	0.1328045
-1.286307	ى : و	1.518514
-1.888367	ى : ي	0.2549804
-1.990003	ي : )
-1.704237	ي : {
-1.073107	ي : أ	0.0977658
-1.00616	ي : إ	1.681241
-0.9761971	ي : ا	0.02400029
-1.990003	ي : ب	-0.3925871
-1.990003	ي : ت
-1.990003	ي : ر	0.2310126
-1.990003	ي : ظ	0.4342561
-0.9218394	ي : ف	0.05031228
-1.990003	ي : ق	0.03631604
-1.704237	ي : ك	0.05679739
-1.038345	ي : ل	0.8831476
-1.374137	ي : م	-0.2206684
-1.675167	ي : ه	-0.5183533
-0.6751671	ي : و	1.141096
-1.249198	ي : ي	1.595284
-8.052183e-005	<ً> <u> s	1.562284
-0.01223446	ء <u> s	-0.3323284
-1.880575	آ <u> ب	-1.475492
-2.357697	آ <u> ة	0.09041274
-1.669722	آ <u> ت	-1.703698
-1.468395	آ <u> ث	-1.419274
-1.798389	آ <u> ج	-0.9742176
-2.812735	آ <u> ح	-0.7237818
-0.4452089	آ <u> خ	-2.122336
-0.9324071	آ <u> د	-2.208846
-1.899059	آ <u> ذ	-0.9274288
-2.306544	آ <u> ر	-0.8400229
-2.114659	آ <u> س	-0.3362514
-3.098502	آ <u> ص	-0.5973282
-1.880575	آ <u> ف	-1.279185
-1.544783	آ <u> ك	-1.099029
-1.475457	آ <u> ل	-1.467275
-1.247949	آ <u> م	-1.24883
-0.793919	آ <u> ن	-1.811327
-1.755637	آ <u> ه	-1.316885
-2.783665	آ <u> و	-0.1898534
-1.022741	آ <u> ي	-1.674917
-0.6512747	أ <u> s	-0.1263353
-1.116469	أ <u> ط	-0.604423
-0.6512747	أ <u> ن	-1.083813
-1.116469	أ <u> ه
-1.515448	إ <u> ب	-1.480103
-2.816478	إ <u> ت	-1.174592
-2.255036	إ <u> ث	-1.881289
-2.156426	إ <u> ج	-1.49872
-2.099283	إ <u> ح	-1.80191
-2.023087	إ <u> خ	-1.773292
-2.500208	إ <u> د	-1.585386
-0.6999177	إ <u> ذ	-2.751639
-2.500208	إ <u> ر	-1.356651
-2.418538	إ <u> ز	-1.767484
-1.436267	إ <u> س	-2.855058
-2.600878	إ <u> ش	-1.335184
-2.394404	إ <u> ص	-1.925922
-2.600878	إ <u> ض	-1.500728
-2.786515	إ <u> ط	-1.379256
-2.661576	إ <u> ظ	-1.303577
-2.382823	إ <u> ع	-1.222408
-3.800321	إ <u> غ	-0.5156049
-2.707334	إ <u> ف	-1.093538
-2.500208	إ <u> ق	-1.290804
-2.564666	إ <u> ك	-1.384725
-0.3952268	إ <u> ل	-3.138823
-1.890724	إ <u> م	-1.890921
-0.6291588	إ <u> ن	-2.812053
-2.921213	إ <u> ه	-0.6598951
-1.819591	إ <u> ي	-0.6249619
-0.1387449	ئ <u> s	-0.5840507
-0.7514102	ا <u> s	0.3859215
-1.568149	ا <u> ء	-0.1154847
-3.107039	ا <u> ؤ	0
-1.925407	ا <u> ئ	-1.020729
-1.402063	ا <u> ب	-0.7971747
-2.41065	ا <u> ة	0.4019151
-1.89673	ا <u> ت	0.2534761
-2.501774	ا <u> ث	-2.070202
-2.073615	ا <u> ج	0.04027224
-1.975159	ا <u> ح	-0.2773805
-2.616197	ا <u> خ	-0.4943995
-1.736588	ا <u> د	-0.2298312
-2.766081	ا <u> ذ	-0.8071843
-1.556132	ا <u> ر	0.1927114
-2.48226	ا <u> ز	-2.014092
-1.747696	ا <u> س	-1.987329
-2.582234	ا <u> ش	-2.558305
-2.458498	ا <u> ص	0.2354138
-2.309489	ا <u> ض	-2.269202
-2.486094	ا <u> ط	-1.566269
-3.328888	ا <u> ظ	-1.357671
-1.929022	ا <u> ع	0.2246828
-2.832539	ا <u> غ	-0.2299861
-1.959077	ا <u> ف	-0.1022966
-2.149946	ا <u> ق	0.331507
-2.32303	ا <u> ك	0.009422541
-0.3277205	ا <u> ل	-0.002689838
-1.517048	ا <u> م	-0.3306558
-1.332765	ا <u> ن	-2.718445
-1.684948	ا <u> ه	-1.132841
-2.130842	ا <u> و	-0.9090856
-2.135626	ا <u> ي	-1.662281
-0.1703768	ب <u> s	-0.3771568
-1.551498	ب <u> ا	-0.1153156
-1.701856	ب <u> د	-0.9769111
-2.016692	ب <u> ق	-0.6041829
-1.551498	ب <u> ك	-0.09170976
-2.016692	ب <u> ل	-0.4605531
-1.275887	ب <u> ن	-0.3144621
-0.9485281	ب <u> ه	-0.5239872
-1.701856	ب <u> و	-0.9707926
-0.001978566	ة <u> s	-0.4411581
-0.06496587	ت <u> s	0.1942172
-2.747412	ت <u> ك	-0.9308739
-2.747412	ت <u> م
-1.969261	ت <u> ن	-0.7542924
-0.9127792	ت <u> ه	-1.753791
-0.6784483	ث <u> s	-0.243295
-0.10665	ث <u> ن	-1.98576
-0.1863104	ج <u> s	-0.2956265
-1.185417	ج <u> ا	0.1236911
-0.8553172	ج <u> ه	-0.5508093
-1.156347	ج <u> و	-0.9707926
-0.10721	ح <u> s	-0.362601
-1.028029	ح <u> ه	-0.2801641
-1.028029	ح <u> ي	-0.9529726
-0.03380656	د <u> s	-0.3246733
-2.204415	د <u> ر	-0.6736681
-1.878905	د <u> ن	-0.4566064
-1.435207	د <u> ه	-0.6280785
-2.205668	د <u> ي	-1.061841
-0.1383027	ذ <u> s	-0.2725163
-0.1727115	ر <u> s	-0.6841975
-1.391207	ر <u> ا	-0.1721646
-2.028029	ر <u> ش	-0.9785267
-2.342865	ر <u> ف	-0.6017871
-2.028029	ر <u> ق	-0.9774571
-2.342865	ر <u> ك	-0.5432228
-2.028029	ر <u> م	-0.9743077
-1.877671	ر <u> ن	-0.1955376
-0.8330521	ر <u> ه	-1.271583
-1.359022	ر <u> و	-1.166473
-1.60206	ر <u> ي	-0.9268043
-0.1691424	ز <u> s	-0.3090806
-1.04331	ز <u> ر	-0.8455176
-0.8638828	ز <u> ي	-1.061841
-0.2671717	س <u> s	-0.2030078
-1.09108	س <u> ف	-0.9750614
-1.405917	س <u> م	-0.4435137
-1.405917	س <u> ن	-0.601671
-1.09108	س <u> ه	-0.2801641
-1.405917	س <u> و	-0.5975184
-0.6368221	ش <u> s	-0.2796297
-0.9516582	ش <u> ا	0.3668268
-0.9516582	ش <u> ك	-0.5575997
-0.5366849	ص <u> s	-0.5816138
-0.1199753	ض <u> s	-0.4871146
-0.8336659	ض <u> ه	-0.6150627
-0.3245111	ط <u> s	-0.149745
-1.116469	ط <u> ب	-0.6038816
-1.116469	ط <u> ر	-0.6023819
-1.116469	ط <u> ك	-0.4428369
-0.4259687	ظ <u> s	-0.2771928
-0.2756111	ظ <u> ه	-0.3357325
-0.1122973	ع <u> s	-0.3786882
-1.735342	ع <u> ك
-0.6935071	ع <u> ه	-0.8079031
-0.4126606	غ <u> s
-0.8791076	غ <u> ا	0.3668268
-0.1540085	ـ <u> s
-0.146128	ف <u> s	-0.006725013
-1.724206	ف <u> ح	-0.603826
-1.438439	ف <u> ر	-0.8455176
-1.724206	ف <u> ل	-0.4605531
-0.9834008	ف <u> ه	-0.3904478
-1.724206	ف <u> ي	-0.5796984
-0.08501079	ق <u> s	-0.2975203
-1.490927	ق <u> ج	-0.600706
-1.490927	ق <u> ه	-0.4383194
-0.002833906	ك <u> s	-0.2754626
-2.641854	ك <u> ه	-0.3146997
-2.166805	ل <u> s	-0.3743035
-3.472157	ل <u> أ	0
-3.844678	ل <u> ا	-0.1153156
-3.843424	ل <u> ب	-0.6751679
-1.111374	ل <u> ت	-3.042702
-1.677668	ل <u> ث	-2.694055
-1.218334	ل <u> د	-3.117598
-1.869012	ل <u> ذ	-2.538778
-1.061548	ل <u> ر	-3.485831
-1.701304	ل <u> ز	-2.58436
-1.065616	ل <u> س	-3.698504
-1.129537	ل <u> ش	-2.954876
-1.218334	ل <u> ص	-2.678853
-1.990714	ل <u> ض	-2.376865
-1.457216	ل <u> ط	-2.919761
-2.02345	ل <u> ظ	-2.062678
-3.995035	ل <u> ـ	-0.6227237
-3.995035	ل <u> ف	-0.9750614
-4.309871	ل <u> ق	-0.6041829
-3.694005	ل <u> ك	-0.09593655
-0.5334867	ل <u> ل	-3.888952
-3.843424	ل <u> م	-0.6315112
-0.8504611	ل <u> ن	-3.355865
-2.48093	ل <u> ه	-1.234519
-4.024105	ل <u> ي	-0.8228341
-0.09637018	م <u> s	-0.3640953
-1.675717	م <u> ا	-0.1153156
-1.855145	م <u> ر	-0.8455176
-2.140911	م <u> ن	-0.601671
-0.9414682	م <u> ه	-1.039824
-0.2335708	ن <u> s	-0.2633115
-0.5470694	ن <u> ا	-1.04307
-1.605664	ن <u> ج	-0.9935694
-1.781755	ن <u> د	-0.9875875
-2.397622	ن <u> ز	-0.5998809
-2.111855	ن <u> ك	-0.1412168
-2.082785	ن <u> م	-0.9743077
-1.383815	ن <u> ه	-0.9780692
-1.931175	ن <u> ي	-0.6509846
-0.06458005	ه <u> s	-0.4877629
-2.468143	ه <u> ـ
-0.906152	ه <u> م	-1.560012
-2.468143	ه <u> ن	-0.601671
-0.9403203	و <u> s	0.08464956
-1.923586	و <u> ء	-0.977627
-3.795681	و <u> آ	-0.3253017
-3.766611	و <u> ئ	0.06017542
-0.935168	و <u> ا	0.02637959
-1.349971	و <u> ب	-2.439412
-4.081447	و <u> ة	-0.5981818
-1.915353	و <u> ت	-1.585802
-2.98846	و <u> ث	-0.4450466
-1.923586	و <u> ج	-1.143812
-2.018423	و <u> ح	-0.8677415
-2.562491	و <u> خ	-1.185857
-1.380409	و <u> د	-2.004276
-1.768061	و <u> ذ	-1.606029
-1.159872	و <u> ر	-2.366056
-1.682631	و <u> ز	-1.761973
-1.541302	و <u> س	-2.003893
-2.675531	و <u> ش	-0.9887631
-2.266009	و <u> ص	-1.488376
-2.725219	و <u> ض	-0.7199538
-2.357242	و <u> ط	-1.39021
-2.942702	و <u> ظ	-0.6183701
-1.375088	و <u> ع	-2.127216
-2.752371	و <u> غ	-0.4615189
-1.679066	و <u> ف	-0.7519045
-1.878244	و <u> ق	-1.314974
-2.126461	و <u> ك	-0.9300607
-0.7527912	و <u> ل	-2.549245
-1.447852	و <u> م	-1.662091
-0.8018802	و <u> ن	-2.681477
-1.57909	و <u> ه	-0.8827686
-4.081447	و <u> ي
-3.201227e-005	ى <u> s	0.7391834
-0.3201016	ي <u> s	0.6234021
-2.419076	ي <u> ء	-0.3160388
-2.581524	ي <u> ئ	-0.4651855
-3.790144	ي <u> ا	-0.01712376
-1.615503	ي <u> ب	-2.053726
-4.406011	ي <u> ة	-0.5981818
-2.320322	ي <u> ت	-1.995355
-1.337591	ي <u> ث	-2.135744
-2.782966	ي <u> ج	-0.7401127
-1.654482	ي <u> ح	-1.866592
-2.599813	ي <u> خ	-1.176507
-1.50609	ي <u> د	-2.504184
-2.924843	ي <u> ذ	-0.8303668
-1.331506	ي <u> ر	-2.392986
-2.454352	ي <u> ز	-1.525954
-2.250232	ي <u> س	-2.407423
-2.84402	ي <u> ش	-1.642433
-2.519078	ي <u> ص	-1.951908
-2.284994	ي <u> ض	-1.369825
-2.735787	ي <u> ط	-1.347965
-2.699064	ي <u> ظ	-1.150995
-1.789421	ي <u> ع	-2.327813
-3.076934	ي <u> غ	-0.5259908
-1.835098	ي <u> ف	-1.097081
-1.71036	ي <u> ق	-2.163321
-2.172096	ي <u> ك	-0.6768363
-1.213036	ي <u> ل	-2.538722
-1.354512	ي <u> م	-1.306164
-1.131656	ي <u> ن	-2.782534
-1.129121	ي <u> ه	-1.052055
-3.337847	ي <u> و	-1.411179
-0.06694679	<ّ> <ً> ى	0.1499229
-1.511883	ء <ً> .	0.5380786
-0.09970291	ء <ً> s	-0.1438266
-1.661303	ء <ً> }	-0.05918539
-0.9283068	ء <ً> ،	0.04754287
-2.127749	ء <ً> ؛
-0.07918125	أ <ً> s	-0.2214971
-2.56814	ا <ً> "	0.003199726
-3.398842	ا <ً> (	-0.08469805
-3.219415	ا <ً> )	-0.1066098
-1.366887	ا <ً> .	-0.006517172
-1.760534	ا <ً> :	-0.000459373
-0.1150631	ا <ً> <u>	0
-1.230943	ا <ً> {	-0.0784781
-1.621584	ا <ً> }	0.03276455
-1.104168	ا <ً> ،	-0.1182755
-2.56814	ا <ً> ؛	-0.1818436
-2.369772	ا <ً> ؟	-0.1411922
-2.699316	ة <ً> "
-2.985082	ة <ً> (	-0.3061066
-2.699316	ة <ً> )
-1.376515	ة <ً> .	-0.6293081
-2.369216	ة <ً> :	-0.2390523
-0.08328367	ة <ً> s	-0.03172398
-1.591065	ة <ً> }	0.01350778
-1.057462	ة <ً> ،	-0.1116296
-2.699316	ة <ً> ؛	0.2466376
-2.518635	ة <ً> ؟	-0.02143532
-0.0714911	ت <ً> ى	-0.3391565
-0.0714911	د <ً> ى	-0.3391565
-0.01848341	ذ <ً> ى	0.6521042
-0.0714911	ر <ً> ى	0.2455727
-0.1249387	ص <ً> ى	-0.2302883
-0.1540085	ع <ً> ى	-0.1001498
-0.1506723	ف <ً> ى	0.08351928
-0.1387449	ق <ً> ى
-0.0714911	ل <ً> ى	0.2455727
-0.009340026	ن <ً> ى	-0.3249402
-0.02020339	و <ً> ى	-0.5720967
-2.159981	<ّ> <ٌ> )
-1.611369	<ّ> <ٌ> .	0.3371263
-2.158728	<ّ> <ٌ> :	-0.1714859
-0.05587171	<ّ> <ٌ> s	-0.3290712
-1.746068	<ّ> <ٌ> }	-0.1461951
-1.268947	<ّ> <ٌ> ،	0.03447217
-2.310339	<ّ> <ٌ> ؟
-1.512397	ء <ٌ> .	0.3670895
-0.08103325	ء <ٌ> s	-0.1032487
-1.584948	ء <ٌ> }	-0.0712724
-0.9828877	ء <ٌ> ،	0.09582019
-2.149219	ء <ٌ> ؟	-0.09859565
-0.1249387	أ <ٌ> s	-0.04550613
-1.041835	أ <ٌ> ،
-0.03218468	ؤ <ٌ> s	-0.07825913
-0.2632414	ئ <ٌ> s	-0.1491654
-0.5642715	ئ <ٌ> ،	0.211707
-2.363523	ب <ٌ> (	-0.1701636
-2.64929	ب <ٌ> )
-1.178107	ب <ٌ> .	0.1510649
-1.732394	ب <ٌ> :	-0.1163899
-0.0914157	ب <ٌ> s	-0.08704519
-2.182843	ب <ٌ> }	-0.01775777
-1.158363	ب <ٌ> ،	0.03725076
-2.363523	ب <ٌ> ؛	0.3457868
-2.184096	ب <ٌ> ؟	0.04849641
-2.779321	ة <ٌ> "
-2.449221	ة <ٌ> )	-0.08978432
-1.335278	ة <ٌ> .	-0.077847
-2.148191	ة <ٌ> :	-0.3147526
-0.09128635	ة <ٌ> s	0.1806033
-3.065087	ة <ٌ> {	-0.4152511
-1.555275	ة <ٌ> }	-0.1055405
-1.025975	ة <ٌ> ،	-0.1231761
-2.779321	ة <ٌ> ؛	-0.02096856
-2.59864	ة <ٌ> ؟	0.04081057
-1.125925	ت <ٌ> .	0.4340364
-2.005032	ت <ٌ> :
-0.08453196	ت <ٌ> s	-0.02000058
-1.167317	ت <ٌ> ،	-0.4855773
-0.03476211	ث <ٌ> s	-0.5870841
-1.238882	ث <ٌ> ،	0.1351633
-0.04884857	ج <ٌ> s	-0.04021251
-1.194977	ج <ٌ> ،	-0.2881772
-0.9498334	ح <ٌ> .	-0.01826131
-1.690196	ح <ٌ> :	-0.1129221
-0.1161648	ح <ٌ> s	-0.1876885
-2.020296	ح <ٌ> }
-1.167317	ح <ٌ> ،	0.1485834
-1.991226	ح <ٌ> ؛	-0.151107
-1.394017	خ <ٌ> .	0.906081
-0.05115252	خ <ٌ> s	-0.1070579
-1.394017	خ <ٌ> ،
-2.440128	د <ٌ> )	-0.1535775
-1.225422	د <ٌ> .	0.327581
-1.933937	د <ٌ> :	-0.1075507
-0.06081022	د <ٌ> s	-0.4137299
-2.725894	د <ٌ> {
-2.260701	د <ٌ> }	-0.4820239
-1.425781	د <ٌ> ،	-0.806251
-2.725894	د <ٌ> ؛
-2.411058	د <ٌ> ؟
-0.01930515	ذ <ٌ> s	-0.4420635
-2.791957	ر <ٌ> )
-1.341459	ر <ٌ> .	0.1647761
-1.723794	ر <ٌ> :	-0.1512764
-0.09630725	ر <ٌ> s	-0.4877537
-2.326764	ر <ٌ> {
-1.875061	ر <ٌ> }	0.06779084
-1.019744	ر <ٌ> ،	-0.1747776
-2.326764	ر <ٌ> ؛	-0.2599753
-2.477121	ر <ٌ> ؟
-2.325511	ر <ٌ> و	-0.1610273
-0.1014576	ز <ٌ> s	-0.3331605
-0.7781513	ز <ٌ> ،	-0.06016946
-2.277048	س <ٌ> "
-1.536243	س <ٌ> .	0.558975
-0.07011683	س <ٌ> s	-0.2786797
-1.811854	س <ٌ> {	-0.1064056
-2.277048	س <ٌ> }
-1.09691	س <ٌ> ،	-0.1675752
-0.2155998	ش <ٌ> s	-0.2814102
-0.7329957	ش <ٌ> ،	0.3041888
-1.300113	ص <ٌ> .	0.906081
-0.1199753	ص <ٌ> s	-0.1523074
-0.8349191	ص <ٌ> ،	0.3587991
-1.934625	ض <ٌ> .	0.906081
-0.89279	ض <ٌ> :	-0.1310298
-0.1146388	ض <ٌ> s	-0.3476001
-1.648859	ض <ٌ> }
-1.318759	ض <ٌ> ،	0.1453013
-1.650628	ط <ٌ> .	0.906081
-0.1053432	ط <ٌ> s	-0.2826984
-0.7715207	ط <ٌ> ،	0.1907411
-0.05611594	ظ <ٌ> s	-0.3924352
-1.041393	ظ <ٌ> ،	0.211707
-1.311754	ع <ٌ> .	0.3992742
-1.942884	ع <ٌ> :	-0.1622781
-0.08558374	ع <ٌ> s	-0.2238791
-1.029207	ع <ٌ> ،	-0.05256385
-2.22865	ع <ٌ> ؟	-0.4030166
-0.1506723	غ <ٌ> s
-1.127345	ف <ٌ> .	0.06605959
-0.08595212	ف <ٌ> s	-0.3277369
-2.081587	ف <ٌ> {
-1.067347	ف <ٌ> ،	0.1443537
-1.353059	ق <ٌ> .	0.4718249
-0.06201322	ق <ٌ> s	-0.4397394
-2.232167	ق <ٌ> }
-1.115698	ق <ٌ> ،	-0.364614
-1.514283	ك <ٌ> .	0.8347947
-1.101622	ك <ٌ> :	-0.2182473
-0.1218255	ك <ٌ> s	-0.2008208
-1.364864	ك <ٌ> }	-0.1167058
-1.188772	ك <ٌ> ،	0.2043321
-0.5767946	ل <ٌ> (	-0.1307908
-2.19774	ل <ٌ> )	-0.6761691
-1.704824	ل <ٌ> .	0.06605959
-1.518514	ل <ٌ> :	0.09295511
-0.1919876	ل <ٌ> s	0.3489351
-2.989697	ل <ٌ> }
-1.479885	ل <ٌ> ،	-0.03302586
-2.416085	م <ٌ> "
-1.160813	م <ٌ> .	-0.2191762
-2.265728	م <ٌ> :
-0.09317739	م <ٌ> s	-0.1720461
-2.115056	م <ٌ> {	-0.1772358
-1.531479	م <ٌ> }	-0.2437119
-1.160813	م <ٌ> ،	-0.08618838
-2.115056	م <ٌ> ؟	-0.05369952
-2.126869	ن <ٌ> )	-0.1040705
-1.141564	ن <ٌ> .	-0.1100317
-0.08040634	ن <ٌ> s	-0.0521332
-1.675167	ن <ٌ> }	0.162456
-1.262987	ن <ٌ> ،	-0.1987878
-2.277227	ن <ٌ> ؛	-0.151107
-2.592063	ن <ٌ> ؟
-0.9488475	ه <ٌ> .	0.5132176
-0.1037494	ه <ٌ> s	0.03008151
-1.425969	ه <ٌ> ،	-0.4659882
-1.425969	ه <ٌ> ؟	-0.1630536
-0.07918125	و <ٌ> s	-0.1478674
-0.9168962	و <ٌ> ،
-0.05799195	ي <ٌ> s	-0.04074624
-1.041835	ي <ٌ> ،	-0.09271395
-2.636366	<ّ> <ٍ> )	-0.1122866
-1.719469	<ّ> <ٍ> .	0.2005892
-1.436923	<ّ> <ٍ> :	-0.3950969
-0.08432089	<ّ> <ٍ> s	-0.2674388
-1.652523	<ّ> <ٍ> {	-0.08387449
-1.652523	<ّ> <ٍ> }	-0.04449081
-1.175401	<ّ> <ٍ> ،	-0.1489969
-2.636366	<ّ> <ٍ> ؟
-1.64204	ء <ٍ> .	0.1384412
-0.05900358	ء <ٍ> s	-0.352124
-1.584048	ء <ٍ> }	-0.1980575
-1.144716	ء <ٍ> ،	-0.1754078
-2.625883	ء <ٍ> ؟	-0.3664025
-0.2176191	إ <ٍ> s	-0.2867481
-0.6828129	إ <ٍ> ،	-0.1776854
-0.9294189	ئ <ٍ> :	-0.0756535
-0.07410172	ئ <ٍ> s	-0.03618973
-1.545285	ئ <ٍ> ،
-1.490752	ب <ٍ> .	-0.04719532
-1.375359	ب <ٍ> :	-0.08962253
-0.07505317	ب <ٍ> s	-0.01650751
-1.898237	ب <ٍ> {	-0.2285318
-1.898237	ب <ٍ> }	-0.1071015
-1.284278	ب <ٍ> ،	0.1437811
-2.603991	ة <ٍ> "	-0.2674086
-2.190077	ة <ٍ> )	-0.06942144
-1.350656	ة <ٍ> .	0.6199005
-2.190077	ة <ٍ> :	-0.1818589
-0.1040408	ة <ٍ> s	-0.6128325
-1.83353	ة <ٍ> {	-0.003224432
-1.598001	ة <ٍ> }	0.1674039
-0.9884315	ة <ٍ> ،	-0.1314466
-2.603991	ة <ٍ> ؛	0.211751
-2.152288	ة <ٍ> ؟	0.009821296
-2.260961	ت <ٍ> "
-1.520156	ت <ٍ> .	0.36029
-1.645095	ت <ٍ> :	-0.2224866
-0.08678614	ت <ٍ> s	0.07320189
-1.469003	ت <ٍ> }	-0.2344319
-1.080823	ت <ٍ> ،	-0.04855877
-1.471638	ث <ٍ> .	0.6361097
-1.652319	ث <ٍ> :	-0.5049623
-0.09177037	ث <ٍ> s	-0.2827674
-1.471638	ث <ٍ> }	-0.005563587
-1.623249	ث <ٍ> ،	-0.2372268
-1.718529	ج <ٍ> .	0.7073959
-0.06790023	ج <ٍ> s	-0.620977
-1.718529	ج <ٍ> }
-1.102662	ج <ٍ> ،	0.06032985
-1.402261	ح <ٍ> .	0.8037574
-1.5272	ح <ٍ> :	-0.3192749
-0.07490245	ح <ٍ> s	-0.195769
-1.82823	ح <ٍ> }
-1.22617	ح <ٍ> ،	0.1608704
-2.143066	ح <ٍ> ؛	0.6938934
-0.08167005	خ <ٍ> s	-0.4675645
-1.096017	خ <ٍ> ،	-0.4208212
-3.025517	د <ٍ> (
-1.725405	د <ٍ> .	-0.02031648
-1.424375	د <ٍ> :	0.2242202
-0.05811275	د <ٍ> s	0.265878
-1.682653	د <ٍ> {	0.04773545
-2.108621	د <ٍ> }	-0.07971901
-1.431928	د <ٍ> ،	-0.3152829
-3.025517	د <ٍ> ؟
-1.275611	ذ <ٍ> .	0.2252535
-0.09691001	ذ <ٍ> s	-0.05488843
-1.455039	ذ <ٍ> {	0.005498543
-1.124939	ذ <ٍ> ،	0.06032985
-2.749229	ر <ٍ> "
-1.640978	ر <ٍ> .	1.031907
-1.384367	ر <ٍ> :	0.001793206
-0.09587721	ر <ٍ> s	0.6933928
-1.765917	ر <ٍ> {	-0.2495571
-1.782307	ر <ٍ> }	0.01094586
-1.316467	ر <ٍ> ،	-0.081164
-3.034996	ر <ٍ> ؟
-1.322219	ر <ٍ> و	-0.05487275
-1.113943	ز <ٍ> .	0.3341217
-0.1439066	ز <ٍ> s	0.06886142
-0.9623325	ز <ٍ> ،	-0.2081631
-2.643895	س <ٍ> "
-1.630089	س <ٍ> .	0.1384412
-1.287666	س <ٍ> :	-0.252912
-0.0986098	س <ٍ> s	-0.718322
-1.050305	س <ٍ> {	-0.4095832
-2.643895	س <ٍ> }
-1.550907	س <ٍ> ،	-0.07747066
-1.796756	ش <ٍ> .	0.7073959
-1.48192	ش <ٍ> :
-0.0399633	ش <ٍ> s	-0.1521711
-1.796756	ش <ٍ> ،
-1.436693	ص <ٍ> .	0.3341217
-0.06871581	ص <ٍ> s	-0.2706475
-1.010724	ص <ٍ> ،	0.05874485
-1.278754	ض <ٍ> .	0.8284889
-0.1062966	ض <ٍ> s	0.08020616
-1.704722	ض <ٍ> }
-0.9265711	ض <ٍ> ،	0.1463049
-0.05690485	ط <ٍ> s	-0.06642717
-1.59359	ط <ٍ> }
-1.278754	ط <ٍ> ،
-0.2491984	ظ <ٍ> s	-0.07932323
-0.436285	ظ <ٍ> {	-0.03917921
-1.688973	ظ <ٍ> ،	-0.5416478
-1.724276	ع <ٍ> .	0.3234453
-1.423246	ع <ٍ> :	-0.1459394
-0.09080742	ع <ٍ> s	-0.3155711
-1.724276	ع <ٍ> {	-0.270669
-2.054376	ع <ٍ> }
-1.071063	ع <ٍ> ،	-0.03607064
-2.340142	ع <ٍ> ؛	0.6938934
-0.05799195	غ <ٍ> s	-0.2265795
-1.22862	ف <ٍ> .	0.1684045
-1.596597	ف <ٍ> :	-0.1857268
-0.09828654	ف <ٍ> s	0.07120752
-2.212463	ف <ٍ> {
-1.013021	ف <ٍ> ،	0.06164449
-1.365904	ق <ٍ> .	0.3145325
-2.157861	ق <ٍ> :
-0.06487378	ق <ٍ> s	-0.1319157
-2.157861	ق <ٍ> }
-1.206203	ق <ٍ> ،	-0.3061065
-2.157861	ق <ٍ> ؟	-0.5261034
-1.287242	ك <ٍ> .	0.36029
-0.08652798	ك <ٍ> s	-0.4139249
-1.41218	ك <ٍ> {	-0.1584922
-1.74228	ك <ٍ> }	-0.1005916
-1.287242	ك <ٍ> ،	-0.08132392
-2.659158	ل <ٍ> )	0.2897195
-1.527426	ل <ٍ> .	-0.2765321
-1.268361	ل <ٍ> :	-0.1648643
-0.07904555	ل <ٍ> s	0.2990696
-2.479731	ل <ٍ> {	0.05500554
-1.931119	ل <ٍ> }	-0.5435888
-1.226396	ل <ٍ> ،	-0.03574312
-2.630089	ل <ٍ> ؟	-0.2216824
-2.947968	م <ٍ> "
-1.55395	م <ٍ> .	-0.114221
-1.332102	م <ٍ> :	-0.1220102
-0.07004629	م <ٍ> s	0.166337
-1.748525	م <ٍ> {	0.1462116
-1.879804	م <ٍ> }	-0.2104445
-1.447495	م <ٍ> ،	-0.1573251
-2.482774	م <ٍ> ؟	0.08511053
-1.337459	ن <ٍ> .	-0.08340752
-1.603727	ن <ٍ> :	-0.1265949
-0.09235805	ن <ٍ> s	-0.3224857
-2.240549	ن <ٍ> {	-0.09208652
-2.090192	ن <ٍ> }
-1.036429	ن <ٍ> ،	-0.2016878
-2.269619	ن <ٍ> ؟
-1.48192	ه <ٍ> .	0.3341217
-1.796756	ه <ٍ> :
-0.0782278	ه <ٍ> s	-0.01432711
-1.51099	ه <ٍ> }	-0.1005916
-1.48192	ه <ٍ> ،	0.1267355
-1.796756	ه <ٍ> ؟	-0.3664025
-0.01772877	و <ٍ> s	-0.3446248
-0.06214791	ي <ٍ> s	-0.248824
-2.64836	ء <َ> (
-1.763753	ء <َ> .	0.2947814
-2.64836	ء <َ> :
-0.2186077	ء <َ> s	-0.03426552
-2.67743	ء <َ> {
-1.783059	ء <َ> }	0.08922833
-1.435285	ء <َ> ،	-0.3458309
-2.67743	ء <َ> ؟	0.02454352
-1.727541	ء <َ> ا	-0.07915854
-2.34733	ء <َ> ب	-0.8766428
-0.9079973	ء <َ> ة	0.7292097
-1.34733	ء <َ> ت	-0.5762745
-1.33309	ء <َ> ك	-0.9904817
-2.64836	ء <َ> ل	-0.2665358
-2.498002	ء <َ> م	-0.165996
-1.74527	ء <َ> ن	-1.682347
-1.319301	ء <َ> ه	-1.052909
-2.67743	ء <َ> ي	-0.301223
-4.071931	أ <َ> .	0.3256016
-4.071931	أ <َ> :	-0.9403114
-2.248022	أ <َ> s	-0.2002814
-4.071931	أ <َ> {
-3.770901	أ <َ> ،	-0.2461677
-3.50766	أ <َ> أ	-0.5401539
-2.800864	أ <َ> ئ	-0.5517548
-0.891614	أ <َ> ب	-2.218828
-2.1193	أ <َ> ة	-0.1247144
-1.944826	أ <َ> ت	-0.748718
-2.216614	أ <َ> ث	-1.379812
-1.761592	أ <َ> ج	-1.983052
-1.058813	أ <َ> ح	-1.860324
-1.499059	أ <َ> خ	0.1413095
-1.829721	أ <َ> د	-1.073031
-2.156355	أ <َ> ذ	-0.6045991
-1.527863	أ <َ> ر	-2.145175
-2.645962	أ <َ> ز	-0.8110709
-1.693533	أ <َ> س	-0.8756185
-1.874191	أ <َ> ش	-2.092353
-1.495974	أ <َ> ص	-2.368077
-2.462692	أ <َ> ض	-1.771885
-2.046625	أ <َ> ط	-1.850665
-2.409173	أ <َ> ظ	-1.420252
-1.476435	أ <َ> ع	-1.179302
-2.469871	أ <َ> غ	-0.393643
-1.928916	أ <َ> ف	-1.737445
-1.827242	أ <َ> ق	-1.476435
-1.572702	أ <َ> ك	-1.355484
-1.457034	أ <َ> ل	-1.458975
-1.257462	أ <َ> م	-1.48327
-0.6245663	أ <َ> ن	-2.469094
-1.632598	أ <َ> ه	-0.5458796
-1.126134	أ <َ> و	-1.90213
-2.418719	أ <َ> ى	-0.9044029
-1.327638	أ <َ> ي	0.3578029
-2.307537	ؤ <َ> s
-0.3299429	ؤ <َ> ا	-1.050746
-1.992701	ؤ <َ> ة	-0.2039198
-1.293731	ؤ <َ> ث	-1.193901
-1.842343	ؤ <َ> ج	-0.4787632
-1.239373	ؤ <َ> خ	-1.417697
-0.7885808	ؤ <َ> د	-1.988614
-2.02177	ؤ <َ> ذ	-0.8459098
-1.84109	ؤ <َ> س	-0.408105
-2.02177	ؤ <َ> ك	-0.4736047
-1.566732	ؤ <َ> ل	-0.5374014
-1.21455	ؤ <َ> م	-1.404835
-2.02177	ؤ <َ> ن	-0.3958714
-2.307537	ؤ <َ> و
-1.191068	ؤ <َ> ي	-0.2751513
-1.120848	ئ <َ> s	-0.07909513
-2.639804	ئ <َ> ،
-0.3051596	ئ <َ> ا	-0.7892212
-0.5256274	ئ <َ> ة	0.02857113
-1.310728	ئ <َ> ت	-0.4420484
-1.222306	ئ <َ> ل	-1.509243
-2.17461	ئ <َ> ه	-0.6529595
-2.17461	ئ <َ> ي	-0.5402297
-0.002232881	ا <َ> ل	-2.675423
-2.604871	ا <َ> ي	-0.05808729
-4.068189	ب <َ> "
-2.725324	ب <َ> .	0.1018924
-3.189082	ب <َ> :	-0.1618168
-1.012464	ب <َ> s	-0.1135921
-3.753353	ب <َ> {
-2.908255	ب <َ> }	-0.05763119
-2.4746	ب <َ> ،	-0.173698
-3.753353	ب <َ> ؛	-0.04465169
-3.602996	ب <َ> ؟	-0.1624055
-1.825641	ب <َ> أ	-1.097283
-0.6724863	ب <َ> ا	-1.149926
-2.034575	ب <َ> ب	-0.9851061
-1.096297	ب <َ> ة	0.1200545
-1.70803	ب <َ> ت	0.3450031
-2.768076	ب <َ> ث	0.1705049
-3.753353	ب <َ> ج
-2.026355	ب <َ> ح	-1.33083
-2.367151	ب <َ> خ	0.9878969
-1.676591	ب <َ> د	-0.8209062
-2.522904	ب <َ> ذ	0.005669117
-1.115197	ب <َ> ر	0.2271674
-2.650691	ب <َ> ز	-0.7050209
-2.084347	ب <َ> س	-0.5043689
-2.332847	ب <َ> ش	-1.659143
-2.015631	ب <َ> ص	-0.5873746
-3.000026	ب <َ> ض	-0.3264067
-1.914504	ب <َ> ط	-0.04111767
-0.9556242	ب <َ> ع	-1.56022
-1.602086	ب <َ> غ	-0.7968909
-1.525467	ب <َ> ق	-0.7318957
-1.671766	ب <َ> ك	-0.9364259
-1.203125	ب <َ> ل	-0.4126489
-1.732164	ب <َ> ن	-0.4218374
-1.535869	ب <َ> ه	-0.6892381
-2.075138	ب <َ> و	-0.8402957
-2.607225	ب <َ> ى	-0.1952759
-1.017754	ب <َ> ي	-2.623455
-3.087545	ة <َ> "
-1.610424	ة <َ> .	-0.3472002
-1.635247	ة <َ> :	0.1762874
-0.05694509	ة <َ> s	-0.1540852
-1.591538	ة <َ> {	-0.4410713
-2.020598	ة <َ> }	-0.1275687
-1.460862	ة <َ> ،	-0.129717
-2.935934	ة <َ> ؛	0.4721535
-2.935934	ة <َ> ؟	-0.3194984
-4.074856	ت <َ> )
-2.981869	ت <َ> .	0.05073988
-3.334051	ت <َ> :
-1.239318	ت <َ> s	0.2828741
-3.15796	ت <َ> }	-0.06000867
-2.657358	ت <َ> ،	-0.2029519
-2.958388	ت <َ> ؟	0.4825461
-4.074856	ت <َ> آ	1.560181
-1.606714	ت <َ> أ	-1.322184
-1.074278	ت <َ> ا	-1.453772
-1.448266	ت <َ> ب	-1.158611
-2.657358	ت <َ> ة	-0.4064761
-1.919078	ت <َ> ت	-0.2516987
-2.521138	ت <َ> ث	-0.9822183
-1.556806	ت <َ> ج	-0.8751684
-1.255776	ت <َ> ح	-1.518575
-1.832308	ت <َ> خ	-1.508021
-1.530424	ت <َ> د	-1.519043
-2.36791	ت <َ> ذ	0.05628347
-1.206542	ت <َ> ر	-0.573921
-1.912859	ت <َ> ز	-1.375919
-1.651681	ت <َ> س	-1.391974
-1.849752	ت <َ> ش	-0.4997027
-1.699322	ت <َ> ص	-0.6625458
-1.804172	ت <َ> ض	-1.110187
-1.989168	ت <َ> ط	-1.359636
-2.512866	ت <َ> ظ	-0.748772
-1.065415	ت <َ> ع	-1.278326
-1.786892	ت <َ> غ	-0.9296983
-1.521138	ت <َ> ف	-1.211352
-1.174184	ت <َ> ق	-1.77562
-1.416283	ت <َ> ك	-1.814897
-1.523651	ت <َ> ل	-1.119486
-1.355757	ت <َ> م	-0.5505011
-1.462624	ت <َ> ن	-0.5053087
-1.239755	ت <َ> ه	-0.9915862
-1.3484	ت <َ> و	-1.488375
-1.888837	ت <َ> ى	-0.8771951
-1.666598	ت <َ> ي	-1.487386
-2.312944	ث <َ> .	-0.1717888
-0.8876542	ث <َ> s	-0.2894901
-2.888332	ث <َ> {	-0.2524076
-3.354779	ث <َ> }
-2.340973	ث <َ> ،	0.1186712
-3.039943	ث <َ> ؟
-0.8172262	ث <َ> ا	-0.9916149
-1.753636	ث <َ> ب	-0.7989428
-1.017377	ث <َ> ة	-0.3918579
-1.99855	ث <َ> ت	-0.8865986
-2.889585	ث <َ> ث	-0.3854631
-3.039943	ث <َ> د	-0.1817559
-0.9271142	ث <َ> ر	-1.046555
-2.102091	ث <َ> ع	-1.196884
-1.844966	ث <َ> ق	-0.0976553
-2.370936	ث <َ> ك	-0.1328164
-0.8876542	ث <َ> ل	-1.358256
-1.326732	ث <َ> م	-0.4927702
-0.7281888	ث <َ> ن	-2.890626
-1.809494	ث <َ> ه	-1.253672
-1.370936	ث <َ> و	-0.8663729
-2.475671	ث <َ> ى	0.1467496
-2.102091	ث <َ> ي	-0.6328455
-2.969532	ج <َ> .	0.3517699
-1.399866	ج <َ> s	-0.3304957
-3.245143	ج <َ> }
-2.668502	ج <َ> ،	-0.04819691
-3.24389	ج <َ> أ	0.6757299
-0.5805879	ج <َ> ا	-1.281913
-1.419304	ج <َ> ب	-0.8102129
-1.337328	ج <َ> ة	0.2620246
-1.855589	ج <َ> ت	-1.02264
-3.395501	ج <َ> ث	-0.830797
-2.696531	ج <َ> ج	-0.517379
-2.457649	ج <َ> ح	-0.1493692
-1.556652	ج <َ> د	-0.3565375
-2.793441	ج <َ> ذ	-0.2311
-1.299751	ج <َ> ر	-0.2007334
-1.637094	ج <َ> ز	0.2406878
-2.10177	ج <َ> س	-1.095612
-2.83123	ج <َ> ش	-0.6883238
-3.094471	ج <َ> ص	-0.9494468
-1.110695	ج <َ> ع	-0.0942781
-2.13226	ج <َ> ف	-1.664658
-3.094471	ج <َ> ك	-0.6487759
-1.098105	ج <َ> ل	-0.4699157
-1.067122	ج <َ> م	0.01568246
-1.44287	ج <َ> ن	-0.1650196
-1.197761	ج <َ> ه	-0.05159974
-1.049801	ج <َ> و	-1.53722
-2.441259	ج <َ> ى	-0.2054329
-1.488807	ج <َ> ي	-1.323521
-3.672436	ح <َ> .	1.003297
-1.569774	ح <َ> s	0.210294
-2.870804	ح <َ> ،	0.03776413
-0.6912222	ح <َ> ا	-1.401538
-1.40137	ح <َ> ب	-0.8657931
-1.497311	ح <َ> ة	-0.2540407
-1.33398	ح <َ> ت	-0.7471306
-2.769346	ح <َ> ث	1.202999
-2.000339	ح <َ> ج	-1.390857
-3.987273	ح <َ> ح	-0.2597244
-0.6925848	ح <َ> د	-2.451256
-2.336644	ح <َ> ذ	-0.02285171
-1.165481	ح <َ> ر	-1.646007
-2.317049	ح <َ> ز	-0.9058413
-1.170009	ح <َ> س	-1.195119
-2.60549	ح <َ> ش	-0.2585328
-2.128368	ح <َ> ص	-0.3711877
-2.205075	ح <َ> ض	-1.914508
-2.894285	ح <َ> ط	-0.3344371
-2.441988	ح <َ> ظ	0.990484
-1.891879	ح <َ> ف	0.4970284
-1.396741	ح <َ> ق	-0.9396174
-1.817119	ح <َ> ك	-1.545285
-1.534661	ح <َ> ل	-0.7922715
-1.098405	ح <َ> م	-1.366284
-1.552961	ح <َ> ن	-0.1197168
-2.140958	ح <َ> ه	-1.252832
-2.032286	ح <َ> و	-0.8020964
-2.558493	ح <َ> ى	-0.06410384
-1.353678	ح <َ> ي	-1.843233
-1.859845	خ <َ> s	-0.1917183
-3.129993	خ <َ> ،	0.01101375
-0.6021359	خ <َ> ا	-1.446548
-1.11205	خ <َ> ب	-0.6079878
-2.456442	خ <َ> ة	-0.54553
-2.085374	خ <َ> ت	-0.8168344
-2.716079	خ <َ> ج	-0.3244911
-2.124003	خ <َ> د	-0.6288385
-1.264711	خ <َ> ذ	-1.247434
-0.9822257	خ <َ> ر	-1.508332
-2.502199	خ <َ> ز	-0.06103486
-2.456442	خ <َ> س	-0.3933668
-1.96508	خ <َ> ش	-0.8194247
-1.808082	خ <َ> ص	-0.8823687
-2.478718	خ <َ> ض	0.1743257
-1.261928	خ <َ> ط	0.1609156
-2.435253	خ <َ> ع	-1.297951
-1.63362	خ <َ> ف	-0.91286
-0.7693591	خ <َ> ل	-1.625722
-1.423018	خ <َ> م	-0.3531619
-2.252322	خ <َ> ن	-0.03818965
-2.979321	خ <َ> ه	-0.2204061
-1.437326	خ <َ> و	-0.4357333
-2.757472	خ <َ> ى	0.2259308
-0.9700115	خ <َ> ي	-1.648872
-3.558269	د <َ> "
-3.873105	د <َ> )	-0.2927426
-2.588232	د <َ> .	-0.1411456
-2.503911	د <َ> :	-0.1411979
-0.5692638	د <َ> s	1.740926
-3.03539	د <َ> {	-0.1931749
-2.889262	د <َ> }	-0.295898
-2.172067	د <َ> ،	-0.3069547
-3.873105	د <َ> ؛	0.3286225
-3.558269	د <َ> ؟	-0.1304848
-3.257238	د <َ> ء	0.3706406
-2.086	د <َ> أ	0.7171069
-3.257238	د <َ> ؤ	0.7723408
-3.873105	د <َ> إ
-3.558269	د <َ> ئ	0.2237092
-0.6215872	د <َ> ا	-1.704703
-1.777711	د <َ> ب	0.9412601
-1.00479	د <َ> ة	0.0576663
-1.749832	د <َ> ت	-1.782958
-2.137763	د <َ> ث	-0.497998
-3.257238	د <َ> ج	-0.5569704
-2.257238	د <َ> ح	0.08610392
-1.689037	د <َ> خ	-1.907388
-2.160328	د <َ> د	-0.7491848
-1.655178	د <َ> ر	0.541454
-2.604026	د <َ> س	-0.3145962
-1.492564	د <َ> ع	-0.2402592
-3.03539	د <َ> غ	-0.2562343
-1.997963	د <َ> ف	-0.8526662
-1.825875	د <َ> ق	-0.2054074
-2.071602	د <َ> ك	-0.989085
-1.552516	د <َ> ل	-0.6683949
-1.347861	د <َ> م	-1.821705
-1.596057	د <َ> ن	-1.800373
-1.241599	د <َ> ه	-1.430868
-1.92818	د <َ> و	-0.1200144
-1.918118	د <َ> ى	-0.7083608
-1.671778	د <َ> ي	-1.405898
-3.852991	ذ <َ> .	0.6988758
-1.725241	ذ <َ> s	-0.4405885
-3.852991	ذ <َ> ،
-0.2605454	ذ <َ> ا	-0.8659074
-2.237125	ذ <َ> ب	-0.9366258
-2.392027	ذ <َ> ة	-0.3626377
-2.583912	ذ <َ> ت	-0.5024968
-2.973883	ذ <َ> ج	-0.3264339
-3.852991	ذ <َ> خ
-1.77723	ذ <َ> ر	-0.02809322
-3.852991	ذ <َ> ع	-0.5610933
-2.811156	ذ <َ> ف	0.2644032
-3.538155	ذ <َ> ق	0.07135689
-0.9101065	ذ <َ> ك	-2.197921
-0.6561997	ذ <َ> ل	-1.80207
-2.299273	ذ <َ> م	-1.04418
-1.792559	ذ <َ> ن	-1.167072
-1.731975	ذ <َ> ه	-1.821055
-2.447074	ذ <َ> و	0.08990896
-2.267088	ذ <َ> ى	-0.02833796
-2.157943	ذ <َ> ي	-1.381312
-3.929983	ر <َ> "	-0.1643856
-4.215749	ر <َ> )
-2.599883	ر <َ> .	0.2687513
-2.846555	ر <َ> :	-0.08907628
-0.8076081	ر <َ> s	-0.4556227
-2.886673	ر <َ> {	-0.1023413
-2.809833	ر <َ> }	0.1032471
-2.317337	ر <َ> ،	-0.09072542
-4.215749	ر <َ> ؛
-4.215749	ر <َ> ؟
-3.173914	ر <َ> ء	0.1312789
-2.744566	ر <َ> آ	0.5238647
-1.384157	ر <َ> أ	0.01625991
-3.378034	ر <َ> ؤ	1.020416
-3.929983	ر <َ> ئ	0.3538477
-0.7312387	ر <َ> ا	-1.589995
-1.553908	ر <َ> ب	1.288611
-1.023734	ر <َ> ة	-0.04272151
-1.811008	ر <َ> ت	0.1627257
-2.85952	ر <َ> ث	-0.8300142
-1.307258	ر <َ> ج	-0.7085435
-1.707788	ر <َ> ح	-1.033565
-2.679064	ر <َ> خ	-0.5489994
-1.73656	ر <َ> د	-0.5467782
-3.929983	ر <َ> ذ	-0.1484904
-2.332711	ر <َ> ر	-0.8360407
-2.900913	ر <َ> ز	-0.5646709
-1.302853	ر <َ> س	-1.063231
-3.077004	ر <َ> ش	-0.5345691
-2.915636	ر <َ> ص	-1.106003
-1.392608	ر <َ> ض	-1.101496
-2.264091	ر <َ> ط	-0.5666029
-3.750556	ر <َ> ظ	-1.029
-2.132522	ر <َ> ع	-0.1542778
-2.545525	ر <َ> غ	1.333644
-1.767374	ر <َ> ف	-0.5627592
-1.983583	ر <َ> ق	0.6560832
-1.633741	ر <َ> ك	-0.6443164
-1.885274	ر <َ> م	-0.5916368
-2.171208	ر <َ> ن	-0.3722421
-1.213087	ر <َ> ه	-0.04712582
-1.102032	ر <َ> و	-0.6522055
-1.606447	ر <َ> ى	0.4837277
-1.625986	ر <َ> ي	-1.375447
-2.902003	ز <َ> .	0.45574
-1.137866	ز <َ> s	-0.3432485
-2.350054	ز <َ> ،	-0.4844365
-2.902003	ز <َ> أ	0.05551034
-0.4891175	ز <َ> ا	-1.151845
-2.236111	ز <َ> ب	-0.4837471
-1.405571	ز <َ> ة	0.3420876
-1.902896	ز <َ> ت	-0.2866482
-1.858692	ز <َ> ج	-0.4167901
-1.935081	ز <َ> ح	-0.2235646
-2.203926	ز <َ> خ	-0.2796436
-1.726805	ز <َ> ر	-0.3918862
-1.354419	ز <َ> ع	-0.1019487
-3.187769	ز <َ> غ
-2.395812	ز <َ> ف	-0.0991402
-2.119605	ز <َ> ق	-0.560776
-1.480822	ز <َ> ك	-1.122357
-1.119605	ز <َ> ل	-1.02675
-0.960888	ز <َ> م	-0.5523558
-1.557662	ز <َ> ن	-0.904884
-1.687296	ز <َ> ه	0.4174209
-1.162533	ز <َ> و	-0.5249958
-2.203926	ز <َ> ى	0.07980275
-1.057798	ز <َ> ي	-1.593957
-2.918854	س <َ> .	0.1598843
-3.902697	س <َ> :
-0.921967	س <َ> s	-0.6709396
-3.61693	س <َ> }	-0.05779165
-2.49678	س <َ> ،	-0.05595613
-3.902697	س <َ> ؛	0.3286225
-3.587861	س <َ> ؟	-0.7507367
-1.542538	س <َ> أ	-0.902909
-3.437503	س <َ> ئ	-0.4794068
-0.8015825	س <َ> ا	-1.016673
-1.199286	س <َ> ب	0.1054935
-1.809709	س <َ> ة	0.04976249
-1.852794	س <َ> ت	-1.03242
-2.520914	س <َ> ج	0.09022725
-2.357412	س <َ> ح	-0.5332509
-2.008077	س <َ> خ	0.7747167
-1.751115	س <َ> د	0.7790433
-1.829453	س <َ> ر	-0.3785948
-3.902697	س <َ> س	-0.4614617
-2.301554	س <َ> ط	-0.631097
-1.436593	س <َ> ع	-0.7677948
-2.096499	س <َ> ف	0.04480791
-2.125463	س <َ> ق	-0.9776562
-1.824433	س <َ> ك	0.245689
-0.6324936	س <َ> ل	-1.420662
-1.182457	س <َ> م	-0.3750758
-1.09047	س <َ> ن	-0.008201599
-1.624073	س <َ> ه	-0.6046864
-1.88029	س <َ> و	-0.07482195
-1.6071	س <َ> ى	0.5179477
-1.502689	س <َ> ي	-0.3694978
-3.420573	ش <َ> .	0.6988758
-1.901617	ش <َ> s	-0.1754026
-3.134807	ش <َ> }	-0.09048128
-3.134807	ش <َ> ،	-0.2022468
-1.959609	ش <َ> أ	0.6181196
-0.7285524	ش <َ> ا	-1.145822
-1.609731	ش <َ> ب	-0.6500412
-1.162903	ش <َ> ة	0.06931686
-1.959609	ش <َ> ت	-0.3390838
-1.892662	ش <َ> ج	-1.282195
-2.184918	ش <َ> ح	-0.5449423
-2.327586	ش <َ> خ	-0.8693003
-1.159613	ش <َ> د	-0.4116842
-0.7666172	ش <َ> ر	-0.2444046
-2.804707	ش <َ> ط	-0.3512553
-3.105737	ش <َ> ظ	-0.2424367
-1.790467	ش <َ> ع	0.7431319
-2.503677	ش <َ> غ	-0.7714164
-1.83467	ش <َ> ف	0.4076036
-1.901617	ش <َ> ق	-0.2011169
-1.507311	ش <َ> ك	-0.4334984
-3.420573	ش <َ> ل	-0.6041363
-1.485948	ش <َ> م	-0.0955162
-2.304105	ش <َ> ن	-0.4231504
-1.398167	ش <َ> ه	0.7604742
-1.929646	ش <َ> و	-0.2512319
-1.892662	ش <َ> ى	0.2352015
-0.6290988	ش <َ> ي	-1.403449
-1.819914	ص <َ> s	-0.3634766
-3.292182	ص <َ> ،
-0.6300542	ص <َ> ا	-1.430161
-1.453333	ص <َ> ب	-0.2147169
-1.969963	ص <َ> ة	-0.1180224
-2.727911	ص <َ> ت	-0.4780251
-1.100918	ص <َ> ح	0.7437673
-2.991152	ص <َ> خ	-0.3903679
-1.270993	ص <َ> د	-0.750954
-1.295087	ص <َ> ر	-1.042178
-2.623175	ص <َ> ص	0.1001917
-2.33794	ص <َ> ع	1.027142
-2.061733	ص <َ> غ	-0.8776567
-1.679398	ص <َ> ف	-0.4246237
-2.727911	ص <َ> ق	0.06835335
-0.3780154	ص <َ> ل	-1.397647
-2.213001	ص <َ> م	-0.1017224
-1.936795	ص <َ> ن	0.09278238
-2.690122	ص <َ> ه	-0.6428617
-1.720085	ص <َ> و	-0.7057202
-2.088062	ص <َ> ى	0.1013442
-1.877209	ص <َ> ي	-1.223197
-3.069012	ض <َ> .	0.45574
-1.100423	ض <َ> s	-0.1060615
-2.437883	ض <َ> ،	-0.08649647
-3.354779	ض <َ> أ	-0.06810927
-0.4481363	ض <َ> ا	-0.822203
-1.389959	ض <َ> ب	-0.4203526
-1.430704	ض <َ> ة	-0.1921062
-2.136853	ض <َ> ت	-0.6508387
-2.216034	ض <َ> ج	0.8284712
-1.99855	ض <َ> ح	-0.696508
-3.069012	ض <َ> خ	-0.610811
-3.354779	ض <َ> د	-0.4862207
-0.9742385	ض <َ> ر	-0.6411963
-2.889585	ض <َ> ض	-0.04558179
-0.8609657	ض <َ> ع	-0.4663079
-3.039943	ض <َ> غ	-0.006595165
-3.039943	ض <َ> ف	-0.11425
-2.370936	ض <َ> ك	-0.7198915
-1.188684	ض <َ> ل	-1.05405
-1.349747	ض <َ> م	0.286908
-2.889585	ض <َ> ن	-0.3122979
-1.93728	ض <َ> ه	-1.067991
-2.312944	ض <َ> و	-0.5340118
-1.343878	ض <َ> ى	-0.6450976
-1.504227	ض <َ> ي	-1.490722
-3.039943	ط <َ> .	0.3256016
-1.227029	ط <َ> s	-0.2547429
-2.562821	ط <َ> ،	0.1484295
-1.69752	ط <َ> أ	1.054078
-3.354779	ط <َ> ؤ	1.156291
-2.888332	ط <َ> إ	1.992866
-3.354779	ط <َ> ئ
-0.4548581	ط <َ> ا	-1.353118
-1.172672	ط <َ> ب	1.015841
-1.671966	ط <َ> ة	0.2363182
-1.925999	ط <َ> ت	-1.125006
-2.261791	ط <َ> ج	-1.10721
-3.354779	ط <َ> ح
-2.613974	ط <َ> خ	-0.1670088
-1.031343	ط <َ> ر	0.2893157
-1.915004	ط <َ> س	-0.7428035
-2.119124	ط <َ> ش	-0.9745392
-0.9193687	ط <َ> ع	-0.173511
-1.99855	ط <َ> ف	-0.6619405
-2.517064	ط <َ> ق	-0.1971274
-2.889585	ط <َ> ك	-0.8131625
-1.014637	ط <َ> ل	-0.5120765
-2.039943	ط <َ> م	-0.492888
-2.194844	ط <َ> ن	0.9062265
-1.753636	ط <َ> ه	-0.2755181
-1.724672	ط <َ> و	-0.3857734
-1.90428	ط <َ> ى	0.0803709
-1.358701	ط <َ> ي	-1.457854
-1.30719	ظ <َ> s	-0.1191339
-2.675167	ظ <َ> ،
-0.4455706	ظ <َ> ا	-0.9984788
-2.704237	ظ <َ> ب	-0.3618746
-1.228009	ظ <َ> ة	0.2752267
-2.374137	ظ <َ> ت	-0.110509
-0.6694148	ظ <َ> ر	-1.272485
-2.073107	ظ <َ> ف	-0.7441485
-1.436285	ظ <َ> ل	-0.4771561
-1.10307	ظ <َ> م	-1.245309
-1.031714	ظ <َ> ن	-1.949734
-1.095384	ظ <َ> ه	-0.6932863
-2.523556	ظ <َ> و	-0.5039963
-2.524809	ظ <َ> ى	0.1366518
-2.675167	ظ <َ> ي	-0.4313615
-3.292061	ع <َ> .	0.07556343
-4.045388	ع <َ> :
-1.238982	ع <َ> s	1.58649
-3.481117	ع <َ> }	-0.1110576
-2.966207	ع <َ> ،	-0.224071
-0.8847196	ع <َ> ا	-1.580976
-1.144657	ع <َ> ب	-0.3854873
-1.468663	ع <َ> ة	0.2329843
-2.060112	ع <َ> ت	-0.2891479
-2.505476	ع <َ> ث	-1.287996
-2.168401	ع <َ> ج	-0.02489209
-1.71295	ع <َ> د	-1.013
-2.343533	ع <َ> ذ	-1.159465
-1.924814	ع <َ> ر	-0.5655496
-1.790116	ع <َ> ز	-1.174122
-2.262438	ع <َ> س	-0.5016342
-2.388971	ع <َ> ش	-0.6144619
-2.41192	ع <َ> ص	-0.4930848
-3.124569	ع <َ> ض	-0.5766175
-2.274536	ع <َ> ط	-0.2520106
-2.422139	ع <َ> ظ	-0.2098696
-2.332178	ع <َ> ف	-0.2266855
-1.764355	ع <َ> ق	-1.162159
-2.588011	ع <َ> ك	-0.7195408
-0.5273132	ع <َ> ل	-1.814578
-1.517758	ع <َ> م	0.5982656
-0.6612738	ع <َ> ن	-1.798692
-1.896169	ع <َ> ه	-1.123388
-2.018719	ع <َ> و	-0.9120772
-2.636019	ع <َ> ى	-0.35953
-1.801524	ع <َ> ي	-1.994751
-3.445706	غ <َ> :
-1.461863	غ <َ> s	-0.2984411
-3.13087	غ <َ> ،	-0.4648473
-1.024792	غ <َ> ا	-0.8752412
-2.285772	غ <َ> ب	0.2096453
-1.547293	غ <َ> ة	-0.09562933
-2.265568	غ <َ> ت	-0.6391336
-2.566598	غ <َ> ث	-0.1416822
-1.756732	غ <َ> د	-0.6791102
-2.265568	غ <َ> ذ	-1.327033
-1.065165	غ <َ> ر	-0.9580045
-2.016926	غ <َ> ز	-1.542392
-1.875597	غ <َ> س	-0.2121505
-2.607991	غ <َ> ش	0.2817019
-2.063923	غ <َ> ص	-0.3101656
-1.42047	غ <َ> ض	-0.02327871
-2.210051	غ <َ> ط	-0.6988834
-1.762893	غ <َ> ف	-0.2645344
-2.607991	غ <َ> ك	-0.4145004
-1.285772	غ <َ> ل	-0.696174
-1.521631	غ <َ> م	0.8782307
-1.578607	غ <َ> ن	-1.797129
-2.22778	غ <َ> ه	-0.8684188
-1.964538	غ <َ> و	0.3040984
-2.4319	غ <َ> ى	0.02181077
-0.3082657	غ <َ> ي	-2.599433
-3.651046	ف <َ> .	0.2167333
-4.11624	ف <َ> :
-1.343018	ف <َ> s	0.2048039
-4.11624	ف <َ> {
-3.199344	ف <َ> }	-0.05061433
-2.816127	ف <َ> ،	-0.3236336
-3.651046	ف <َ> ؟	0.07405052
-3.199344	ف <َ> آ	1.053374
-1.298522	ف <َ> أ	-0.8571754
-1.051152	ف <َ> إ	-0.5563412
-0.9505534	ف <َ> ا	-0.7883091
-2.296254	ف <َ> ب	-1.83684
-1.603664	ف <َ> ة	0.3453069
-1.435292	ف <َ> ت	-0.3623972
-2.936102	ف <َ> ث	-0.7757969
-1.977495	ف <َ> ج	-0.6910539
-1.986269	ف <َ> ح	-0.6404285
-2.241098	ف <َ> خ	-0.9974658
-2.210339	ف <َ> د	-0.5168825
-2.141804	ف <َ> ذ	-1.372373
-1.212572	ف <َ> ر	-0.9886675
-2.665741	ف <َ> ز	-1.054316
-1.761329	ف <َ> س	-0.6024722
-2.500374	ف <َ> ش	-1.600796
-1.414608	ف <َ> ص	-1.099183
-1.705653	ف <َ> ض	-1.458045
-2.554249	ف <َ> ط	-0.9919996
-2.154673	ف <َ> ظ	-0.5125939
-1.241099	ف <َ> ع	-0.02940798
-2.597284	ف <َ> غ	-1.385121
-2.269925	ف <َ> ف	-1.692331
-0.8622174	ف <َ> ق	-0.6381726
-1.722222	ف <َ> ك	-1.32678
-1.098399	ف <َ> ل	-1.364915
-1.603664	ف <َ> م	-2.321078
-2.035487	ف <َ> ن	-1.767925
-1.42059	ف <َ> ه	-0.4323964
-1.836045	ف <َ> و	-0.696493
-2.261492	ف <َ> ى	-0.102108
-1.331582	ف <َ> ي	-1.875814
-3.09605	ق <َ> .	0.02725875
-4.212518	ق <َ> :
-1.402138	ق <َ> s	-0.2826253
-4.212518	ق <َ> }
-2.772743	ق <َ> ،	-0.1834773
-4.212518	ق <َ> ؛	0.3286225
-3.926752	ق <َ> ؟	-0.2538429
-3.897682	ق <َ> أ	-0.9619916
-0.2376075	ق <َ> ا	-2.4281
-1.570664	ق <َ> ب	-1.35252
-1.716792	ق <َ> ة	0.1867476
-1.767348	ق <َ> ت	-0.2035403
-3.926752	ق <َ> ح	-0.06388295
-0.9611683	ق <َ> د	-0.9657133
-2.818501	ق <َ> ذ	-0.05114377
-1.760962	ق <َ> ر	-1.121247
-3.26086	ق <َ> ز	-0.2937791
-2.772743	ق <َ> س	-0.6545166
-3.420561	ق <َ> ش	-0.4173509
-2.060936	ق <َ> ص	0.3411314
-2.222515	ق <َ> ض	-0.9550676
-1.752589	ق <َ> ط	-1.713916
-3.052584	ق <َ> ظ	-1.059377
-2.091502	ق <َ> ع	0.01941514
-2.667233	ق <َ> ف	-0.2736405
-3.052584	ق <َ> ك	-0.5160888
-1.443854	ق <َ> ل	-1.088711
-2.271	ق <َ> م	-0.8555822
-2.523545	ق <َ> ن	0.1838925
-1.980352	ق <َ> ه	0.08337688
-1.166362	ق <َ> و	-0.8142827
-2.073773	ق <َ> ى	-0.1031926
-2.060936	ق <َ> ي	-1.440532
-3.267849	ك <َ> "	-0.1200935
-3.59336	ك <َ> )	-0.1269027
-1.984046	ك <َ> .	0.09297919
-3.267849	ك <َ> :	-0.1171612
-0.6828903	ك <َ> s	1.740509
-3.443941	ك <َ> {
-2.549994	ك <َ> }	-0.2136927
-1.744971	ك <َ> ،	0.05636156
-2.744971	ك <َ> ؛	-0.2403322
-2.642308	ك <َ> ؟	-0.3909116
-3.744971	ك <َ> آ	1.186907
-1.979054	ك <َ> أ	-0.7393597
-3.222092	ك <َ> إ	1.629896
-4.059807	ك <َ> ئ	0.5969834
-0.6369697	ك <َ> ا	-1.378813
-1.759694	ك <َ> ب	0.001590252
-1.991643	ك <َ> ة	-0.336194
-1.729331	ك <َ> ت	0.05280709
-1.549994	ك <َ> ث	-1.642816
-3.77404	ك <َ> ج	-0.324836
-2.73073	ك <َ> ح	-1.116161
-3.267849	ك <َ> خ	-0.751541
-2.458664	ك <َ> د	-0.3466955
-1.272214	ك <َ> ذ	-0.8187156
-0.871069	ك <َ> ر	-0.5412014
-3.443941	ك <َ> ز	-0.633158
-1.895756	ك <َ> س	-0.4340928
-2.497816	ك <َ> ش	1.021873
-3.443941	ك <َ> ص	-0.4987793
-3.443941	ك <َ> ض	-0.2914652
-3.77404	ك <َ> ط	-0.3033339
-3.594613	ك <َ> ظ	-0.20894
-2.125182	ك <َ> ع	-0.345329
-2.991643	ك <َ> غ	-0.6332985
-1.79234	ك <َ> ف	-0.082636
-2.523122	ك <َ> ق	-1.469513
-3.142911	ك <َ> ك	-0.0228436
-0.9656147	ك <َ> ل	-1.934383
-1.329441	ك <َ> م	-0.1467154
-2.009904	ك <َ> ن	0.2436744
-2.258304	ك <َ> ه	-0.6048642
-2.248964	ك <َ> و	-0.5394102
-2.319002	ك <َ> ى	-0.3761292
-1.746421	ك <َ> ي	-1.132196
-3.406045	ل <َ> "	-0.1437176
-3.950113	ل <َ> (	-0.08415139
-4.565979	ل <َ> )	-0.5657439
-3.003989	ل <َ> .	-0.1172335
-1.285315	ل <َ> :	0.07985544
-0.6555368	ل <َ> s	0.9611111
-2.224474	ل <َ> {	0.02151656
-3.449511	ل <َ> }	-0.1211734
-2.698881	ل <َ> ،	-0.07843244
-4.099533	ل <َ> ؛	0.2573363
-3.728265	ل <َ> ؟	0.1705207
-4.251143	ل <َ> آ	1.186907
-2.575976	ل <َ> أ	0.1188591
-4.280213	ل <َ> إ	-0.4830245
-3.075052	ل <َ> ئ	-0.4586378
-0.6380064	ل <َ> ا	-1.481826
-2.066452	ل <َ> ب	0.749156
-1.672504	ل <َ> ة	0.008536577
-1.986325	ل <َ> ت	-1.747543
-3.094796	ل <َ> ج	-0.5310417
-2.288932	ل <َ> ح	-0.4123299
-3.686872	ل <َ> خ	-0.8386912
-2.412294	ل <َ> د	-0.860284
-3.029294	ل <َ> ذ	0.2213397
-3.582136	ل <َ> ر	-1.208909
-3.160063	ل <َ> ز	-1.329543
-2.391805	ل <َ> س	-1.447953
-4.280213	ل <َ> ش	-0.6929754
-3.614321	ل <َ> ص	-1.22848
-4.100786	ل <َ> ض	-0.9307439
-2.558003	ل <َ> ط	0.2401435
-3.427234	ل <َ> ظ	-0.2720922
-2.134978	ل <َ> ع	-0.1201479
-2.505548	ل <َ> غ	-0.1374484
-2.008105	ل <َ> ف	-0.7197046
-2.043419	ل <َ> ق	-0.2682223
-1.789745	ل <َ> ك	-0.9662228
-2.957412	ل <َ> ل	-0.5866854
-1.190194	ل <َ> م	-1.175313
-2.357197	ل <َ> ن	-0.5813425
-1.235504	ل <َ> ه	-0.4657331
-1.922764	ل <َ> و	-1.175881
-0.9199859	ل <َ> ى	-0.8409564
-0.9296829	ل <َ> ي	-1.642636
-3.774894	م <َ> "	-0.1906258
-2.760653	م <َ> .	0.1679889
-2.566273	م <َ> :	-0.1892644
-0.9435575	م <َ> s	1.446428
-2.102796	م <َ> {	-0.0717274
-2.950985	م <َ> }	-0.03587323
-2.540208	م <َ> ،	-0.1822786
-4.39076	م <َ> ؛	0.3286225
-3.348925	م <َ> ؟	-0.03103024
-3.598803	م <َ> آ	1.167317
-2.297773	م <َ> أ	-0.9484209
-4.39076	م <َ> إ	-0.6066442
-3.322596	م <َ> ئ	-0.02632892
-0.4938227	م <َ> ا	-1.613252
-2.899833	م <َ> ب	-0.7606069
-1.450269	م <َ> ة	-0.1906016
-2.001595	م <َ> ت	0.9697526
-2.47026	م <َ> ث	-1.548415
-1.995538	م <َ> ج	-0.4287535
-2.001595	م <َ> ح	-0.8807187
-2.432471	م <َ> خ	-0.7017378
-1.264349	م <َ> د	-0.7626675
-2.128164	م <َ> ذ	-1.695344
-1.153891	م <َ> ر	-0.8531024
-2.909592	م <َ> ز	-0.5741374
-1.522041	م <َ> س	-2.128433
-1.94774	م <َ> ش	-0.832409
-2.348925	م <َ> ص	-0.3780266
-2.351648	م <َ> ض	-1.585892
-2.459624	م <َ> ط	-0.9631742
-2.701787	م <َ> ظ	-1.394413
-1.111822	م <َ> ع	-0.938556
-2.579917	م <َ> غ	-0.9706023
-2.473864	م <َ> ف	-1.686849
-2.054735	م <َ> ق	-1.253487
-1.912564	م <َ> ك	0.007005453
-1.56005	م <َ> ل	-1.306195
-2.660951	م <َ> م	-1.171162
-0.9943366	م <َ> ن	1.23864
-1.738798	م <َ> ه	-1.311294
-1.766294	م <َ> و	-1.762075
-2.909592	م <َ> ى	0.1391327
-2.113713	م <َ> ي	-1.295385
-3.179065	ن <َ> "	-0.09558047
-3.251616	ن <َ> )	0.05348739
-2.203104	ن <َ> .	-0.04300261
-2.417948	ن <َ> :	-0.2423066
-0.4503995	ن <َ> s	0.8729596
-3.293009	ن <َ> {	-0.1266144
-2.185799	ن <َ> }	0.08134949
-1.929397	ن <َ> ،	-0.1279234
-3.844957	ن <َ> ؛	0.4522421
-2.895069	ن <َ> ؟	0.0123474
-4.130723	ن <َ> آ	1.560181
-2.787859	ن <َ> أ	0.605231
-2.970789	ن <َ> ئ	-0.1383027
-0.6090617	ن <َ> ا	-1.011925
-1.886469	ن <َ> ب	-0.5324467
-1.416214	ن <َ> ة	-0.2656572
-1.643674	ن <َ> ت	-0.1885731
-3.146881	ن <َ> ث	-0.3662851
-2.343619	ن <َ> ج	-1.387802
-1.65452	ن <َ> ح	0.1943395
-3.06256	ن <َ> خ	-0.7865825
-2.185799	ن <َ> د	-0.2986907
-3.088889	ن <َ> ذ	-0.3001761
-2.724807	ن <َ> ر	-1.127018
-2.259585	ن <َ> ز	0.2581156
-1.745234	ن <َ> س	-0.647276
-2.736706	ن <َ> ش	-0.2972233
-1.876368	ن <َ> ص	-0.6738731
-2.76153	ن <َ> ض	0.3294095
-3.088889	ن <َ> ط	-0.1350835
-1.916432	ن <َ> ظ	-1.489154
-1.499917	ن <َ> ع	-0.03512025
-3.251616	ن <َ> غ	-0.4338999
-1.342644	ن <َ> ف	-0.7548168
-1.80587	ن <َ> ق	-0.05861115
-2.072901	ن <َ> ك	0.5212997
-3.213828	ن <َ> ل	-1.077764
-2.36873	ن <َ> م	-0.3224315
-2.293009	ن <َ> ن	-0.9549832
-1.367181	ن <َ> ه	-1.132525
-2.032937	ن <َ> و	-0.168555
-1.55901	ن <َ> ى	0.5308952
-2.060013	ن <َ> ي	-1.064556
-3.957531	ه <َ> "	-0.5663916
-3.491084	ه <َ> .	0.6275895
-1.283492	ه <َ> s	-0.3717879
-3.642695	ه <َ> }	-0.1553767
-2.657418	ه <َ> ،	-0.0327428
-3.957531	ه <َ> ؟
-2.151334	ه <َ> ؤ	-0.2096999
-0.3466154	ه <َ> ا	-1.413186
-1.479335	ه <َ> ب	-1.154761
-1.55991	ه <َ> ة	0.6032515
-2.387423	ه <َ> ت	-0.950936
-2.268558	ه <َ> ج	-0.5302606
-1.832015	ه <َ> د	-1.026324
-0.6753033	ه <َ> ذ	-2.223667
-1.572042	ه <َ> ر	-1.032072
-3.040635	ه <َ> ز	-0.3272901
-3.040635	ه <َ> ش	0.372003
-2.170427	ه <َ> ض	-0.6340528
-3.341665	ه <َ> ف	-0.2464413
-1.923917	ه <َ> ق	-1.313008
-2.287308	ه <َ> ك	-1.306794
-1.512362	ه <َ> ل	-0.7030238
-1.720143	ه <َ> م	1.256923
-1.992712	ه <َ> ن	0.4701539
-2.055359	ه <َ> ه	-1.308181
-1.832015	ه <َ> و	0.9473251
-1.428735	ه <َ> ى	-0.7404366
-1.758089	ه <َ> ي	-1.336322
-4.584045	و <َ> .	0.6988758
-3.968179	و <َ> :	-0.2175689
-1.430151	و <َ> s	1.70756
-4.269209	و <َ> {
-4.269209	و <َ> }
-3.74633	و <َ> ،	0.2667203
-3.792088	و <َ> ؟	0.1664224
-2.888998	و <َ> آ	0.3039945
-1.362336	و <َ> أ	-0.7178228
-1.436913	و <َ> إ	-0.6381288
-0.6483795	و <َ> ا	-2.28076
-1.946301	و <َ> ب	-1.879953
-2.267764	و <َ> ة	-0.1735349
-1.719389	و <َ> ت	-1.865876
-2.603316	و <َ> ث	-1.406332
-1.58168	و <َ> ج	-1.223812
-1.908742	و <َ> ح	-0.5095527
-2.341497	و <َ> خ	-0.9897271
-2.077014	و <َ> د	-1.428182
-1.883008	و <َ> ذ	-2.031018
-1.487933	و <َ> ر	-1.408359
-2.398026	و <َ> ز	-1.735763
-1.310327	و <َ> س	-1.818412
-2.388396	و <َ> ش	-0.7946205
-2.12933	و <َ> ص	-0.1731119
-2.369754	و <َ> ض	-0.2141113
-2.486259	و <َ> ط	-1.162835
-2.55881	و <َ> ظ	-2.099786
-1.502301	و <َ> ع	-0.770891
-1.883008	و <َ> غ	-2.302727
-1.626415	و <َ> ف	-1.853332
-0.9973677	و <َ> ق	-1.805395
-1.60866	و <َ> ك	-2.947925
-1.082818	و <َ> ل	-1.727433
-1.413488	و <َ> م	-2.97835
-1.921554	و <َ> ن	-1.234134
-1.437126	و <َ> ه	-0.8322508
-2.33979	و <َ> و	-1.280856
-1.691335	و <َ> ى	-0.8364254
-1.236188	و <َ> ي	-2.507071
-3.176497	ي <َ> .	0.1299211
-4.190302	ي <َ> :
-1.076586	ي <َ> s	-0.3836424
-3.449498	ي <َ> {	-0.2624121
-3.725109	ي <َ> }
-3.030368	ي <َ> ،	-0.7607247
-3.352588	ي <َ> ؟	0.01657432
-1.549131	ي <َ> أ	-2.684277
-3.875466	ي <َ> ؤ	0.7830172
-3.875466	ي <َ> ئ	-0.2775726
-0.8297524	ي <َ> ا	-0.9105031
-1.835392	ي <َ> ب	-1.555708
-1.061441	ي <َ> ة	-0.2028868
-1.225159	ي <َ> ت	-1.204012
-2.772804	ي <َ> ث	-1.257406
-1.383172	ي <َ> ج	-2.10476
-1.428826	ي <َ> ح	-2.417996
-1.855658	ي <َ> خ	-1.564842
-1.434557	ي <َ> د	-1.538208
-2.173611	ي <َ> ذ	-1.935278
-1.580266	ي <َ> ر	-1.896308
-1.888695	ي <َ> ز	-1.852838
-1.42368	ي <َ> س	-1.423726
-1.902339	ي <َ> ش	-1.605912
-1.89019	ي <َ> ص	-2.001159
-1.871145	ي <َ> ض	-1.158491
-2.238644	ي <َ> ط	-1.295226
-2.50749	ي <َ> ظ	-1.428443
-1.384572	ي <َ> ع	-1.074793
-2.162256	ي <َ> غ	-0.3720411
-1.922835	ي <َ> ف	-1.649237
-1.169033	ي <َ> ق	-1.251154
-1.292646	ي <َ> ك	-1.680481
-1.881296	ي <َ> ل	-1.820385
-1.684202	ي <َ> م	-0.8265091
-1.284402	ي <َ> ن	-1.486316
-1.951187	ي <َ> ه	-0.2284832
-1.603625	ي <َ> و	-2.031168
-2.030368	ي <َ> ى	-0.04435372
-2.454961	ي <َ> ي	-1.228218
-2.196821	ء <ُ> .	1.068946
-1.469822	ء <ُ> :	-0.3964954
-0.0839924	ء <ُ> s	-0.05777371
-2.812687	ء <ُ> {
-1.861029	ء <ُ> }	-0.2780084
-1.293731	ء <ُ> ،	-0.4179651
-2.812687	ء <ُ> ؛	0.6420617
-2.812687	ء <ُ> ه	0.1027286
-1.219097	ء <ُ> و	-0.9595432
-1.07579	أ <ُ> s	-0.4985241
-2.80383	أ <ُ> }	-0.319407
-2.77476	أ <ُ> ،	-0.4480959
-2.80383	أ <ُ> ؤ	-0.7122149
-1.452541	أ <ُ> ب	-1.048958
-1.579784	أ <ُ> ت	-1.310648
-2.624403	أ <ُ> ث	-0.2519832
-1.579784	أ <ُ> ج	-0.5149939
-1.226576	أ <ُ> ح	-0.09339213
-0.9990284	أ <ُ> خ	-0.2960267
-1.804723	أ <ُ> د	-1.200023
-1.552911	أ <ُ> ذ	-1.343442
-1.432338	أ <ُ> ر	-1.294372
-2.623149	أ <ُ> ز	-0.541501
-1.348791	أ <ُ> س	-0.1160283
-2.021433	أ <ُ> ش	0.01226151
-1.432338	أ <ُ> ص	-0.6573868
-2.77476	أ <ُ> ض
-2.105753	أ <ُ> ط	-0.1534383
-3.089596	أ <ُ> ظ
-1.466552	أ <ُ> ع	-0.3290429
-2.297639	أ <ُ> غ	0.01682323
-2.047761	أ <ُ> ف	-0.1118022
-2.137938	أ <ُ> ق	-0.04529715
-1.618413	أ <ُ> ك	-1.077361
-1.820518	أ <ُ> ل	-1.510081
-0.609417	أ <ُ> م	0.092664
-1.278754	أ <ُ> ن	-1.425328
-2.047761	أ <ُ> ه	-0.01982737
-1.154971	أ <ُ> و	-0.3963777
-1.255273	ؤ <ُ> ب	-0.1652261
-1.146128	ؤ <ُ> ك	-0.7432048
-0.4146288	ؤ <ُ> ل	-2.143994
-1.773922	ؤ <ُ> م	-0.1279874
-1.924279	ؤ <ُ> ن	-0.8697468
-0.3483221	ؤ <ُ> ه	-0.7037275
-0.3174204	ئ <ُ> s	-0.1860971
-1.761464	ئ <ُ> ،	-0.3179575
-1.168122	ئ <ُ> ك	-0.4196913
-0.9307614	ئ <ُ> ه	-0.4288659
-0.5374172	ئ <ُ> و	-0.8773565
-1.092314	ا <ُ> ب	-1.143591
-1.742336	ا <ُ> ت	-0.8369183
-1.923016	ا <ُ> ج	-0.7579689
-1.371068	ا <ُ> ح	-0.9116789
-1.416825	ا <ُ> خ	-0.7911463
-1.070038	ا <ُ> د	-1.240596
-1.329675	ا <ُ> ذ	-0.8419727
-1.743589	ا <ُ> ر	-0.9325173
-0.646792	ا <ُ> س	-1.224102
-1.166948	ا <ُ> ش	-0.9432622
-2.208783	ا <ُ> ص	-0.488103
-1.743589	ا <ُ> ض	-0.9723856
-1.467978	ا <ُ> ط	-0.5451109
-1.893947	ا <ُ> ع	-0.7661643
-1.893947	ا <ُ> غ	-0.6892641
-1.742336	ا <ُ> ف	-0.379086
-1.592917	ا <ُ> ق	-0.8894104
-0.9908566	ا <ُ> ك	-1.150105
-2.208783	ا <ُ> م	-0.2851331
-1.115795	ا <ُ> ن	-0.9847953
-2.235375	ب <ُ> .	-0.09341145
-2.52344	ب <ُ> :	-0.08298352
-0.4370806	ب <ُ> s	0.157644
-2.850799	ب <ُ> }	-0.0809156
-2.072648	ب <ُ> ،	0.03942704
-2.975738	ب <ُ> ؛	0.2581111
-2.753889	ب <ُ> ؟	-0.006301105
-2.197587	ب <ُ> ت	-0.7081067
-2.498617	ب <ُ> ث	-0.9442317
-2.850799	ب <ُ> ج	-0.6903291
-2.799647	ب <ُ> ح	0.2256927
-1.171826	ب <ُ> خ	-0.8214388
-1.908791	ب <ُ> د	-1.048132
-1.82961	ب <ُ> ر	-0.3104848
-3.12641	ب <ُ> ز	-0.3408294
-2.411467	ب <ُ> س	-0.6384369
-3.125157	ب <ُ> ش	-0.3504275
-3.305838	ب <ُ> ص	-0.6735585
-2.43167	ب <ُ> ط	-0.3925251
-2.120421	ب <ُ> ع	1.046453
-2.248739	ب <ُ> غ	-0.4183957
-2.52344	ب <ُ> ق	-1.552061
-1.908791	ب <ُ> ك	-0.3431531
-2.22241	ب <ُ> ل	-0.3825512
-1.539045	ب <ُ> ن	-1.533717
-1.21231	ب <ُ> ه	-0.6373217
-0.4423474	ب <ُ> و	-1.421465
-2.037886	ب <ُ> ي	-1.613446
-3.279253	ة <ُ> "
-3.279253	ة <ُ> (
-2.211089	ة <ُ> )	-0.08296096
-1.760297	ة <ُ> .	0.1429757
-1.910059	ة <ُ> :	-0.1564402
-0.04169133	ة <ُ> s	1.915262
-2.538448	ة <ُ> {	-0.1193619
-2.186265	ة <ُ> }	-0.3414763
-1.420349	ة <ُ> ،	-0.327047
-2.814059	ة <ُ> ؛	0.1599193
-2.29541	ة <ُ> ؟	-0.9540293
-2.555838	ت <ُ> .	0.3241241
-1.661181	ت <ُ> :	-0.1925699
-0.507516	ت <ُ> s	-0.3360121
-3.19266	ت <ُ> {
-2.669782	ت <ُ> }	0.1200244
-2.391028	ت <ُ> ،	0.2027528
-3.19266	ت <ُ> ؟	-0.1557826
-1.953778	ت <ُ> ؤ	-0.07836258
-1.201434	ت <ُ> ب	-1.145742
-2.391028	ت <ُ> ت	-0.6560968
-2.766692	ت <ُ> ث	0.01057029
-1.906354	ت <ُ> ج	0.2187262
-1.57636	ت <ُ> ح	-0.7794898
-1.98854	ت <ُ> خ	-0.7287012
-2.10158	ت <ُ> د	-1.396361
-2.254808	ت <ُ> ذ	-0.7428831
-1.529903	ت <ُ> ر	-1.21779
-2.368752	ت <ُ> ز	-0.3763499
-1.678555	ت <ُ> س	-0.717072
-2.067722	ت <ُ> ش	-0.7408418
-1.913907	ت <ُ> ص	-1.022421
-2.254808	ت <ُ> ض	0.04246891
-2.164632	ت <ُ> ط	-0.6596599
-3.041049	ت <ُ> ظ	-0.2657596
-1.533061	ت <ُ> ع	-0.6765312
-2.327359	ت <ُ> غ	-0.6640597
-2.067722	ت <ُ> ف	-0.410207
-1.692058	ت <ُ> ق	-0.2415972
-1.40971	ت <ُ> ك	-0.154696
-1.616703	ت <ُ> ل	-0.9824517
-1.2119	ت <ُ> م	-1.738308
-1.701299	ت <ُ> ن	-1.236996
-0.8160834	ت <ُ> ه	-0.5709383
-1.189775	ت <ُ> و	-0.3415271
-2.191095	ث <ُ> )	-0.126105
-2.603756	ث <ُ> .	0.7596446
-2.755367	ث <ُ> :
-0.5017056	ث <ُ> s	-0.04726768
-1.977215	ث <ُ> {	-0.151741
-2.755367	ث <ُ> }	-0.1808033
-2.755367	ث <ُ> ،
-2.784436	ث <ُ> ؟	-0.2021017
-2.454337	ث <ُ> ب	-0.9418076
-1.393639	ث <ُ> ر	-1.067891
-2.755367	ث <ُ> ف	-0.1861774
-2.603756	ث <ُ> ك	-0.519848
-1.817515	ث <ُ> ل	-0.9221017
-0.3035802	ث <ُ> م	-2.56117
-2.232488	ث <ُ> ن	-0.111891
-1.375155	ث <ُ> ه	-0.7170908
-1.340393	ث <ُ> و	-1.093742
-3.037294	ج <ُ> .	0.4576566
-3.066363	ج <ُ> :
-0.9880756	ج <ُ> s	-0.07402217
-3.037294	ج <ُ> }
-2.885683	ج <ُ> ،	0.322081
-3.066363	ج <ُ> ؟	-0.03799415
-1.639354	ج <ُ> ب	-0.1117109
-3.037294	ج <ُ> ج	-0.2104122
-2.435234	ج <ُ> ح	-0.03779829
-2.083051	ج <ُ> د	-0.6208013
-2.235661	ج <ُ> ذ	-0.9377929
-1.480991	ج <ُ> ر	0.2819557
-1.532144	ج <ُ> ز	-1.31553
-3.066363	ج <ُ> س	-0.8437787
-2.560172	ج <ُ> ش	-0.7934114
-1.970347	ج <ُ> ع	-1.283953
-2.886936	ج <ُ> ف	-0.7417128
-0.3560524	ج <ُ> ل	-2.647401
-1.344153	ج <ُ> م	-1.046643
-1.715074	ج <ُ> ن	-1.12751
-1.560172	ج <ُ> ه	0.5951825
-0.6273605	ج <ُ> و	-1.73663
-3.066363	ج <ُ> ي	-0.5252903
-2.71191	ح <ُ> .	0.7596446
-2.863521	ح <ُ> :
-0.5772144	ح <ُ> s	-0.2489822
-2.713163	ح <ُ> }	0.00848639
-2.136522	ح <ُ> ،	-0.3707751
-3.178357	ح <ُ> ؟	-0.4602036
-1.421564	ح <ُ> ب	-0.9435707
-2.713163	ح <ُ> ث	-0.4923154
-1.448548	ح <ُ> ج	-0.4370183
-1.707174	ح <ُ> د	-1.015472
-1.668545	ح <ُ> ذ	-1.753756
-1.327805	ح <ُ> ر	0.6617236
-1.78434	ح <ُ> ز	-1.226314
-0.9789146	ح <ُ> س	-0.9033047
-2.863521	ح <ُ> ش	-0.2641271
-1.541302	ح <ُ> ص	-1.243025
-1.893484	ح <ُ> ض	-1.005509
-2.3864	ح <ُ> ط	-0.5088878
-2.863521	ح <ُ> ظ	-0.9551306
-2.018423	ح <ُ> ف	0.4595817
-1.69719	ح <ُ> ق	-1.702546
-0.9884599	ح <ُ> ك	-1.125682
-1.362919	ح <ُ> ل	-0.9891896
-1.080571	ح <ُ> م	-0.6045928
-2.437552	ح <ُ> ن	-0.400111
-1.257857	ح <ُ> ه	-0.7296081
-1.17629	ح <ُ> و	-1.363433
-2.713163	ح <ُ> ي	-0.5172147
-3.007683	خ <ُ> :
-0.6112596	خ <ُ> s	-0.7018407
-3.007683	خ <ُ> ،
-1.19684	خ <ُ> ب	-0.9514949
-3.007683	خ <ُ> ت	-0.5757562
-3.007683	خ <ُ> ث	-0.4333014
-2.128576	خ <ُ> د	-0.7315499
-1.0086	خ <ُ> ذ	-1.109795
-1.132542	خ <ُ> ر	-0.9987252
