
\data\
ngram 1=21
ngram 2=51
ngram 3=287
ngram 4=618
ngram 5=2118
ngram 6=3759
ngram 7=7893

\1-grams:
-1.425703	</s>
-99	<s>	-99
-5.218935	>alan	-99
-3.201901	EXP	-99
-1.820647	NDA	-8.767385
-1.493922	NDG	-99
-1.751474	NDN	-8.759262
-1.376575	NUA	-7.912899
-1.379079	NUG	-99
-1.440421	NUN	-8.164829
-1.205971	P	-99
-3.009419	P+NDG	-7.949525
-2.876512	P+NUG	-99
-3.896715	SUP	-99
-0.9428635	T	-9.543437
-1.472145	VID	-99
-2.067258	VIJ	-99
-1.945702	VIM	-8.47299
-2.095083	VIS	-8.373621
-1.257608	VPR	-99
-0.3176396	w	-99

\2-grams:
0	<s> w	1.108236
0	>alan w
0	EXP w	-1.316091
-1.023539	NDA </s>
-0.0432191	NDA w	0.1597328
-0.7134423	NDG </s>
-0.09336606	NDG w	-0.07281041
-0.7972143	NDN </s>
-0.07546704	NDN w	0.1406825
-0.739583	NUA </s>
-0.08732364	NUA w	1.14641
-1.077927	NUG </s>
-0.03790275	NUG w	-0.2432508
-0.778513	NUN </s>
-0.07910893	NUN w	-0.1406078
0	P w	-0.6858256
-0.747117	P+NDG </s>
-0.08566337	P+NDG w	-0.6910498
-1.38818	P+NUG </s>
-0.01814022	P+NUG w	-0.6881785
0	SUP w	-0.9733561
-2.813673	T </s>
-0.0006674904	T w	0.6261492
-0.6335151	VID </s>
-0.1149404	VID w	-1.905583
-1.646526	VIJ </s>
-0.009913	VIJ w	-0.4516947
-1.660449	VIM </s>
-0.009596765	VIM w	-2.85986
-1.64673	VIS </s>
-0.009908289	VIS w	0.3967142
-1.73861	VPR </s>
-0.00800146	VPR w	-0.4111667
-4.901295	w >alan
-2.884261	w EXP	0
-1.503008	w NDA	0
-1.176282	w NDG	0
-1.433835	w NDN	0
-1.058935	w NUA	0
-1.06144	w NUG	0
-1.122782	w NUN	0
-0.8883311	w P	0
-2.69178	w P+NDG	0
-2.558872	w P+NUG	0
-3.579076	w SUP	0
-0.6252238	w T	0
-1.154505	w VID	0
-1.749619	w VIJ	0
-1.628062	w VIM	0
-1.777443	w VIS	0
-0.9399686	w VPR	0

\3-grams:
0	w EXP w	-0.07691491
-1.023539	w NDA </s>
-0.0432191	w NDA w	0.0438695
-0.7134423	w NDG </s>
-0.09336606	w NDG w	0
-0.7972143	w NDN </s>
-0.07546704	w NDN w	0.02617216
-0.739583	w NUA </s>
-0.08732364	w NUA w	0
-1.077927	w NUG </s>
-0.03790275	w NUG w	0
-0.778513	w NUN </s>
-0.07910893	w NUN w	0
0	w P w	-0.5462542
-0.747117	w P+NDG </s>
-0.08566338	w P+NDG w	0.02617109
-1.38818	w P+NUG </s>
-0.01814023	w P+NUG w	0.01664138
0	w SUP w	-0.1334841
-2.813673	w T </s>
-0.0006674905	w T w	0
-0.6335152	w VID </s>
-0.1149404	w VID w	0.01663947
-1.646526	w VIJ </s>
-0.009912999	w VIJ w	0.3910236
-1.660449	w VIM </s>
-0.009596766	w VIM w	0.284693
-1.64673	w VIS </s>
-0.009908289	w VIS w	0.04789948
-1.73861	w VPR </s>
-0.008001461	w VPR w	0.01664186
-2.514548	<s> w EXP	0
-2.346143	<s> w NDA	-0.4388591
-2.170052	<s> w NDG	-0.909807
-1.776268	<s> w NDN	0
-1.395361	<s> w NUA	-1.660091
-1.960792	<s> w NUG	-0.760922
-1.227454	<s> w NUN	-1.787335
-1.429689	<s> w P	0
-2.41309	<s> w P+NDG	0
-2.274787	<s> w P+NUG	-0.1432987
-3.31618	<s> w SUP	0
-0.3077219	<s> w T	-0.6720483
-1.311859	<s> w VID	-1.849359
-2.450879	<s> w VIJ	0.2847985
-1.10756	<s> w VIM	-1.026187
-2.085731	<s> w VIS	-0.06927288
-0.7433085	<s> w VPR	-1.31177
-1.283553	EXP w NDA	0.3245689
-0.5546353	EXP w NUA	0
-1.062791	EXP w P	0
-0.2536053	EXP w T	1.042821
-2.750037	NDA w EXP	0
-0.9386194	NDA w NDA	0
-2.507836	NDA w NDG	0
-2.012837	NDA w NDN	0
-0.9436402	NDA w NUA	0
-2.750037	NDA w NUG	0.3789571
-1.099987	NDA w NUN	0
-0.7917788	NDA w P	0
-2.276079	NDA w P+NDG	-0.3320642
-2.401017	NDA w P+NUG	0.3881801
-0.5727873	NDA w T	0.03048444
-1.088088	NDA w VID	0
-2.15114	NDA w VIJ	0.4160774
-1.40587	NDA w VIM	0
-1.878139	NDA w VIS	0.1696092
-1.020806	NDA w VPR	0
-2.853597	NDG w EXP	0
-1.768425	NDG w NDA	0
-0.889809	NDG w NDG	0
-1.636113	NDG w NDN	0
-0.9689903	NDG w NUA	0
-1.590355	NDG w NUG	0
-1.220128	NDG w NUN	0
-1.058877	NDG w P	0
-3.330718	NDG w P+NDG	0.2699957
-2.552567	NDG w P+NUG	0.2742368
-0.465318	NDG w T	-0.3527572
-1.181499	NDG w VID	0
-2.018964	NDG w VIJ	0.02327704
-1.488733	NDG w VIM	-0.485679
-1.734121	NDG w VIS	-0.2508967
-1.115874	NDG w VPR	-0.7772642
-2.78677	NDN w EXP	0
-1.636118	NDN w NDA	0
-2.78677	NDN w NDG	0.01447231
-0.8721651	NDN w NDN	0
-1.022777	NDN w NUA	0
-2.488903	NDN w NUG	0.1236846
-1.006387	NDN w NUN	0
-0.7301804	NDN w P	0
-2.488903	NDN w P+NDG	0
-2.27805	NDN w P+NUG	0.2742368
-0.5588459	NDN w T	0
-1.224676	NDN w VID	0
-2.437751	NDN w VIJ	0.6465263
-1.599601	NDN w VIM	-0.1388917
-1.97702	NDN w VIS	0.2153667
-1.13914	NDN w VPR	0
-2.340139	NUA w EXP	0
-2.223633	NUA w NDA	0
-1.072065	NUA w NDG	0
-1.916263	NUA w NDN	0
-0.7621171	NUA w NUA	0
-1.145518	NUA w NUG	0
-1.579021	NUA w NUN	0
-0.8106296	NUA w P	0
-2.675931	NUA w P+NDG	-0.3320642
-2.675931	NUA w P+NUG	0.3089989
-3.277991	NUA w SUP	0
-0.5752733	NUA w T	0
-1.279441	NUA w VID	0
-1.976961	NUA w VIJ	0
-1.467311	NUA w VIM	0
-1.874299	NUA w VIS	0
-1.066692	NUA w VPR	0
-2.802021	NUG w EXP	0
-2.077745	NUG w NDA	0
-0.9404863	NUG w NDG	0
-1.705111	NUG w NDN	0
-1.125327	NUG w NUA	0
-0.7477908	NUG w NUG	0
-1.212071	NUG w NUN	0
-1.007533	NUG w P	0
-2.760628	NUG w P+NDG	0
-2.760628	NUG w P+NUG	0.3467875
-0.5895668	NUG w T	-0.3987811
-1.223382	NUG w VID	0
-2.257953	NUG w VIJ	0.09022391
-1.597901	NUG w VIM	0
-1.944688	NUG w VIS	-0.210602
-1.09959	NUG w VPR	0
-3.398461	NUN w EXP	0
-2.252333	NUN w NDA	0
-0.9575518	NUN w NDG	0
-1.547202	NUN w NDN	0
-1.257011	NUN w NUA	0
-1.209532	NUN w NUG	0
-0.7385446	NUN w NUN	0
-0.7700719	NUN w P	0
-2.5234	NUN w P+NDG	0
-2.284518	NUN w P+NUG	-0.02679324
-0.5818881	NUN w T	-0.3039296
-1.434673	NUN w VID	0
-2.398461	NUN w VIJ	0.3243071
-1.631305	NUN w VIM	0
-2.301551	NUN w VIS	0.2487904
-1.332135	NUN w VPR	0
-3.109916	P w EXP	0
-2.004406	P w NDA	0
-0.575731	P w NDG	0
-1.94482	P w NDN	0
-1.334487	P w NUA	0
-0.3553764	P w NUG	0
-1.387693	P w NUN	0
-1.487961	P w P	0
-3.279525	P w P+NDG	-0.8091854
-3.234855	P w P+NUG	0
-1.016932	P w T	0
-1.817106	P w VID	0
-2.711976	P w VIJ	0.3243071
-2.143774	P w VIM	-0.2146124
-1.991817	P w VIS	-0.3744588
-1.70981	P w VPR	0
-0.8685791	P+NDG w NDG	0
-1.518628	P+NDG w NDN	0
-0.9477604	P+NDG w NUA	0
-1.009908	P+NDG w NUG	-0.03601623
-0.9197317	P+NDG w NUN	0
-1.123852	P+NDG w P	0
-1.518628	P+NDG w P+NUG	0.6892101
-0.6467304	P+NDG w T	1.322311
-1.518628	P+NDG w VID	-0.06545484
-1.518628	P+NDG w VIM	0.9614789
-1.009908	P+NDG w VPR	0.5924816
-1.849215	P+NUG w NDA	0.4214789
-0.8639379	P+NUG w NDG	0
-1.372093	P+NUG w NDN	-0.2027857
-1.284943	P+NUG w NUA	0
-0.6361398	P+NUG w NUG	0
-0.9283959	P+NUG w NUN	0
-1.326336	P+NUG w P	0
-2.025306	P+NUG w P+NDG	0.2699957
-0.7352713	P+NUG w T	1.211613
-1.122216	P+NUG w VID	0
-1.478912	P+NUG w VIM	0
-1.849215	P+NUG w VIS	1.04467
-1.423246	P+NUG w VPR	0
-0.845098	SUP w NUG	0.4758671
-0.3679768	SUP w VID	0
-1.021189	SUP w VIJ	1.169405
-0.5887384	SUP w VPR	0.1823072
-3.497275	T w EXP	0
-1.487966	T w NDA	0
-2.361613	T w NDG	0
-1.483736	T w NDN	0
-1.288655	T w NUA	0
-1.95528	T w NUG	0
-1.038134	T w NUN	0
-1.104872	T w P	0
-3.129298	T w P+NDG	0
-2.895215	T w P+NUG	0
-3.099335	T w SUP	0
-0.8198204	T w T	0
-0.7926958	T w VID	0
-1.237602	T w VIJ	0
-2.005913	T w VIM	0
-1.388936	T w VIS	0
-0.5633664	T w VPR	0
-2.784527	VID w EXP	0
-0.9835908	VID w NDA	0
-2.728861	VID w NDG	-0.2408002
-1.116077	VID w NDN	0
-0.8931703	VID w NUA	0
-2.353197	VID w NUG	-0.2231029
-1.279768	VID w NUN	0
-0.5367815	VID w P	0
-2.401502	VID w P+NDG	0
-2.309731	VID w P+NUG	0.04575741
-0.5615435	VID w T	-0.2571034
-1.518008	VID w VID	0
-2.113437	VID w VIM	0.12897
-2.485823	VID w VIS	0.5006024
-1.799442	VID w VPR	-0.1002394
-2.841047	VIJ w EXP	0
-1.202557	VIJ w NDA	0
-2.841047	VIJ w NDG	0.2363211
-1.296978	VIJ w NDN	0
-0.7976842	VIJ w NUA	0
-2.408596	VIJ w NUG	-0.4783753
-1.133476	VIJ w NUN	0
-0.5692049	VIJ w P	0
-2.363925	VIJ w P+NDG	-0.09798104
-2.408596	VIJ w P+NUG	-0.1681223
-0.5510119	VIJ w T	0.2214963
-1.761865	VIJ w VID	0
-1.409683	VIJ w VIJ	-0.09383631
-1.863323	VIJ w VIM	0.3594189
-2.294652	VIJ w VIS	0.7436404
-1.886804	VIJ w VPR	0.459856
-0.9002607	VIM w NDA	0
-1.865933	VIM w NDN	-0.6177591
-0.8472322	VIM w NUA	0
-2.786752	VIM w NUG	0.4758671
-1.547869	VIM w NUN	0
-0.6011149	VIM w P	0
-2.530392	VIM w P+NDG	-0.8091854
-2.117745	VIM w P+NUG	0.2120888
-0.5019448	VIM w T	0.0509944
-1.883661	VIM w VID	0
-1.848899	VIM w VIJ	0.2151626
-1.263873	VIM w VIM	0
-2.530392	VIM w VIS	0.09042799
-1.556303	VIM w VPR	0.02260637
-2.637156	VIS w EXP	0
-1.222183	VIS w NDA	0
-2.813247	VIS w NDG	0.2363211
-1.072885	VIS w NDN	0
-0.7838635	VIS w NUA	0
-2.813247	VIS w NUG	0.6008059
-1.164887	VIS w NUN	-1.17573
-0.5543707	VIS w P	0
-2.266853	VIS w P+NDG	-0.155973
-2.509054	VIS w P+NUG	0.6892101
-0.5714518	VIS w T	0
-2.266853	VIS w VID	-0.2695748
-2.000334	VIS w VIJ	0.5003983
-2.114277	VIS w VIM	0.6190562
-1.716337	VIS w VIS	0.2487904
-1.734066	VIS w VPR	0.3406696
-3.105949	VPR w EXP	0
-1.346992	VPR w NDA	0
-2.14046	VPR w NDG	-1.106102
-1.073131	VPR w NDN	0
-0.8492275	VPR w NUA	0
-2.506215	VPR w NUG	0
-1.027031	VPR w NUN	0
-0.6044843	VPR w P	0
-2.61095	VPR w P+NDG	0
-2.5384	VPR w P+NUG	-0.04318357
-0.6211366	VPR w T	0
-1.360087	VPR w VID	0
-3.050283	VPR w VIJ	0.6922838
-1.658907	VPR w VIM	-0.6340173
-2.362309	VPR w VIS	0.04467046
-1.223399	VPR w VPR	0

\4-grams:
0	<s> w EXP w	-0.3096437
0	NDA w EXP w	-0.556998
0	NDG w EXP w	-0.4908225
0	NDN w EXP w	-0.2617202
0	NUA w EXP w	-0.6447791
0	NUG w EXP w	0.4149734
0	NUN w EXP w
0	P w EXP w	-0.1165055
0	T w EXP w	-0.1228457
0	VID w EXP w	0.06601995
0	VIJ w EXP w	-0.1228457
0	VIS w EXP w	-0.1228457
0	VPR w EXP w	-0.05851364
-0.01523997	<s> w NDA w	-0.6600999
-0.09691001	EXP w NDA w	-0.4669082
-0.7090703	NDA w NDA </s>
-0.09442122	NDA w NDA w	-0.1710799
-0.9090804	NDG w NDA </s>
-0.05714288	NDG w NDA w	-0.4099613
-0.9962614	NDN w NDA </s>
-0.04617488	NDN w NDA w	-0.9068352
-0.9294189	NUA w NDA </s>
-0.05435766	NUA w NDA w	-0.267213
-0.9651345	NUG w NDA </s>
-0.04981003	NUG w NDA w	-0.2967929
-0.9700368	NUN w NDA </s>
-0.04921802	NUN w NDA w	-0.7814609
-1.10551	P w NDA </s>
-0.03547231	P w NDA w	0.01106417
-0.1249387	P+NUG w NDA w
-1.486431	T w NDA </s>
-0.01440578	T w NDA w	-0.5841274
-0.750733	VID w NDA </s>
-0.08487892	VID w NDA w	-0.597386
-1.337459	VIJ w NDA </s>
-0.02044116	VIJ w NDA w	-0.787833
-1.409369	VIM w NDA </s>
-0.01725901	VIM w NDA w	-0.4102219
-0.9378521	VIS w NDA </s>
-0.05324551	VIS w NDA w	-0.7536856
-1.12926	VPR w NDA </s>
-0.03350976	VPR w NDA w	-0.271968
-0.01046543	<s> w NDG w	-1.209949
-0.5929166	NDA w NDG </s>
-0.1280298	NDA w NDG w
-0.6520339	NDG w NDG </s>
-0.1094818	NDG w NDG w	-0.3239424
-0.09691001	NDN w NDG w	-0.2740478
-0.8768671	NUA w NDG </s>
-0.06187076	NUA w NDG w	-0.3116457
-0.6854432	NUG w NDG </s>
-0.1003586	NUG w NDG w	-1.043247
-0.479488	NUN w NDG </s>
-0.1749127	NUN w NDG w	-0.3332201
-0.7596678	P w NDG </s>
-0.08297423	P w NDG w	-0.1996698
-0.30103	P+NDG w NDG </s>
-0.30103	P+NDG w NDG w	-0.3547102
-0.3484546	P+NUG w NDG </s>
-0.258278	P+NUG w NDG w	-0.2674156
-1.135663	T w NDG </s>
-0.03300026	T w NDG w	0.09772182
-0.05115252	VID w NDG w	-0.3580576
-0.1760913	VIJ w NDG w
-0.1760913	VIS w NDG w	-0.4374389
-0.006630579	VPR w NDG w	-0.6994157
-1.539912	<s> w NDN </s>
-0.01271196	<s> w NDN w	-1.224051
-0.7403627	NDA w NDN </s>
-0.08715017	NDA w NDN w	-0.2173879
-0.916454	NDG w NDN </s>
-0.05611594	NDG w NDN w	-1.108627
-0.2792788	NDN w NDN </s>
-0.3239284	NDN w NDN w	-0.4407285
-1.236789	NUA w NDN </s>
-0.02593573	NUA w NDN w	-0.6623004
-1.251812	NUG w NDN </s>
-0.02502801	NUG w NDN w	-0.6621597
-0.8970158	NUN w NDN </s>
-0.05886666	NUN w NDN w	-0.7854088
-0.8640659	P w NDN </s>
-0.06386448	P w NDN w	-0.4252418
-0.30103	P+NDG w NDN </s>
-0.30103	P+NDG w NDN w
-0.04575749	P+NUG w NDN w	-0.1926773
-0.7053308	T w NDN </s>
-0.09533426	T w NDN w	-0.3743993
-0.984395	VID w NDN </s>
-0.04752651	VID w NDN w	0.03434396
-0.8037053	VIJ w NDN </s>
-0.07424603	VIJ w NDN w	-0.5408255
-0.01703334	VIM w NDN w	-0.6761928
-1.564271	VIS w NDN </s>
-0.01200891	VIS w NDN w	-0.7377611
-1.116814	VPR w NDN </s>
-0.03452376	VPR w NDN w	-0.4537255
-0.001733713	<s> w NUA w	-0.6325738
-0.860338	EXP w NUA </s>
-0.06445799	EXP w NUA w	-0.530265
-1.0894	NDA w NUA </s>
-0.03687136	NDA w NUA w	-0.3538582
-0.5945719	NDG w NUA </s>
-0.1274637	NDG w NUA w	-0.9137188
-0.9378521	NDN w NUA </s>
-0.05324551	NDN w NUA w	-0.4746733
-0.4427668	NUA w NUA </s>
-0.1943444	NUA w NUA w	-0.6346087
-0.6197888	NUG w NUA </s>
-0.1191864	NUG w NUA w	-0.6832041
-0.6866049	NUN w NUA </s>
-0.1000571	NUN w NUA w	-0.3526063
-0.7700334	P w NUA </s>
-0.0808232	P w NUA w	-0.2739482
-0.2218487	P+NDG w NUA </s>
-0.39794	P+NDG w NUA w	-0.0936309
-0.7403627	P+NUG w NUA </s>
-0.08715017	P+NUG w NUA w	-0.240128
-0.8344834	T w NUA </s>
-0.0687414	T w NUA w	-0.6100776
-0.9829057	VID w NUA </s>
-0.04769907	VID w NUA w	-0.8804536
-1.00197	VIJ w NUA </s>
-0.04553919	VIJ w NUA w	-0.281463
-1.21252	VIM w NUA </s>
-0.02747442	VIM w NUA w	-0.7479969
-0.9324737	VIS w NUA </s>
-0.05395197	VIS w NUA w	-0.2310431
-0.7656891	VPR w NUA </s>
-0.08171718	VPR w NUA w	0.1302085
-0.006340178	<s> w NUG w	-0.7215692
-0.09691001	NDA w NUG w
-1.278754	NDG w NUG </s>
-0.0234811	NDG w NUG w	-0.05167651
-0.05115252	NDN w NUG w	-0.05228525
-1.162436	NUA w NUG </s>
-0.0309552	NUA w NUG w	-0.2314603
-0.5814735	NUG w NUG </s>
-0.1320236	NUG w NUG w	-0.3376682
-0.9584796	NUN w NUG </s>
-0.05062578	NUN w NUG w	-0.2357374
-1.381168	P w NUG </s>
-0.01844187	P w NUG w	0.1628082
-0.03476211	P+NDG w NUG w	-0.4306704
-0.7871061	P+NUG w NUG </s>
-0.07741223	P+NUG w NUG w	-0.662021
-0.1249387	SUP w NUG w	-0.4432945
-1.174018	T w NUG </s>
-0.03011167	T w NUG w	-0.2283748
-0.02227639	VID w NUG w	-0.3487433
-0.01223446	VIJ w NUG w	-0.1689457
-0.1249387	VIM w NUG w	-0.4660187
-0.1760913	VIS w NUG w	-0.4721602
-1.146128	VPR w NUG </s>
-0.03218468	VPR w NUG w	-0.1437923
-0.001181754	<s> w NUN w	-0.8737718
-1.352183	NDA w NUN </s>
-0.01974406	NDA w NUN w	-0.9434285
-0.9064697	NDG w NUN </s>
-0.05751127	NDG w NUN w	-0.245683
-2.084576	NDN w NUN </s>
-0.003589232	NDN w NUN w	-1.138893
-0.9719713	NUA w NUN </s>
-0.04898646	NUA w NUN w	-0.07597375
-0.4861459	NUG w NUN </s>
-0.1716483	NUG w NUN w	-0.1079769
-0.3305183	NUN w NUN </s>
-0.2734172	NUN w NUN w	-0.5443429
-0.7740541	P w NUN </s>
-0.08000534	P w NUN w	-0.2260271
-0.7269987	P+NDG w NUN </s>
-0.09017663	P+NDG w NUN w	-0.7002348
-0.79588	P+NUG w NUN </s>
-0.07572071	P+NUG w NUN w	-0.6429516
-0.8376186	T w NUN </s>
-0.06820598	T w NUN w	0.05328631
-0.79588	VID w NUN </s>
-0.07572071	VID w NUN w	-0.2253301
-1.531479	VIJ w NUN </s>
-0.01296498	VIJ w NUN w	-0.2829174
-1.414973	VIM w NUN </s>
-0.01703334	VIM w NUN w	-0.3720229
-0.004852503	VIS w NUN w	-0.5432627
-1.695894	VPR w NUN </s>
-0.008836937	VPR w NUN w	-0.5797515
0	<s> w P w	-1.097241
0	EXP w P w	-0.2243871
0	NDA w P w	-1.002261
0	NDG w P w	-0.7133164
0	NDN w P w	0.05015779
0	NUA w P w	-0.53354
0	NUG w P w	-0.5668133
0	NUN w P w	-0.5184665
0	P w P w	-1.253188
0	P+NDG w P w	-0.4671448
0	P+NUG w P w	-0.4671447
0	T w P w	-0.2824805
0	VID w P w	1.695442
0	VIJ w P w	-0.6372327
0	VIM w P w	-0.4854422
0	VIS w P w	-0.1489592
0	VPR w P w	-0.4152462
-0.90309	<s> w P+NDG </s>
-0.05799195	<s> w P+NDG w	-0.8111516
-0.03778856	NDA w P+NDG w	-0.1905423
-0.1760913	NDG w P+NDG w
-0.4690034	NDN w P+NDG </s>
-0.1802078	NDN w P+NDG w	-0.158695
-0.03778856	NUA w P+NDG w	-0.3749182
-0.7403627	NUG w P+NDG </s>
-0.08715017	NUG w P+NDG w	-0.1442581
-0.2218487	NUN w P+NDG </s>
-0.39794	NUN w P+NDG w	-0.3946623
-0.01223446	P w P+NDG w	-0.1108343
-0.1760913	P+NUG w P+NDG w
-0.845098	T w P+NDG </s>
-0.06694679	T w P+NDG w	-0.1314209
-0.6283889	VID w P+NDG </s>
-0.1165056	VID w P+NDG w	-0.3258838
-0.06694679	VIJ w P+NDG w	-0.1900156
-0.01223446	VIM w P+NDG w	-0.1771784
-0.05799195	VIS w P+NDG w	-0.4414057
-0.7403627	VPR w P+NDG </s>
-0.08715017	VPR w P+NDG w	-0.3444957
-0.01296498	<s> w P+NUG w	-0.3383059
-0.04575749	NDA w P+NUG w
-0.03476211	NDG w P+NUG w	-0.8634349
-0.03476211	NDN w P+NUG w	-0.6822641
-0.03778856	NUA w P+NUG w	-0.1834041
-0.04139268	NUG w P+NUG w	-0.1705938
-0.01703334	NUN w P+NUG w	-0.3868746
-0.4771213	P w P+NUG </s>
-0.1760913	P w P+NUG w	-0.5137703
-0.09691001	P+NDG w P+NUG w	-0.2371452
-0.90309	T w P+NUG </s>
-0.05799195	T w P+NUG w	-0.285918
-0.02020339	VID w P+NUG w	-0.4730046
-0.01223446	VIJ w P+NUG w	-0.133559
-0.02996322	VIM w P+NUG w	-0.5440681
-0.09691001	VIS w P+NUG w
-0.01639042	VPR w P+NUG w	-0.649096
0	<s> w SUP w	-0.5351132
0	NUA w SUP w	-0.2340832
0	T w SUP w	-0.4736608
-0.0001419495	<s> w T w	-0.05538964
-0.007424018	EXP w T w	-1.141792
-0.0007160669	NDA w T w	-0.6142507
-0.0002961435	NDG w T w	-0.5439384
-2.532117	NDN w T </s>
-0.001277338	NDN w T w	-0.03356457
-2.702718	NUA w T </s>
-0.0008619808	NUA w T w	-0.3806653
-0.0002663566	NUG w T w	-0.2592475
-0.000331396	NUN w T w	-0.09712338
-2.518952	P w T </s>
-0.00131671	P w T w	-0.3820817
-0.01424044	P+NDG w T w	-0.5283035
-0.01099538	P+NUG w T w	-0.5933234
-2.341663	T w T </s>
-0.001982039	T w T w	-0.219589
-0.0003691411	VID w T w	-0.7476127
-0.00111215	VIJ w T w	-0.0937891
-0.0007507253	VIM w T w	-0.5583842
-2.241795	VIS w T </s>
-0.002495953	VIS w T w	-0.04430556
-2.855115	VPR w T </s>
-0.000606698	VPR w T w	-0.1353915
-0.001430955	<s> w VID w	-0.539693
-1.503207	NDA w VID </s>
-0.01385111	NDA w VID w	-0.8136528
-1.088521	NDG w VID </s>
-0.03694935	NDG w VID w	-0.3534453
-1.690196	NDN w VID </s>
-0.008954842	NDN w VID w	-0.5253245
-0.9985499	NUA w VID </s>
-0.04591891	NUA w VID w	-0.6189611
-0.4202767	NUG w VID </s>
-0.2075713	NUG w VID w	-0.09450662
-0.9637879	NUN w VID </s>
-0.04997397	NUN w VID w	-0.7361991
-0.3266679	P w VID </s>
-0.2768216	P w VID w	-0.06527913
-0.09691001	P+NDG w VID w	-0.5544404
-0.20412	P+NUG w VID </s>
-0.4259687	P+NUG w VID w	-0.4166463
-0.6532125	SUP w VID </s>
-0.1091445	SUP w VID w	-0.2188995
-0.5911933	T w VID </s>
-0.1286223	T w VID w	0.2775872
-1.335792	VID w VID </s>
-0.02052167	VID w VID w	-0.293981
-0.6291182	VIJ w VID </s>
-0.1162814	VIJ w VID w	-0.1966232
-0.5351132	VIM w VID </s>
-0.1497623	VIM w VID w	-0.6677962
-0.05799195	VIS w VID w	-0.3086653
-0.3168243	VPR w VID </s>
-0.28579	VPR w VID w	-0.3873543
-0.01930515	<s> w VIJ w	-0.5636448
-0.02632894	NDA w VIJ w	-0.239267
-0.01046543	NDG w VIJ w	-0.5329766
-0.04575749	NDN w VIJ w	-0.1299164
-1.477121	NUA w VIJ </s>
-0.01472325	NUA w VIJ w	-0.2514098
-0.01223446	NUG w VIJ w	-0.403124
-0.0211893	NUN w VIJ w	-0.7639452
-0.0211893	P w VIJ w	-0.3572974
-0.1760913	SUP w VIJ w	-0.4598876
-1.560704	T w VIJ </s>
-0.01210937	T w VIJ w	-0.2512977
-0.00796893	VIJ w VIJ w	-0.2712455
-0.01639042	VIM w VIJ w	-0.2410668
-0.03218468	VIS w VIJ w	-0.5346392
-0.05115252	VPR w VIJ w	-0.5558851
-0.0008945307	<s> w VIM w	0.05459428
-0.8702087	NDA w VIM </s>
-0.06289928	NDA w VIM w	-0.3362921
-0.003113235	NDG w VIM w	-0.5416628
-0.00694886	NDN w VIM w	-0.4328587
-1.81068	NUA w VIM </s>
-0.006768364	NUA w VIM w	-0.6102546
-1.440459	NUG w VIM </s>
-0.01604437	NUG w VIM w	-0.3411955
-1.290035	NUN w VIM </s>
-0.02286288	NUN w VIM w	-0.3722788
-0.005829544	P w VIM w	-0.4944242
-0.09691001	P+NDG w VIM w	-0.2426664
-0.5929166	P+NUG w VIM </s>
-0.1280298	P+NUG w VIM w	-0.1552958
-1.424415	T w VIM </s>
-0.01665992	T w VIM w	-0.4201071
-0.01296498	VID w VIM w	-0.3624622
-0.02227639	VIJ w VIM w	-0.1789973
-1.237687	VIM w VIM </s>
-0.02588052	VIM w VIM w	-0.369233
-0.04139268	VIS w VIM w	-0.3374076
-0.002210155	VPR w VIM w	-0.6192124
-0.008433168	<s> w VIS w	-0.5641044
-0.01472326	NDA w VIS w	-0.3393469
-0.005532489	NDG w VIS w	-0.4680128
-0.01639042	NDN w VIS w	-0.7898429
-1.579784	NUA w VIS </s>
-0.01158187	NUA w VIS w	-0.4451506
-0.006074148	NUG w VIS w	-0.1231831
-0.01772877	NUN w VIS w	0.1875233
-0.00415596	P w VIS w	-0.1640188
-0.1249387	P+NUG w VIS w
-1.564271	T w VIS </s>
-0.01200891	T w VIS w	-0.4591789
-0.03218468	VID w VIS w	0.02836269
-0.05799195	VIJ w VIS w	-0.2259023
-0.01223446	VIM w VIS w	-0.2134221
-0.01772877	VIS w VIS w	-0.6781144
-0.01099538	VPR w VIS w	-0.2715074
-0.0003868993	<s> w VPR w	-0.8373878
-2.033424	NDA w VPR </s>
-0.004039978	NDA w VPR w	-0.4937588
-0.001326091	NDG w VPR w	-0.3763095
-0.8911252	NDN w VPR </s>
-0.05972843	NDN w VPR w	-0.0548861
-1.68842	NUA w VPR </s>
-0.008991925	NUA w VPR w	-0.4162515
-1.799341	NUG w VPR </s>
-0.006948859	NUG w VPR w	-0.2861764
-1.765296	NUN w VPR </s>
-0.007520438	NUN w VPR w	-0.3976878
-1.539076	P w VPR </s>
-0.01273682	P w VPR w	-0.4092901
-0.03218468	P+NDG w VPR w	-0.1243581
-0.60206	P+NUG w VPR </s>
-0.1249387	P+NUG w VPR w	-0.2347676
-0.01223446	SUP w VPR w	-0.6619456
-1.831246	T w VPR </s>
-0.00645298	T w VPR w	0.2476571
-0.006340178	VID w VPR w	-0.3985259
-0.0234811	VIJ w VPR w	-0.8863438
-0.008433168	VIM w VPR w	-0.8378116
-0.01772877	VIS w VPR w	-0.2393059
-1.173672	VPR w VPR </s>
-0.03013656	VPR w VPR w	-0.5526409
-1.251117	w EXP w NDA	0
-0.5546353	w EXP w NUA	0
-1.062791	w EXP w P	0
-0.2536053	w EXP w T	0
-2.7532	w NDA w EXP	0
-0.9386194	w NDA w NDA	0
-2.510162	w NDA w NDG	0
-2.012837	w NDA w NDN	0
-0.9436402	w NDA w NUA	0
-2.7532	w NDA w NUG	0
-1.099987	w NDA w NUN	0
-0.7917788	w NDA w P	0
-2.276079	w NDA w P+NDG	0
-2.401017	w NDA w P+NUG	0
-0.5727873	w NDA w T	0
-1.088088	w NDA w VID	0
-2.15114	w NDA w VIJ	0
-1.40587	w NDA w VIM	0
-1.878139	w NDA w VIS	0
-1.020806	w NDA w VPR	0
-2.853597	w NDG w EXP	0
-1.768425	w NDG w NDA	0
-0.889809	w NDG w NDG	0
-1.636113	w NDG w NDN	0
-0.9689903	w NDG w NUA	0
-1.590355	w NDG w NUG	0
-1.220128	w NDG w NUN	0
-1.058877	w NDG w P	0
-3.330718	w NDG w P+NDG	0
-2.552567	w NDG w P+NUG	0
-0.465318	w NDG w T	0
-1.181499	w NDG w VID	0
-2.018964	w NDG w VIJ	0
-1.488733	w NDG w VIM	0
-1.734121	w NDG w VIS	0
-1.115874	w NDG w VPR	0
-2.789933	w NDN w EXP	0
-1.636118	w NDN w NDA	0
-2.789933	w NDN w NDG	0
-0.8721651	w NDN w NDN	0
-1.022777	w NDN w NUA	0
-2.488903	w NDN w NUG	0
-1.006387	w NDN w NUN	0
-0.7301804	w NDN w P	0
-2.488903	w NDN w P+NDG	0
-2.27805	w NDN w P+NUG	0
-0.5588459	w NDN w T	0
-1.224676	w NDN w VID	0
-2.437751	w NDN w VIJ	0
-1.599601	w NDN w VIM	0
-1.97702	w NDN w VIS	0
-1.13914	w NDN w VPR	0
-2.340139	w NUA w EXP	0
-2.223633	w NUA w NDA	0
-1.072065	w NUA w NDG	0
-1.916263	w NUA w NDN	0
-0.7621171	w NUA w NUA	0
-1.145518	w NUA w NUG	0
-1.579021	w NUA w NUN	0
-0.8106296	w NUA w P	0
-2.675931	w NUA w P+NDG	0
-2.675931	w NUA w P+NUG	0
-3.277991	w NUA w SUP	0
-0.5752733	w NUA w T	0
-1.279441	w NUA w VID	0
-1.976961	w NUA w VIJ	0
-1.467311	w NUA w VIM	0
-1.874299	w NUA w VIS	0
-1.066692	w NUA w VPR	0
-2.802021	w NUG w EXP	0
-2.077745	w NUG w NDA	0
-0.9404863	w NUG w NDG	0
-1.705111	w NUG w NDN	0
-1.125327	w NUG w NUA	0
-0.7477908	w NUG w NUG	0
-1.212071	w NUG w NUN	0
-1.007533	w NUG w P	0
-2.760628	w NUG w P+NDG	0
-2.760628	w NUG w P+NUG	0
-0.5895668	w NUG w T	0
-1.223382	w NUG w VID	0
-2.257953	w NUG w VIJ	0
-1.597901	w NUG w VIM	0
-1.944688	w NUG w VIS	0
-1.09959	w NUG w VPR	0
-3.398461	w NUN w EXP	0
-2.252333	w NUN w NDA	0
-0.9575518	w NUN w NDG	0
-1.547202	w NUN w NDN	0
-1.257011	w NUN w NUA	0
-1.209532	w NUN w NUG	0
-0.7385446	w NUN w NUN	0
-0.7700719	w NUN w P	0
-2.5234	w NUN w P+NDG	0
-2.284518	w NUN w P+NUG	0
-0.5818881	w NUN w T	0
-1.434673	w NUN w VID	0
-2.398461	w NUN w VIJ	0
-1.631305	w NUN w VIM	0
-2.301551	w NUN w VIS	0
-1.332135	w NUN w VPR	0
-3.109916	w P w EXP	0
-2.004406	w P w NDA	0
-0.575731	w P w NDG	0
-1.94482	w P w NDN	0
-1.334487	w P w NUA	0
-0.3553764	w P w NUG	0
-1.387693	w P w NUN	0
-1.487961	w P w P	0
-3.247089	w P w P+NDG	0.7781512
-3.234855	w P w P+NUG	0
-1.016932	w P w T	0
-1.817106	w P w VID	0
-2.711976	w P w VIJ	0
-2.143774	w P w VIM	0
-1.991817	w P w VIS	0
-1.70981	w P w VPR	0
-0.8685791	w P+NDG w NDG	0
-1.521792	w P+NDG w NDN	0
-0.9477604	w P+NDG w NUA	0
-1.009908	w P+NDG w NUG	0
-0.9197317	w P+NDG w NUN	0
-1.123852	w P+NDG w P	0
-1.521792	w P+NDG w P+NUG	0
-0.6467304	w P+NDG w T	0
-1.521792	w P+NDG w VID	0
-1.521792	w P+NDG w VIM	0
-1.009908	w P+NDG w VPR	0
-1.849215	w P+NUG w NDA	0
-0.8639379	w P+NUG w NDG	0
-1.372093	w P+NUG w NDN	0
-1.284943	w P+NUG w NUA	0
-0.6361398	w P+NUG w NUG	0
-0.9283959	w P+NUG w NUN	0
-1.326336	w P+NUG w P	0
-2.025306	w P+NUG w P+NDG	0
-0.7352713	w P+NUG w T	0
-1.122216	w P+NUG w VID	0
-1.481238	w P+NUG w VIM	0
-1.849215	w P+NUG w VIS	0
-1.423246	w P+NUG w VPR	0
-0.845098	w SUP w NUG	0
-0.3679768	w SUP w VID	0
-1.021189	w SUP w VIJ	0
-0.5563025	w SUP w VPR	0.7781512
-3.497275	w T w EXP	0
-1.487966	w T w NDA	0
-2.361613	w T w NDG	0
-1.483736	w T w NDN	0
-1.288655	w T w NUA	0
-1.95528	w T w NUG	0
-1.038134	w T w NUN	0
-1.104872	w T w P	0
-3.129298	w T w P+NDG	0
-2.895215	w T w P+NUG	0
-3.099335	w T w SUP	0
-0.8198204	w T w T	0
-0.7926958	w T w VID	0
-1.237602	w T w VIJ	0
-2.005913	w T w VIM	0
-1.388936	w T w VIS	0
-0.5633664	w T w VPR	0
-2.786853	w VID w EXP	0
-0.9835908	w VID w NDA	0
-2.728861	w VID w NDG	0
-1.116077	w VID w NDN	0
-0.8931703	w VID w NUA	0
-2.353197	w VID w NUG	0
-1.279768	w VID w NUN	0
-0.5367815	w VID w P	0
-2.401502	w VID w P+NDG	0
-2.309731	w VID w P+NUG	0
-0.5615435	w VID w T	0
-1.518008	w VID w VID	0
-2.113437	w VID w VIM	0
-2.485823	w VID w VIS	0
-1.799442	w VID w VPR	0
-2.841359	w VIJ w EXP	0
-1.20287	w VIJ w NDA	0
-2.841359	w VIJ w NDG	0
-1.297291	w VIJ w NDN	0
-0.7979972	w VIJ w NUA	0
-2.376473	w VIJ w NUG	0.7781512
-1.133789	w VIJ w NUN	0
-0.5695179	w VIJ w P	0
-2.364238	w VIJ w P+NDG	0
-2.376473	w VIJ w P+NUG	0.7781512
-0.5513248	w VIJ w T	0
-1.762178	w VIJ w VID	0
-1.409996	w VIJ w VIJ	0
-1.863636	w VIJ w VIM	0
-2.297292	w VIJ w VIS	0
-1.887117	w VIJ w VPR	0
-0.9004972	w VIM w NDA	0
-1.866169	w VIM w NDN	0
-0.8474687	w VIM w NUA	0
-2.786988	w VIM w NUG	0
-1.548106	w VIM w NUN	0
-0.6013513	w VIM w P	0
-2.498192	w VIM w P+NDG	0.7781512
-2.117981	w VIM w P+NUG	0
-0.5021813	w VIM w T	0
-1.883898	w VIM w VID	0
-1.849136	w VIM w VIJ	0
-1.264109	w VIM w VIM	0
-2.498192	w VIM w VIS	0.7781512
-1.556539	w VIM w VPR	0
-2.637156	w VIS w EXP	0
-1.222183	w VIS w NDA	0
-2.813247	w VIS w NDG	0
-1.072885	w VIS w NDN	0
-0.7838635	w VIS w NUA	0
-2.813247	w VIS w NUG	0
-1.164887	w VIS w NUN	0
-0.5543707	w VIS w P	0
-2.269179	w VIS w P+NDG	0
-2.512217	w VIS w P+NUG	0
-0.5714518	w VIS w T	0
-2.269179	w VIS w VID	0
-2.000334	w VIS w VIJ	0
-2.114277	w VIS w VIM	0
-1.716337	w VIS w VIS	0
-1.734066	w VIS w VPR	0
-3.108275	w VPR w EXP	0
-1.346992	w VPR w NDA	0
-2.14046	w VPR w NDG	0
-1.073131	w VPR w NDN	0
-0.8492275	w VPR w NUA	0
-2.506215	w VPR w NUG	0
-1.027031	w VPR w NUN	0
-0.6044843	w VPR w P	0
-2.61095	w VPR w P+NDG	0
-2.5384	w VPR w P+NUG	0
-0.6211366	w VPR w T	0
-1.360087	w VPR w VID	0
-3.050283	w VPR w VIJ	0
-1.658907	w VPR w VIM	0
-2.362309	w VPR w VIS	0
-1.223399	w VPR w VPR	0

\5-grams:
0	w NDA w EXP w	-1.309994
0	w NDG w EXP w	0.3997975
0	w NDN w EXP w	0.1901784
0	w NUA w EXP w	0.04396284
0	w NUG w EXP w	0.2289733
0	w NUN w EXP w
0	w P w EXP w	0.321993
0	w T w EXP w	0.008426189
0	w VID w EXP w	0.4276888
0	w VIJ w EXP w	0.2170519
0	w VIS w EXP w	0.3219931
0	w VPR w EXP w	0.3300259
-0.09691001	w EXP w NDA w	0.0587225
-0.7090703	w NDA w NDA </s>
-0.09442122	w NDA w NDA w	0.5101227
-0.9090804	w NDG w NDA </s>
-0.05714288	w NDG w NDA w	0.4341624
-1.056905	w NDN w NDA </s>
-0.03987151	w NDN w NDA w	0.5464878
-0.9294189	w NUA w NDA </s>
-0.05435766	w NUA w NDA w	0.2614141
-1.025306	w NUG w NDA </s>
-0.04303463	w NUG w NDA w	0.1059128
-0.9700368	w NUN w NDA </s>
-0.04921802	w NUN w NDA w	0.7409191
-1.10551	w P w NDA </s>
-0.03547231	w P w NDA w	0.4403802
-0.1249387	w P+NUG w NDA w
-1.486431	w T w NDA </s>
-0.01440578	w T w NDA w	0.3287697
-0.750733	w VID w NDA </s>
-0.08487892	w VID w NDA w	0.4455799
-1.337459	w VIJ w NDA </s>
-0.02044116	w VIJ w NDA w	0.1878346
-1.409369	w VIM w NDA </s>
-0.01725901	w VIM w NDA w	0.1175768
-0.9378521	w VIS w NDA </s>
-0.05324551	w VIS w NDA w	0.004233599
-1.12926	w VPR w NDA </s>
-0.03350976	w VPR w NDA w	0.1651913
-0.5440681	w NDA w NDG </s>
-0.146128	w NDA w NDG w
-0.6520339	w NDG w NDG </s>
-0.1094818	w NDG w NDG w	-0.6503737
-0.09691001	w NDN w NDG w	0.1901784
-0.8768671	w NUA w NDG </s>
-0.06187076	w NUA w NDG w	0.5002959
-0.6854432	w NUG w NDG </s>
-0.1003586	w NUG w NDG w	0.3219955
-0.479488	w NUN w NDG </s>
-0.1749127	w NUN w NDG w	0.3339875
-0.7596678	w P w NDG </s>
-0.08297423	w P w NDG w	0
-0.30103	w P+NDG w NDG </s>
-0.30103	w P+NDG w NDG w	0.3367192
-0.3484546	w P+NUG w NDG </s>
-0.258278	w P+NUG w NDG w	0.1979167
-1.135663	w T w NDG </s>
-0.03300026	w T w NDG w	0.3371173
-0.05115252	w VID w NDG w	0.1956352
-0.1760913	w VIJ w NDG w
-0.1760913	w VIS w NDG w	0.2170519
-0.006630579	w VPR w NDG w	0.2687245
-0.7403627	w NDA w NDN </s>
-0.08715017	w NDA w NDN w	0.12081
-0.916454	w NDG w NDN </s>
-0.05611594	w NDG w NDN w	0.5367606
-0.2792788	w NDN w NDN </s>
-0.3239284	w NDN w NDN w	0.1355467
-1.236789	w NUA w NDN </s>
-0.02593573	w NUA w NDN w	0.3264976
-1.251812	w NUG w NDN </s>
-0.02502801	w NUG w NDN w	0.008426189
-0.8970158	w NUN w NDN </s>
-0.05886666	w NUN w NDN w	0.2348583
-0.8640659	w P w NDN </s>
-0.06386448	w P w NDN w	0.417472
-0.30103	w P+NDG w NDN </s>
-0.30103	w P+NDG w NDN w
-0.04575749	w P+NUG w NDN w	0.003390104
-0.7053308	w T w NDN </s>
-0.09533426	w T w NDN w	0.1175765
-0.984395	w VID w NDN </s>
-0.04752651	w VID w NDN w	0.2649583
-0.8037053	w VIJ w NDN </s>
-0.07424603	w VIJ w NDN w	0.1064268
-0.01703334	w VIM w NDN w	0.5084533
-1.564271	w VIS w NDN </s>
-0.01200891	w VIS w NDN w	0.3406203
-1.116814	w VPR w NDN </s>
-0.03452376	w VPR w NDN w	0.1506226
-0.860338	w EXP w NUA </s>
-0.06445799	w EXP w NUA w	0.6746848
-1.0894	w NDA w NUA </s>
-0.03687136	w NDA w NUA w	0.1461828
-0.5945719	w NDG w NUA </s>
-0.1274637	w NDG w NUA w	0.5180943
-0.9378521	w NDN w NUA </s>
-0.05324551	w NDN w NUA w	0.340621
-0.4427668	w NUA w NUA </s>
-0.1943444	w NUA w NUA w	0.5341518
-0.6197888	w NUG w NUA </s>
-0.1191864	w NUG w NUA w	0.1683574
-0.6866049	w NUN w NUA </s>
-0.1000571	w NUN w NUA w	0.3178804
-0.7700334	w P w NUA </s>
-0.0808232	w P w NUA w	0.4192085
-0.2218487	w P+NDG w NUA </s>
-0.39794	w P+NDG w NUA w	0.105417
-0.7403627	w P+NUG w NUA </s>
-0.08715017	w P+NUG w NUA w	0.1396786
-0.8344834	w T w NUA </s>
-0.0687414	w T w NUA w	0.01669168
-0.9829057	w VID w NUA </s>
-0.04769907	w VID w NUA w	0.337914
-1.00197	w VIJ w NUA </s>
-0.04553919	w VIJ w NUA w	0.4473122
-1.21252	w VIM w NUA </s>
-0.02747442	w VIM w NUA w	0.6409861
-0.9324737	w VIS w NUA </s>
-0.05395197	w VIS w NUA w	0.3735822
-0.7656891	w VPR w NUA </s>
-0.08171718	w VPR w NUA w	0.3961556
-0.09691001	w NDA w NUG w
-1.342423	w NDG w NUG </s>
-0.02020339	w NDG w NUG w	0.7577282
-0.05115252	w NDN w NUG w	0.1901784
-1.162436	w NUA w NUG </s>
-0.0309552	w NUA w NUG w	0.326624
-0.5814735	w NUG w NUG </s>
-0.1320236	w NUG w NUG w	0.3213117
-0.9584796	w NUN w NUG </s>
-0.05062578	w NUN w NUG w	0.250631
-1.381168	w P w NUG </s>
-0.01844187	w P w NUG w	0.5121303
-0.03476211	w P+NDG w NUG w	0.2100089
-0.7871061	w P+NUG w NUG </s>
-0.07741223	w P+NUG w NUG w	1.083515
-0.1249387	w SUP w NUG w	0.3219931
-1.174018	w T w NUG </s>
-0.03011167	w T w NUG w	0.4537224
-0.02227639	w VID w NUG w	0.2002069
-0.07918125	w VIJ w NUG w	0.1355467
-0.1249387	w VIM w NUG w	0.3219931
-0.1760913	w VIS w NUG w	0.2170519
-1.146128	w VPR w NUG </s>
-0.03218468	w VPR w NUG w	0.741744
-1.352183	w NDA w NUN </s>
-0.01974406	w NDA w NUN w	0.4994462
-0.9064697	w NDG w NUN </s>
-0.05751127	w NDG w NUN w	0.2348585
-2.084576	w NDN w NUN </s>
-0.003589232	w NDN w NUN w	0.7372947
-0.9719713	w NUA w NUN </s>
-0.04898646	w NUA w NUN w	0.4266514
-0.4861459	w NUG w NUN </s>
-0.1716483	w NUG w NUN w	0.5115252
-0.3305183	w NUN w NUN </s>
-0.2734172	w NUN w NUN w	0.0382154
-0.7740541	w P w NUN </s>
-0.08000534	w P w NUN w	0.3910791
-0.7269987	w P+NDG w NUN </s>
-0.09017663	w P+NDG w NUN w	0.3219931
-0.79588	w P+NUG w NUN </s>
-0.07572071	w P+NUG w NUN w	0.00563556
-0.8376186	w T w NUN </s>
-0.06820598	w T w NUN w	0.6370769
-0.79588	w VID w NUN </s>
-0.07572071	w VID w NUN w	0.3360593
-1.531479	w VIJ w NUN </s>
-0.01296498	w VIJ w NUN w	0.8098694
-1.414973	w VIM w NUN </s>
-0.01703334	w VIM w NUN w	0.2721052
-0.004852503	w VIS w NUN w	0.4413335
-1.695894	w VPR w NUN </s>
-0.008836937	w VPR w NUN w	0.3509674
0	w EXP w P w	0.2348581
0	w NDA w P w	0.518095
0	w NDG w P w	0.6473907
0	w NDN w P w	0.685998
0	w NUA w P w	0.0587225
0	w NUG w P w	0.4537234
0	w NUN w P w	0.3509581
0	w P w P w	0.07333779
0	w P+NDG w P w	0.5002987
0	w P+NUG w P w	0.5180955
0	w T w P w	0.02584672
0	w VID w P w	0.8237662
0	w VIJ w P w	0.5017331
0	w VIM w P w	0.5713931
0	w VIS w P w	0.5232251
0	w VPR w P w	0.05633044
-0.03778856	w NDA w P+NDG w	0.2002069
-0.1760913	w NDG w P+NDG w
-0.4259687	w NDN w P+NDG </s>
-0.20412	w NDN w P+NDG w	0.1355467
-0.03778856	w NUA w P+NDG w	0.1651917
-0.7403627	w NUG w P+NDG </s>
-0.08715017	w NUG w P+NDG w	0.003390104
-0.2218487	w NUN w P+NDG </s>
-0.39794	w NUN w P+NDG w	0.321993
-0.07918125	w P w P+NDG w	0.1355467
-0.1760913	w P+NUG w P+NDG w
-0.845098	w T w P+NDG </s>
-0.06694679	w T w P+NDG w	0.07543069
-0.6283889	w VID w P+NDG </s>
-0.1165056	w VID w P+NDG w	0.3246871
-0.06694679	w VIJ w P+NDG w	0.02046916
-0.07918125	w VIM w P+NDG w	0.1355467
-0.05799195	w VIS w P+NDG w	0.210009
-0.7403627	w VPR w P+NDG </s>
-0.08715017	w VPR w P+NDG w	0.2569549
-0.04575749	w NDA w P+NUG w
-0.03476211	w NDG w P+NUG w	0.6430308
-0.03476211	w NDN w P+NUG w	0.4036776
-0.03778856	w NUA w P+NUG w	0.02444971
-0.04139268	w NUG w P+NUG w	0.09647113
-0.01703334	w NUN w P+NUG w	0.5137261
-0.4771213	w P w P+NUG </s>
-0.1760913	w P w P+NUG w	0.0587225
-0.09691001	w P+NDG w P+NUG w	0.1901784
-0.90309	w T w P+NUG </s>
-0.05799195	w T w P+NUG w	0.3733148
-0.02020339	w VID w P+NUG w	0.4320179
-0.07918125	w VIJ w P+NUG w	0.1355467
-0.02996322	w VIM w P+NUG w	0.3367192
-0.09691001	w VIS w P+NUG w
-0.01639042	w VPR w P+NUG w	0.6765917
0	w NUA w SUP w	0.3219931
0	w T w SUP w	0.5002989
-0.007424018	w EXP w T w	0.6442548
-0.0007160669	w NDA w T w	0.07333827
-0.0002961435	w NDG w T w	0.3220022
-2.532117	w NDN w T </s>
-0.001277338	w NDN w T w	0.1901782
-2.702718	w NUA w T </s>
-0.0008619808	w NUA w T w	0.6297455
-0.0002663566	w NUG w T w	0.342241
-0.000331396	w NUN w T w	0.4283295
-2.518952	w P w T </s>
-0.00131671	w P w T w	0.3219891
-0.01424044	w P+NDG w T w	0.1437714
-0.01099538	w P+NUG w T w	0.3318656
-2.341663	w T w T </s>
-0.001982039	w T w T w	0.3185263
-0.0003691411	w VID w T w	0
-0.00111215	w VIJ w T w	0.3379123
-0.0007507253	w VIM w T w	0.3219931
-2.241795	w VIS w T </s>
-0.002495953	w VIS w T w	0.6436208
-2.855115	w VPR w T </s>
-0.000606698	w VPR w T w	0.1355481
-1.568202	w NDA w VID </s>
-0.01189922	w NDA w VID w	0.1901782
-1.088521	w NDG w VID </s>
-0.03694935	w NDG w VID w	0.3215379
-1.690196	w NDN w VID </s>
-0.008954842	w NDN w VID w	0.03035307
-0.9985499	w NUA w VID </s>
-0.04591891	w NUA w VID w	0.3369632
-0.4202767	w NUG w VID </s>
-0.2075713	w NUG w VID w	0.1512179
-0.9637879	w NUN w VID </s>
-0.04997397	w NUN w VID w	0.1546134
-0.3266679	w P w VID </s>
-0.2768216	w P w VID w	0.6857333
-0.09691001	w P+NDG w VID w	0.0587225
-0.20412	w P+NUG w VID </s>
-0.4259687	w P+NUG w VID w	0.3509623
-0.6532125	w SUP w VID </s>
-0.1091445	w SUP w VID w	0.00563556
-0.5911933	w T w VID </s>
-0.1286223	w T w VID w	0.878412
-1.335792	w VID w VID </s>
-0.02052167	w VID w VID w	0.6480988
-0.6812413	w VIJ w VID </s>
-0.1014576	w VIJ w VID w	0.4516812
-0.5351132	w VIM w VID </s>
-0.1497623	w VIM w VID w	0.7409189
-0.05799195	w VIS w VID w	0.210009
-0.3168243	w VPR w VID </s>
-0.28579	w VPR w VID w	0.1956356
-0.02632894	w NDA w VIJ w	0.432018
-0.01046543	w NDG w VIJ w	0.3321176
-0.04575749	w NDN w VIJ w	0.1396786
-1.477121	w NUA w VIJ </s>
-0.01472325	w NUA w VIJ w	0.1431498
-0.01223446	w NUG w VIJ w	0.3188248
-0.0211893	w NUN w VIJ w	0.5180954
-0.0211893	w P w VIJ w	0.5706695
-0.1760913	w SUP w VIJ w	0.2170519
-1.560704	w T w VIJ </s>
-0.01210937	w T w VIJ w	0.6571052
-0.00796893	w VIJ w VIJ w	0.03430212
-0.01639042	w VIM w VIJ w	0.2391857
-0.03218468	w VIS w VIJ w	0.1471947
-0.05115252	w VPR w VIJ w	0.07333839
-0.8702087	w NDA w VIM </s>
-0.06289928	w NDA w VIM w	0.1970615
-0.003113235	w NDG w VIM w	0.2478594
-0.00694886	w NDN w VIM w	0.3838506
-1.81068	w NUA w VIM </s>
-0.006768364	w NUA w VIM w	0.6655955
-1.50515	w NUG w VIM </s>
-0.01378828	w NUG w VIM w	0.01544166
-1.290035	w NUN w VIM </s>
-0.02286288	w NUN w VIM w	0.2152239
-0.005829544	w P w VIM w	0.03035307
-0.09691001	w P+NDG w VIM w	0.1901784
-0.5440681	w P+NUG w VIM </s>
-0.146128	w P+NUG w VIM w	0.1355467
-1.424415	w T w VIM </s>
-0.01665992	w T w VIM w	0.4202329
-0.01296498	w VID w VIM w	0.2583348
-0.02227639	w VIJ w VIM w	0.3196861
-1.30103	w VIM w VIM </s>
-0.02227639	w VIM w VIM w	0.01544166
-0.04139268	w VIS w VIM w	0.4192077
-0.002210155	w VPR w VIM w	0.1909943
-0.01472326	w NDA w VIS w	0.7430249
-0.005532489	w NDG w VIS w	0.04593813
-0.01639042	w NDN w VIS w	0.5336035
-1.579784	w NUA w VIS </s>
-0.01158187	w NUA w VIS w	0.5017338
-0.006074148	w NUG w VIS w	0.3215387
-0.01772877	w NUN w VIS w	0.2274497
-0.00415596	w P w VIS w	0.105417
-0.1249387	w P+NUG w VIS w
-1.564271	w T w VIS </s>
-0.01200891	w T w VIS w	0.731513
-0.03218468	w VID w VIS w	0.1208099
-0.05799195	w VIJ w VIS w	0.00563556
-0.07918125	w VIM w VIS w	0.1355467
-0.01772877	w VIS w VIS w	0.7654155
-0.01099538	w VPR w VIS w	0.1355466
-2.033424	w NDA w VPR </s>
-0.004039978	w NDA w VPR w	0.0709945
-0.001326091	w NDG w VPR w	0.2468942
-0.8911252	w NDN w VPR </s>
-0.05972843	w NDN w VPR w	0.03115892
-1.68842	w NUA w VPR </s>
-0.008991925	w NUA w VPR w	0
-1.799341	w NUG w VPR </s>
-0.006948859	w NUG w VPR w	0.5123543
-1.765296	w NUN w VPR </s>
-0.007520438	w NUN w VPR w	0.3360593
-1.604226	w P w VPR </s>
-0.01093998	w P w VPR w	0.2702825
-0.03218468	w P+NDG w VPR w	0.2175338
-0.60206	w P+NUG w VPR </s>
-0.1249387	w P+NUG w VPR w	0.02046916
-0.07918125	w SUP w VPR w	0.504853
-1.831246	w T w VPR </s>
-0.00645298	w T w VPR w	-1.407501
-0.006340178	w VID w VPR w	0.1402894
-0.0234811	w VIJ w VPR w	0.0327661
-0.008433168	w VIM w VPR w	0.6469072
-0.01772877	w VIS w VPR w	0.1651917
-1.173672	w VPR w VPR </s>
-0.03013656	w VPR w VPR w	0.3219912
-0.9777236	<s> w EXP w NDA
-0.5797836	<s> w EXP w NUA	0.0821867
-0.2373609	<s> w EXP w T	0.6916708
-0.09691001	NDA w EXP w NUA	-0.4788795
-0.06694679	NDG w EXP w T	1.325551
-0.30103	NDN w EXP w P	0
-0.5862657	NUA w EXP w NUA	0.04281276
-0.1526102	NUA w EXP w T	0.4698219
-0.69897	NUG w EXP w NUA	0.6002686
-0.5228788	NUG w EXP w P	0
-0.5228788	NUG w EXP w T	0.4544427
-0.60206	P w EXP w NUA	0.6002686
-0.20412	P w EXP w T	0.9927007
-0.1760913	T w EXP w T	-0.2381121
-0.60206	VID w EXP w NDA	0.4389006
-0.4259687	VID w EXP w NUA	0.7052097
-0.60206	VID w EXP w T	1.510783
-0.1760913	VIJ w EXP w T	1.510783
-0.1760913	VIS w EXP w T	1.510783
-0.243038	VPR w EXP w NUA	-1.148626
-0.544068	VPR w EXP w T	1.510783
-1.146128	<s> w NDA w NDA	0.449001
-0.845098	<s> w NDA w NUA	0.5460629
-0.748188	<s> w NDA w T	2.005037
-0.845098	<s> w NDA w VID	1.024864
-0.4057654	<s> w NDA w VPR	0.992031
-0.1249387	EXP w NDA w T	1.466779
-0.5513673	NDA w NDA w NDA	0
-1.845098	NDA w NDA w NDN	-0.5760465
-0.9797966	NDA w NDA w NUA	-0.2723274
-1.477121	NDA w NDA w NUN	0.5346573
-0.845098	NDA w NDA w P	0
-2.021189	NDA w NDA w P+NDG	0.8191118
-2.021189	NDA w NDA w P+NUG	0.7399306
-0.5979434	NDA w NDA w T	1.050795
-1.477121	NDA w NDA w VID	0.7506765
-1.623249	NDA w NDA w VIM	0.09205753
-1.623249	NDA w NDA w VIS	0.69897
-1.208276	NDA w NDA w VPR	0.8872956
-1.10721	NDG w NDA w NDA	0.02679229
-0.90309	NDG w NDA w NUA	0.1351579
-1.329059	NDG w NDA w NUN	0.03577328
-0.6922366	NDG w NDA w P	0
-1.50515	NDG w NDA w P+NDG	0.8191118
-0.4839607	NDG w NDA w T	1.440766
-1.20412	NDG w NDA w VID	-0.4407624
-1.028029	NDG w NDA w VPR	1.588123
-0.6828832	NDN w NDA w NDA	-0.3323224
-1.423246	NDN w NDA w NDG	0.2839987
-1.247155	NDN w NDA w NDN	0.5852345
-1.122216	NDN w NDA w NUA	-0.9195637
-0.5781478	NDN w NDA w P	0
-0.8791778	NDN w NDA w T	1.965663
-0.8791778	NDN w NDA w VID	1.221696
-1.122216	NDN w NDA w VPR	0.0244596
-0.6320232	NUA w NDA w NDA	-0.1084549
-0.4357286	NUA w NDA w NUA	0.01021922
-1.176091	NUA w NDA w P	0
-1.176091	NUA w NDA w T	2.523119
-0.8750613	NUA w NDA w VPR	0.0244596
-0.8361432	NUG w NDA w NDA	-0.1084549
-0.9822713	NUG w NDA w NUA	0.3112491
-1.079181	NUG w NDA w P	0
-0.60206	NUG w NDA w T	1.669245
-0.9822713	NUG w NDA w VID	0.7900504
-0.6398485	NUG w NDA w VPR	0.9542425
-1.09691	NUN w NDA w NDA	0.449001
-1.09691	NUN w NDA w NUN
-0.9208187	NUN w NDA w P	0
-0.49485	NUN w NDA w T	1.828946
-1.09691	NUN w NDA w VIM	0.6101394
-0.552842	NUN w NDA w VPR	1.215899
-0.7690079	P w NDA w NDA	0
-0.9731278	P w NDA w NUA	0.08940041
-1.371068	P w NDA w NUN	-0.6567816
-0.8591845	P w NDA w P	0
-1.672098	P w NDA w P+NDG	0.8191118
-0.7178553	P w NDA w T	1.504435
-1.194977	P w NDA w VID	1.122901
-1.496007	P w NDA w VIJ	-0.08596027
-1.371068	P w NDA w VIM	-1.138755
-1.371068	P w NDA w VIS	0.9337837
-0.8939466	P w NDA w VPR	0.9194803
-1.472025	T w NDA w NDA	0
-2.295933	T w NDA w NDN	-0.5760465
-1.596963	T w NDA w NUA	0
-0.6331756	T w NDA w NUN	0
-0.903823	T w NDA w P	0
-2.472025	T w NDA w P+NUG	0.7399306
-0.5912111	T w NDA w T	0.5984972
-0.8335354	T w NDA w VID	0
-1.994903	T w NDA w VIM	0.09205753
-1.773055	T w NDA w VIS	0.4357285
-0.8539766	T w NDA w VPR	0.1143456
-2.262451	VID w NDA w EXP	0
-0.8076062	VID w NDA w NDA	0
-1.961421	VID w NDA w NDN	-1.268601
-0.9007233	VID w NDA w NUA	0
-1.660391	VID w NDA w NUN	0.39794
-0.6603911	VID w NDA w P	0
-0.4771213	VID w NDA w T	0.6932836
-1.044967	VID w NDA w VID	0.03672278
-2.08636	VID w NDA w VIM	-0.4462004
-2.08636	VID w NDA w VIS	0.160712
-1.78533	VID w NDA w VPR	1.588123
-1.07398	VIJ w NDA w NDA	-0.1084549
-0.5211381	VIJ w NDA w NUA	0
-0.8398969	VIJ w NDA w P	0
-0.5211381	VIJ w NDA w T	1.368215
-1.015988	VIJ w NDA w VIJ	0.2762064
-1.618048	VIJ w NDA w VIM	0.6101394
-1.142233	VIM w NDA w NDA	0
-0.8148741	VIM w NDA w NUA	-0.4420785
-2.045323	VIM w NDA w NUN	1.092113
-1.045323	VIM w NDA w P	0
-0.4272749	VIM w NDA w T	0.8589092
-1.869232	VIM w NDA w VID	0.2517924
-0.6059903	VIM w NDA w VIM	0
-1.647383	VIM w NDA w VPR	1.255272
-0.8846066	VIS w NDA w NDA	0
-0.6084002	VIS w NDA w NUA	-0.1410486
-0.6084002	VIS w NDA w P	0
-0.5835766	VIS w NDA w T	1.504435
-1.236789	VIS w NDA w VIS	-0.5318428
-0.9394032	VPR w NDA w NDA	0
-2.09575	VPR w NDA w NDG	0.3889398
-1.873902	VPR w NDA w NDN	-0.03778857
-0.8246835	VPR w NDA w NUA	0
-1.49369	VPR w NDA w NUN	0.2382392
-0.6537935	VPR w NDA w P	0
-2.271842	VPR w NDA w P+NDG
-0.692058	VPR w NDA w T	0.8966979
-1.141508	VPR w NDA w VID	0.136838
-1.669782	VPR w NDA w VIM	-0.08403373
-2.09575	VPR w NDA w VIS	0.160712
-0.8485957	VPR w NDA w VPR	0.3010299
-0.7676858	<s> w NDG w NDG	-0.7080434
-0.4366926	<s> w NDG w NUA	-1.076656
-1.311754	<s> w NDG w NUG	1.082353
-0.4086639	<s> w NDG w T	1.96231
-2.156347	NDG w NDG w NDA	-0.4073288
-0.7413738	NDG w NDG w NDG	0
-1.48734	NDG w NDG w NDN	-0.2296741
-1.235528	NDG w NDG w NUA	0
-1.429348	NDG w NDG w NUG	0
-1.332438	NDG w NDG w NUN	-0.4157495
-1.0894	NDG w NDG w P	0
-0.4459477	NDG w NDG w T	0.9760985
-1.142107	NDG w NDG w VID	-0.4166287
-2.031409	NDG w NDG w VIJ	-0.3857148
-1.457377	NDG w NDG w VIM	0.9420079
-2.031409	NDG w NDG w VIS	-0.1113369
-1.156347	NDG w NDG w VPR	1.024512
-0.30103	NDN w NDG w NUN	0.6464003
-1.475048	NUA w NDG w NDA	0
-1.206203	NUA w NDG w NDG	0
-1.718086	NUA w NDG w NDN	-0.03778857
-1.077108	NUA w NDG w NUA	0
-2.320146	NUA w NDG w NUG	1.082353
-1.278754	NUA w NDG w NUN	0
-0.8287846	NUA w NDG w P	0
-0.3856478	NUA w NDG w T	0.9283841
-1.278754	NUA w NDG w VID	0
-1.922206	NUA w NDG w VIJ	0.845098
-1.922206	NUA w NDG w VIM	1.367977
-1.776078	NUA w NDG w VIS	1.080102
-1.052975	NUA w NDG w VPR	0.9360904
-1.0369	NUG w NDG w NDG	0
-1.615048	NUG w NDG w NDN	-0.2596374
-1.117723	NUG w NDG w NUA	0
-1.615048	NUG w NDG w NUG	0.1962945
-1.380965	NUG w NDG w NUN	0
-1.089078	NUG w NDG w P	0
-2.460146	NUG w NDG w P+NUG	0.853874
-0.3791588	NUG w NDG w T	0.7826149
-1.07098	NUG w NDG w VID	0
-1.858086	NUG w NDG w VIJ	0.6690068
-1.363236	NUG w NDG w VIM	0.7311546
-1.681995	NUG w NDG w VIS	0.7836838
-1.127707	NUG w NDG w VPR	0.8724213
-1.964966	NUN w NDG w NDA	0
-0.6032385	NUN w NDG w NDG	0
-1.612784	NUN w NDG w NDN	0
-1.152053	NUN w NDG w NUA	0
-1.964966	NUN w NDG w NUG	-0.6665415
-0.9872428	NUN w NDG w NUN	-0.6733139
-1.035547	NUN w NDG w P	0
-2.265996	NUN w NDG w P+NUG	0.853874
-0.5295998	NUN w NDG w T	1.125037
-1.224604	NUN w NDG w VID	-0.2539015
-1.964966	NUN w NDG w VIM	0.1371639
-2.265996	NUN w NDG w VIS	1.637558
-1.244807	NUN w NDG w VPR	1.173451
-2.655331	P w NDG w EXP	0
-1.907143	P w NDG w NDA	0
-0.8994557	P w NDG w NDG	0
-1.673059	P w NDG w NDN	0
-0.8700007	P w NDG w NUA	0
-1.561909	P w NDG w NUG	-0.4499691
-1.192933	P w NDG w NUN	0
-1.103881	P w NDG w P	0
-2.655331	P w NDG w P+NUG	0.3357921
-0.5006024	P w NDG w T	0.3121243
-1.205081	P w NDG w VID	0
-1.992573	P w NDG w VIJ	0.2430381
-1.419802	P w NDG w VIM	0.2066087
-1.655331	P w NDG w VIS	0.198657
-1.087129	P w NDG w VPR	0.2487023
-0.4771213	P+NDG w NDG w NDG	0.4969057
-0.6532125	P+NDG w NDG w NUG	1.082353
-0.6532125	P+NDG w NDG w T	2.906361
-0.7269987	P+NUG w NDG w NDG	-0.6643753
-0.3590219	P+NUG w NDG w T	2.348905
-0.90309	P+NUG w NDG w VID	0.8284519
-1.181844	T w NDG w NDG	-0.03024411
-1.278754	T w NDG w NDN	-1.09251
-0.9777236	T w NDG w NUA	0
-1.579784	T w NDG w NUG	1.082353
-1.278754	T w NDG w NUN	-1.102494
-1.181844	T w NDG w P	0
-0.4036923	T w NDG w T	1.675068
-0.9777236	T w NDG w VID	0.5004665
-1.579784	T w NDG w VIM	1.886059
-1.579784	T w NDG w VIS	1.637558
-1.403692	T w NDG w VPR	1.199465
-0.60206	VID w NDG w P	0
-0.30103	VID w NDG w T	1.157466
-0.1760913	VIS w NDG w P	0
-0.5341598	VPR w NDG w NDA	-0.3919497
-1.113943	VPR w NDG w NUG	0.5642713
-0.9678153	VPR w NDG w P	0
-0.6087934	VPR w NDG w T	1.935981
-0.9678153	VPR w NDG w VID	0.270996
-1.034762	VPR w NDG w VPR	2.070573
-1.703291	<s> w NDN w NDG	0.4389006
-0.9251401	<s> w NDN w NDN	0
-0.8282301	<s> w NDN w NUN	0.8804561
-0.9629287	<s> w NDN w P	0
-1.305351	<s> w NDN w P+NUG	0.3357921
-0.6063814	<s> w NDN w T	1.117144
-0.7738724	<s> w NDN w VID	0.4349236
-0.890378	<s> w NDN w VPR	-0.2550029
-0.5563025	NDA w NDN w NUN	1.306425
-0.7781513	NDA w NDN w P	0
-0.6532125	NDA w NDN w T	0.5231531
-0.9542425	NDA w NDN w VPR	0.6310558
-1.161368	NDG w NDN w NDN	0
-0.5415792	NDG w NDN w NUN	0.6696028
-0.5970966	NDG w NDN w P	0
-0.860338	NDG w NDN w T	1.418174
-0.763428	NDG w NDN w VID	0.4860761
-1.462398	NDG w NDN w VIM	0.4829314
-1.462398	NDG w NDN w VPR	-0.425284
-0.6395972	NDN w NDN w NDN	0
-1.89487	NDN w NDN w NUA	0.6777827
-1.019808	NDN w NDN w NUN	0.8804561
-0.7809263	NDN w NDN w P	0
-0.4969296	NDN w NDN w T	0.8245469
-1.1959	NDN w NDN w VID	0.6901962
-1.49693	NDN w NDN w VIM	1.021189
-1.1959	NDN w NDN w VPR	-0.1502675
-1.335792	NUA w NDN w NUA	-0.3785571
-0.5824645	NUA w NDN w NUN	0.8293036
-0.9678153	NUA w NDN w P	0
-0.5118834	NUA w NDN w T	1.209898
-1.034762	NUA w NDN w VID	1.244896
-0.8586708	NUA w NDN w VPR	-0.1088748
-1.168792	NUG w NDN w NDN	0
-0.6405182	NUG w NDN w NUA	-0.5093059
-0.7496627	NUG w NDN w NUN	0.7421534
-1.168792	NUG w NDN w P	0
-0.5533681	NUG w NDN w T	1.000638
-0.8957908	NUG w NDN w VID	0.5141048
-1.469822	NUG w NDN w VPR	-1.117839
-1.190332	NUN w NDN w NDN	0
-0.8146681	NUN w NDN w NUN	0.7835461
-1.190332	NUN w NDN w P	0
-0.4121805	NUN w NDN w T	0.8419211
-1.01424	NUN w NDN w VID	0.5762528
-0.7923917	NUN w NDN w VIM	0.4771214
-1.31527	NUN w NDN w VPR	0.4458247
-1.004321	P w NDN w NDN	0
-1.159223	P w NDN w NUA	0.591346
-0.8581933	P w NDN w NUN	0.9084848
-0.890378	P w NDN w P	0
-0.4728425	P w NDN w T	0.9880491
-1.159223	P w NDN w VID	0.8726709
-1.703291	P w NDN w VIM	1.539271
-0.9251401	P w NDN w VPR	-0.2228181
-0.3521825	P+NUG w NDN w NDN	-1.729685
-2.395326	T w NDN w NDA	0.7968355
-0.4291847	T w NDN w NDN	0
-1.441084	T w NDN w NUA	-0.3174204
-1.033599	T w NDN w NUN	0.4218183
-0.9329284	T w NDN w P	0
-0.6589299	T w NDN w T	0.4907243
-1.316145	T w NDN w VID	0.3099849
-1.793266	T w NDN w VIM	0.8450981
-2.219235	T w NDN w VIS	0.1149545
-1.094296	T w NDN w VPR	0
-1.070407	VID w NDN w NDA	0
-1.189594	VID w NDN w NDN	-0.9994749
-1.088136	VID w NDN w NUA	0
-1.991226	VID w NDN w NUG	-0.3621667
-1.189594	VID w NDN w NUN	0.7835461
-0.6690068	VID w NDN w P	0
-1.769377	VID w NDN w P+NDG	0
-0.4727121	VID w NDN w T	0.5321171
-1.292256	VID w NDN w VID	0.4860761
-1.623249	VID w NDN w VIM	0.9818154
-1.769377	VID w NDN w VIS	0.6532124
-1.690196	VID w NDN w VPR	0.4458247
-1.469822	VIJ w NDN w NDN	0.01920936
-1.071882	VIJ w NDN w NUA	0.1597008
-0.8166095	VIJ w NDN w P	0
-0.265702	VIJ w NDN w T	1.013603
-1.293731	VIJ w NDN w VIJ	-0.3164092
-1.293731	VIJ w NDN w VIS	0.1149545
-0.6197888	VIM w NDN w NUN	1.639276
-0.49485	VIM w NDN w P	0
-0.9208187	VIM w NDN w T	1.215708
-0.6197888	VIM w NDN w VID	1.244896
-1.427324	VIS w NDN w NDA	-0.9520591
-1.552263	VIS w NDN w NDN	-1.03713
-0.6491725	VIS w NDN w NUA	0
-1.126294	VIS w NDN w NUN	1.130334
-0.5822257	VIS w NDN w P	0
-0.4979049	VIS w NDN w T	0
-1.728354	VIS w NDN w VID	1.430127
-1.728354	VIS w NDN w VIM	1.539271
-2.544688	VPR w NDN w EXP	0
-1.465507	VPR w NDN w NDA	-0.3410351
-1.277516	VPR w NDN w NDN	0
-0.7593582	VPR w NDN w NUA	0
-1.354356	VPR w NDN w NUN	0.5932144
-0.5579163	VPR w NDN w P	0
-2.368597	VPR w NDN w P+NUG	-0.2024659
-0.5977448	VPR w NDN w T	0.281697
-1.69959	VPR w NDN w VID	0.5141048
-1.804325	VPR w NDN w VIM	0.7201594
-1.804325	VPR w NDN w VIS	0.3521825
-0.9883855	VPR w NDN w VPR	-0.9721977
-1.09691	<s> w NUA w NDG	-0.4453522
-0.935542	<s> w NUA w NUA	0
-1	<s> w NUA w NUG	-0.252537
-1.552842	<s> w NUA w NUN	0.1544461
-0.7077439	<s> w NUA w P	0
-0.7544873	<s> w NUA w T	1.049505
-0.6903698	<s> w NUA w VID	-0.7174534
-1.221849	<s> w NUA w VIM	0
-1.552842	<s> w NUA w VPR	0.8708946
-1.113943	EXP w NUA w NDG
-0.9378521	EXP w NUA w NUA	0.2876385
-0.8129134	EXP w NUA w NUG	-0.8465277
-0.7160034	EXP w NUA w P	0
-0.5698753	EXP w NUA w T	1.885192
-1.113943	EXP w NUA w VIM	1.550611
-1.113943	EXP w NUA w VPR	1.42835
-1.473487	NDA w NUA w NDA	-0.02482361
-1.097823	NDA w NUA w NDG	0
-1.899456	NDA w NUA w NDN	1.081661
-0.845098	NDA w NUA w NUA	0
-1.376577	NDA w NUA w NUG	0.1210437
-1.774517	NDA w NUA w NUN	-1.036993
-0.871427	NDA w NUA w P	0
-0.5253186	NDA w NUA w T	0.8453851
-1.297396	NDA w NUA w VID	-0.08063126
-1.531479	NDA w NUA w VIJ	0.6595961
-1.473487	NDA w NUA w VIM	0.8564379
-1.899456	NDA w NUA w VIS	0.2633744
-0.9616036	NDA w NUA w VPR	0.2570561
-1.137354	NDG w NUA w NDG	0
-1.836324	NDG w NUA w NDN	0.4586378
-0.7499643	NDG w NUA w NUA	0
-1.155083	NDG w NUA w NUG	0
-1.757143	NDG w NUA w NUN	0.5266707
-0.8820816	NDG w NUA w P	0
-2.058173	NDG w NUA w P+NUG	-0.237228
-0.544068	NDG w NUA w T	0.7070824
-1.234264	NDG w NUA w VID	-0.3024801
-1.535294	NDG w NUA w VIM	0.7692877
-1.535294	NDG w NUA w VIS	0.538391
-0.9912261	NDG w NUA w VPR	0.1321174
-2.01494	NDN w NUA w EXP	0
-1.838849	NDN w NUA w NDA	-0.3869903
-1.274578	NDN w NUA w NDG	-0.2023141
-1.71391	NDN w NUA w NDN	-0.772175
-0.5306405	NDN w NUA w NUA	0
-1.41288	NDN w NUA w NUG	0.2081938
-1.617	NDN w NUA w NUN	0.19382
-0.6825019	NDN w NUA w P	0
-0.6627578	NDN w NUA w T	1.03996
-1.617	NDN w NUA w VID	0.2203987
-2.01494	NDN w NUA w VIM	1.550611
-1.11185	NDN w NUA w VPR	0.4579709
-2.497621	NUA w NUA w NDA	0.6693496
-1.367287	NUA w NUA w NDG	0
-2.196591	NUA w NUA w NDN	0.6934516
-0.7417458	NUA w NUA w NUA	0
-1.145438	NUA w NUA w NUG	0
-1.594531	NUA w NUA w NUN	-0.2584777
-0.820927	NUA w NUA w P	0
-2.321529	NUA w NUA w P+NDG	-0.237228
-2.497621	NUA w NUA w SUP	0
-0.5811667	NUA w NUA w T	0.4826095
-1.293501	NUA w NUA w VID	0
-2.196591	NUA w NUA w VIJ	-0.5318427
-1.367287	NUA w NUA w VIM	0.3635224
-1.652523	NUA w NUA w VIS	0.4036924
-0.9065561	NUA w NUA w VPR	-0.2092073
-1.278754	NUG w NUA w NDG	0
-2.080386	NUG w NUA w NDN	-0.07962012
-0.7249983	NUG w NUA w NUA	0
-1.080386	NUG w NUA w NUG	-0.3289254
-1.516114	NUG w NUA w NUN	0
-0.9240388	NUG w NUA w P	0
-2.080386	NUG w NUA w P+NDG	0.924053
-0.5161145	NUG w NUA w T	0.6573946
-1.327058	NUG w NUA w VID	0
-1.955447	NUG w NUA w VIJ	0
-1.411379	NUG w NUA w VIM	0.6345891
-2.080386	NUG w NUA w VIS	0.2633744
-1.013439	NUG w NUA w VPR	0.1321174
-1.166331	NUN w NUA w NDG	0
-0.8372727	NUN w NUA w NUA	0
-1.111974	NUN w NUA w NUG	0
-1.063669	NUN w NUA w NUN	0
-0.9806948	NUN w NUA w P	0
-0.4973246	NUN w NUA w T	0.8514591
-1.564271	NUN w NUA w VID	0.5532494
-2.041393	NUN w NUA w VIJ	1.217052
-1.497325	NUN w NUA w VIM	1.464174
-0.9444827	NUN w NUA w VPR	0.2904798
-2.296665	P w NUA w NDA	0.6693496
-1.255273	P w NUA w NDG	0
-1.819544	P w NUA w NDN	0.7914885
-0.6734159	P w NUA w NUA	0
-1.217484	P w NUA w NUG	0
-1.643453	P w NUA w NUN	-0.02802873
-0.8123654	P w NUA w P	0
-0.6532125	P w NUA w T	0.7533276
-1.166331	P w NUA w VID	-0.448608
-1.694605	P w NUA w VIJ	0.5228788
-1.393575	P w NUA w VIM	0.5802314
-1.643453	P w NUA w VIS	0.6255412
-1.017912	P w NUA w VPR	0.09735525
-0.4771213	P+NDG w NUA w NUA
-0.6532125	P+NUG w NUA w P	0
-0.3521825	P+NUG w NUA w T	0.6937535
-1.71391	T w NUA w EXP	0
-2.31597	T w NUA w NDA	0.3860814
-0.9785111	T w NUA w NDG	0
-1.771902	T w NUA w NDN	0.06069779
-0.9051931	T w NUA w NUA	0
-1.386551	T w NUA w NUG	-0.3816316
-1.386551	T w NUA w NUN	0
-0.750713	T w NUA w P	0
-0.503057	T w NUA w T	0
-1.338247	T w NUA w VID	0
-1.838849	T w NUA w VIJ	0.363178
-1.804087	T w NUA w VIM	0.6645523
-2.01494	T w NUA w VIS	0.6255412
-1.162156	T w NUA w VPR	0
-2.390052	VID w NUA w EXP	0
-2.089021	VID w NUA w NDA	0.3860814
-0.8917409	VID w NUA w NDG	0
-1.787992	VID w NUA w NDN	0.6487343
-0.8986898	VID w NUA w NUA	0
-1.078298	VID w NUA w NUG	0
-1.649689	VID w NUA w NUN	0
-0.8522324	VID w NUA w P	0
-0.532719	VID w NUA w T	0.5413496
-1.047629	VID w NUA w VID	0
-1.577138	VID w NUA w VIM	0.6645523
-2.089021	VID w NUA w VIS	-0.4291804
-1.293141	VID w NUA w VPR	0.2734464
-0.8217318	VIJ w NUA w NDG	0
-1.997823	VIJ w NUA w NDN	0.9767197
-0.7306514	VIJ w NUA w NUA	0
-1.094733	VIJ w NUA w NUG	-0.0680126
-1.599883	VIJ w NUA w NUN	0.19382
-0.8516951	VIJ w NUA w P	0
-0.6360952	VIJ w NUA w T	1.03062
-1.520702	VIJ w NUA w VID	0.2203987
-1.219672	VIJ w NUA w VIJ	0.363178
-1.395763	VIJ w NUA w VIM	0.8564379
-1.520702	VIJ w NUA w VPR	0.9102685
-2.088136	VIM w NUA w NDA
-0.6901961	VIM w NUA w NDG	0
-2.088136	VIM w NUA w NDN	0.9767197
-0.8840161	VIM w NUA w NUA	0
-1.027438	VIM w NUA w NUG	-0.1992915
-2.088136	VIM w NUA w NUN	0.7119019
-0.8328636	VIM w NUA w P	0
-0.5379077	VIM w NUA w T	0.8453851
-1.787106	VIM w NUA w VID	0.4552124
-1.690196	VIM w NUA w VIJ	0.6989701
-1.275223	VIM w NUA w VIM	0.6645523
-1.787106	VIM w NUA w VPR	-0.3205442
-0.8614885	VIS w NUA w NDG	0
-0.9542425	VIS w NUA w NUA	0
-1.431364	VIS w NUA w NUG	0.8159303
-1.975432	VIS w NUA w NUN	0.7119019
-0.7579479	VIS w NUA w P	0
-1.975432	VIS w NUA w P+NUG	0.8191118
-0.4702818	VIS w NUA w T	0.8898041
-1.373372	VIS w NUA w VID	0.4104952
-1.674402	VIS w NUA w VIM	-0.1982837
-1.197281	VIS w NUA w VIS	0.4658403
-1.498311	VIS w NUA w VPR	1.243119
-2.721811	VPR w NUA w EXP	0
-2.323871	VPR w NUA w NDA	0.1512676
-1.209927	VPR w NUA w NDG	0
-1.818721	VPR w NUA w NDN	0.03266907
-0.6426294	VPR w NUA w NUA	0
-1.027205	VPR w NUA w NUG	0
-1.744087	VPR w NUA w NUN	0
-0.7949539	VPR w NUA w P	0
-2.721811	VPR w NUA w P+NDG	0.8191118
-2.545719	VPR w NUA w P+NUG	0.924053
-0.6725926	VPR w NUA w T	0.3524694
-1.575683	VPR w NUA w VID	0
-2.545719	VPR w NUA w VIJ	0.1607121
-1.399591	VPR w NUA w VIM	0.1772119
-2.119751	VPR w NUA w VIS	0.9917289
-0.9156306	VPR w NUA w VPR	0
-0.8782664	<s> w NUG w NDG	0
-1.355388	<s> w NUG w NUA	-0.6966205
-0.3701109	<s> w NUG w NUG	0
-1.230449	<s> w NUG w NUN	-1.522818
-1.054358	<s> w NUG w P	0
-0.7185656	<s> w NUG w T	2.066326
-1.531479	<s> w NUG w VID	0.1602074
-1.720159	NDG w NUG w NDA	0.7652365
-0.5298276	NDG w NUG w NDG	0
-1.720159	NDG w NUG w NDN	0.9917426
-1.544068	NDG w NUG w NUA	0.4646605
-0.9420081	NDG w NUG w NUG	0
-1.419129	NDG w NUG w NUN	-1.522818
-1.066947	NDG w NUG w P	0
-0.640978	NDG w NUG w T	1.814514
-1.021189	NDG w NUG w VID	-0.5797232
-1.720159	NDG w NUG w VIM	1.245081
-1.720159	NDG w NUG w VIS	1.597263
-1.544068	NDG w NUG w VPR	0.4829314
-0.60206	NDN w NUG w NUG	0.3214041
-0.60206	NDN w NUG w T
-1.976579	NUA w NUG w NDA	-0.9836582
-1.323367	NUA w NUG w NDG	0
-1.733541	NUA w NUG w NDN	0.9053059
-0.897398	NUA w NUG w NUA	0
-0.871069	NUA w NUG w NUG	0
-1.675549	NUA w NUG w NUN	0
-0.9254267	NUA w NUG w P	0
-2.277609	NUA w NUG w P+NUG	0.7813233
-0.5067572	NUA w NUG w T	1.136907
-1.624397	NUA w NUG w VID	-0.5797232
-1.236217	NUA w NUG w VIM	0.1434221
-1.976579	NUA w NUG w VIS	-0.1516316
-0.9658554	NUA w NUG w VPR	0.1865568
-2.320146	NUG w NUG w NDA	0.4819683
-1.378138	NUG w NUG w NDG	0
-2.223236	NUG w NUG w NDN	0.5695339
-1.008392	NUG w NUG w NUA	0
-0.7578534	NUG w NUG w NUG	0
-0.939935	NUG w NUG w NUN	0
-1.109293	NUG w NUG w P	0
-0.6147102	NUG w NUG w T	0.9028239
-1.035716	NUG w NUG w VID	0
-2.144055	NUG w NUG w VIJ	1.111002
-1.459808	NUG w NUG w VIM	0.04275191
-2.019116	NUG w NUG w VIS	0.9030899
-1.030112	NUG w NUG w VPR	0
-2.138303	NUN w NUG w EXP	0
-1.740363	NUN w NUG w NDA	0
-1.263241	NUN w NUG w NDG	0
-1.740363	NUN w NUG w NDN	0.4736607
-1.263241	NUN w NUG w NUA	0
-0.7150568	NUN w NUG w NUG	0
-0.9341827	NUN w NUG w NUN	0
-0.8952646	NUN w NUG w P	0
-2.138303	NUN w NUG w P+NDG	0.4802933
-0.5820002	NUN w NUG w T	1.349131
-1.235213	NUN w NUG w VID	-0.8101722
-1.962211	NUN w NUG w VIM	0.1887407
-1.208884	NUN w NUG w VPR	0
-2.861136	P w NUG w EXP	0
-2.107808	P w NUG w NDA	-0.506173
-0.8647702	P w NUG w NDG	0
-1.639287	P w NUG w NDN	0
-1.150736	P w NUG w NUA	0
-0.7433125	P w NUG w NUG	0
-1.285179	P w NUG w NUN	0
-1.025445	P w NUG w P	0
-2.940317	P w NUG w P+NDG	-0.03778857
-3.338257	P w NUG w P+NUG	0.7813233
-0.5881347	P w NUG w T	0.1609156
-1.255472	P w NUG w VID	0
-2.207923	P w NUG w VIJ	0.1091444
-1.657016	P w NUG w VIM	0
-1.940317	P w NUG w VIS	0.1583624
-1.103993	P w NUG w VPR	-0.7359535
-0.3802112	P+NDG w NUG w NDG	0
-0.7781513	P+NDG w NUG w NUG	0.3214041
-0.60206	P+NDG w NUG w T	1.896045
-1.135663	P+NUG w NUG w NDG	0.5303149
-0.7676858	P+NUG w NUG w NUG	-0.6855016
-0.8346326	P+NUG w NUG w NUN	0
-1.135663	P+NUG w NUG w P	0
-1.311754	P+NUG w NUG w P+NUG
-0.8346326	P+NUG w NUG w T	2.767154
-0.7676858	P+NUG w NUG w VID	0.07377067
-1.311754	P+NUG w NUG w VIM	1.245081
-1.311754	P+NUG w NUG w VIS	1.597263
-1.311754	P+NUG w NUG w VPR	1.539271
-0.1760913	SUP w NUG w NUA	0.3597194
-1.511883	T w NUG w NDG	0
-1.812913	T w NUG w NDN	-0.06459725
-1.290035	T w NUG w NUA	0
-0.6772507	T w NUG w NUG	0
-1.335792	T w NUG w NUN	-0.5138541
-0.7715207	T w NUG w P	0
-1.812913	T w NUG w P+NUG	-0.2750165
-0.5191826	T w NUG w T	1.434303
-1.290035	T w NUG w VID	0
-1.812913	T w NUG w VIM	0.1887407
-1.989005	T w NUG w VIS	1.597263
-1.143907	T w NUG w VPR	0
-0.8016323	VID w NUG w NDG	-0.6309661
-0.3756636	VID w NUG w P	0
-0.9777236	VID w NUG w T	2.952385
-0.9777236	VID w NUG w VID	0.1602074
-0.39794	VIJ w NUG w NDG	0.4253738
-0.1760913	VIM w NUG w VIM	1.245081
-0.1760913	VIS w NUG w VIS	1.597263
-1.113943	VPR w NUG w NDA	0.7652365
-0.9378521	VPR w NUG w NDG	0.5303149
-1.113943	VPR w NUG w NDN	0.9917426
-1.113943	VPR w NUG w NUA
-1.113943	VPR w NUG w NUG	0.3214041
-1.113943	VPR w NUG w NUN	0.2260765
-0.6368221	VPR w NUG w P	0
-1.113943	VPR w NUG w T	2.952385
-0.9378521	VPR w NUG w VPR	0.4829314
-0.9848825	<s> w NUN w NDG	-1.100296
-0.9414168	<s> w NUN w NDN	0
-1.865696	<s> w NUN w NUA	-0.09154636
-1.263636	<s> w NUN w NUG	0
-0.9848825	<s> w NUN w NUN	0
-0.9212134	<s> w NUN w P	0
-2.263636	<s> w NUN w P+NDG	0.1378706
-0.3771453	<s> w NUN w T	0.9272709
-1.865696	<s> w NUN w VID	0.1856366
-1.485485	<s> w NUN w VIM	0.1760913
-1.786515	<s> w NUN w VPR	1.319995
-0.9133092	NDA w NUN w NDG	0
-1.934498	NDA w NUN w NDN
-1.281286	NDA w NUN w NUG	-0.04152042
-0.3379014	NDA w NUN w NUN	0
-0.9567748	NDA w NUN w P	0
-0.8041647	NDA w NUN w T	1.670445
-1.457377	NDA w NUN w VID	0.5184873
-1.39043	NDA w NUN w VPR	0.9477708
-0.9227447	NDG w NUN w NDG	0
-1.655138	NDG w NUN w NDN	0.1188645
-1.354108	NDG w NUN w NUA	-0.3133951
-1.178017	NDG w NUN w NUG	0
-0.6913506	NDG w NUN w NUN	0
-0.7630438	NDG w NUN w P	0
-0.5617167	NDG w NUN w T	1.325211
-1.451018	NDG w NUN w VID	0.009545326
-1.655138	NDG w NUN w VIM	0.5118834
-1.575957	NDG w NUN w VPR	1.319995
-0.837949	NDN w NUN w NDG	0
-1.603866	NDN w NUN w NDN	0
-1.536919	NDN w NUN w NUA	-0.1309203
-1.302836	NDN w NUN w NUG	-0.1554638
-0.48439	NDN w NUN w NUN	0
-0.8138153	NDN w NUN w P	0
-2.080987	NDN w NUN w P+NDG
-0.6744469	NDN w NUN w T	1.401599
-1.904896	NDN w NUN w VIM	-0.02637458
-1.478927	NDN w NUN w VPR	0.8110535
-1.826075	NUA w NUN w NDA	0.7099674
-1.224015	NUA w NUN w NDG	0
-1.525045	NUA w NUN w NDN	-1.111948
-0.9229848	NUA w NUN w NUA	0
-0.9510136	NUA w NUN w NUG	-0.2456405
-0.7121314	NUA w NUN w NUN	0
-0.765377	NUA w NUN w P	0
-0.7291648	NUA w NUN w T	1.702629
-1.282007	NUA w NUN w VID	0.1462626
-1.826075	NUA w NUN w VIM
-1.525045	NUA w NUN w VPR	-0.2436681
-2.117271	NUG w NUN w NDA	0.7099674
-1.117271	NUG w NUN w NDG	-0.8427312
-1.64015	NUG w NUN w NDN	0.4517153
-1.214181	NUG w NUN w NUA	0
-1.075879	NUG w NUN w NUG	0
-0.7462034	NUG w NUN w NUN	0
-0.7193313	NUG w NUN w P	0
-2.117271	NUG w NUN w P+NDG	0.1378706
-0.6329715	NUG w NUN w T	1.325211
-1.376909	NUG w NUN w VID	-0.1153933
-1.719331	NUG w NUN w VIM	0.5118834
-1.94118	NUG w NUN w VIS	0.08153081
-1.24221	NUG w NUN w VPR	0.5611759
-1.386499	NUN w NUN w NDG	0
-1.541401	NUN w NUN w NDN	0
-1.272556	NUN w NUN w NUA	0
-1.06428	NUN w NUN w NUG	0
-0.6541052	NUN w NUN w NUN	0
-0.8067154	NUN w NUN w P	0
-0.566955	NUN w NUN w T	0.993751
-1.325801	NUN w NUN w VID	-0.4164234
-2.210408	NUN w NUN w VIJ	0.005810022
-1.511438	NUN w NUN w VIM	0.08591461
-2.085469	NUN w NUN w VIS	-0.611024
-1.345106	NUN w NUN w VPR	0.4035681
-1.053945	P w NUN w NDG	0
-1.767156	P w NUN w NDN	0.4517153
-1.369216	P w NUN w NUA	-0.5175151
-1.290035	P w NUN w NUG	-0.2967929
-0.6588164	P w NUN w NUN	0
-0.8732092	P w NUN w P	0
-0.5721793	P w NUN w T	1.139879
-1.165096	P w NUN w VID	0
-1.943247	P w NUN w VIJ	-0.6867448
-1.943247	P w NUN w VIM	-0.7189294
-1.767156	P w NUN w VIS	0.9526395
-1.202884	P w NUN w VPR	0.4035681
-0.4149733	P+NDG w NUN w NUN	-0.504734
-0.8129134	P+NDG w NUN w P	0
-0.4149733	P+NDG w NUN w T	2.339451
-0.1760913	P+NUG w NUN w NDG	-0.66664
-0.7201593	P+NUG w NUN w T	1.108639
-2.567026	T w NUN w NDA	-1.038927
-0.8054744	T w NUN w NDG	0
-1.890333	T w NUN w NDN	0
-1.376695	T w NUN w NUA	0
-1.383757	T w NUN w NUG	0
-0.6934152	T w NUN w NUN	0
-0.7659658	T w NUN w P	0
-2.868056	T w NUN w P+NDG
-2.265996	T w NUN w P+NUG	0.4607309
-0.5758003	T w NUN w T	0.52321
-1.436693	T w NUN w VID	0
-2.868056	T w NUN w VIJ	1.06215
-1.788875	T w NUN w VIM	0
-2.868056	T w NUN w VIS
-1.376695	T w NUN w VPR	-0.02709568
-1.674402	VID w NUN w NDA	0.4266993
-1.322219	VID w NUN w NDG	0
-1.577492	VID w NUN w NDN	0
-1.046013	VID w NUN w NUA	0
-1.021189	VID w NUN w NUG	-0.2967929
-1.021189	VID w NUN w NUN	-0.9482353
-0.6853972	VID w NUN w P	0
-0.552186	VID w NUN w T	1.385209
-1.100371	VID w NUN w VID	0
-1.799341	VID w NUN w VIM	-0.02637458
-1.498311	VID w NUN w VPR	0
-1.217484	VIJ w NUN w NDG	0.03418744
-1.694605	VIJ w NUN w NDN	0.6369464
-1.150537	VIJ w NUN w NUA	-0.1309203
-1.092545	VIJ w NUN w NUG	0.004237056
-0.9542425	VIJ w NUN w NUN	-0.7108743
-0.6946052	VIJ w NUN w P	0
-0.5976952	VIJ w NUN w T	1.702629
-1.296665	VIJ w NUN w VID	0.1856366
-1.092545	VIJ w NUN w VIJ	0.3679767
-1.694605	VIJ w NUN w VIM	1.029965
-1.393575	VIJ w NUN w VPR	-0.2436681
-0.79588	VIM w NUN w NDN	0
-1	VIM w NUN w NUG	0
-1.09691	VIM w NUN w NUN	-1.678446
-0.8538719	VIM w NUN w P	0
-0.5850267	VIM w NUN w T	1.971475
-1.39794	VIM w NUN w VID	0.7037185
-0.9208187	VIM w NUN w VIM	0.8447341
-1.104292	VIS w NUN w NDG	0
-1.472269	VIS w NUN w NDN	-0.4193934
-1.104292	VIS w NUN w NUA	-0.1309203
-1.104292	VIS w NUN w NUG	0.1409544
-0.7732987	VIS w NUN w NUN	0
-0.8702087	VIS w NUN w P	0
-0.486992	VIS w NUN w T	1.640481
-1.34733	VIS w NUN w VIS	-0.611024
-1.472269	VIS w NUN w VPR	0.4488868
-1.771377	VPR w NUN w NDA	0
-0.9984274	VPR w NUN w NDG	0
-1.616475	VPR w NUN w NDN	-0.4252034
-0.9779863	VPR w NUN w NUA	0
-1.169317	VPR w NUN w NUG	0
-1.132176	VPR w NUN w NUN	0
-0.6574341	VPR w NUN w P	0
-2.616476	VPR w NUN w P+NDG	-0.03822061
-1.963263	VPR w NUN w P+NUG	0.4607309
-0.6526877	VPR w NUN w T	0.850431
-1.537294	VPR w NUN w VID	-0.4341522
-1.386027	VPR w NUN w VIM	-0.2414442
-2.440384	VPR w NUN w VIS	0.08153081
-1.091431	VPR w NUN w VPR	-0.06077886
-0.664642	<s> w P w NDG	-0.9393022
-0.2300731	<s> w P w NUG	-0.755553
-1.108339	<s> w P w NUN	-0.5046996
-2.062582	<s> w P w P	0
-1.041393	<s> w P w T	1.17653
-2.062582	<s> w P w VID	0.06659856
-0.1760913	EXP w P w NUG	0.6030164
-2.08636	NDA w P w NDA	-0.210899
-0.4771213	NDA w P w NDG	0
-1.417353	NDA w P w NUA	0
-0.3130611	NDA w P w NUG	0
-1.522088	NDA w P w NUN	-0.3051271
-1.241262	NDA w P w T	1.17653
-2.08636	NDA w P w VID	-0.9897413
-1.78533	NDA w P w VIS	1.575889
-1.78533	NDA w P w VPR	1.158926
-0.5209528	NDG w P w NDG	0
-2.273001	NDG w P w NDN	0.6039965
-1.574031	NDG w P w NUA	-0.2299666
-0.3187588	NDG w P w NUG	0
-1.39794	NDG w P w NUN	-0.430066
-1.971971	NDG w P w P	0
-1.055517	NDG w P w T	0.9874735
-1.875061	NDG w P w VID	0
-2.273001	NDG w P w VIM	1.614992
-1.79588	NDG w P w VIS	1.575889
-1.971971	NDG w P w VPR	-0.4047379
-1.816715	NDN w P w NDA	0.287985
-0.6489754	NDN w P w NDG	0
-2.059753	NDN w P w NDN	0.3207284
-1.883661	NDN w P w NUA	-0.008117914
-0.2907448	NDN w P w NUG	0
-1.758723	NDN w P w NUN	-0.1801885
-1.515685	NDN w P w P	0
-0.9897148	NDN w P w T	0.8377111
-1.883661	NDN w P w VID	0
-1.883661	NDN w P w VIM	1.429761
-2.184691	NDN w P w VIS	0.70478
-1.40654	NDN w P w VPR	0.3489536
-2.467361	NUA w P w NDA	-0.1196559
-0.519601	NUA w P w NDG	0
-2.245513	NUA w P w NDN	0
-1.529509	NUA w P w NUA	0
-0.4091885	NUA w P w NUG	0
-1.714034	NUA w P w NUN	-0.4563949
-1.582755	NUA w P w P	0
-0.8545775	NUA w P w T	0
-1.68921	NUA w P w VID	0
-2.245513	NUA w P w VIM	1.09691
-1.68921	NUA w P w VIS	0.7659167
-1.439333	NUA w P w VPR	0.09907615
-0.5368094	NUG w P w NDG	0
-2.317367	NUG w P w NDN	0.7089376
-1.891398	NUG w P w NUA	0.1819786
-0.3188169	NUG w P w NUG	0
-1.618397	NUG w P w NUN	-0.430066
-1.680545	NUG w P w P	0
-0.9371555	NUG w P w T	0.6556295
-2.317367	NUG w P w VID	0.1216933
-2.493458	NUG w P w VIJ	1.06215
-2.317367	NUG w P w VIM	0.558652
-1.590368	NUG w P w VIS	0.7907403
-2.016337	NUG w P w VPR	1.158926
-2.230449	NUN w P w NDA	0
-0.5029077	NUN w P w NDG	0
-2.628389	NUN w P w NDN	0.6039965
-1.783291	NUN w P w NUA	-0.3760947
-0.3439582	NUN w P w NUG	0
-1.424269	NUN w P w NUN	0
-1.69897	NUN w P w P	0
-1.037324	NUN w P w T	0.6213253
-1.6072	NUN w P w VID	0
-2.452298	NUN w P w VIM	0.558652
-2.230449	NUN w P w VIS	1.243038
-1.628389	NUN w P w VPR	0.2820069
-0.5855256	P w P w NDG	0
-1.826075	P w P w NDN	0
-1.570802	P w P w NUA	0
-0.2440114	P w P w NUG	0
-1.483652	P w P w NUN	-0.2673386
-1.246291	P w P w T	1.217922
-1.922985	P w P w VID	0
-1.826075	P w P w VIS	1.243038
-2.047924	P w P w VPR	0.2878169
-0.69897	P+NDG w P w NDG	0.4995985
-0.154902	P+NDG w P w NUG	0.5636424
-0.5228788	P+NUG w P w NDG	-0.5567414
-0.2218488	P+NUG w P w NUG	0.6030164
-2.693434	T w P w NDA	0.950382
-0.5783783	T w P w NDG	0
-1.966435	T w P w NDN	-0.3400542
-1.590771	T w P w NUA	0
-0.3529897	T w P w NUG	0
-1.08777	T w P w NUN	0
-1.438161	T w P w P	0
-1.009187	T w P w T	0.3545995
-1.652041	T w P w VID	0
-2.568495	T w P w VIM	-0.1339028
-2.471585	T w P w VIS	1.243038
-2.129162	T w P w VPR	0
-2.794488	VID w P w EXP	0
-2.25042	VID w P w NDA	0.287985
-0.5770041	VID w P w NDG	0
-1.816764	VID w P w NDN	0
-1.171239	VID w P w NUA	0
-0.3623208	VID w P w NUG	0
-1.414277	VID w P w NUN	0
-1.289338	VID w P w P	0
-2.618397	VID w P w P+NDG	-0.538258
-2.794488	VID w P w P+NUG	0.2170519
-1.12239	VID w P w T	0.5412288
-1.773299	VID w P w VID	0
-2.794488	VID w P w VIJ	1.06215
-2.317367	VID w P w VIM	1.429761
-2.192428	VID w P w VIS	1.066947
-1.94939	VID w P w VPR	0.4281348
-0.5642715	VIJ w P w NDG	0
-1.028804	VIJ w P w NUA	0
-0.4589283	VIJ w P w NUG	0
-1.317599	VIJ w P w NUN	-0.5046996
-1.458928	VIJ w P w P	0
-0.8404778	VIJ w P w T	0.7785897
-2.271842	VIJ w P w VID	0.06659856
-1.79472	VIJ w P w VIJ	0.8769187
-2.271842	VIJ w P w VIM	1.614992
-1.873902	VIJ w P w VIS	1.243038
-1.873902	VIJ w P w VPR	0.8260748
-2.060698	VIM w P w NDA	-0.9034538
-0.6096794	VIM w P w NDG	0
-1.157608	VIM w P w NUA	0
-0.3574065	VIM w P w NUG	0
-1.884607	VIM w P w NUN	0.3287535
-1.361728	VIM w P w P	0
-0.9725618	VIM w P w T	0.8199823
-2.361728	VIM w P w VID
-2.361728	VIM w P w VIJ	1.06215
-1.458638	VIM w P w VIM	0.6446123
-1.81766	VIM w P w VIS	1.203664
-1.963788	VIM w P w VPR	0.8260748
-1.781755	VIS w P w NDA	0.6602097
-0.6056641	VIS w P w NDG	0
-1.957847	VIS w P w NDN	0.3207284
-1.041393	VIS w P w NUA	0
-0.4771213	VIS w P w NUG	-0.7016177
-1.217484	VIS w P w NUN	0
-1.413779	VIS w P w P	0
-0.9066941	VIS w P w T	0.8561945
-2.082785	VIS w P w VID	-0.9897413
-1.656817	VIS w P w VIM	0.9208187
-1.656817	VIS w P w VIS	1.066947
-1.656817	VIS w P w VPR	0.6499836
-3.048053	VPR w P w EXP	0
-1.549743	VPR w P w NDA	0
-0.6364335	VPR w P w NDG	0
-1.60872	VPR w P w NDN	0
-1.126367	VPR w P w NUA	0
-0.3810675	VPR w P w NUG	0
-1.456989	VPR w P w NUN	0
-1.366812	VPR w P w P	0
-1.072621	VPR w P w T	0.2401989
-1.817604	VPR w P w VID	0
-2.747023	VPR w P w VIJ	-0.6867448
-2.07033	VPR w P w VIM	0.5740312
-2.23514	VPR w P w VIS	0.8750612
-1.516574	VPR w P w VPR	-0.2282828
-0.4771213	<s> w P+NDG w NDG	-0.04547605
-0.7201593	<s> w P+NDG w NUA	-1.611024
-0.7201593	<s> w P+NDG w NUG	0.5706058
-1.021189	<s> w P+NDG w NUN	0.4669294
-0.845098	<s> w P+NDG w T	0.1749525
-0.7403627	NDA w P+NDG w NUA	-0.03822061
-0.5642715	NDA w P+NDG w T	0.1749525
-0.7403627	NDA w P+NDG w VPR	0.8860587
-0.39794	NDN w P+NDG w NDG	0.04096064
-0.7403627	NUA w P+NDG w P+NUG	0.4389006
-0.5642715	NUA w P+NDG w T	0.1749525
-0.5642715	NUA w P+NDG w VPR	-0.1702812
-0.3521825	NUG w P+NDG w T	-0.5176023
-0.4771213	NUN w P+NDG w P	0
-0.4771213	NUN w P+NDG w VPR	0.8860587
-0.39794	P w P+NDG w T	1.231292
-0.7781513	T w P+NDG w NUG	0.853874
-0.4771213	T w P+NDG w T	-0.5176023
-0.5118834	VID w P+NDG w NDG	-0.2423075
-0.8129134	VID w P+NDG w NUN
-0.8129134	VID w P+NDG w T	1.231292
-0.8129134	VID w P+NDG w VID	0.4389006
-0.30103	VIJ w P+NDG w T	0.1749525
-0.39794	VIM w P+NDG w NUG	0.853874
-0.544068	VIS w P+NDG w NUA
-0.3679768	VIS w P+NDG w NUG	-0.2024659
-0.6532125	VPR w P+NDG w NUA	0
-0.6532125	VPR w P+NDG w NUN	-1.281965
-0.9542425	VPR w P+NDG w P	0
-0.7781513	VPR w P+NDG w T	0.1749525
-0.9542425	VPR w P+NDG w VPR	0.8860587
-1.217484	<s> w P+NUG w NDA	0.3419906
-1.217484	<s> w P+NUG w NDG	0.08838528
-1.217484	<s> w P+NUG w NDN	0.7399306
-0.819544	<s> w P+NUG w NUG	0
-0.4771213	<s> w P+NUG w NUN	-0.2455127
-0.7403627	<s> w P+NUG w T	1.156759
-1.217484	<s> w P+NUG w VID	-0.05594939
-0.7781513	NDG w P+NUG w NDN	0.7399306
-0.30103	NDG w P+NUG w NUG	0.3418055
-0.60206	NDG w P+NUG w NUN	-0.5205292
-0.60206	NDN w P+NUG w NDG	0.1031498
-0.60206	NDN w P+NUG w NUG	-0.5293031
-0.7781513	NDN w P+NUG w P	0
-0.60206	NDN w P+NUG w T	0.2856507
-0.5642715	NUA w P+NUG w NUG	-0.5293031
-0.5642715	NUA w P+NUG w VID	0.2708405
-0.69897	NUG w P+NUG w T	1.341991
-0.5228788	NUG w P+NUG w VID	0.2708405
-0.6197888	NUN w P+NUG w NDG	-0.1870225
-0.6197888	NUN w P+NUG w NUG	0
-0.9208187	NUN w P+NUG w P	0
-1.09691	NUN w P+NUG w T	1.341991
-0.9208187	NUN w P+NUG w VID	0.2708405
-1.09691	NUN w P+NUG w VIM	0.2839987
-0.1249387	P w P+NUG w T	0.2856507
-0.30103	P+NDG w P+NUG w NDG	0.08838528
-1.021189	T w P+NUG w NDG	0.08838528
-1.021189	T w P+NUG w NDN	0.7399306
-0.6232493	T w P+NUG w NUG	0.008954823
-0.544068	T w P+NUG w T	1.156759
-1.021189	T w P+NUG w VPR	0.3419906
-0.6232493	VID w P+NUG w NDG	0
-0.4771213	VID w P+NUG w NUG	-0.03041911
-1.021189	VID w P+NUG w NUN	0.5358106
-1.021189	VID w P+NUG w P	0
-0.845098	VID w P+NUG w T	0.2856507
-0.39794	VIJ w P+NUG w T	1.341991
-0.845098	VIM w P+NUG w NUA	0.4802933
-0.447158	VIM w P+NUG w NUG	0
-0.845098	VIM w P+NUG w T	1.341991
-0.6690068	VIM w P+NUG w VIM	0.3889398
-0.7323937	VPR w P+NUG w NDG	-0.3338234
-0.9542425	VPR w P+NUG w NUA	0.5852345
-0.8293038	VPR w P+NUG w NUG	0
-1.130334	VPR w P+NUG w NUN
-0.6532125	VPR w P+NUG w T	1.156759
-1.130334	VPR w P+NUG w VID	0.1658994
-0.8293038	VPR w P+NUG w VPR	0
-0.1249387	<s> w SUP w NUG	-0.7143492
-0.1760913	NUA w SUP w VID	-0.1509249
-0.3309932	T w SUP w VID	-0.1643127
-0.8750613	T w SUP w VIJ	0.2170519
-0.4771213	T w SUP w VPR	0
-1.679541	<s> w T w NDA	-0.3264829
-3.184691	<s> w T w NDG	0.8755932
-1.551223	<s> w T w NDN	0
-1.561442	<s> w T w NUA	-1.094936
-2.023324	<s> w T w NUG	-0.303103
-1.252725	<s> w T w NUN	0
-1.425024	<s> w T w P	0
-3.184691	<s> w T w P+NDG
-3.0086	<s> w T w P+NUG	-0.4133192
-2.786752	<s> w T w SUP	0
-0.6912334	<s> w T w T	-0.453522
-0.8412828	<s> w T w VID	0
-1.087781	<s> w T w VIJ	-0.8389702
-2.184691	<s> w T w VIM	0.1021956
-1.795525	<s> w T w VIS	-0.1346986
-0.4384466	<s> w T w VPR	-1.216028
-0.91833	EXP w T w NDN	-0.1121944
-1.462398	EXP w T w NUN	0.5775492
-1.286307	EXP w T w T	1.025253
-0.860338	EXP w T w VID	-0.3630493
-1.462398	EXP w T w VIM	1.164346
-0.8091855	EXP w T w VIS	0.5642715
-0.3484547	EXP w T w VPR	0.3998828
-1.22617	NDA w T w NDA	-0.08177114
-1.291111	NDA w T w NDN	0
-1.481443	NDA w T w NUA	0
-1.703291	NDA w T w NUG	0.06007493
-1.074902	NDA w T w NUN	0
-1.402261	NDA w T w P	0
-2.180413	NDA w T w P+NDG	-1.163866
-0.9373746	NDA w T w T	0.4904042
-0.6301843	NDA w T w VID	0
-1.214271	NDA w T w VIJ	0
-2.305351	NDA w T w VIM	0.1080056
-1.351109	NDA w T w VIS	0.1329077
-0.6122109	NDA w T w VPR	-0.3419398
-1.43374	NDG w T w NDA	-0.2539321
-2.166134	NDG w T w NDG	0.1356626
-1.417946	NDG w T w NDN	0
-1.425771	NDG w T w NUA	0
-2.166134	NDG w T w NUG	0.1326256
-1.058924	NDG w T w NUN	0
-0.9758022	NDG w T w P	0
-2.865104	NDG w T w SUP	0
-0.8139514	NDG w T w T	-0.01244569
-0.7511606	NDG w T w VID	0
-1.183863	NDG w T w VIJ	-0.4260682
-2.124741	NDG w T w VIM	0.3452337
-1.43374	NDG w T w VIS	-0.1681223
-0.6233085	NDG w T w VPR	0
-1.50965	NDN w T w NDA	0.1440078
-2.1329	NDN w T w NDG	0.3575113
-1.400506	NDN w T w NDN	0
-1.083682	NDN w T w NUA	0
-2.1329	NDN w T w NUG	0.395867
-1.1243	NDN w T w NUN	0
-1.091507	NDN w T w P	0
-0.8232696	NDN w T w T	0.3330624
-0.7599878	NDN w T w VID	0
-1.43393	NDN w T w VIJ	0.1457301
-2.53084	NDN w T w VIM	1.164346
-1.313356	NDN w T w VIS	0.03279257
-0.5838965	NDN w T w VPR	0
-2.877947	NUA w T w EXP	0
-1.497736	NUA w T w NDA	0
-2.275887	NUA w T w NDG	0.5476078
-1.647498	NUA w T w NDN	0
-1.092617	NUA w T w NUA	0
-2.333879	NUA w T w NUG	0.8275122
-1.082067	NUA w T w NUN	0
-1.201253	NUA w T w P	0
-2.877947	NUA w T w P+NUG	-0.2020774
-0.806065	NUA w T w T	-0.03124928
-0.7590212	NUA w T w VID	0
-1.16614	NUA w T w VIJ	-0.4521337
-1.877947	NUA w T w VIM	0.1233848
-1.430789	NUA w T w VIS	0
-0.5901452	NUA w T w VPR	0
-1.610394	NUG w T w NDA	-0.1263533
-2.258211	NUG w T w NDG	0.1356626
-1.721092	NUG w T w NDN	0
-1.504884	NUG w T w NUA	-0.8730868
-1.379945	NUG w T w NUG	0
-1.075733	NUG w T w NUN	0
-1.151756	NUG w T w P	0
-2.911424	NUG w T w P+NUG	0.6430206
-2.911424	NUG w T w SUP	0
-0.846966	NUG w T w T	-0.02382541
-0.7810902	NUG w T w VID	0
-1.243971	NUG w T w VIJ	-0.4077795
-2.008334	NUG w T w VIM	0.2202948
-1.325963	NUG w T w VIS	-0.3222193
-0.524925	NUG w T w VPR	0
-1.526207	NUN w T w NDA	-0.104634
-2.33912	NUN w T w NDG	0.3575113
-1.526207	NUN w T w NDN	-0.8967292
-1.504487	NUN w T w NUA	0
-2.272173	NUN w T w NUG	0.3564931
-0.9470096	NUN w T w NUN	0
-1.083848	NUN w T w P	0
-2.64015	NUN w T w P+NUG	-0.4133192
-0.9050837	NUN w T w T	0.1268189
-0.7574358	NUN w T w VID	0
-1.384878	NUN w T w VIJ	0
-2.003328	NUN w T w VIM	0
-1.418301	NUN w T w VIS	-0.1346986
-0.5066111	NUN w T w VPR	0
-1.633029	P w T w NDA	0.1062193
-1.764308	P w T w NDG	-0.09478641
-1.672538	P w T w NDN	-0.6168885
-1.223905	P w T w NUA	0
-1.563393	P w T w NUG	-0.2731397
-1.137424	P w T w NUN	0
-1.361289	P w T w P	0
-2.693727	P w T w P+NDG	0.5850286
-0.8333889	P w T w T	0
-0.7492443	P w T w VID	0
-1.450689	P w T w VIJ	0
-1.818666	P w T w VIM	0.2202948
-1.331999	P w T w VIS	0
-0.5090355	P w T w VPR	0
-0.8750613	P+NDG w T w NUN	0.2942811
-1.176091	P+NDG w T w P	0
-0.7781513	P+NDG w T w VID	-0.5536558
-0.8750613	P+NDG w T w VIJ	-0.4482605
-0.39794	P+NDG w T w VPR	0.7520653
-1.290035	P+NUG w T w NDA	1.226361
-1.290035	P+NUG w T w NUA	0.574414
-1.113943	P+NUG w T w NUN	-0.4787906
-0.5496719	P+NUG w T w P	0
-0.8920946	P+NUG w T w VID	-0.09108478
-1.290035	P+NUG w T w VIM	1.164346
-0.5496719	P+NUG w T w VPR	0.7520653
-1.948474	T w T w NDA	0
-2.608526	T w T w NDG	0.3181373
-1.23878	T w T w NDN	0
-1.519126	T w T w NUA	0
-2.223175	T w T w NUG	-0.0564307
-0.857027	T w T w NUN	0
-0.9377502	T w T w P	0
-3.152594	T w T w P+NDG	0.5850286
-2.754654	T w T w P+NUG	0.220812
-0.9636656	T w T w T	-0.149699
-0.7741961	T w T w VID	0
-1.11917	T w T w VIJ	0
-2.374443	T w T w VIM	0
-1.283362	T w T w VIS	0
-0.6467661	T w T w VPR	0
-1.468347	VID w T w NDA	-0.1156294
-2.371437	VID w T w NDG	0
-1.479343	VID w T w NDN	0
-1.17278	VID w T w NUA	0
-1.111366	VID w T w NUN	0
-1.088136	VID w T w P	0
-0.752344	VID w T w T	0.02151632
-0.6294982	VID w T w VID	0
-1.748188	VID w T w VIJ	0.2384843
-1.956464	VID w T w VIM	0.2782868
-1.189594	VID w T w VIS	0
-0.7105718	VID w T w VPR	-0.5285889
-0.9008685	VIJ w T w NDA	-0.2125396
-1.989005	VIJ w T w NDG	-0.8733015
-1.444937	VIJ w T w NDN	-0.4707605
-0.9378521	VIJ w T w NUA	0
-2.290035	VIJ w T w NUG	0.9139489
-1.099703	VIJ w T w NUN	0
-1.059586	VIJ w T w P	0
-0.8276366	VIJ w T w T	0.5708107
-1.099703	VIJ w T w VID	0
-1.159701	VIJ w T w VIJ	0.1293398
-1.989005	VIJ w T w VIM	0.8810773
-1.549672	VIJ w T w VIS	0.4850903
-0.6934375	VIJ w T w VPR	-0.06638062
-1.108715	VIM w T w NDA	-0.1763273
-1.807685	VIM w T w NDN	-0.2946692
-1.006053	VIM w T w NUA	0
-2.460898	VIM w T w NUG	0.9139489
-0.976598	VIM w T w NUN	0
-1.080687	VIM w T w P	0
-2.062958	VIM w T w P+NUG	0.1249387
-0.9490145	VIM w T w T	0
-0.8534428	VIM w T w VID	0
-1.460898	VIM w T w VIJ	0.2596735
-1.6158	VIM w T w VIM	0.2483236
-1.682747	VIM w T w VIS	0.4503281
-0.5632707	VIM w T w VPR	0
-1.337459	VIS w T w NDA	0
-2.240549	VIS w T w NDG	0.8755932
-1.763428	VIS w T w NDN	-0.07282048
-0.8981265	VIS w T w NUA	0
-2.240549	VIS w T w NUG	0.9139489
-1.240549	VIS w T w NUN	0
-1.094421	VIS w T w P	0
-0.7027302	VIS w T w T	0
-1.064458	VIS w T w VID	0
-1.638489	VIS w T w VIJ	0.606461
-1.939519	VIS w T w VIM	-0.5845492
-1.262826	VIS w T w VIS	0.2855178
-0.545944	VIS w T w VPR	-0.1687535
-1.318792	VPR w T w NDA	0
-2.63266	VPR w T w NDG	0.3575113
-1.599236	VPR w T w NDN	0
-1.10632	VPR w T w NUA	0
-2.0306	VPR w T w NUG	-0.148201
-0.9568813	VPR w T w NUN	0
-0.9833248	VPR w T w P	0
-3.0306	VPR w T w P+NUG	0.6430206
-0.7925536	VPR w T w T	0
-0.9775213	VPR w T w VID	0
-1.32303	VPR w T w VIJ	-0.4521337
-1.787562	VPR w T w VIM	-0.1318876
-1.32303	VPR w T w VIS	-0.4485657
-0.6156264	VPR w T w VPR	0
-0.9373746	<s> w VID w NDA	0
-0.890378	<s> w VID w NDN	0
-0.890378	<s> w VID w NUA	0
-1.879383	<s> w VID w NUG	-0.707934
-1.481443	<s> w VID w NUN	-0.20412
-0.589348	<s> w VID w P	0
-1.879383	<s> w VID w P+NDG	0
-2.004321	<s> w VID w P+NUG	0.02601349
-0.589348	<s> w VID w T	1.173149
-1.578353	<s> w VID w VID	0.7477373
-2.180413	<s> w VID w VIS	0.8860587
-2.180413	<s> w VID w VPR	1.57878
-0.7501225	NDA w VID w NDA	0
-1.954242	NDA w VID w NDG	0.6941732
-1.352183	NDA w VID w NDN	0.03015238
-0.8402991	NDA w VID w NUA	-0.4320677
-1.556303	NDA w VID w NUN	0.01772875
-0.5925147	NDA w VID w P	0
-0.4844205	NDA w VID w T	1.292625
-0.8692317	NDG w VID w NDA	-0.8055695
-2.11227	NDG w VID w NDG	0.6941732
-1.20918	NDG w VID w NDN	0
-0.8335162	NDG w VID w NUA	0
-1.635149	NDG w VID w NUN	0.3505795
-0.5212052	NDG w VID w P	0
-0.5807909	NDG w VID w T	1.231927
-1.459057	NDG w VID w VID	0.3357921
-1.81124	NDG w VID w VPR	-0.170115
-0.9279135	NDN w VID w NDA	0
-1.20412	NDN w VID w NDN	0
-0.9822713	NDN w VID w NUA	0
-0.4956047	NDN w VID w P	0
-0.4862646	NDN w VID w T	1.389535
-1.681241	NDN w VID w VID	0.01938283
-1.681241	NDN w VID w VIS	-0.1702812
-0.9842057	NUA w VID w NDA	0
-0.9842057	NUA w VID w NDN	0
-0.8185799	NUA w VID w NUA	0
-1.477121	NUA w VID w NUN	-0.20412
-0.5563025	NUA w VID w P	0
-2.130334	NUA w VID w P+NUG	1.082353
-0.6532125	NUA w VID w T	1.285447
-1.285236	NUA w VID w VID	0.1597008
-1.732394	NUA w VID w VIM	0.7533276
-1.586266	NUA w VID w VPR	1.021324
-1.257125	NUG w VID w NDA	-0.3953951
-1.140619	NUG w VID w NDN	-0.2708776
-0.8395889	NUG w VID w NUA	0
-1.893947	NUG w VID w NUG	-0.01537919
-1.22494	NUG w VID w NUN	-0.3802113
-0.5198095	NUG w VID w P	0
-0.5648879	NUG w VID w T	1.257863
-1.52597	NUG w VID w VID	0.5182669
-1.769008	NUG w VID w VIM	-0.4774852
-1.672098	NUG w VID w VPR	1.060698
-1.214844	NUN w VID w NDA	0
-0.8346326	NUN w VID w NUA	-0.4150344
-1.311754	NUN w VID w NUN	-0.1583625
-0.429514	NUN w VID w P	0
-1.913814	NUN w VID w P+NUG	1.082353
-0.5246478	NUN w VID w T	1.371806
-1.737723	NUN w VID w VID	0.01938283
-1.612784	NUN w VID w VPR	-0.170115
-1.140927	P w VID w NDA	0
-1.140927	P w VID w NDN	0.2062436
-0.6403245	P w VID w NUA	0
-1.140927	P w VID w NUN	0.3505795
-0.5968588	P w VID w P	0
-0.6638056	P w VID w T	1.792023
-1.441957	P w VID w VID	1.180664
-1.618048	P w VID w VPR	1.57878
-0.1249387	P+NDG w VID w NDA	-0.5656763
-0.4771213	P+NUG w VID w P	0
-0.30103	P+NUG w VID w T	1.754367
-0.243038	SUP w VID w P	0
-2.576149	T w VID w EXP	0
-0.9944651	T w VID w NDA	0
-3.053271	T w VID w NDG	0.6941732
-1.073267	T w VID w NDN	0
-0.9359993	T w VID w NUA	0
-2.576149	T w VID w NUG	0.8557295
-1.21758	T w VID w NUN	0
-0.5433963	T w VID w P	0
-2.3543	T w VID w P+NDG	0
-2.400058	T w VID w P+NUG	0.3424227
-0.5535835	T w VID w T	0.2693727
-1.503042	T w VID w VID	0
-2.075547	T w VID w VIM	0.2304488
-2.576149	T w VID w VIS	0.3679768
-1.835787	T w VID w VPR	0.3073702
-1.139179	VID w VID w NDA	-0.249267
-1.248324	VID w VID w NDN	0.1668697
-0.8893017	VID w VID w NUA	0
-1.792392	VID w VID w NUG	1.040961
-1.394452	VID w VID w NUN	0.01772875
-0.5882717	VID w VID w P	0
-0.4599532	VID w VID w T	1.427324
-1.491362	VID w VID w VID	-0.673172
-1.792392	VID w VID w VIM	1.27141
-1.6163	VID w VID w VPR	0.5224398
-0.9777236	VIJ w VID w NDA
-0.9777236	VIJ w VID w NUN	0.5358106
-0.5006024	VIJ w VID w P	0
-0.6766936	VIJ w VID w T	1.061812
-0.9777236	VIJ w VID w VID	1.075723
-0.9294189	VIM w VID w NDA	0.4906636
-0.7533277	VIM w VID w NUN	-0.5205292
-0.3853509	VIM w VID w P	0
-0.9294189	VIM w VID w P+NUG	1.082353
-0.9294189	VIM w VID w T	2.810707
-0.3679768	VIS w VID w NUA	-0.3335035
-0.544068	VIS w VID w P	0
-0.9272848	VPR w VID w NDA	0
-1.608526	VPR w VID w NDN	0.2062436
-0.8761322	VPR w VID w NUA	-0.448458
-1.077047	VPR w VID w NUN	-0.4593925
-0.4686469	VPR w VID w P	0
-2.006466	VPR w VID w P+NDG	0.3683195
-0.6262548	VPR w VID w T	1.38058
-1.705436	VPR w VID w VID	-0.673172
-1.608526	VPR w VID w VPR	1.060698
-1.041393	<s> w VIJ w NDN	0.543636
-0.6434527	<s> w VIJ w NUA	0
-1.041393	<s> w VIJ w NUN	1.27141
-0.5642715	<s> w VIJ w P	0
-0.5642715	<s> w VIJ w T	2.146876
-0.7269987	NDA w VIJ w NUA	-0.3144397
-0.90309	NDA w VIJ w NUN	1.27141
-0.90309	NDA w VIJ w P	0
-0.3590219	NDA w VIJ w T	1.774652
-0.6585413	NDG w VIJ w NDN	-0.8799965
-0.8346326	NDG w VIJ w NUA	0.556669
-1.135663	NDG w VIJ w NUN	0.2150697
-0.5336026	NDG w VIJ w P	0
-0.6585413	NDG w VIJ w T	1.592177
-0.6532125	NDN w VIJ w P	0
-0.3521825	NDN w VIJ w T	0.5832126
-1.286307	NUA w VIJ w NDA	0.0210501
-0.6173	NUA w VIJ w NUA	-0.1741217
-1.462398	NUA w VIJ w NUG	0.5180819
-0.6842467	NUA w VIJ w P	0
-0.4846744	NUA w VIJ w T	1.291147
-1.462398	NUA w VIJ w VIJ	1.480293
-0.4648868	NUG w VIJ w NUA	-0.07721162
-1.243038	NUG w VIJ w NUN	1.27141
-0.4648868	NUG w VIJ w P	0
-0.7659168	NUG w VIJ w T	2.146876
-0.5228788	NUN w VIJ w NUA	0.556669
-0.8239087	NUN w VIJ w P	0
-0.30103	NUN w VIJ w T	1.550784
-1	P w VIJ w NDA	1.07739
-0.5228788	P w VIJ w NUA	0.556669
-0.5228788	P w VIJ w P	0
-0.69897	P w VIJ w T	0.5832126
-0.1760913	SUP w VIJ w VIJ	1.480293
-2.724685	T w VIJ w EXP	0
-1.150654	T w VIJ w NDA	0
-1.362958	T w VIJ w NDN	0
-0.8525291	T w VIJ w NUA	0
-2.548594	T w VIJ w NUG	-0.538258
-1.081233	T w VIJ w NUN	0
-0.5558934	T w VIJ w P	0
-2.326745	T w VIJ w P+NDG	0.06694674
-2.548594	T w VIJ w P+NUG	-0.538258
-0.5588478	T w VIJ w T	0.1238294
-1.724685	T w VIJ w VID	0
-1.423655	T w VIJ w VIJ	0.1275789
-1.795267	T w VIJ w VIM	0.04575753
-2.247564	T w VIJ w VIS	0.4577895
-1.770443	T w VIJ w VPR	0
-1.255273	VIJ w VIJ w NDA	0.0210501
-1.255273	VIJ w VIJ w NDN	-0.5127039
-1.033424	VIJ w VIJ w NUA	0.3196915
-0.6184504	VIJ w VIJ w P	0
-0.3899711	VIJ w VIJ w T	1.230449
-1.130334	VIJ w VIJ w VIJ	-0.2686014
-0.8129134	VIM w VIJ w NDN	-1.205259
-0.7160034	VIM w VIJ w NUA	0.2238183
-0.5698753	VIM w VIJ w P	0
-0.7160034	VIM w VIJ w T	1.814025
-1.113943	VIM w VIJ w VIJ	1.480293
-0.6368221	VIS w VIJ w NDN	-0.5127039
-0.2688453	VIS w VIJ w NUA	0.6554635
-0.4259687	VPR w VIJ w P	0
-0.30103	VPR w VIJ w T	0.5832126
-0.9876662	<s> w VIM w NDA	-0.2982007
-1.841538	<s> w VIM w NDN	0.5974482
-0.9157842	<s> w VIM w NUA	-0.5583315
-1.456187	<s> w VIM w NUN	0.1597009
-0.673799	<s> w VIM w P	0
-2.385606	<s> w VIM w P+NDG	0.5180819
-2.084576	<s> w VIM w P+NUG	-0.8328727
-0.4485902	<s> w VIM w T	0.5221293
-1.732394	<s> w VIM w VID	-0.4648868
-2.209515	<s> w VIM w VIJ	0.1149545
-1.209515	<s> w VIM w VIM	0
-2.209515	<s> w VIM w VIS	-0.538258
-1.288696	<s> w VIM w VPR	0.3010299
-0.5247629	NDA w VIM w NDA	0.04764163
-1.108339	NDA w VIM w NUA	0.4343692
-0.5062795	NDA w VIM w P	0
-0.6560418	NDA w VIM w T	1.507406
-1.409369	NDA w VIM w VIM	1.145902
-1.029071	NDG w VIM w NDA	0
-1.297917	NDG w VIM w NDN	0.5974482
-0.8877423	NDG w VIM w NUA	0
-1.665894	NDG w VIM w NUN	0.09856415
-0.6115359	NDG w VIM w P	0
-1.665894	NDG w VIM w P+NUG	-0.1403179
-0.4270115	NDG w VIM w T	1.038403
-1.665894	NDG w VIM w VID	-0.7812961
-1.540955	NDG w VIM w VIM	-0.707934
-0.8962505	NDN w VIM w NDA	0.4551269
-1.498311	NDN w VIM w NDN	1.154904
-0.7201593	NDN w VIM w NUA	0.09857714
-1.498311	NDN w VIM w NUN
-0.7579479	NDN w VIM w P	0
-0.4983106	NDN w VIM w T	1.440459
-1.322219	NDN w VIM w VIM	-0.01537919
-1.197281	NDN w VIM w VPR	-0.2929608
-0.8361432	NUA w VIM w NDA	-0.03778851
-1.982271	NUA w VIM w NDN	1.154904
-0.80618	NUA w VIM w NUA	0
-1.50515	NUA w VIM w NUN	0.9696728
-0.5590253	NUA w VIM w P	0
-1.80618	NUA w VIM w P+NUG	-0.1403179
-0.5509075	NUA w VIM w T	1.022316
-1.584331	NUA w VIM w VIJ	0.6532124
-1.438203	NUA w VIM w VIM	0.4835048
-1.80618	NUA w VIM w VPR	0.3995941
-0.9350592	NUG w VIM w NDA	0.154097
-0.8101205	NUG w VIM w NUA	-0.1854196
-1.287242	NUG w VIM w NUN	0.4607309
-0.5568632	NUG w VIM w P	0
-0.5275739	NUG w VIM w T	1.090581
-1.236089	NUG w VIM w VIM	0.30103
-1.71321	NUG w VIM w VPR	0.3995941
-0.841203	NUN w VIM w NDA	0
-0.9313796	NUN w VIM w NUA	0.06639242
-1.568202	NUN w VIM w NUN	0.09856415
-0.6139592	NUN w VIM w P	0
-0.4542584	NUN w VIM w T	1.160619
-1.443263	NUN w VIM w VIJ	-0.5776004
-1.346353	NUN w VIM w VIM	0.5228788
-1.744293	NUN w VIM w VPR	1.455934
-0.7900504	P w VIM w NDA	0.2954261
-0.8692317	P w VIM w NUA	0
-1.39211	P w VIM w NUN	0.09856415
-0.6387828	P w VIM w P	0
-0.4712917	P w VIM w T	1.347705
-1.170262	P w VIM w VIM	0.5228788
-0.30103	P+NDG w VIM w NDA	1.1493
-0.39794	P+NUG w VIM w NUA	0.9524511
-0.9306337	T w VIM w NDA	0.06694674
-0.854913	T w VIM w NUA	0
-1.951823	T w VIM w NUN	1.154904
-0.5368497	T w VIM w P	0
-0.5716118	T w VIM w T	1.072483
-1.298611	T w VIM w VID	0
-1.951823	T w VIM w VIJ	1.171294
-1.21146	T w VIM w VIM	0.2596374
-1.407755	T w VIM w VPR	0.8984781
-1.217484	VID w VIM w NDN	1.154904
-0.7403627	VID w VIM w NUA	0.4343692
-0.5185139	VID w VIM w P	0
-0.4771213	VID w VIM w T	1.683497
-0.9777236	VIJ w VIM w NUA	0.9524511
-0.4336556	VIJ w VIM w P	0
-0.5797836	VIJ w VIM w T	1.984527
-0.9777236	VIJ w VIM w VIM
-1.023481	VIM w VIM w NDA	0.4551269
-0.7224511	VIM w VIM w NUA	-0.04275203
-0.5975124	VIM w VIM w P	0
-0.5153256	VIM w VIM w T	1.285557
-1.500602	VIM w VIM w VIJ	0.1149545
-1.074634	VIM w VIM w VIM	0.3467875
-0.69897	VIS w VIM w P	0
-0.2218488	VIS w VIM w T	2.317378
-0.845098	VPR w VIM w NDA	-0.03778851
-0.748188	VPR w VIM w NUA	0
-1.447158	VPR w VIM w NUN	1.068467
-0.5762527	VPR w VIM w P	0
-0.5846859	VPR w VIM w T	1.046675
-1.690196	VPR w VIM w VIJ	-0.5776004
-1.213075	VPR w VIM w VIM	0.1870867
-1.593286	VPR w VIM w VPR	0.937852
-1.10551	<s> w VIS w NDA	-1.071112
-0.8044802	<s> w VIS w NDN	0.6100289
-0.8624721	<s> w VIS w NUA	0.5859677
-0.7075702	<s> w VIS w P	0
-0.4065402	<s> w VIS w T	0.919576
-0.860338	NDA w VIS w NDA	-1.071112
-0.9852768	NDA w VIS w NDN	0.2478622
-1.161368	NDA w VIS w NUA
-1.161368	NDA w VIS w NUN	1.694173
-0.4210053	NDA w VIS w P	0
-0.6842467	NDA w VIS w T	1.796495
-1.290035	NDG w VIS w NDA	0
-1.414973	NDG w VIS w NDN	0.2478622
-0.6368221	NDG w VIS w NUA	0
-1.290035	NDG w VIS w NUN	-0.05472159
-0.5118834	NDG w VIS w P	0
-0.5303668	NDG w VIS w T	0.8615841
-1.130334	NDN w VIS w NDA	0.6777827
-0.8293038	NDN w VIS w NUA	-1.07649
-0.6532125	NDN w VIS w P	0
-0.2852357	NDN w VIS w T	1.095667
-1.09108	NUA w VIS w NDA	0.1597008
-1.568202	NUA w VIS w NDN	1.304202
-0.6139592	NUA w VIS w NUA	0
-1.568202	NUA w VIS w NUN	1.694173
-0.4712917	NUA w VIS w P	0
-0.5904781	NUA w VIS w T	0.9630417
-1.249198	NUG w VIS w NDA	-1.071112
-1.073107	NUG w VIS w NDN	1.118971
-0.7720771	NUG w VIS w NUA	-0.1467074
-1.152288	NUG w VIS w NUN	1.176091
-0.5959858	NUG w VIS w P	0
-0.529039	NUG w VIS w T	0.8993726
-1.550228	NUG w VIS w VIS	1.137871
-0.90309	NUN w VIS w NDN	0.2478622
-1.079181	NUN w VIS w NUA	0.6724044
-1.079181	NUN w VIS w NUN	1.694173
-0.3802112	NUN w VIS w P	0
-1.079181	NUN w VIS w T	1.981726
-0.9756407	P w VIS w NDA	-0.1035406
-0.8409421	P w VIS w NDN	0
-0.7382798	P w VIS w NUA	0
-1.318063	P w VIS w NUN	1.176091
-0.7160034	P w VIS w P	0
-0.5698753	P w VIS w T	0.7793972
-1.716003	P w VIS w VIS	1.137871
-2.573452	T w VIS w EXP	0
-1.294698	T w VIS w NDA	0
-1.054938	T w VIS w NDN	-0.2618034
-0.8025998	T w VIS w NUA	0
-1.075141	T w VIS w NUN	0.1480625
-0.5522625	T w VIS w P	0
-2.272422	T w VIS w P+NDG	-1.105874
-2.573452	T w VIS w P+NUG	0.4389006
-0.5911806	T w VIS w T	-0.04376197
-2.096331	T w VIS w VID	0.4577895
-1.920239	T w VIS w VIJ	0.1461281
-1.971392	T w VIS w VIM	0.08715016
-1.795301	T w VIS w VIS	0.3187588
-1.619209	T w VIS w VPR	0.1191864
-0.6368221	VID w VIS w NUA	-0.3839355
-0.8129134	VID w VIS w P	0
-0.5118834	VID w VIS w T	0.2328312
-0.243038	VIJ w VIS w P	0
-0.39794	VIM w VIS w VIS	1.137871
-0.9208187	VIS w VIS w NUA	0.7773455
-1.09691	VIS w VIS w NUN	1.694173
-0.4436975	VIS w VIS w P	0
-0.6197888	VIS w VIS w T	1.796495
-1.09691	VIS w VIS w VIJ	0.8860587
-1.09691	VIS w VIS w VIS	1.137871
-0.8920946	VPR w VIS w NDA	0
-1.290035	VPR w VIS w NDN	1.304202
-0.8920946	VPR w VIS w NUA	0.2501957
-0.5118834	VPR w VIS w P	0
-0.5118834	VPR w VIS w T	1.127852
-1.470596	<s> w VPR w NDA	0
-2.44832	<s> w VPR w NDG	-0.1894201
-0.9748328	<s> w VPR w NDN	0
-0.9431698	<s> w VPR w NUA	0
-2.44832	<s> w VPR w NUG	-0.862836
-0.8073417	<s> w VPR w NUN	-0.5496192
-0.7515267	<s> w VPR w P	0
-2.44832	<s> w VPR w P+NDG	0
-2.14729	<s> w VPR w P+NUG	0.4771212
-0.521463	<s> w VPR w T	0.3249154
-1.74935	<s> w VPR w VID	-1.005395
-1.506312	<s> w VPR w VIM	0.7381638
-1.35141	<s> w VPR w VPR	0
-1.029384	NDA w VPR w NDA	-0.1717699
-1.376171	NDA w VPR w NDN	0.1168138
-0.7283538	NDA w VPR w NUA	0
-1.485316	NDA w VPR w NUN	1.349387
-0.5380221	NDA w VPR w P	0
-0.5822257	NDA w VPR w T	1.106927
-1.184286	NDA w VPR w VPR	-0.002419591
-1.134336	NDG w VPR w NDA	0
-0.9347641	NDG w VPR w NDN	0
-0.7741851	NDG w VPR w NUA	0
-1.213518	NDG w VPR w NUN	0.3736743
-0.6337342	NDG w VPR w P	0
-0.5603052	NDG w VPR w T	0.8960738
-2.037426	NDG w VPR w VID	-0.999585
-1.736397	NDG w VPR w VIM	1.849166
-1.435367	NDG w VPR w VPR	0.05972838
-1.716003	NDN w VPR w NDA	-0.187149
-0.8709053	NDN w VPR w NDN	0
-0.6746107	NDN w VPR w NUA	0
-1.046997	NDN w VPR w NUN	0.5198022
-0.6249229	NDN w VPR w P	0
-0.6879746	NDN w VPR w T	1.336601
-1.494155	NDN w VPR w VID	-0.461327
-1.591065	NDN w VPR w VIM	0.2855022
-1.591065	NDN w VPR w VPR	-0.8352923
-1.424155	NUA w VPR w NDA	0
-1.202307	NUA w VPR w NDN	-0.374548
-0.7551486	NUA w VPR w NUA	0
-0.9981866	NUA w VPR w NUN	0.005697489
-0.5790573	NUA w VPR w P	0
-0.6002467	NUA w VPR w T	0.775934
-1.638035	NUA w VPR w VID	0
-1.725185	NUA w VPR w VIM	1.294466
-1.23227	NUA w VPR w VPR	0
-2.394452	NUG w VPR w EXP	0
-1.6163	NUG w VPR w NDA	0.01531684
-2.394452	NUG w VPR w NDG	1.559475
-1.042269	NUG w VPR w NDN	0
-0.7764036	NUG w VPR w NUA	0
-2.394452	NUG w VPR w NUG	0.8860587
-1.093422	NUG w VPR w NUN	0.08310974
-0.5587611	NUG w VPR w P	0
-2.21836	NUG w VPR w P+NUG	0.1149545
-0.5782104	NUG w VPR w T	0.7345412
-1.792392	NUG w VPR w VID	-0.2712305
-1.850384	NUG w VPR w VIM	1.476941
-1.353059	NUG w VPR w VPR	-0.168751
-1.581684	NUN w VPR w NDA	0.6839596
-0.9448621	NUN w VPR w NDN	0
-0.7916338	NUN w VPR w NUA	0
-0.9618955	NUN w VPR w NUN	0.2809201
-0.6274417	NUN w VPR w P	0
-0.5889835	NUN w VPR w T	1.076964
-1.757776	NUN w VPR w VID	-1.69214
-1.882714	NUN w VPR w VIM	0.978057
-1.245892	NUN w VPR w VPR	0.02754366
-1.991226	P w VPR w NDA
-0.8772827	P w VPR w NDN	-0.2981596
-0.9120448	P w VPR w NUA	0
-0.9498334	P w VPR w NUN	0.3341657
-0.6294982	P w VPR w P	0
-0.5288281	P w VPR w T	1.084263
-1.514105	P w VPR w VIM	1.849166
-1.447158	P w VPR w VPR	0.3561465
-0.8129134	P+NDG w VPR w P	0
-0.3357921	P+NDG w VPR w T	2.409815
-0.30103	P+NUG w VPR w NUA	-0.5507202
-0.39794	SUP w VPR w VIM	2.034397
-0.39794	SUP w VPR w VPR	0.9136024
-3.103633	T w VPR w EXP	0
-1.318303	T w VPR w NDA	0
-2.343965	T w VPR w NDG	0.4393327
-1.1113	T w VPR w NDN	0
-0.8643332	T w VPR w NUA	0
-2.501573	T w VPR w NUG	-0.05799198
-1.051516	T w VPR w NUN	0
-0.5841329	T w VPR w P	0
-2.75145	T w VPR w P+NDG	-0.2138798
-2.6643	T w VPR w P+NUG	0.3521825
-0.6627236	T w VPR w T	-0.1878538
-1.191145	T w VPR w VID	0
-2.802603	T w VPR w VIJ	0
-1.668266	T w VPR w VIM	0.2570398
-2.243295	T w VPR w VIS	0.1249387
-1.184555	T w VPR w VPR	0
-0.7911162	VID w VPR w NDN	0
-0.8782664	VID w VPR w NUA	-0.1885535
-0.9874108	VID w VPR w NUN	0.8783683
-0.60206	VID w VPR w P	0
-0.7185656	VID w VPR w T	1.708987
-1.230449	VID w VPR w VIM	0.2855022
-1.230449	VID w VPR w VPR	-0.8352923
-0.6532125	VIJ w VPR w NDN	-0.8921503
-0.30103	VIJ w VPR w P	0
-0.6532125	VIJ w VPR w T	0.8461511
-0.9378521	VIM w VPR w NDN	0.6715132
-1.017033	VIM w VPR w NUA	-0.0124622
-1.414973	VIM w VPR w NUN	1.435824
-0.6746107	VIM w VPR w P	0
-0.3180633	VIM w VPR w T	1.440142
-1.414973	VIM w VPR w VPR	0.9136024
-0.90309	VIS w VPR w NUA	-0.5507202
-0.90309	VIS w VPR w NUN	1.540765
-0.6812412	VIS w VPR w P	0
-0.4771213	VIS w VPR w T	1.900873
-1.079181	VIS w VPR w VPR	0.9136024
-1.15577	VPR w VPR w NDA	-0.4148078
-1.194688	VPR w VPR w NDG	0.30103
-1.222716	VPR w VPR w NDN	0
-0.8485794	VPR w VPR w NUA	0
-2.398808	VPR w VPR w NUG	0.8860587
-1.25268	VPR w VPR w NUN	0.2487355
-0.5926278	VPR w VPR w P	0
-0.6828044	VPR w VPR w T	0.833926
-1.658445	VPR w VPR w VID	0
-1.699838	VPR w VPR w VIM	1.253074
-2.000868	VPR w VPR w VIS	0.8239087
-1.056385	VPR w VPR w VPR	-0.4697809

\6-grams:
0	VID w NDA w EXP w	1.496849
0	P w NDG w EXP w	-0.5278423
0	VPR w NDN w EXP w
0	NDN w NUA w EXP w
0	T w NUA w EXP w	-0.6342447
0	VID w NUA w EXP w	-0.3995926
0	VPR w NUA w EXP w
0	NUN w NUG w EXP w	-0.3661039
0	P w NUG w EXP w	0.03203686
0	VID w P w EXP w
0	VPR w P w EXP w
0	NUA w T w EXP w	-0.04341987
0	T w VID w EXP w	-0.2048151
0	T w VIJ w EXP w	-0.2520456
0	T w VIS w EXP w
0	NUG w VPR w EXP w	-0.1497737
0	T w VPR w EXP w	-0.1247328
-0.34626	VID w EXP w NDA w	0.03122258
-0.34626	<s> w NDA w NDA w	-0.3688726
-1.314146	NDA w NDA w NDA </s>
-0.02159695	NDA w NDA w NDA w	-0.2293764
-0.1011852	NDG w NDA w NDA w	-0.1176321
-0.04139268	NDN w NDA w NDA w	-0.2508789
-0.07171739	NUA w NDA w NDA w	0.1122471
-0.07171739	NUG w NDA w NDA w	-0.1395648
-0.34626	NUN w NDA w NDA w
-1.218448	P w NDA w NDA </s>
-0.02709012	P w NDA w NDA w	-0.1212146
-0.60206	T w NDA w NDA </s>
-0.1249387	T w NDA w NDA w	-0.180921
-0.3579349	VID w NDA w NDA </s>
-0.2507249	VID w NDA w NDA w	-0.2790957
-0.07171739	VIJ w NDA w NDA w	-0.115258
-0.6052703	VIM w NDA w NDA </s>
-0.1238739	VIM w NDA w NDA w	-0.4564421
-0.3706413	VIS w NDA w NDA </s>
-0.2410503	VIS w NDA w NDA w
-0.8491904	VPR w NDA w NDA </s>
-0.06626847	VPR w NDA w NDA w	-0.02899623
-0.02148185	NDG w NDG w NDA w
-0.447158	NUA w NDG w NDA </s>
-0.1918855	NUA w NDG w NDA w	-0.03497699
-0.30103	NUN w NDG w NDA </s>
-0.30103	NUN w NDG w NDA w	-0.454123
-1.475	P w NDG w NDA </s>
-0.01479659	P w NDG w NDA w	0.07729572
-0.02227639	VPR w NDG w NDA w	-0.2352768
-0.34626	T w NDN w NDA w
-0.69897	VID w NDN w NDA </s>
-0.09691001	VID w NDN w NDA w	-0.1969119
-0.004275196	VIS w NDN w NDA w	-0.2274754
-0.01772877	VPR w NDN w NDA w	0.2292128
-0.05115252	NDA w NUA w NDA w	-0.2130388
-0.02148185	NDN w NUA w NDA w	-0.07056588
-0.34626	NUA w NUA w NDA w
-0.34626	P w NUA w NDA w
-0.1464206	T w NUA w NDA w
-0.1464206	VID w NUA w NDA w
-0.07918125	VPR w NUA w NDA w	0.05751275
-0.34626	NDG w NUG w NDA w
-0.004275196	NUA w NUG w NDA w	-0.3231527
-0.1464206	NUG w NUG w NDA w	-0.155894
-0.1191223	NUN w NUG w NDA </s>
-0.6199917	NUN w NUG w NDA w
-0.01296498	P w NUG w NDA w	0.08993405
-0.34626	VPR w NUG w NDA w
-0.34626	NUA w NUN w NDA w
-0.34626	NUG w NUN w NDA w
-0.004275196	T w NUN w NDA w	-0.3209713
-0.1464206	VID w NUN w NDA w	-0.1014424
-1.155856	VPR w NUN w NDA </s>
-0.03144529	VPR w NUN w NDA w	-0.1901672
-0.02148185	NDA w P w NDA w	-0.2042907
-0.07171739	NDN w P w NDA w	-0.04689534
-0.5223513	NUA w P w NDA </s>
-0.6199917	NUN w P w NDA </s>
-0.1191223	NUN w P w NDA w
-0.5223513	T w P w NDA w
-0.07171739	VID w P w NDA w	-0.1492634
-0.004275196	VIM w P w NDA w	-0.09226464
-0.1929209	VIS w P w NDA w	-0.4257365
-1.342702	VPR w P w NDA </s>
-0.02019009	VPR w P w NDA w	-0.2947767
-0.34626	<s> w P+NUG w NDA w
-0.006733383	<s> w T w NDA w	-0.02964103
-0.01189922	NDA w T w NDA w	-0.04179144
-0.00796893	NDG w T w NDA w	-0.07076657
-0.02020339	NDN w T w NDA w	-0.2472824
-1.22429	NUA w T w NDA </s>
-0.02671679	NUA w T w NDA w	0.2128347
-0.01072387	NUG w T w NDA w	-0.1114006
-0.01128101	NUN w T w NDA w	0.04377055
-0.01848341	P w T w NDA w	-0.001536727
-0.34626	P+NUG w T w NDA w	-0.3970717
-1.535204	T w T w NDA </s>
-0.0128526	T w T w NDA w	0.3288242
-0.01099538	VID w T w NDA w	0.1254582
-0.008773924	VIJ w T w NDA w	-0.1682599
-0.009545318	VIM w T w NDA w	0.04542375
-1.218448	VIS w T w NDA </s>
-0.02709012	VIS w T w NDA w	-0.002810389
-0.9714445	VPR w T w NDA </s>
-0.0490494	VPR w T w NDA w	0.1166924
-0.9457967	<s> w VID w NDA </s>
-0.05221988	<s> w VID w NDA w	-0.002811491
-0.4259687	NDA w VID w NDA </s>
-0.20412	NDA w VID w NDA w	-0.1546596
-0.01223446	NDG w VID w NDA w	-0.353813
-0.5864364	NDN w VID w NDA </s>
-0.1302741	NDN w VID w NDA w	-0.038203
-1.475	NUA w VID w NDA </s>
-0.01479659	NUA w VID w NDA w	0.3499793
-0.03218468	NUG w VID w NDA w	-0.06562611
-0.9946734	NUN w VID w NDA </s>
-0.04635339	NUN w VID w NDA w	-0.1789908
-0.30103	P w VID w NDA </s>
-0.30103	P w VID w NDA w	-0.09284228
-0.02148185	P+NDG w VID w NDA w
-0.6877376	T w VID w NDA </s>
-0.09976409	T w VID w NDA w	-0.2294847
-0.04575749	VID w VID w NDA w	-0.1518564
-0.34626	VIM w VID w NDA w
-1.405086	VPR w VID w NDA </s>
-0.01743354	VPR w VID w NDA w	0.1655643
-0.02148185	NUA w VIJ w NDA w
-0.34626	P w VIJ w NDA w
-1.27705	T w VIJ w NDA </s>
-0.02357596	T w VIJ w NDA w	0.01484656
-0.02148185	VIJ w VIJ w NDA w	-0.1132834
-0.008600172	<s> w VIM w NDA w	0.2066938
-0.01930515	NDA w VIM w NDA w	-0.007112563
-1.120817	NDG w VIM w NDA </s>
-0.03419419	NDG w VIM w NDA w	-0.05947012
-0.05115252	NDN w VIM w NDA w	-0.1985125
-0.01579427	NUA w VIM w NDA w	0.04010445
-0.02482358	NUG w VIM w NDA w	-0.02333522
-1.218448	NUN w VIM w NDA </s>
-0.02709012	NUN w VIM w NDA w	-0.3033946
-0.03476211	P w VIM w NDA w	0.2724455
-0.34626	P+NDG w VIM w NDA w
-0.02020339	T w VIM w NDA w	0.6249579
-0.05115252	VIM w VIM w NDA w	0.0003869385
-0.01579427	VPR w VIM w NDA w	0.04284394
-0.004275196	<s> w VIS w NDA w	-0.1238811
-0.004275196	NDA w VIS w NDA w	-0.05329999
-0.30103	NDG w VIS w NDA </s>
-0.30103	NDG w VIS w NDA w	-0.3892692
-0.34626	NDN w VIS w NDA w
-0.07918125	NUA w VIS w NDA w	-0.009575993
-0.004275196	NUG w VIS w NDA w	-0.4216196
-0.04139268	P w VIS w NDA w	-0.3888685
-1.122486	T w VIS w NDA </s>
-0.03405772	T w VIS w NDA w	-0.05019391
-0.6199917	VPR w VIS w NDA </s>
-0.1191223	VPR w VIS w NDA w
-0.9815508	<s> w VPR w NDA </s>
-0.04785664	<s> w VPR w NDA w	0.21628
-0.02227639	NDA w VPR w NDA w	0.2652861
-1.405086	NDG w VPR w NDA </s>
