
\data\
ngram 1=21
ngram 2=51
ngram 3=287
ngram 4=618

\1-grams:
-1.425703	</s>
-99	<s>	-99
-5.218935	>alan	-99
-3.201901	EXP	-99
-1.820647	NDA	-8.767385
-1.493922	NDG	-99
-1.751474	NDN	-8.759262
-1.376575	NUA	-7.912899
-1.379079	NUG	-99
-1.440421	NUN	-8.164829
-1.205971	P	-99
-3.009419	P+NDG	-7.949525
-2.876512	P+NUG	-99
-3.896715	SUP	-99
-0.9428635	T	-9.543437
-1.472145	VID	-99
-2.067258	VIJ	-99
-1.945702	VIM	-8.47299
-2.095083	VIS	-8.373621
-1.257608	VPR	-99
-0.3176396	w	-99

\2-grams:
0	<s> w	1.108236
0	>alan w
0	EXP w	-1.316091
-1.023539	NDA </s>
-0.0432191	NDA w	0.1597328
-0.7134423	NDG </s>
-0.09336606	NDG w	-0.07281041
-0.7972143	NDN </s>
-0.07546704	NDN w	0.1406825
-0.739583	NUA </s>
-0.08732364	NUA w	1.14641
-1.077927	NUG </s>
-0.03790275	NUG w	-0.2432508
-0.778513	NUN </s>
-0.07910893	NUN w	-0.1406078
0	P w	-0.6858256
-0.747117	P+NDG </s>
-0.08566337	P+NDG w	-0.6910498
-1.38818	P+NUG </s>
-0.01814022	P+NUG w	-0.6881785
0	SUP w	-0.9733561
-2.813673	T </s>
-0.0006674904	T w	0.6261492
-0.6335151	VID </s>
-0.1149404	VID w	-1.905583
-1.646526	VIJ </s>
-0.009913	VIJ w	-0.4516947
-1.660449	VIM </s>
-0.009596765	VIM w	-2.85986
-1.64673	VIS </s>
-0.009908289	VIS w	0.3967142
-1.73861	VPR </s>
-0.00800146	VPR w	-0.4111667
-4.901295	w >alan
-2.884261	w EXP	0
-1.503008	w NDA	0
-1.176282	w NDG	0
-1.433835	w NDN	0
-1.058935	w NUA	0
-1.06144	w NUG	0
-1.122782	w NUN	0
-0.8883311	w P	0
-2.69178	w P+NDG	0
-2.558872	w P+NUG	0
-3.579076	w SUP	0
-0.6252238	w T	0
-1.154505	w VID	0
-1.749619	w VIJ	0
-1.628062	w VIM	0
-1.777443	w VIS	0
-0.9399686	w VPR	0

\3-grams:
0	w EXP w	-0.07691491
-1.023539	w NDA </s>
-0.0432191	w NDA w	0.0438695
-0.7134423	w NDG </s>
-0.09336606	w NDG w	0
-0.7972143	w NDN </s>
-0.07546704	w NDN w	0.02617216
-0.739583	w NUA </s>
-0.08732364	w NUA w	0
-1.077927	w NUG </s>
-0.03790275	w NUG w	0
-0.778513	w NUN </s>
-0.07910893	w NUN w	0
0	w P w	-0.5462542
-0.747117	w P+NDG </s>
-0.08566338	w P+NDG w	0.02617109
-1.38818	w P+NUG </s>
-0.01814023	w P+NUG w	0.01664138
0	w SUP w	-0.1334841
-2.813673	w T </s>
-0.0006674905	w T w	0
-0.6335152	w VID </s>
-0.1149404	w VID w	0.01663947
-1.646526	w VIJ </s>
-0.009912999	w VIJ w	0.3910236
-1.660449	w VIM </s>
-0.009596766	w VIM w	0.284693
-1.64673	w VIS </s>
-0.009908289	w VIS w	0.04789948
-1.73861	w VPR </s>
-0.008001461	w VPR w	0.01664186
-2.514548	<s> w EXP	0
-2.346143	<s> w NDA	-0.4388591
-2.170052	<s> w NDG	-0.909807
-1.776268	<s> w NDN	0
-1.395361	<s> w NUA	-1.660091
-1.960792	<s> w NUG	-0.760922
-1.227454	<s> w NUN	-1.787335
-1.429689	<s> w P	0
-2.41309	<s> w P+NDG	0
-2.274787	<s> w P+NUG	-0.1432987
-3.31618	<s> w SUP	0
-0.3077219	<s> w T	-0.6720483
-1.311859	<s> w VID	-1.849359
-2.450879	<s> w VIJ	0.2847985
-1.10756	<s> w VIM	-1.026187
-2.085731	<s> w VIS	-0.06927288
-0.7433085	<s> w VPR	-1.31177
-1.283553	EXP w NDA	0.3245689
-0.5546353	EXP w NUA	0
-1.062791	EXP w P	0
-0.2536053	EXP w T	1.042821
-2.750037	NDA w EXP	0
-0.9386194	NDA w NDA	0
-2.507836	NDA w NDG	0
-2.012837	NDA w NDN	0
-0.9436402	NDA w NUA	0
-2.750037	NDA w NUG	0.3789571
-1.099987	NDA w NUN	0
-0.7917788	NDA w P	0
-2.276079	NDA w P+NDG	-0.3320642
-2.401017	NDA w P+NUG	0.3881801
-0.5727873	NDA w T	0.03048444
-1.088088	NDA w VID	0
-2.15114	NDA w VIJ	0.4160774
-1.40587	NDA w VIM	0
-1.878139	NDA w VIS	0.1696092
-1.020806	NDA w VPR	0
-2.853597	NDG w EXP	0
-1.768425	NDG w NDA	0
-0.889809	NDG w NDG	0
-1.636113	NDG w NDN	0
-0.9689903	NDG w NUA	0
-1.590355	NDG w NUG	0
-1.220128	NDG w NUN	0
-1.058877	NDG w P	0
-3.330718	NDG w P+NDG	0.2699957
-2.552567	NDG w P+NUG	0.2742368
-0.465318	NDG w T	-0.3527572
-1.181499	NDG w VID	0
-2.018964	NDG w VIJ	0.02327704
-1.488733	NDG w VIM	-0.485679
-1.734121	NDG w VIS	-0.2508967
-1.115874	NDG w VPR	-0.7772642
-2.78677	NDN w EXP	0
-1.636118	NDN w NDA	0
-2.78677	NDN w NDG	0.01447231
-0.8721651	NDN w NDN	0
-1.022777	NDN w NUA	0
-2.488903	NDN w NUG	0.1236846
-1.006387	NDN w NUN	0
-0.7301804	NDN w P	0
-2.488903	NDN w P+NDG	0
-2.27805	NDN w P+NUG	0.2742368
-0.5588459	NDN w T	0
-1.224676	NDN w VID	0
-2.437751	NDN w VIJ	0.6465263
-1.599601	NDN w VIM	-0.1388917
-1.97702	NDN w VIS	0.2153667
-1.13914	NDN w VPR	0
-2.340139	NUA w EXP	0
-2.223633	NUA w NDA	0
-1.072065	NUA w NDG	0
-1.916263	NUA w NDN	0
-0.7621171	NUA w NUA	0
-1.145518	NUA w NUG	0
-1.579021	NUA w NUN	0
-0.8106296	NUA w P	0
-2.675931	NUA w P+NDG	-0.3320642
-2.675931	NUA w P+NUG	0.3089989
-3.277991	NUA w SUP	0
-0.5752733	NUA w T	0
-1.279441	NUA w VID	0
-1.976961	NUA w VIJ	0
-1.467311	NUA w VIM	0
-1.874299	NUA w VIS	0
-1.066692	NUA w VPR	0
-2.802021	NUG w EXP	0
-2.077745	NUG w NDA	0
-0.9404863	NUG w NDG	0
-1.705111	NUG w NDN	0
-1.125327	NUG w NUA	0
-0.7477908	NUG w NUG	0
-1.212071	NUG w NUN	0
-1.007533	NUG w P	0
-2.760628	NUG w P+NDG	0
-2.760628	NUG w P+NUG	0.3467875
-0.5895668	NUG w T	-0.3987811
-1.223382	NUG w VID	0
-2.257953	NUG w VIJ	0.09022391
-1.597901	NUG w VIM	0
-1.944688	NUG w VIS	-0.210602
-1.09959	NUG w VPR	0
-3.398461	NUN w EXP	0
-2.252333	NUN w NDA	0
-0.9575518	NUN w NDG	0
-1.547202	NUN w NDN	0
-1.257011	NUN w NUA	0
-1.209532	NUN w NUG	0
-0.7385446	NUN w NUN	0
-0.7700719	NUN w P	0
-2.5234	NUN w P+NDG	0
-2.284518	NUN w P+NUG	-0.02679324
-0.5818881	NUN w T	-0.3039296
-1.434673	NUN w VID	0
-2.398461	NUN w VIJ	0.3243071
-1.631305	NUN w VIM	0
-2.301551	NUN w VIS	0.2487904
-1.332135	NUN w VPR	0
-3.109916	P w EXP	0
-2.004406	P w NDA	0
-0.575731	P w NDG	0
-1.94482	P w NDN	0
-1.334487	P w NUA	0
-0.3553764	P w NUG	0
-1.387693	P w NUN	0
-1.487961	P w P	0
-3.279525	P w P+NDG	-0.8091854
-3.234855	P w P+NUG	0
-1.016932	P w T	0
-1.817106	P w VID	0
-2.711976	P w VIJ	0.3243071
-2.143774	P w VIM	-0.2146124
-1.991817	P w VIS	-0.3744588
-1.70981	P w VPR	0
-0.8685791	P+NDG w NDG	0
-1.518628	P+NDG w NDN	0
-0.9477604	P+NDG w NUA	0
-1.009908	P+NDG w NUG	-0.03601623
-0.9197317	P+NDG w NUN	0
-1.123852	P+NDG w P	0
-1.518628	P+NDG w P+NUG	0.6892101
-0.6467304	P+NDG w T	1.322311
-1.518628	P+NDG w VID	-0.06545484
-1.518628	P+NDG w VIM	0.9614789
-1.009908	P+NDG w VPR	0.5924816
-1.849215	P+NUG w NDA	0.4214789
-0.8639379	P+NUG w NDG	0
-1.372093	P+NUG w NDN	-0.2027857
-1.284943	P+NUG w NUA	0
-0.6361398	P+NUG w NUG	0
-0.9283959	P+NUG w NUN	0
-1.326336	P+NUG w P	0
-2.025306	P+NUG w P+NDG	0.2699957
-0.7352713	P+NUG w T	1.211613
-1.122216	P+NUG w VID	0
-1.478912	P+NUG w VIM	0
-1.849215	P+NUG w VIS	1.04467
-1.423246	P+NUG w VPR	0
-0.845098	SUP w NUG	0.4758671
-0.3679768	SUP w VID	0
-1.021189	SUP w VIJ	1.169405
-0.5887384	SUP w VPR	0.1823072
-3.497275	T w EXP	0
-1.487966	T w NDA	0
-2.361613	T w NDG	0
-1.483736	T w NDN	0
-1.288655	T w NUA	0
-1.95528	T w NUG	0
-1.038134	T w NUN	0
-1.104872	T w P	0
-3.129298	T w P+NDG	0
-2.895215	T w P+NUG	0
-3.099335	T w SUP	0
-0.8198204	T w T	0
-0.7926958	T w VID	0
-1.237602	T w VIJ	0
-2.005913	T w VIM	0
-1.388936	T w VIS	0
-0.5633664	T w VPR	0
-2.784527	VID w EXP	0
-0.9835908	VID w NDA	0
-2.728861	VID w NDG	-0.2408002
-1.116077	VID w NDN	0
-0.8931703	VID w NUA	0
-2.353197	VID w NUG	-0.2231029
-1.279768	VID w NUN	0
-0.5367815	VID w P	0
-2.401502	VID w P+NDG	0
-2.309731	VID w P+NUG	0.04575741
-0.5615435	VID w T	-0.2571034
-1.518008	VID w VID	0
-2.113437	VID w VIM	0.12897
-2.485823	VID w VIS	0.5006024
-1.799442	VID w VPR	-0.1002394
-2.841047	VIJ w EXP	0
-1.202557	VIJ w NDA	0
-2.841047	VIJ w NDG	0.2363211
-1.296978	VIJ w NDN	0
-0.7976842	VIJ w NUA	0
-2.408596	VIJ w NUG	-0.4783753
-1.133476	VIJ w NUN	0
-0.5692049	VIJ w P	0
-2.363925	VIJ w P+NDG	-0.09798104
-2.408596	VIJ w P+NUG	-0.1681223
-0.5510119	VIJ w T	0.2214963
-1.761865	VIJ w VID	0
-1.409683	VIJ w VIJ	-0.09383631
-1.863323	VIJ w VIM	0.3594189
-2.294652	VIJ w VIS	0.7436404
-1.886804	VIJ w VPR	0.459856
-0.9002607	VIM w NDA	0
-1.865933	VIM w NDN	-0.6177591
-0.8472322	VIM w NUA	0
-2.786752	VIM w NUG	0.4758671
-1.547869	VIM w NUN	0
-0.6011149	VIM w P	0
-2.530392	VIM w P+NDG	-0.8091854
-2.117745	VIM w P+NUG	0.2120888
-0.5019448	VIM w T	0.0509944
-1.883661	VIM w VID	0
-1.848899	VIM w VIJ	0.2151626
-1.263873	VIM w VIM	0
-2.530392	VIM w VIS	0.09042799
-1.556303	VIM w VPR	0.02260637
-2.637156	VIS w EXP	0
-1.222183	VIS w NDA	0
-2.813247	VIS w NDG	0.2363211
-1.072885	VIS w NDN	0
-0.7838635	VIS w NUA	0
-2.813247	VIS w NUG	0.6008059
-1.164887	VIS w NUN	-1.17573
-0.5543707	VIS w P	0
-2.266853	VIS w P+NDG	-0.155973
-2.509054	VIS w P+NUG	0.6892101
-0.5714518	VIS w T	0
-2.266853	VIS w VID	-0.2695748
-2.000334	VIS w VIJ	0.5003983
-2.114277	VIS w VIM	0.6190562
-1.716337	VIS w VIS	0.2487904
-1.734066	VIS w VPR	0.3406696
-3.105949	VPR w EXP	0
-1.346992	VPR w NDA	0
-2.14046	VPR w NDG	-1.106102
-1.073131	VPR w NDN	0
-0.8492275	VPR w NUA	0
-2.506215	VPR w NUG	0
-1.027031	VPR w NUN	0
-0.6044843	VPR w P	0
-2.61095	VPR w P+NDG	0
-2.5384	VPR w P+NUG	-0.04318357
-0.6211366	VPR w T	0
-1.360087	VPR w VID	0
-3.050283	VPR w VIJ	0.6922838
-1.658907	VPR w VIM	-0.6340173
-2.362309	VPR w VIS	0.04467046
-1.223399	VPR w VPR	0

\4-grams:
0	<s> w EXP w
0	NDA w EXP w
0	NDG w EXP w
0	NDN w EXP w
0	NUA w EXP w
0	NUG w EXP w
0	NUN w EXP w
0	P w EXP w
0	T w EXP w
0	VID w EXP w
0	VIJ w EXP w
0	VIS w EXP w
0	VPR w EXP w
-0.01523997	<s> w NDA w
-0.09691001	EXP w NDA w
-0.7090703	NDA w NDA </s>
-0.09442122	NDA w NDA w
-0.9090804	NDG w NDA </s>
-0.05714288	NDG w NDA w
-0.9962614	NDN w NDA </s>
-0.04617488	NDN w NDA w
-0.9294189	NUA w NDA </s>
-0.05435766	NUA w NDA w
-0.9651345	NUG w NDA </s>
-0.04981003	NUG w NDA w
-0.9700368	NUN w NDA </s>
-0.04921802	NUN w NDA w
-1.10551	P w NDA </s>
-0.03547231	P w NDA w
-0.1249387	P+NUG w NDA w
-1.486431	T w NDA </s>
-0.01440578	T w NDA w
-0.750733	VID w NDA </s>
-0.08487892	VID w NDA w
-1.337459	VIJ w NDA </s>
-0.02044116	VIJ w NDA w
-1.409369	VIM w NDA </s>
-0.01725901	VIM w NDA w
-0.9378521	VIS w NDA </s>
-0.05324551	VIS w NDA w
-1.12926	VPR w NDA </s>
-0.03350976	VPR w NDA w
-0.01046543	<s> w NDG w
-0.5929166	NDA w NDG </s>
-0.1280298	NDA w NDG w
-0.6520339	NDG w NDG </s>
-0.1094818	NDG w NDG w
-0.09691001	NDN w NDG w
-0.8768671	NUA w NDG </s>
-0.06187076	NUA w NDG w
-0.6854432	NUG w NDG </s>
-0.1003586	NUG w NDG w
-0.479488	NUN w NDG </s>
-0.1749127	NUN w NDG w
-0.7596678	P w NDG </s>
-0.08297423	P w NDG w
-0.30103	P+NDG w NDG </s>
-0.30103	P+NDG w NDG w
-0.3484546	P+NUG w NDG </s>
-0.258278	P+NUG w NDG w
-1.135663	T w NDG </s>
-0.03300026	T w NDG w
-0.05115252	VID w NDG w
-0.1760913	VIJ w NDG w
-0.1760913	VIS w NDG w
-0.006630579	VPR w NDG w
-1.539912	<s> w NDN </s>
-0.01271196	<s> w NDN w
-0.7403627	NDA w NDN </s>
-0.08715017	NDA w NDN w
-0.916454	NDG w NDN </s>
-0.05611594	NDG w NDN w
-0.2792788	NDN w NDN </s>
-0.3239284	NDN w NDN w
-1.236789	NUA w NDN </s>
-0.02593573	NUA w NDN w
-1.251812	NUG w NDN </s>
-0.02502801	NUG w NDN w
-0.8970158	NUN w NDN </s>
-0.05886666	NUN w NDN w
-0.8640659	P w NDN </s>
-0.06386448	P w NDN w
-0.30103	P+NDG w NDN </s>
-0.30103	P+NDG w NDN w
-0.04575749	P+NUG w NDN w
-0.7053308	T w NDN </s>
-0.09533426	T w NDN w
-0.984395	VID w NDN </s>
-0.04752651	VID w NDN w
-0.8037053	VIJ w NDN </s>
-0.07424603	VIJ w NDN w
-0.01703334	VIM w NDN w
-1.564271	VIS w NDN </s>
-0.01200891	VIS w NDN w
-1.116814	VPR w NDN </s>
-0.03452376	VPR w NDN w
-0.001733713	<s> w NUA w
-0.860338	EXP w NUA </s>
-0.06445799	EXP w NUA w
-1.0894	NDA w NUA </s>
-0.03687136	NDA w NUA w
-0.5945719	NDG w NUA </s>
-0.1274637	NDG w NUA w
-0.9378521	NDN w NUA </s>
-0.05324551	NDN w NUA w
-0.4427668	NUA w NUA </s>
-0.1943444	NUA w NUA w
-0.6197888	NUG w NUA </s>
-0.1191864	NUG w NUA w
-0.6866049	NUN w NUA </s>
-0.1000571	NUN w NUA w
-0.7700334	P w NUA </s>
-0.0808232	P w NUA w
-0.2218487	P+NDG w NUA </s>
-0.39794	P+NDG w NUA w
-0.7403627	P+NUG w NUA </s>
-0.08715017	P+NUG w NUA w
-0.8344834	T w NUA </s>
-0.0687414	T w NUA w
-0.9829057	VID w NUA </s>
-0.04769907	VID w NUA w
-1.00197	VIJ w NUA </s>
-0.04553919	VIJ w NUA w
-1.21252	VIM w NUA </s>
-0.02747442	VIM w NUA w
-0.9324737	VIS w NUA </s>
-0.05395197	VIS w NUA w
-0.7656891	VPR w NUA </s>
-0.08171718	VPR w NUA w
-0.006340178	<s> w NUG w
-0.09691001	NDA w NUG w
-1.278754	NDG w NUG </s>
-0.0234811	NDG w NUG w
-0.05115252	NDN w NUG w
-1.162436	NUA w NUG </s>
-0.0309552	NUA w NUG w
-0.5814735	NUG w NUG </s>
-0.1320236	NUG w NUG w
-0.9584796	NUN w NUG </s>
-0.05062578	NUN w NUG w
-1.381168	P w NUG </s>
-0.01844187	P w NUG w
-0.03476211	P+NDG w NUG w
-0.7871061	P+NUG w NUG </s>
-0.07741223	P+NUG w NUG w
-0.1249387	SUP w NUG w
-1.174018	T w NUG </s>
-0.03011167	T w NUG w
-0.02227639	VID w NUG w
-0.01223446	VIJ w NUG w
-0.1249387	VIM w NUG w
-0.1760913	VIS w NUG w
-1.146128	VPR w NUG </s>
-0.03218468	VPR w NUG w
-0.001181754	<s> w NUN w
-1.352183	NDA w NUN </s>
-0.01974406	NDA w NUN w
-0.9064697	NDG w NUN </s>
-0.05751127	NDG w NUN w
-2.084576	NDN w NUN </s>
-0.003589232	NDN w NUN w
-0.9719713	NUA w NUN </s>
-0.04898646	NUA w NUN w
-0.4861459	NUG w NUN </s>
-0.1716483	NUG w NUN w
-0.3305183	NUN w NUN </s>
-0.2734172	NUN w NUN w
-0.7740541	P w NUN </s>
-0.08000534	P w NUN w
-0.7269987	P+NDG w NUN </s>
-0.09017663	P+NDG w NUN w
-0.79588	P+NUG w NUN </s>
-0.07572071	P+NUG w NUN w
-0.8376186	T w NUN </s>
-0.06820598	T w NUN w
-0.79588	VID w NUN </s>
-0.07572071	VID w NUN w
-1.531479	VIJ w NUN </s>
-0.01296498	VIJ w NUN w
-1.414973	VIM w NUN </s>
-0.01703334	VIM w NUN w
-0.004852503	VIS w NUN w
-1.695894	VPR w NUN </s>
-0.008836937	VPR w NUN w
0	<s> w P w
0	EXP w P w
0	NDA w P w
0	NDG w P w
0	NDN w P w
0	NUA w P w
0	NUG w P w
0	NUN w P w
0	P w P w
0	P+NDG w P w
0	P+NUG w P w
0	T w P w
0	VID w P w
0	VIJ w P w
0	VIM w P w
0	VIS w P w
0	VPR w P w
-0.90309	<s> w P+NDG </s>
-0.05799195	<s> w P+NDG w
-0.03778856	NDA w P+NDG w
-0.1760913	NDG w P+NDG w
-0.4690034	NDN w P+NDG </s>
-0.1802078	NDN w P+NDG w
-0.03778856	NUA w P+NDG w
-0.7403627	NUG w P+NDG </s>
-0.08715017	NUG w P+NDG w
-0.2218487	NUN w P+NDG </s>
-0.39794	NUN w P+NDG w
-0.01223446	P w P+NDG w
-0.1760913	P+NUG w P+NDG w
-0.845098	T w P+NDG </s>
-0.06694679	T w P+NDG w
-0.6283889	VID w P+NDG </s>
-0.1165056	VID w P+NDG w
-0.06694679	VIJ w P+NDG w
-0.01223446	VIM w P+NDG w
-0.05799195	VIS w P+NDG w
-0.7403627	VPR w P+NDG </s>
-0.08715017	VPR w P+NDG w
-0.01296498	<s> w P+NUG w
-0.04575749	NDA w P+NUG w
-0.03476211	NDG w P+NUG w
-0.03476211	NDN w P+NUG w
-0.03778856	NUA w P+NUG w
-0.04139268	NUG w P+NUG w
-0.01703334	NUN w P+NUG w
-0.4771213	P w P+NUG </s>
-0.1760913	P w P+NUG w
-0.09691001	P+NDG w P+NUG w
-0.90309	T w P+NUG </s>
-0.05799195	T w P+NUG w
-0.02020339	VID w P+NUG w
-0.01223446	VIJ w P+NUG w
-0.02996322	VIM w P+NUG w
-0.09691001	VIS w P+NUG w
-0.01639042	VPR w P+NUG w
0	<s> w SUP w
0	NUA w SUP w
0	T w SUP w
-0.0001419495	<s> w T w
-0.007424018	EXP w T w
-0.0007160669	NDA w T w
-0.0002961435	NDG w T w
-2.532117	NDN w T </s>
-0.001277338	NDN w T w
-2.702718	NUA w T </s>
-0.0008619808	NUA w T w
-0.0002663566	NUG w T w
-0.000331396	NUN w T w
-2.518952	P w T </s>
-0.00131671	P w T w
-0.01424044	P+NDG w T w
-0.01099538	P+NUG w T w
-2.341663	T w T </s>
-0.001982039	T w T w
-0.0003691411	VID w T w
-0.00111215	VIJ w T w
-0.0007507253	VIM w T w
-2.241795	VIS w T </s>
-0.002495953	VIS w T w
-2.855115	VPR w T </s>
-0.000606698	VPR w T w
-0.001430955	<s> w VID w
-1.503207	NDA w VID </s>
-0.01385111	NDA w VID w
-1.088521	NDG w VID </s>
-0.03694935	NDG w VID w
-1.690196	NDN w VID </s>
-0.008954842	NDN w VID w
-0.9985499	NUA w VID </s>
-0.04591891	NUA w VID w
-0.4202767	NUG w VID </s>
-0.2075713	NUG w VID w
-0.9637879	NUN w VID </s>
-0.04997397	NUN w VID w
-0.3266679	P w VID </s>
-0.2768216	P w VID w
-0.09691001	P+NDG w VID w
-0.20412	P+NUG w VID </s>
-0.4259687	P+NUG w VID w
-0.6532125	SUP w VID </s>
-0.1091445	SUP w VID w
-0.5911933	T w VID </s>
-0.1286223	T w VID w
-1.335792	VID w VID </s>
-0.02052167	VID w VID w
-0.6291182	VIJ w VID </s>
-0.1162814	VIJ w VID w
-0.5351132	VIM w VID </s>
-0.1497623	VIM w VID w
-0.05799195	VIS w VID w
-0.3168243	VPR w VID </s>
-0.28579	VPR w VID w
-0.01930515	<s> w VIJ w
-0.02632894	NDA w VIJ w
-0.01046543	NDG w VIJ w
-0.04575749	NDN w VIJ w
-1.477121	NUA w VIJ </s>
-0.01472325	NUA w VIJ w
-0.01223446	NUG w VIJ w
-0.0211893	NUN w VIJ w
-0.0211893	P w VIJ w
-0.1760913	SUP w VIJ w
-1.560704	T w VIJ </s>
-0.01210937	T w VIJ w
-0.00796893	VIJ w VIJ w
-0.01639042	VIM w VIJ w
-0.03218468	VIS w VIJ w
-0.05115252	VPR w VIJ w
-0.0008945307	<s> w VIM w
-0.8702087	NDA w VIM </s>
-0.06289928	NDA w VIM w
-0.003113235	NDG w VIM w
-0.00694886	NDN w VIM w
-1.81068	NUA w VIM </s>
-0.006768364	NUA w VIM w
-1.440459	NUG w VIM </s>
-0.01604437	NUG w VIM w
-1.290035	NUN w VIM </s>
-0.02286288	NUN w VIM w
-0.005829544	P w VIM w
-0.09691001	P+NDG w VIM w
-0.5929166	P+NUG w VIM </s>
-0.1280298	P+NUG w VIM w
-1.424415	T w VIM </s>
-0.01665992	T w VIM w
-0.01296498	VID w VIM w
-0.02227639	VIJ w VIM w
-1.237687	VIM w VIM </s>
-0.02588052	VIM w VIM w
-0.04139268	VIS w VIM w
-0.002210155	VPR w VIM w
-0.008433168	<s> w VIS w
-0.01472326	NDA w VIS w
-0.005532489	NDG w VIS w
-0.01639042	NDN w VIS w
-1.579784	NUA w VIS </s>
-0.01158187	NUA w VIS w
-0.006074148	NUG w VIS w
-0.01772877	NUN w VIS w
-0.00415596	P w VIS w
-0.1249387	P+NUG w VIS w
-1.564271	T w VIS </s>
-0.01200891	T w VIS w
-0.03218468	VID w VIS w
-0.05799195	VIJ w VIS w
-0.01223446	VIM w VIS w
-0.01772877	VIS w VIS w
-0.01099538	VPR w VIS w
-0.0003868993	<s> w VPR w
-2.033424	NDA w VPR </s>
-0.004039978	NDA w VPR w
-0.001326091	NDG w VPR w
-0.8911252	NDN w VPR </s>
-0.05972843	NDN w VPR w
-1.68842	NUA w VPR </s>
-0.008991925	NUA w VPR w
-1.799341	NUG w VPR </s>
-0.006948859	NUG w VPR w
-1.765296	NUN w VPR </s>
-0.007520438	NUN w VPR w
-1.539076	P w VPR </s>
-0.01273682	P w VPR w
-0.03218468	P+NDG w VPR w
-0.60206	P+NUG w VPR </s>
-0.1249387	P+NUG w VPR w
-0.01223446	SUP w VPR w
-1.831246	T w VPR </s>
-0.00645298	T w VPR w
-0.006340178	VID w VPR w
-0.0234811	VIJ w VPR w
-0.008433168	VIM w VPR w
-0.01772877	VIS w VPR w
-1.173672	VPR w VPR </s>
-0.03013656	VPR w VPR w
-1.251117	w EXP w NDA
-0.5546353	w EXP w NUA
-1.062791	w EXP w P
-0.2536053	w EXP w T
-2.7532	w NDA w EXP
-0.9386194	w NDA w NDA
-2.510162	w NDA w NDG
-2.012837	w NDA w NDN
-0.9436402	w NDA w NUA
-2.7532	w NDA w NUG
-1.099987	w NDA w NUN
-0.7917788	w NDA w P
-2.276079	w NDA w P+NDG
-2.401017	w NDA w P+NUG
-0.5727873	w NDA w T
-1.088088	w NDA w VID
-2.15114	w NDA w VIJ
-1.40587	w NDA w VIM
-1.878139	w NDA w VIS
-1.020806	w NDA w VPR
-2.853597	w NDG w EXP
-1.768425	w NDG w NDA
-0.889809	w NDG w NDG
-1.636113	w NDG w NDN
-0.9689903	w NDG w NUA
-1.590355	w NDG w NUG
-1.220128	w NDG w NUN
-1.058877	w NDG w P
-3.330718	w NDG w P+NDG
-2.552567	w NDG w P+NUG
-0.465318	w NDG w T
-1.181499	w NDG w VID
-2.018964	w NDG w VIJ
-1.488733	w NDG w VIM
-1.734121	w NDG w VIS
-1.115874	w NDG w VPR
-2.789933	w NDN w EXP
-1.636118	w NDN w NDA
-2.789933	w NDN w NDG
-0.8721651	w NDN w NDN
-1.022777	w NDN w NUA
-2.488903	w NDN w NUG
-1.006387	w NDN w NUN
-0.7301804	w NDN w P
-2.488903	w NDN w P+NDG
-2.27805	w NDN w P+NUG
-0.5588459	w NDN w T
-1.224676	w NDN w VID
-2.437751	w NDN w VIJ
-1.599601	w NDN w VIM
-1.97702	w NDN w VIS
-1.13914	w NDN w VPR
-2.340139	w NUA w EXP
-2.223633	w NUA w NDA
-1.072065	w NUA w NDG
-1.916263	w NUA w NDN
-0.7621171	w NUA w NUA
-1.145518	w NUA w NUG
-1.579021	w NUA w NUN
-0.8106296	w NUA w P
-2.675931	w NUA w P+NDG
-2.675931	w NUA w P+NUG
-3.277991	w NUA w SUP
-0.5752733	w NUA w T
-1.279441	w NUA w VID
-1.976961	w NUA w VIJ
-1.467311	w NUA w VIM
-1.874299	w NUA w VIS
-1.066692	w NUA w VPR
-2.802021	w NUG w EXP
-2.077745	w NUG w NDA
-0.9404863	w NUG w NDG
-1.705111	w NUG w NDN
-1.125327	w NUG w NUA
-0.7477908	w NUG w NUG
-1.212071	w NUG w NUN
-1.007533	w NUG w P
-2.760628	w NUG w P+NDG
-2.760628	w NUG w P+NUG
-0.5895668	w NUG w T
-1.223382	w NUG w VID
-2.257953	w NUG w VIJ
-1.597901	w NUG w VIM
-1.944688	w NUG w VIS
-1.09959	w NUG w VPR
-3.398461	w NUN w EXP
-2.252333	w NUN w NDA
-0.9575518	w NUN w NDG
-1.547202	w NUN w NDN
-1.257011	w NUN w NUA
-1.209532	w NUN w NUG
-0.7385446	w NUN w NUN
-0.7700719	w NUN w P
-2.5234	w NUN w P+NDG
-2.284518	w NUN w P+NUG
-0.5818881	w NUN w T
-1.434673	w NUN w VID
-2.398461	w NUN w VIJ
-1.631305	w NUN w VIM
-2.301551	w NUN w VIS
-1.332135	w NUN w VPR
-3.109916	w P w EXP
-2.004406	w P w NDA
-0.575731	w P w NDG
-1.94482	w P w NDN
-1.334487	w P w NUA
-0.3553764	w P w NUG
-1.387693	w P w NUN
-1.487961	w P w P
-3.247089	w P w P+NDG
-3.234855	w P w P+NUG
-1.016932	w P w T
-1.817106	w P w VID
-2.711976	w P w VIJ
-2.143774	w P w VIM
-1.991817	w P w VIS
-1.70981	w P w VPR
-0.8685791	w P+NDG w NDG
-1.521792	w P+NDG w NDN
-0.9477604	w P+NDG w NUA
-1.009908	w P+NDG w NUG
-0.9197317	w P+NDG w NUN
-1.123852	w P+NDG w P
-1.521792	w P+NDG w P+NUG
-0.6467304	w P+NDG w T
-1.521792	w P+NDG w VID
-1.521792	w P+NDG w VIM
-1.009908	w P+NDG w VPR
-1.849215	w P+NUG w NDA
-0.8639379	w P+NUG w NDG
-1.372093	w P+NUG w NDN
-1.284943	w P+NUG w NUA
-0.6361398	w P+NUG w NUG
-0.9283959	w P+NUG w NUN
-1.326336	w P+NUG w P
-2.025306	w P+NUG w P+NDG
-0.7352713	w P+NUG w T
-1.122216	w P+NUG w VID
-1.481238	w P+NUG w VIM
-1.849215	w P+NUG w VIS
-1.423246	w P+NUG w VPR
-0.845098	w SUP w NUG
-0.3679768	w SUP w VID
-1.021189	w SUP w VIJ
-0.5563025	w SUP w VPR
-3.497275	w T w EXP
-1.487966	w T w NDA
-2.361613	w T w NDG
-1.483736	w T w NDN
-1.288655	w T w NUA
-1.95528	w T w NUG
-1.038134	w T w NUN
-1.104872	w T w P
-3.129298	w T w P+NDG
-2.895215	w T w P+NUG
-3.099335	w T w SUP
-0.8198204	w T w T
-0.7926958	w T w VID
-1.237602	w T w VIJ
-2.005913	w T w VIM
-1.388936	w T w VIS
-0.5633664	w T w VPR
-2.786853	w VID w EXP
-0.9835908	w VID w NDA
-2.728861	w VID w NDG
-1.116077	w VID w NDN
-0.8931703	w VID w NUA
-2.353197	w VID w NUG
-1.279768	w VID w NUN
-0.5367815	w VID w P
-2.401502	w VID w P+NDG
-2.309731	w VID w P+NUG
-0.5615435	w VID w T
-1.518008	w VID w VID
-2.113437	w VID w VIM
-2.485823	w VID w VIS
-1.799442	w VID w VPR
-2.841359	w VIJ w EXP
-1.20287	w VIJ w NDA
-2.841359	w VIJ w NDG
-1.297291	w VIJ w NDN
-0.7979972	w VIJ w NUA
-2.376473	w VIJ w NUG
-1.133789	w VIJ w NUN
-0.5695179	w VIJ w P
-2.364238	w VIJ w P+NDG
-2.376473	w VIJ w P+NUG
-0.5513248	w VIJ w T
-1.762178	w VIJ w VID
-1.409996	w VIJ w VIJ
-1.863636	w VIJ w VIM
-2.297292	w VIJ w VIS
-1.887117	w VIJ w VPR
-0.9004972	w VIM w NDA
-1.866169	w VIM w NDN
-0.8474687	w VIM w NUA
-2.786988	w VIM w NUG
-1.548106	w VIM w NUN
-0.6013513	w VIM w P
-2.498192	w VIM w P+NDG
-2.117981	w VIM w P+NUG
-0.5021813	w VIM w T
-1.883898	w VIM w VID
-1.849136	w VIM w VIJ
-1.264109	w VIM w VIM
-2.498192	w VIM w VIS
-1.556539	w VIM w VPR
-2.637156	w VIS w EXP
-1.222183	w VIS w NDA
-2.813247	w VIS w NDG
-1.072885	w VIS w NDN
-0.7838635	w VIS w NUA
-2.813247	w VIS w NUG
-1.164887	w VIS w NUN
-0.5543707	w VIS w P
-2.269179	w VIS w P+NDG
-2.512217	w VIS w P+NUG
-0.5714518	w VIS w T
-2.269179	w VIS w VID
-2.000334	w VIS w VIJ
-2.114277	w VIS w VIM
-1.716337	w VIS w VIS
-1.734066	w VIS w VPR
-3.108275	w VPR w EXP
-1.346992	w VPR w NDA
-2.14046	w VPR w NDG
-1.073131	w VPR w NDN
-0.8492275	w VPR w NUA
-2.506215	w VPR w NUG
-1.027031	w VPR w NUN
-0.6044843	w VPR w P
-2.61095	w VPR w P+NDG
-2.5384	w VPR w P+NUG
-0.6211366	w VPR w T
-1.360087	w VPR w VID
-3.050283	w VPR w VIJ
-1.658907	w VPR w VIM
-2.362309	w VPR w VIS
-1.223399	w VPR w VPR

\end\
