
\data\
ngram 1=21

\1-grams:
-1.425703	</s>
-99	<s>
-5.218935	>alan
-3.201901	EXP
-1.820647	NDA
-1.493922	NDG
-1.751474	NDN
-1.376575	NUA
-1.379079	NUG
-1.440421	NUN
-1.205971	P
-3.009419	P+NDG
-2.876512	P+NUG
-3.896715	SUP
-0.9428635	T
-1.472145	VID
-2.067258	VIJ
-1.945702	VIM
-2.095083	VIS
-1.257608	VPR
-0.3176396	w

\end\
